#pragma once
#define W_DENSE_KERNEL {{-0.072463095,0.04062803,0.008989107,-0.057933945,-0.025995582,-0.11671239,0.13291457,0.058629047,-0.0938593,0.047404554,0.06960155,0.22098438,-0.14700975,-0.025891779,0.22887523,0.20738722,0.120286345,0.14757319,0.025584167,-0.10434557,-0.07495671,0.021156175,0.1146466,-0.16534188,0.01133472,-0.17632541,0.08604869,-0.21839957,0.20486201,-0.09295309,0.09716842,-0.017780378,-0.109850585,-0.00070618984,0.22851765,0.11241758,0.014525835,-0.05057964,-0.09626138,0.0026661274,-0.2453334,-0.11351078,0.057308316,0.07893365,0.1236345,0.24991652,-0.022604609,-0.029189104,0.024112636,-0.1538138,-0.031070039,-0.05601237,-0.16745752,0.11751426,0.1711084,0.17714736,0.13104399,-0.015821908,-0.057793975,0.017394893,0.1572096,0.06694207,-0.059618726,-0.009198495,0.18197308,0.008119181,-0.12257472,-0.20268042,0.14935707,0.1295827,0.020596659,0.013298638,-0.011174559,-0.010450747,0.069321945,0.013725348,0.05158456,-0.029527975,-0.13006167,-0.21643022,0.10907144,-0.032785997,0.079243116,0.10739977,-0.05404513,0.08132682,0.07409007,0.044487104,0.23366159,-0.09298885,-0.16269942,0.118669674,-0.18847401,-0.037281968,0.19904865,-0.112390414,-0.08481356,0.027523821,0.07825243,-0.10222264,0.15353431,0.14326636,-0.198321,-0.17786469,-0.10956955,-0.20332496,0.23524377,0.01457428,-0.052367397,-0.05368705,0.11853362,0.029770114,0.0031823432,-0.057493426,0.12548274,0.19418286,-0.0059171254,-0.034389514,0.04211874,-0.06495202,-0.0842928,0.048965994,0.17566046,-0.3125187,0.10454282,-0.025991013,0.14102407,-0.08726067}, {0.04979796,-0.049110737,0.068637446,-0.052769404,-0.1115979,0.13961257,0.0027124828,0.13702086,-0.06762661,-0.13792895,-0.08805731,-0.08026664,0.26602423,-0.075136386,-0.083705805,0.13928768,0.020740092,-0.15410994,-0.12511587,-0.060171276,-0.048132144,-0.08460093,-0.06933889,0.025636144,0.17149577,-0.101102725,0.08461001,-0.059279412,-0.06638392,0.13084336,-0.13522378,0.022658035,-0.092554726,0.0021996535,-0.15102355,-0.24991976,0.048555546,0.055049963,-0.18063423,-0.06093211,0.13304125,-0.15953372,-0.058324456,0.03933745,-0.15110946,0.020275,0.04800555,-0.05348713,-0.18688878,0.07585356,-0.10487677,0.14617977,-0.08088855,-0.059682157,0.1089616,0.0592152,0.013177641,-0.028822793,-0.084116004,-0.015501402,0.103908956,0.12067299,0.16116768,-0.18322816,-0.08266453,-0.0547876,-0.124617405,0.087483115,0.041116823,-0.08964324,-0.06057065,0.15764935,-0.017782308,-0.03263582,0.008575158,0.25571695,0.0036620444,-0.058561742,-0.051907904,0.17500803,0.031297322,-0.16171472,-0.096054755,0.16468501,-0.17072876,-0.04464241,0.01813212,-0.112947084,-0.073371485,0.1236084,-0.038409892,0.078773275,0.12829009,-0.005257528,-0.12373107,-0.09160096,-0.106306784,0.11260742,-0.12610716,-0.09662214,0.1787788,-0.090720944,-0.08614389,0.035201166,0.14403819,-0.08531781,0.011380808,0.04531789,0.20401405,-0.13311769,-0.21304415,0.034736488,0.06947881,-0.108875565,-0.21386145,0.107920565,-0.07967699,-0.092343256,-0.062236745,0.05194671,0.17535347,-0.087410346,0.072052345,-0.050016742,0.24995682,-0.18269223,0.024938213,0.02582559}, {0.15741439,0.028183341,0.13774747,0.13586901,0.09025707,-0.055708256,-0.021764254,0.12698416,-0.050182197,-0.10949961,-0.026134498,0.039422244,-0.06574969,-0.031279832,-0.009831832,0.07481741,0.07891182,-0.050639663,0.029011814,0.08285588,0.17254755,-0.006880113,0.1367974,-0.16754013,0.116201706,0.05132113,-0.02014035,-0.22086959,-0.046584666,-0.15458672,-0.0068909195,0.11821533,-0.17791423,0.19507068,0.03993173,0.073065594,0.10294313,-0.07652662,-0.0047344626,-0.023482563,0.023311777,-0.025949044,0.015092311,-0.046402354,0.1802497,-0.15830489,-0.112289764,-0.013990506,-0.1108311,-0.069411136,0.08767217,0.06845029,-0.07925595,0.041237105,0.0050778096,0.12396141,0.017909098,-0.026030667,-0.07119846,-0.1909174,-0.038540825,0.007890562,-0.028023679,-0.15151174,0.0353396,-0.036118157,-0.002824442,-0.12868012,0.0856542,-0.16136764,-0.119295776,-0.21931174,0.00056289684,-0.07013428,0.046014257,-0.04256493,0.016533358,-0.09168386,0.07320518,-0.21205586,0.14854519,-0.073622905,0.06480823,0.1386565,0.1221153,-0.00025715903,-0.08075028,0.032773733,0.089856654,0.13547258,-0.16218582,0.09664667,-0.07439265,0.084160015,0.048050378,0.14512193,-0.04305658,0.1352482,0.06920934,0.1349448,0.030361129,0.14575039,0.0720266,-0.0083965035,0.03325933,-0.07482898,0.15141073,-0.05043764,-0.15909347,-0.030057566,0.14452061,0.0004601477,0.18104641,0.00980415,0.023320053,-0.13151614,-0.07842177,0.12470862,-0.03981674,-0.10631646,-0.21484861,-0.0197929,0.10856276,0.08248809,-0.13259156,0.086493604,0.10683751,0.064308226}, {-0.23159894,-0.036170382,0.17990133,0.25433162,0.11749189,-0.12729383,-0.04363288,-0.045115475,-0.06421137,0.103592925,-0.26048312,-0.05871603,-0.00210348,-0.09322399,-0.003627972,0.13276625,0.17856614,0.09654528,0.013469016,-0.17958127,-0.05397075,-0.15438959,0.15986954,-0.026873045,-0.05016033,0.09931234,-0.077677,-0.19703957,-0.17177944,0.017734837,0.06128211,0.1693834,-0.12073457,0.16666897,0.098636575,0.15910073,-0.0968878,-0.027889272,0.022926118,0.18832055,0.041828834,-0.028649626,-0.04136854,-0.06952177,0.15132731,0.09193244,-0.015152605,0.06237165,-0.14213243,0.11005554,0.013053933,0.16124967,0.06853643,-0.0520264,-0.029526724,-0.21925184,0.09007554,0.11772671,0.13674992,0.095180765,0.14527251,0.029715374,-0.0103097055,0.032201044,-0.00513227,0.14288622,-0.24133778,-0.20291239,-0.14514524,-0.15813455,-0.18524814,0.046351925,0.31494057,-0.004785625,0.048608582,0.008964811,-0.22429706,0.09208639,-0.19536152,-0.118543096,0.16412999,0.26400557,-0.0403882,-0.05786608,-0.058017917,-0.068919845,0.08494735,-0.10132966,0.07621254,-0.052477002,-0.08022361,-0.01902863,0.064839154,0.07312879,0.02073257,-0.0024703175,0.11995041,-0.08032268,-0.14915909,-0.10425949,0.06926567,0.06146825,0.15969972,0.06514247,0.035733,0.13451713,0.045631904,0.034380306,0.0008208953,-0.11295484,0.25021964,0.14612088,-0.18119961,-0.17272697,0.124416016,0.022269508,0.07969159,-0.17849016,-0.21771167,-0.25837433,-0.11119592,-0.0013284413,-0.095552504,-0.06489307,0.089150846,-0.041363847,-0.14481924,0.07396633}, {-0.108830474,-0.029882815,-0.08149542,0.0180413,0.07416764,0.098350726,0.012983655,-0.11704135,-0.12199172,0.0006991747,-0.12460772,-0.013005071,-0.05357146,0.06511399,0.09993054,0.05737633,0.08182197,0.044848863,-0.0480796,0.04705615,-0.06275318,-0.08590723,0.0882753,-0.1138996,-0.14908655,0.021096794,0.0306463,0.074701786,0.0042290203,0.082498305,0.044413388,0.13064541,-0.3153617,0.018446557,-0.071379915,-0.04871628,0.005550829,0.11060731,0.026885929,0.1805465,-0.05689223,-0.16693632,0.07432386,0.058342967,-0.005518955,-0.15357684,-0.012672875,-0.16258557,0.014218609,0.025252229,-0.10620314,0.16148144,0.19056779,-0.19742595,0.052590914,-0.17759721,0.12781325,0.04998936,0.054799654,0.013242601,-0.17440838,-0.19877107,-0.25503495,-0.044742122,0.01937259,0.10063894,-0.020082453,0.0789498,-0.069038995,0.025925051,-0.05056149,0.047570862,0.096973635,-0.06053368,-0.23841062,-0.011127394,0.012398658,-0.29764083,-0.19468416,-0.011393924,-0.012263449,0.14883995,0.06369229,-0.2343875,-0.13613988,-0.09022417,-0.19072998,-0.11383328,-0.085160375,-0.29815304,0.009681315,0.02379987,0.15574545,0.06782919,-0.022954615,-0.06279541,-0.061968923,-0.14234985,-0.104288585,-0.13392144,-0.10494715,-0.033024754,0.18698844,-0.07369202,0.10233743,-0.008065006,-0.13519508,-0.16681899,-0.043308225,-0.27459955,0.08423241,-0.06382267,-0.06670394,-0.14406456,-0.06739347,-0.29726374,-0.007589574,-0.13821743,-0.061442476,-0.17144413,-0.045822464,-0.039348755,-0.13732293,-0.017557133,-0.09125189,-0.045050897,0.054477453,0.08232233}, {0.0031384255,-0.11793384,-0.08913365,-0.06481844,0.0504437,-0.038918808,-0.1295182,-0.10942837,-0.08749856,-0.011978349,0.09998253,0.11399841,0.010623435,-0.0893103,-0.06682423,0.0998139,-0.005856023,-0.11495815,-0.24746415,0.06477333,0.009293147,-0.10960738,-0.02345727,-0.06478502,-0.055776685,-0.03997587,-0.08423016,-0.08059891,-0.092977956,0.099637344,-0.008068804,-0.0007879257,-0.05180911,-0.08200076,0.011919184,-0.005264399,-0.18077762,-0.14070503,0.014108412,-0.16048023,-0.06273931,0.13288172,-0.00846686,-0.08719787,0.14703263,0.15376511,-0.019527245,-0.09070578,-0.015570977,-0.008268179,0.05044964,-0.0137611795,0.088234976,-0.13080725,-0.11910503,-0.1112208,0.16966806,-0.11703243,-0.095056705,-0.12060102,0.08517456,-0.12816449,-0.04063925,-0.053919706,0.11780467,0.10563886,0.068905994,-0.071558915,-0.16323285,0.0012522604,0.06456933,-0.035773356,-0.08333263,0.003896804,0.2258851,0.03840806,0.0970209,0.0049284203,-0.106662184,-0.099870525,0.0926294,-0.19364776,-0.1684144,-0.0438769,0.06554529,0.12015475,-0.06380756,0.022880355,-0.06362823,0.049511123,0.09640812,0.079557315,0.07600273,-0.05479962,0.07601058,-0.08927917,-0.069254175,0.08306572,0.07297927,-0.110457435,-0.10438704,0.09248245,0.14264284,0.072780006,-0.14009064,-0.07541021,0.037167158,-0.007178536,-0.034357715,0.0007618468,0.10152556,-0.1811151,-0.11550797,0.21713954,0.017806148,0.27245957,0.063313186,0.16333587,0.19493319,0.18527758,0.06137807,0.013025249,0.15138577,-0.06393516,0.005854631,0.0577075,-0.13998905,-0.06335326}, {-0.11449197,-0.20931041,-0.24457338,-0.08278532,0.058641225,0.118506625,-0.08196872,0.074542485,0.036678422,-0.0072648744,0.11271868,0.05946008,-0.029970704,-0.062464677,-0.17960592,0.01350004,-0.08908614,-0.018251054,-0.06582209,0.19082439,-0.096858025,-0.05291016,-0.10556471,-0.08535715,0.031162325,-0.0020632492,0.01939507,0.04218711,-0.16188073,-0.016746975,-0.04551162,-0.023378948,-0.09607646,0.060515307,-0.041175254,0.023557844,0.01603881,0.1530916,-0.1423012,-0.17203984,-0.13367796,0.088961974,0.011420665,-0.052784376,0.20951036,-0.056027018,0.010145926,-0.12209576,-0.1160526,-0.07523249,-0.018390844,0.015247276,0.17819834,-0.069495775,0.21459094,-0.088114314,-0.026178168,-0.029295959,-0.013238384,0.13247691,-0.0620837,-0.1784581,-0.1256183,-0.050631575,0.11262316,0.114406385,-0.050074223,-0.06837495,0.029822525,0.20684382,-0.11291946,0.15383634,0.03199786,-0.19981384,-0.082179695,0.12334497,0.22765449,0.06995395,0.20054838,0.124432474,0.0068744384,-0.17987682,0.0032605706,-0.2511114,-0.1397384,0.010391422,-0.017904177,0.11006006,-0.068089016,0.09255371,0.002557897,0.11279181,0.19384457,0.22975537,0.13667563,0.00856218,0.13534108,0.09190433,-0.07170431,0.017075818,-0.0013317398,-0.051937424,0.13570355,0.059162162,0.07986157,0.070550784,-0.072440095,0.07302207,0.0046898024,-0.14429629,-0.12867787,-0.060415853,-0.028949501,-0.09863303,-0.091671795,0.06797168,0.0782426,-0.047562804,0.13177638,0.1956972,-0.119246,0.16680372,-0.074747086,0.06526778,0.08342127,0.044893738,0.014226615,-0.042086534}, {0.14802258,0.028399548,-0.20742553,0.1414118,0.09247515,0.032474604,0.20701961,0.11669705,0.0012253657,-0.030110242,-0.018706845,0.0077604125,0.0478916,0.056844283,-0.1305704,0.113142855,-0.26670626,-0.13322316,0.026861178,0.15926078,0.09395247,-0.10415401,-0.2109223,-0.19509847,0.1701069,0.10509134,0.07505769,0.21042787,-0.061178397,0.16812384,-0.022165436,0.23015514,0.2034722,-0.10478419,-0.13447879,-0.13905406,0.1347093,0.1720055,0.15257041,-0.13006245,-0.15958363,0.09997468,0.06326354,0.002362561,-0.01637933,-0.040686615,0.15978646,0.0011018433,0.089086816,0.10355115,0.03761608,-0.1547374,0.117922194,0.10918362,-0.028940871,-0.034045625,-0.036717143,0.0157615,0.09659242,-0.18914494,0.059416316,0.2089591,0.10216845,0.08454358,-0.14141548,0.18463324,-0.036849026,-0.013310789,-0.024601541,-0.14033526,0.024039539,-0.04383849,0.22249301,0.20548934,0.017579854,0.09519871,-0.13818622,0.015535591,-0.18760319,0.06948715,0.14357677,0.026180029,-0.22110726,0.011688058,0.10865626,0.17350157,-0.024022715,-0.08463861,-0.08413345,0.11408064,0.20875978,-0.09439761,0.06591629,0.022553202,-0.14965455,0.12705164,-0.09537454,0.027845418,0.20899075,-0.005842081,0.080126114,-0.024627948,-0.015155149,0.2491241,-0.04596377,0.09741482,-0.2770892,0.04112641,0.10463672,-0.060889635,0.14771022,-0.15287073,-0.17998305,0.12055927,0.04210759,-0.09521511,-0.02307558,-0.03882221,0.04768394,0.09660752,0.089409895,-0.13628036,0.0032482943,0.075388014,0.07610107,0.2649196,0.011419214,-0.014500111}, {-0.06433573,-0.0117743015,-0.075328216,-0.08451002,-0.08347773,0.15241791,0.08351974,0.12694857,-0.1530493,-0.033424832,-0.04701274,0.16168767,0.002949279,-0.026150877,-0.012810626,-0.007694587,-0.096621744,0.1270439,0.12751326,0.02550539,-0.031925827,-0.16749331,0.14678353,-0.19490536,0.17250527,0.021952251,-0.021191176,-0.012651526,-0.13223088,0.14533079,-0.050968233,0.13032572,-0.013802357,0.030905558,0.06875762,0.14448197,-0.0012305977,0.11987563,-0.07763723,0.053710632,-0.075950734,0.051749814,-0.103721395,1.634867e-05,0.1293897,0.13684931,-0.08667698,0.020198192,0.010092661,0.1751139,0.12592162,0.05578979,0.18545248,-0.0447256,-0.091662675,-0.03360442,-0.18911861,0.07382513,0.22755238,-0.18682264,-0.0075819683,-0.0619889,0.017925495,-0.005217349,-0.08588392,0.005595275,-0.20800115,-0.085477754,-0.15894142,0.07936742,-0.09861293,0.09871138,-0.016404903,0.177903,-0.009363855,0.14783314,-0.07031328,-0.027234718,-0.02956161,-0.10879685,-0.09101587,0.21167819,-0.08095747,-0.026775368,0.10247743,-0.15470165,0.044020087,-0.06335468,0.08099062,-0.05034929,-0.12721992,-0.1767026,-0.04190784,-0.024178857,-0.12821442,-0.06676914,-0.055012558,0.047891486,0.15202442,-0.09960859,-0.09157956,-0.17101495,-0.097274534,-0.043984033,0.10161589,-0.00044720224,0.017115664,-0.14499691,-0.034101766,-0.16484718,-0.029891629,0.016657405,0.045470577,0.0061806766,0.14135303,0.01703276,-0.11628006,0.11377112,-0.11739535,0.121905275,0.025383852,0.15734628,-0.018098004,-0.017452354,0.04454677,-0.03753971,-0.076779276,-0.17016943}, {0.018883063,0.048385445,0.028961835,0.0122193275,0.12346597,-0.026983099,-0.036848985,-0.19352938,-0.1147079,0.07760624,0.025303092,-0.096344985,-0.079748005,-0.10846044,0.08158443,-0.08875472,-0.06789157,0.022397373,0.043222986,0.12910275,0.0643406,-0.03517902,0.072782226,-0.05261317,0.022030383,-0.01959095,-0.15648896,0.044100568,0.053498026,-0.05873213,-0.23599537,-0.06424767,-0.026490958,0.1401824,-0.16761532,0.058718633,0.009384851,-0.10730428,0.15371184,0.18645814,0.08827941,0.13122578,-0.07286947,-0.13700883,-0.027084345,0.11029204,-0.13669431,-0.05942424,-0.11305868,0.042118695,0.0116621,-0.060810547,-0.11301059,-0.12357811,0.17464545,-0.14481062,-0.15716024,0.066068664,0.15686572,0.10353211,0.21767469,-0.15032744,-0.07942879,-0.13881904,-0.035771094,0.014818186,-0.12744975,-0.118709095,-0.13952956,0.05219997,0.084717385,-0.027488695,-0.09759367,0.04973758,-0.06630266,-0.10241231,-0.049792793,0.08103419,0.014983703,0.20837092,-0.22742541,0.00077907776,-0.20589054,0.01924633,-0.03564702,0.07269209,-0.038313817,0.0329842,0.064229764,-0.008393155,-0.099150926,-0.15458944,-0.12722345,0.21226338,0.037537515,-0.028624004,0.20651785,-0.029174848,0.12427037,0.12872036,0.08112796,-0.1147144,0.001687873,0.060996518,0.1033533,0.09967061,0.10223301,-0.13467345,-0.07212084,-0.056000505,-0.027336033,-0.10534117,0.04118388,-0.093632616,-0.09062531,-0.054494217,-0.18626302,0.046783697,-0.155637,0.11965835,0.05601489,0.19778757,0.030089105,-0.002770902,0.04036537,0.18213081,0.22633727,-0.0942238}, {0.06926349,-0.048646636,0.13532208,0.045997985,-0.08879024,-0.0941408,0.21780384,0.03788607,0.016872112,-0.05687997,-0.087747775,0.05384858,0.12330524,0.05989032,-0.07004768,-0.07684484,-0.04862292,-0.2297172,0.12163447,-0.08847748,-0.19486472,-0.103768006,-0.083758004,-0.018463355,0.0596618,-0.1568098,-0.07493911,0.078280985,-0.05862019,0.0076761767,0.09687632,-0.00517581,-0.035316817,-0.015177251,0.14091751,0.026550082,-0.0828144,0.07401594,-0.12271679,0.1219977,-0.20892556,-0.025256284,0.06761327,-0.07882881,0.065381594,-0.04711573,0.024848932,-0.029587062,0.060378816,-0.10284417,0.13623255,0.1071593,0.00046314934,-0.045162033,-0.13847925,0.10293744,-0.15352888,0.05462908,0.26277822,-0.109671354,-0.0178168,-0.18971317,-0.03908301,-0.12081313,0.010612268,0.14898974,0.025279853,0.09385456,0.11394575,-0.0985957,-0.19714217,-0.0153586725,0.08315236,-0.027763596,-0.060037058,-0.08989111,-0.037224658,0.13748227,-0.072782785,-0.04935542,0.18297604,0.21093735,0.0699843,0.1700737,0.17224148,0.0609484,0.0818191,-0.08468182,0.11029452,0.043569382,-0.02805859,0.16205183,0.030351408,0.18011162,-0.07060343,0.10698216,0.14250901,0.051727206,-0.08245454,-0.047924675,0.08132185,-0.07290365,-0.0022178544,0.003666057,-0.1525009,0.030012269,0.013029989,-0.042002376,-0.09946931,-0.109592706,0.031841822,0.25475982,-0.1508558,0.12635846,-0.06562531,0.06708446,-0.11078273,-0.08070138,0.03328441,-0.08393654,0.02982003,0.17226687,-0.19664448,0.0011591576,-0.06574314,0.020936498,0.060450822,-0.20219736}, {0.012339888,-0.03801153,0.044289183,0.100229844,-0.032401543,-0.10351175,0.0040846597,0.016482832,-0.17336988,0.0635842,-0.21481381,0.0056705577,-0.13796492,-0.00911526,-0.072764404,0.16193451,-0.060258377,0.073881835,0.19980447,-0.13604592,0.010981548,-0.12404497,-0.08690109,-0.01980952,0.18627498,0.022631481,-0.020704309,-0.038841307,-0.10399536,-0.037622914,0.105447106,0.14692613,0.018124975,-0.1460801,0.0089780865,0.15028194,0.04889399,-0.101528816,-0.009293916,0.09210312,-0.16238552,-0.043148693,-0.0010236856,-0.16606992,-0.076954946,-0.09755251,0.07477572,-0.047524262,0.22227047,0.13611557,0.07566849,-0.03798919,-0.002516312,-0.024513956,0.07874187,-0.0100343125,0.07682631,-0.06710661,0.13543786,-0.08874658,-0.05193733,-0.015797284,0.076471336,0.06049134,-0.14686607,0.11954556,0.15222842,0.08967162,-0.088101834,-0.19327438,0.037625533,0.18258691,-0.03557117,0.09674238,0.04483382,-0.019384047,-0.17541839,0.18984315,-0.10442118,0.10012451,0.2743829,0.19114982,-0.096184365,0.036848906,0.06652784,-0.096653275,-0.020287046,-0.058663305,0.02860745,-0.13141419,-0.08863061,0.025871752,-0.1580156,-0.060571738,-0.09570784,-0.08752176,0.06757311,-0.0046691485,-0.18174037,-0.033369068,-0.18724252,-0.07295702,-0.061103713,-0.030595986,0.058687765,-0.1164437,0.047974817,0.117687255,0.07070917,-0.19383182,0.19453083,0.0030617462,-0.23400095,0.031878494,0.09981124,-0.1720707,0.16597149,-0.093339436,0.15542923,-0.05195625,0.11378732,0.08328993,-0.16430286,0.16533446,0.22676747,-0.00060225074,0.046281207,-0.025323616}, {-0.005589718,-0.12356713,0.06211655,-0.12956253,0.08160627,-0.0086555295,0.016115107,-0.12686689,-0.049826313,-0.17924793,0.12272968,-0.035951782,0.14147902,-0.06030298,-0.05553839,0.11654991,0.14213246,-0.060059715,0.013146259,0.05682543,0.017935902,0.15357114,0.019364594,0.038401503,0.10803847,0.08312311,-0.119799666,-0.038738824,-0.040977247,-0.0057111504,0.04625459,0.04414181,-0.109421626,-0.09443984,0.02976048,-0.044717126,0.14611124,-0.1072394,0.027235366,0.12290305,0.15721509,-0.14071009,-0.07453805,0.029066447,-0.01652432,-0.15706202,-0.042336024,-0.056474753,-0.18192501,0.07198438,0.03202074,-0.13322139,-0.04285129,0.0047787973,0.019074593,-0.07165386,-0.18479511,-0.15937787,0.016933145,-0.2002542,0.12605575,0.091718785,0.21363088,-0.069536686,0.1189017,-0.0551237,-0.12650573,-0.019820765,-0.021346593,-0.076378666,0.04436409,0.028025996,-0.021626787,0.07267593,0.028162574,0.12047485,-0.04437837,0.085825555,-0.08328661,-0.052816343,0.14043903,-0.01877822,-0.15854149,-0.16912237,0.11099729,0.17246768,-0.12300161,0.013088401,-0.09304301,0.13038723,0.10863576,0.17487013,-0.14306578,0.07085329,0.100280166,0.06646919,0.08937923,-0.047244713,0.113486454,-0.044863913,-0.0537994,0.057200998,-0.014648812,-0.04157755,0.15664697,0.05498333,-0.03426503,0.034212843,-0.017977832,0.1337395,-0.120086424,0.036589485,0.21721831,-0.1217102,-0.03630669,-0.104686856,0.05202011,0.11568283,-0.14944051,-0.16874142,0.00014995477,0.11586923,0.01472342,-0.10199542,0.14907426,-0.14395203,0.114874534,0.12418813}, {0.16913709,-0.06279405,-0.15990262,0.05058713,0.04742281,-0.120897844,0.19068716,0.24709205,-0.057649367,-0.023598485,0.027423223,-0.14057632,0.17384043,0.027914973,-0.19553614,-0.021437604,-0.025219187,-0.15253574,-0.09176516,0.029348582,0.088960275,0.024919743,-0.13768171,0.14760745,0.17176044,0.04864024,-0.050338693,0.13850749,0.0504774,0.13487172,0.15425742,0.25313953,0.08391805,0.023441928,-0.012867804,0.034661416,-0.024210952,-0.022743043,0.16447665,-0.12157684,0.03878676,0.08608439,0.059682053,0.13522983,-0.17095706,-0.029778179,0.05843763,0.13578755,0.13229246,0.14604723,0.069195375,-0.15781973,0.17414978,0.044869028,0.004274052,-0.13741398,-0.040728174,0.21802771,-0.029641785,-0.049316414,-0.04061197,-0.019271556,0.14369889,0.09348633,0.100555785,-0.041001968,0.09021407,-0.06706607,-0.14984743,-0.18358986,-0.010041448,0.012105278,0.11574268,0.14889356,-0.0018441199,-0.04535853,-0.12668562,0.15832959,-0.101513304,-0.14515518,0.089261316,-0.058066007,-0.013874149,0.14795126,-0.004444291,0.018058455,0.06300352,0.03505549,-0.051941473,0.049252525,0.15035278,-0.16579665,-0.15530239,0.016944679,-0.07341114,-0.03274459,0.0340303,-0.15396148,-0.044678215,-0.11147615,-0.096357115,0.03772454,-0.07100775,0.012120474,0.11418424,0.022459516,-0.028195206,0.09347428,0.11731626,-0.15849824,-0.03089317,-0.14404935,-0.14044668,0.043009717,0.010434434,0.16989054,0.07475265,0.005706075,0.020049417,0.05725613,-0.1600711,0.01666402,-0.1410238,-0.111205384,0.11451508,0.033743326,-0.12694032,0.0962459}, {-0.075689115,-0.18146695,0.12916496,-0.060447,0.14286053,-0.111263685,-0.071237706,0.17051512,-0.03515303,0.08904322,-0.12124074,-0.029943667,0.0627077,-0.005617971,-0.22003622,-0.024457384,0.0033916726,-0.007380019,-0.066625886,-0.0138756735,0.067685574,0.0010581063,0.2578142,-0.0001751318,-0.09910529,-0.010503428,-0.14004728,0.027860556,-0.15319757,0.07060671,0.11151612,-0.05345833,0.05729912,0.09132629,-0.17048137,-0.022910113,-0.10665059,0.10724343,0.13948594,-0.02700657,0.08996955,0.17947403,0.042703416,-0.1771409,-0.022895694,0.093888275,-0.00499022,0.024888014,0.10573014,0.20122308,0.039377972,-0.1212886,0.17516387,0.07806213,-0.1377992,-0.23388205,-0.08194882,0.033633716,0.044650592,-0.17290165,0.051502325,0.05947376,0.10287657,-0.1038233,-0.1957347,-0.09957939,0.019358806,-0.1036436,-0.21119937,-0.2084704,-0.06254947,0.15353067,0.070209704,0.0633594,-0.14759147,0.066815145,-0.2805182,0.05396251,-0.166771,0.12627468,0.055082787,-0.0838308,-0.13334164,-0.08043523,0.12292772,-0.20553252,-0.10253082,-0.070109755,-0.04517913,0.10534819,0.15155643,-0.13417153,-0.07723798,0.06829823,-0.110992104,-0.15580101,-0.03852479,-0.17040397,0.11231343,-0.1350203,-0.22035767,-0.021351866,0.11698692,-0.08977048,-0.088503264,0.20101327,-0.08579753,-0.17961904,0.054039147,0.025392395,0.072074465,-0.15358135,-0.22015691,0.14256085,0.14351837,0.043914016,0.07398031,-0.045006018,0.116125554,0.112342834,0.08630082,-0.11442694,-0.12700123,0.026547834,-0.15322584,0.15828387,-0.06613243,0.049819555}, {-0.22709143,-0.10895836,-0.069249615,-0.13132149,0.007159004,-0.07969829,-0.08081411,0.043497037,0.013847913,0.05414268,-0.057415318,-0.0003063573,0.001387385,-0.072241455,0.0015452424,-0.040838413,0.08040854,0.1028779,-0.06668565,-0.03912189,-0.03194718,0.107663624,0.056741923,0.0032973364,-0.13141498,0.14258426,0.06759499,-0.068790875,0.008956786,-0.021176204,0.07811114,-0.08223983,0.028676886,-0.062187947,0.06423407,0.16775644,-0.08089422,-0.09299714,-0.2115296,-0.16806507,0.17877139,-0.013305566,-0.09077656,-0.050372742,-0.0014852246,0.14649151,-0.05927673,-0.09246304,-0.14205205,0.04229511,0.11174459,0.070763454,-0.13621522,-0.005776453,-0.14870572,0.17341441,0.034687586,0.07114676,-0.17773893,-0.041980453,-0.025323525,-0.026403572,-0.033406984,0.086607374,-0.059709456,-0.07857162,0.082275406,-0.16289662,-0.08100112,0.17259528,0.09364624,-0.08578977,-0.24311231,0.0925879,0.036345437,0.12891035,0.13456678,-0.19249889,-0.08960212,-0.2226444,-0.09338998,-0.091881014,-0.023516053,-0.005527231,-0.018840834,0.0010931881,-0.024344122,0.05216762,0.15220958,-0.10662938,-0.16010219,-0.049527906,0.038710516,-0.12195345,-0.004240892,-0.031462107,0.0007833676,-0.075485215,-0.16271861,0.03905584,0.022664117,0.1520569,-0.21224383,-0.031596053,-0.004402511,0.07395148,-0.10047446,0.038382996,0.076045655,-0.025838848,-0.20733804,0.08827328,0.08446531,-0.030367455,-0.034270108,0.16308661,0.1552964,0.06622089,-0.08890451,0.05149861,-0.06818398,0.052053057,0.23889868,-0.1053956,-0.12504452,0.056531463,0.14864081,-0.053398382}, {-0.0332708,0.037197568,-0.26159358,-0.13036168,-0.09476214,0.17709012,0.06922247,-0.07722123,-0.08808732,-0.016314056,-0.0824988,-0.22813274,-0.18233956,0.13160843,-0.024922399,0.12561889,0.034907825,0.07875209,-0.10914572,0.2145191,-0.039679606,-0.046813805,-0.07496079,-0.072707616,-0.06929908,0.020628124,0.1406844,-0.018240089,0.10181408,-0.017214514,0.12910637,-0.0279904,-0.13824916,0.004816907,-0.12759043,-0.2188981,0.15915357,-0.016176159,0.03147987,-0.1047122,0.047115915,0.21633412,0.05498053,-0.0058025024,-0.09046012,-0.15049475,0.1253536,-0.10680034,0.025494514,0.08280356,-0.13326517,-0.10156458,0.15345106,-0.018561302,-0.0262256,0.18601722,-0.028155891,-0.02325525,-0.025358813,0.10415921,-0.19988537,-0.21724676,-0.069565654,0.07951435,0.13299881,-0.12783016,-0.062545404,-0.12171397,0.11474103,-0.12567624,-0.09415048,-0.14725928,-0.13641076,0.06898382,-0.13631433,-0.089875184,-0.097922295,0.08363442,-0.028364332,0.05565348,0.11242014,0.032238234,-0.009609738,-0.2046313,-0.010166252,0.07096762,-0.0037239566,0.13307984,-0.06737467,-0.07077358,0.024182305,0.11129001,-0.080434375,0.041701533,-0.08927287,0.025398029,-0.1208972,-0.224981,0.10668391,0.12195873,-0.05357872,-0.070598625,0.13289545,0.115861125,0.12565142,0.098023005,-0.022573413,-0.050995544,0.026373375,-0.060188536,0.048441783,0.15459526,0.11100475,0.04270585,-0.12101901,-0.18535304,-0.081483066,0.07072548,0.11328092,-0.16758817,0.09699615,0.0533656,0.03343781,0.08525817,0.0065632304,0.08110398,0.046901923,0.072720386}, {-0.0026649996,-0.13010553,-0.19421658,0.03738165,0.054978773,0.025094306,0.008735651,0.15604916,-0.09648879,-0.028249446,-0.09323085,0.11057793,0.07585925,-0.035176065,0.052594773,-0.083651744,-0.15861021,0.096270025,0.029711213,-0.112918824,0.013485774,-0.11357696,-0.051562868,-0.15100963,-0.0026626643,-0.030666096,-0.048328478,-0.073770925,-0.10623047,-0.09022233,0.16761807,-0.06341062,-0.03293373,-0.102010116,-0.19227444,0.1372788,-0.06554014,-0.14172599,0.07828489,-0.30901763,0.07903388,0.15458092,0.046181064,0.075786695,-0.059302114,0.09665044,0.13792947,-0.044007495,0.14916965,0.08330913,-0.14226502,-0.23383023,0.1514221,0.12465641,0.097016744,-0.011354266,0.22068532,-0.06036668,0.0739374,0.053624615,0.15916546,-0.068710685,-0.1283419,-0.022722248,-0.059408225,0.06801908,0.23405045,-0.16156477,0.063903674,0.01383769,-0.056749042,0.185045,0.0063685663,0.08812305,0.12206199,-0.11037753,-0.09426849,0.018506125,-0.016622912,-0.114422366,-0.07675971,0.028847408,0.0017208819,0.011882694,-0.12466277,-0.005826961,-0.119768366,0.20887996,0.035749793,0.068617,-0.2055589,-0.047508143,-0.0115038175,0.06372325,0.05614245,-0.16405912,0.03782604,0.09766825,-0.033097032,0.040655274,-0.12399438,-0.020031597,-0.10783283,0.10398081,-0.19338371,0.14081943,-0.112248644,-0.08022472,0.061479583,0.08538793,0.06072115,-0.13490231,-0.18781742,0.010361712,0.0971575,0.10586794,-0.053523134,0.13267313,0.07875152,0.14218211,0.101238206,-0.10278789,0.19398075,-0.16342781,0.01933634,-0.012619252,-0.024683353,0.09666346}, {0.11793408,-0.04136701,0.13056527,0.12246956,0.14664446,0.20621267,-0.022237975,-0.089287005,-0.19038796,-0.028862907,-0.08819775,-0.14668798,-0.17898035,0.13812838,0.04776413,-0.027344232,0.15815966,0.16245672,-0.023812674,0.1959795,0.15826099,0.15154803,-0.00024123731,0.021295413,-0.20547579,0.110085174,0.069023475,-0.119495995,0.13233025,-0.12195013,-0.20473713,-0.10017217,0.07878787,0.11665434,0.009644198,0.07551264,-0.06756739,-0.15492426,0.002700802,-0.06913812,-0.031377826,0.050606113,0.12951171,0.024183221,-0.029245215,-0.05936506,-0.013740783,-0.004486286,-0.14699787,-0.1104738,-0.11050177,0.0998493,-0.09106694,0.011444233,0.15041077,0.07700687,0.040079176,-0.13819095,0.056334313,-0.08556514,-0.016271854,0.01723091,-0.005009779,0.01289804,-0.058605198,0.06321339,-0.004493999,-0.106459945,0.14787146,0.23164935,0.14446524,-0.23631682,-0.056969997,-0.120300926,0.0105731785,-0.026901877,0.00829384,-0.08553733,-0.02479848,-0.034884337,0.12891527,0.020291204,0.035890773,0.020630877,0.081623115,0.09996466,0.0864823,0.14723572,-0.05147129,-0.107170746,-0.0038940005,0.090656266,-0.074993186,0.01025812,0.06943343,0.2003302,-0.046190385,0.12280695,0.13291249,0.18947354,-0.10333421,-0.05592063,-0.20790967,0.06801297,0.16163747,-0.13689822,0.08953038,0.08827036,-0.05438016,0.21356322,0.09603635,-0.08561448,0.051646233,0.04201421,0.12616931,0.0704745,-0.10479794,-0.09005974,-0.10984945,-0.12297883,-0.109713875,0.1889647,0.073630996,0.0073877946,-0.16094217,0.032982208,0.070834614,0.029265841}, {-0.12883782,-0.056683898,0.10607076,-0.01899649,0.043141343,0.16490206,0.113113865,0.08526322,0.054538008,-0.16417596,-0.07057957,-0.043522857,0.1124179,-0.14477347,0.111386456,0.027697522,0.19069497,-0.048598044,0.043839328,0.07492575,-0.07337649,0.037106555,-0.15396765,0.12603404,0.1176176,0.006667328,0.039991803,-0.024342528,0.03552535,-0.09902249,0.1524856,-0.060646378,0.07880457,0.12420609,0.083496325,0.075984456,0.05038339,0.034904495,0.09299097,0.026738089,-0.05432996,-0.006539375,-0.01877085,0.028009895,-0.066387914,-0.048678987,0.06056747,0.11414865,0.099208914,0.14041281,0.16580656,0.01544594,0.11940216,-0.01876464,-0.13134015,0.08383792,0.21048734,-0.05819619,0.14856182,0.13926941,-0.0080830455,-0.08028414,0.07372942,0.14188339,-0.054785825,0.14708325,0.14963195,-0.10673507,-0.13060991,-0.043292686,0.12565444,0.06614241,0.20812926,0.0036207922,-0.031192109,-0.24392821,0.19880015,-0.049259957,0.012835377,0.1075846,-0.011486062,-0.03883448,0.0501305,0.0103664035,0.0019722655,0.07661639,0.10551905,0.008106855,0.025948467,-0.014191592,0.12767468,-0.09483838,-0.09343643,-0.102211826,0.053640775,-0.1542773,0.13394181,0.05573398,0.14719135,-0.028805522,-0.031953253,0.052826054,0.030973895,0.01518746,-0.12704164,0.034957998,-0.13870953,0.04787721,-0.05434836,-0.13405941,0.07206177,0.12931742,-0.18037947,-0.13296726,0.08392392,-0.11780821,-0.031314857,-0.039011292,0.12510052,0.13772364,0.08120887,-0.06011631,-0.13058478,0.024313867,0.049686283,0.080196135,0.08309768,-0.114213035}, {-0.18851624,0.13667518,-0.07222647,0.060881563,0.048398953,-0.10435137,0.046533957,0.053037237,-0.020655338,0.08846266,-0.036227446,-0.0038601137,0.036115345,-0.06322525,0.04767601,-0.12099382,-0.13054697,-0.021377755,-0.1484417,0.025886836,-0.114668444,-0.006255726,-0.055761296,-0.03771557,-0.020254312,0.14821705,0.10399131,0.16002676,-0.09944282,-0.052266374,0.15376101,-0.051563423,-0.01766464,-0.19249952,-0.01656147,0.07864723,0.0069906944,0.062678,0.034804557,-0.16991517,0.1190103,-0.1390119,-0.11215684,0.04202865,0.07868747,-0.047662687,-0.1571993,0.12489605,0.00047622342,0.108825125,0.14535932,0.058437966,-0.07961261,-0.08583327,-0.2615824,0.00036974612,0.017223654,0.0076031573,-0.10437839,-0.05335858,-0.16439597,0.006103898,0.14284393,0.1732833,-0.057987563,-0.07320069,0.06518698,0.10845323,0.0080121625,-0.22599751,0.04370106,0.04981743,0.20251165,-0.07644546,0.06933446,-0.14974841,-0.13978344,0.08632109,0.15544869,-0.022964805,0.0452183,-0.1087355,0.14017455,0.19857156,0.20802222,0.08488444,-0.10943579,0.20065285,0.11748593,0.1617628,0.17174286,0.037991,-0.008466855,-0.10641524,-0.10843152,-0.18650079,0.006227171,-0.26541355,0.0703458,-0.045120716,0.03908355,-0.14008239,-0.13539146,0.08975414,-0.05577531,0.08661515,-0.1616696,0.039833125,0.22780809,0.12661222,-0.07950512,0.11250592,-0.10074826,-0.07463632,0.02652942,-0.06936757,0.039039645,0.06142918,-0.022666205,0.018956648,0.09044405,-0.1412213,0.037679564,0.015658863,0.05531877,0.19218516,-0.019276973,0.017004168}, {-0.10122897,-0.037110373,0.11466287,0.020061584,0.062110886,-0.17812389,-0.106808044,-0.082538985,0.06744101,-0.0787953,0.04071454,-0.17753914,-0.106322944,-0.026626665,-0.12590168,0.04209222,-0.14926827,0.019064965,-0.07698744,-0.014549233,-0.10448925,0.028425528,0.18621919,0.09327074,-0.20353155,-0.019567866,-0.03754118,-0.12288253,0.09064216,0.008107529,-0.09674294,-0.045499757,0.0026603017,0.023716774,-0.14178798,-0.03897411,0.1361999,0.051553532,0.13218002,-0.11042946,-0.03931394,0.053671073,0.1608567,0.117877916,0.16338456,0.02716776,0.098299466,-0.07205701,0.14463729,-0.09440226,0.030590415,0.01581098,0.12964062,0.06419661,0.04534288,0.1385643,0.101052664,0.11293003,0.1791422,0.014379999,-0.05753986,0.07125495,-0.29607365,0.18987392,0.07712843,-0.03813867,0.04663364,-0.029295351,-0.055952217,0.122847654,-0.017385991,-0.14769934,-0.11752852,-0.014504886,-0.0046898155,-0.21010931,0.086383656,-0.14780079,0.058368567,0.005646634,-0.12913622,-0.041444022,0.0126279555,0.11995746,0.13096438,-0.09334551,-0.10062334,0.081005946,-0.028176552,0.016219169,0.042565476,0.11716806,0.12927459,0.016919319,-0.12905039,0.054348018,-0.14707011,-0.020324647,-0.004998042,0.052006572,-0.090808116,-0.07033485,0.16247776,-0.04909412,0.0038478854,-0.01351289,0.17882846,-0.04631722,0.09395894,-0.030894067,-0.10400415,-0.043725863,-0.18027532,-0.16437528,0.11079416,-0.089802936,0.14747426,0.1167875,-0.13577184,0.116464645,-0.18672967,-0.086193494,-0.015096526,0.08713611,-0.2582542,0.014754864,-0.07821825,0.07321536}, {-0.10184667,0.08884951,0.14143264,-0.049806908,-0.019821221,0.052223723,0.07727085,-0.13918333,-0.13353205,-0.014709453,-0.09452635,0.10396299,0.040525503,-0.025781438,-0.096189484,0.038592495,0.16033646,0.029653374,-0.066679694,-0.051403813,-0.035456307,0.04630385,0.30045015,0.11746005,-0.09908584,-0.13570902,-0.16600756,0.07923891,0.013651438,-0.026335746,-0.2312375,0.21214709,-0.07959457,0.14732851,0.049262848,0.054668557,0.10444609,-0.015455778,-0.08688758,0.03758674,-0.078155726,0.04871833,0.047946513,0.05581559,0.15044636,0.041578032,-0.040407352,-0.028853592,-0.1542585,-0.027102059,0.07894783,0.1458675,0.0861164,0.05344598,0.20041543,0.0603388,0.0067542475,0.11701916,0.068879806,-0.0044952333,0.24947785,0.105328135,0.01126801,-0.12513204,-0.15369332,-0.09743233,-0.21822813,-0.094496995,-0.14918883,0.22502184,-0.16016252,0.13831075,0.043783866,0.08048196,-0.10007039,0.108569056,0.14610194,0.010667359,-0.25572884,-0.11548376,0.12763819,0.023126688,-0.23201734,0.04085503,0.027026258,-0.00482921,-0.029225238,-0.20676112,-0.19634742,0.015160481,0.0642313,-0.21895075,-0.12715818,0.17298664,0.01672633,0.15638337,-0.031506214,0.07643075,-0.09623797,0.057302978,-0.011208499,-0.05017647,-0.018589264,0.07177961,0.120890416,0.05343531,-0.08814345,-0.09887475,-0.11116095,-0.17421654,0.16030176,-0.21331471,-0.19958314,-0.104143456,0.11324136,0.004305865,-0.052072138,-0.0502606,-0.093410924,-0.053782523,-0.058178157,0.19967957,0.13023692,-0.033986244,0.2310127,-0.0427606,0.07273065,-0.11657007}, {-0.02110561,0.06408948,0.13371386,0.14427955,0.12517168,-0.13183558,0.14125341,-0.11376783,-0.12224747,0.013293922,-0.11001667,0.057931777,-0.14517817,-0.088693775,-0.0036005017,0.12563603,0.07279842,-0.10198278,-0.09284863,0.12074454,0.10063437,-0.10236896,0.09382273,-0.19469741,-0.12126453,-0.019728024,0.10244306,0.06617106,-0.090273775,0.044539914,0.08941713,-0.0037780562,-0.07255317,0.020174928,0.13904539,0.31996974,-0.05378688,0.066623844,0.0068315463,-0.085476644,0.013870434,-0.1985362,0.025449213,-0.27906987,0.06467591,-0.014243584,0.01320884,-0.028468445,-0.13280867,0.022697141,0.039452262,-0.04195959,-0.09821062,0.13164899,-0.15141836,-0.011325929,0.12209396,-0.08948649,-0.060635976,-0.026951311,0.082298875,-0.15007083,0.1025967,0.021873271,-0.1024343,0.1600408,0.015184325,-0.09080102,-0.14194952,-0.1066227,-0.10221119,-0.0932676,-0.087173335,-0.21527785,-0.14666088,-0.017712615,-0.15778777,-0.10080795,-0.07968375,-0.035373468,0.08770163,0.1799294,0.05817026,0.13727547,0.099717304,0.13304374,0.05580779,-0.0866079,0.107870035,-0.051126562,-0.15160203,-0.1506068,0.084119774,-0.013776958,-0.1433016,-0.11796817,-0.013553269,0.20578595,0.014379919,-0.022525549,0.039767094,-0.0031759285,-0.05027256,-0.13909632,-0.07329299,0.10145315,0.1152117,0.18277182,-0.17261629,0.008565606,0.06999036,0.14332056,0.059402406,0.0036159172,0.18318819,-0.14747341,-0.09306717,-0.047177784,-0.12025064,0.011381377,-0.016312668,0.09985461,-0.111298405,0.07962697,0.015371969,0.07710007,-0.077077284,0.029430145}, {-0.048620082,-0.1412938,-0.010340049,-0.026988927,-0.19231586,-0.027559666,-0.026059289,-0.14895971,0.12137647,0.036149066,0.0006811358,0.12007083,-0.098855585,0.12245093,0.08538378,-0.07138965,0.12173846,-0.012608025,-0.0795714,0.09855418,-0.034244433,-0.008760601,0.0015295554,0.06526263,-0.23218544,-0.04599096,0.056375597,-0.07722362,0.1606692,0.057120137,0.109699525,-0.07939721,0.03919475,-0.095168985,-0.042299695,0.05042721,0.13894695,0.040964287,-0.029080968,-0.06712786,0.17157193,0.050710816,-0.17335488,-0.018153448,0.008990412,-0.0502737,-0.17533815,0.013930396,-0.0214137,-0.046803355,-0.09106329,0.09063685,-0.1606197,0.01889675,0.028184764,0.011754154,0.088835634,0.08265271,-0.14063796,0.18124156,0.117498934,-0.12224544,-0.039317477,0.07824928,-0.15745962,0.07254801,-0.021003837,-0.13877733,-0.049055673,0.006848605,0.05692759,0.07607056,-0.18592797,-0.11592802,-0.08878175,-0.1729359,-0.01748469,-0.1433393,0.017551912,0.06872802,-0.08556598,-0.20226063,0.008896973,-0.07165203,-0.16368423,0.008757399,0.018440183,-0.096422985,0.019097934,-0.015747368,0.074189015,-0.054709394,0.18588774,0.15065666,0.050277866,0.16536127,-0.09962025,-0.043167252,-0.18657184,-0.020439038,0.06112484,-0.077740334,0.21453406,0.07827869,-0.06333003,-0.022702968,0.032767493,0.049653184,0.16000564,-0.017036745,-0.07994183,-0.16154902,0.09755204,-0.17394985,-0.13034584,0.01400379,0.21226278,-0.060993347,-0.0063005355,0.12130606,0.20097996,0.11757312,0.079390556,0.09591435,-0.031248622,0.06429739,0.14005229,-0.022331113}, {0.007931038,-0.092169784,0.04710134,-0.09120008,0.08446613,-0.11837256,0.031644966,-0.10924389,0.1056078,-0.09610281,0.15948488,0.020467747,0.007172077,0.15007909,-0.047778636,-0.01400008,-0.06021983,-0.09035667,0.1693496,0.14630502,0.0110690845,0.018444374,-0.20787029,0.15952954,-0.22460836,0.15466441,0.056639977,-0.19140197,0.03676935,-0.0017954947,0.021107482,-0.20456806,-0.077079356,-0.096181296,-0.06464762,0.10494598,0.04493373,-0.11346989,0.16008615,0.059389096,0.038589105,0.044622734,0.27113962,-0.041800156,0.12932326,-0.15365016,-0.008712385,-0.08028225,0.10578611,0.045626283,-0.15475011,-0.105654225,-0.013142093,-0.19357781,-0.06790286,0.06737909,0.045416947,-0.09846663,0.013971493,-0.1360893,-0.19468093,-0.056086004,-0.027832072,0.17430174,-0.080266096,-0.1512223,-0.16501282,-0.23035222,0.025901258,0.060367435,0.10050478,-0.09212805,0.12556104,0.0017288066,-0.19803631,0.042967025,-0.10951797,-0.054310534,0.051112216,0.098200336,0.10684149,0.08077709,0.13074811,0.0141992755,-0.091882505,-0.09571312,0.054240305,0.14056389,-0.13482873,-0.06917875,-0.2206355,0.24721546,0.025910774,0.16095597,0.017072435,-0.06871222,0.07967204,-0.01648331,0.062221557,-0.04132439,-0.15442109,0.08808017,-0.035235804,-0.18627712,-0.12965459,0.08308274,0.022425903,-0.04285345,-0.075346984,-0.011884369,-0.054103084,0.03219386,0.049819347,-0.02241835,-0.03610562,-0.05812358,-0.07740345,0.046890218,0.09641909,-0.19243494,-0.0405854,-0.10830184,-0.1962816,-0.016704557,-0.06547265,0.1517603,-0.11264211,-0.025334083}, {-0.06701298,-0.15254268,0.011272121,0.106751524,0.13452038,-0.11958643,-0.15787359,-0.1725062,0.07233999,0.107007094,0.0069849,-0.20555617,0.05962472,-0.12741974,-0.14112267,0.08052276,-0.15305744,0.20258537,0.025686674,0.017266408,0.100533344,-0.036301415,0.021476436,0.004993791,0.10006016,0.011661744,-0.090893805,0.03123443,0.0009349116,-0.0804837,0.21121189,-0.10853158,0.16650899,0.10037661,-0.11910671,-0.15411377,0.04193454,-0.1192322,-0.04583225,-0.21238062,0.128767,0.02725159,-0.16151011,0.08149186,0.09884513,0.03615886,0.076025374,0.19265303,-0.13435297,-0.086150244,-0.1188121,-0.12253527,0.08755448,0.13670388,-0.12172909,0.09563678,0.00014244817,-0.119671,0.019450953,-0.13851437,-0.023003077,0.23357962,-0.012711137,0.21530534,-0.12238506,-0.12919626,0.20222355,-0.10655004,-0.09761389,-0.095533065,0.19213553,0.011911764,-0.06123836,0.15221977,0.07647211,-0.1404772,0.0014661582,0.10895355,-0.109423876,-0.2565288,-0.07570794,-0.06429734,0.013294229,-0.08463148,0.053460397,-0.1019729,-0.17597394,0.09361134,0.0060811723,-0.05251234,-0.023098137,-0.18704267,-0.019199213,-0.25974783,0.07588627,-0.10607473,0.09943763,-0.10100925,-0.12483797,-0.23896727,-0.17364603,0.17274536,-0.026179537,-0.16972268,-0.131419,-0.08954533,-0.12411689,-0.048106723,-0.017853193,0.046167113,0.02555008,-0.007664509,-0.17327134,-0.08612199,-0.03185985,0.0802913,0.13017683,0.09207374,-0.059122674,0.10665012,0.08409278,-0.046228636,0.16722529,0.07281734,-0.13267176,0.18758148,-0.09695416,0.12834455}, {-0.1204075,0.16477174,0.15757209,-0.14852831,-0.0648366,0.006151066,0.1676443,0.014520623,-0.11473266,-0.1332293,-0.015518039,0.007059674,-0.06991889,-0.21629551,0.01718123,-0.0992892,0.08134,-0.020188423,-0.12715429,0.18744688,-0.01904538,-0.020796215,-0.039213642,0.15704314,-0.12775972,-0.23734146,-0.17365055,-0.2051905,0.15150559,-0.31223896,0.13557757,-0.034863357,0.12076118,0.14124641,0.031182075,0.1506829,0.014185041,0.027621359,-0.10905947,0.0118071865,-0.02693327,-0.03343303,0.00020115008,-0.03224206,0.03898556,0.061524827,-0.22375214,0.067403175,0.025056204,0.0938862,0.06008325,0.01561245,0.02747785,0.029235628,-0.046949144,-0.1333358,0.13689414,0.006660134,-0.079612374,0.06515685,0.13955645,0.15927486,-0.026231637,0.06626949,-0.0012337421,0.119289674,-0.002855294,-0.05003739,-0.0656768,0.07486385,0.031506106,0.013598081,-0.12856476,-0.15314245,-0.1543818,0.16937207,0.013271159,0.10549785,-0.014908461,-0.17503363,-0.1438947,0.03871923,0.095720746,0.10985077,0.05558117,0.001633429,-0.07454822,0.106007874,0.22235918,-0.09666658,-0.10383513,-0.111626744,-0.038302034,-0.1036583,0.057202462,0.04323155,0.089349695,-0.08330642,-0.11571239,0.04311446,0.07456742,-0.20069249,-0.08190191,0.10585455,-0.106037125,-0.23207806,0.12007621,0.0026407866,-0.16261694,0.025078123,-0.015508466,0.16024537,0.023490014,0.029651087,0.069489844,0.1927492,0.036880873,9.5223586e-05,-0.16553171,0.17937416,-0.07949362,0.009474171,0.14011905,-0.21168077,0.14228308,0.112609096,0.012314647,-0.011111723}, {-0.05068039,0.016419744,0.06687323,-0.1532875,0.1165385,-0.029830195,-0.060509197,-0.037962362,-0.14121199,-0.17072336,0.10160711,0.072266035,0.14998853,-0.033681314,-0.008577527,-0.03210426,-0.04248277,0.05536806,-0.16073519,-0.10132306,0.1744829,0.005462697,-0.06424612,0.15670714,-0.086749315,-0.1292998,0.08478439,-0.13167459,-0.055681232,-0.0074506328,0.10900165,-0.074823104,0.114707015,-0.0806728,-0.0632996,0.0025494015,-0.15632321,0.09410896,-0.018728837,-0.0043161474,0.049237315,-0.09662783,-0.10815071,0.03734138,-0.11614338,0.15645748,-0.16131788,-0.05857278,-0.027539276,-0.13582733,-0.10309378,-0.24422006,-0.10317573,-0.062479887,-0.1676739,0.036070187,-0.2004748,0.109357335,0.019291878,-0.06649432,0.12582679,0.114108436,0.09257061,0.08805012,-0.083612256,0.10619589,-0.08881886,-0.09151907,-0.15459335,-0.15626128,-0.16909525,-0.09643937,-0.16999757,-0.05208925,0.059930447,0.12923187,-0.0062940167,-0.15142354,-0.12794863,0.11254462,0.011702821,0.042410456,-0.12845577,-0.07003227,-0.09132588,0.049857672,-0.11275336,-0.009458818,0.043868877,0.019836208,0.10871009,-0.012532862,-0.08658656,0.047367044,-0.043975115,-0.094284914,0.02795838,-0.055108976,0.0836274,-0.13836916,-0.081759796,0.13338135,-0.10495748,-0.12646213,-0.06418586,-0.11404219,0.15935072,0.08035342,-0.05417973,-0.09040178,-0.122145995,-0.068114236,0.04506876,0.013320439,0.16867724,0.09535112,-0.005943533,-0.14283274,0.10884293,-0.0444835,0.12269756,-0.0021219205,0.03349182,-0.04224234,0.17550421,-0.14719744,-0.16389331,0.10896081}, {-0.20537035,-0.05099438,-0.049126662,-0.17091209,0.038897347,-0.19724971,0.15187277,0.13147447,0.18465376,-0.117633045,-0.10622089,0.06355723,0.039178986,-0.046924304,0.15545104,-0.012963861,-0.12244179,0.13189958,0.0981745,-0.10682845,0.07894368,-0.030095814,-0.09734688,0.124247685,0.09126508,0.13396496,-0.062487043,-0.08027595,-0.07451795,0.042710457,0.12578098,0.1301173,0.18203047,-0.23424274,0.15710168,0.18218426,-0.113461874,0.19896689,-0.15437606,-0.07384442,-0.046695318,0.08314956,-0.22911093,-0.013799591,-0.18236025,0.10916457,-0.264549,0.032068867,-0.030755257,0.08425847,0.06814676,-0.15764958,0.060985126,0.006911255,-0.13509184,-0.12166859,0.122450896,0.08753132,-0.0042262482,0.08801051,-0.042252526,0.187324,0.051325977,0.078847855,0.104889736,0.10348618,0.2788105,0.08736473,-0.004731804,-0.1192968,0.1496251,0.079245105,-0.02402839,0.03487751,0.17032349,-0.010243754,0.12488346,-0.026701586,-0.044246733,0.14459096,-0.042968407,-0.056825135,0.0717847,0.24817905,0.0036865284,-0.1764286,-0.09326171,-0.029160291,-0.062679,0.0011789898,0.10301624,-0.077911735,0.1324585,0.027030598,-0.1576352,0.050393067,-0.16910942,-0.115297616,0.1680662,-0.13454552,0.05120487,-0.033840306,0.1423366,0.10984392,-0.064885914,0.059384696,0.21497585,-0.10868442,0.09486188,-0.09792489,-0.025150687,0.13197853,-0.17076264,0.076915324,0.064064585,-0.010541928,-0.08874613,-0.16504778,0.0013589773,0.29646796,0.12378572,-0.1929634,0.0004220465,-0.16373096,-0.1678042,-0.107182674,-0.1365852,-0.05025831}, {-0.06711281,-0.06835346,-0.002058252,-0.22781755,0.16422836,0.018448438,0.09785037,0.17386939,-0.02704931,-0.13657743,-0.043757018,-0.038203597,-0.06640739,-0.16564983,-0.039804526,-0.20002757,-0.012802669,0.0045316145,-0.10549182,0.08656234,-0.059049986,-0.106870234,0.04082792,-0.05968032,-0.02301534,-0.10629186,-0.1960044,-0.11469911,-0.015896106,-0.12710194,-0.15168536,0.086168535,-0.108409055,-0.0890492,0.2053845,0.12206866,0.13173763,-0.14197208,0.059586626,-0.011614902,-0.15457903,0.022290673,-0.14177756,0.14053616,0.050203215,0.16399466,-0.13180615,-0.011560441,-0.074995235,-0.040635407,0.10806244,0.07819311,0.21181776,0.026363684,0.11634088,-0.029213088,-0.06426754,-0.1224765,-0.067696705,-0.017541222,-0.0095044095,-0.08664642,-0.1084657,-0.001643488,0.1194116,0.09239551,0.033223763,0.04960517,-0.014175727,-0.04168023,0.119207166,-0.07522618,0.124612175,0.010454382,0.19923607,0.16887127,-0.06252082,0.10218219,0.017002823,-0.11764187,-0.06603276,-0.025788086,-0.1277106,0.17125228,-0.04819457,0.033522412,-0.03230709,0.14702097,-0.0713718,0.09301293,0.048323683,0.061035935,-0.08827438,-0.06723984,-0.053683177,0.053587627,0.105881825,-0.086966604,0.30596977,-0.15595996,-0.0921452,0.019225342,0.096756294,0.16224517,-0.056553733,0.036527984,0.16555367,0.012076575,0.089056276,0.015698384,-0.09072683,-0.14804916,-0.12672997,0.16456993,0.22302751,0.055161294,-0.114169426,-0.07964306,-0.2230606,0.13726172,0.03100136,-0.012856682,0.025373062,-0.09035066,0.008363367,0.109175615,0.11269207,-0.22070433}, {-0.11638836,0.117171094,0.061226506,0.094374634,0.011577504,-0.021336839,0.05786039,0.07850825,0.18993025,-0.15830734,-0.00015500525,-0.015641194,0.035749737,0.074469365,0.03944798,-0.12720758,-0.0076303543,0.08616874,0.107865386,0.264793,-0.17159654,-0.002833251,0.12959564,0.014708584,-0.0080173295,0.13125199,0.10375707,0.07439909,0.06700522,0.12980342,-0.11084482,-0.009937663,-0.010379003,0.012509944,-0.12796693,-0.059967052,-0.04278748,0.0062442175,0.027626084,0.112883925,-0.187993,0.11746106,-0.16575661,-0.18098815,0.10321686,0.12774456,-0.024979142,0.21982856,0.076782994,0.018090831,-0.05339048,0.18270232,0.10761696,-0.012260623,-0.009264485,-0.09142859,-0.14889956,-0.009545416,-0.14180636,0.10410271,-0.08137607,0.11822297,0.0831179,0.06068545,0.06939089,-0.042229027,-0.055842735,0.066353165,0.077762164,0.047238003,0.106731236,0.027137315,0.17008792,0.05355329,-0.05525078,0.13458452,-0.07737588,0.13521054,0.044167954,-0.0689245,0.11902285,0.06002742,0.14054877,0.104798436,-0.01052074,0.03694149,-0.07476773,0.09060686,0.113215074,-0.098984316,0.0738584,0.12871246,0.06495125,0.107063346,0.0026446232,0.07084408,0.13604559,0.16444695,-0.13068551,0.035343565,0.07470232,0.10170928,0.099136144,-0.074089505,-0.12573558,-0.085272126,0.050589275,-0.021057194,0.15216486,0.00651195,0.1081409,-0.06376671,0.031653643,0.012488351,0.09706732,0.119841054,-0.102205455,-0.020352622,0.073643364,0.028377848,0.008457909,-0.13381845,0.17251752,-0.024088958,-0.002428787,0.13315086,-0.09852381,0.16628124}, {0.12664577,0.13301487,0.16268753,-0.022138063,-0.108026974,0.040339414,0.048857428,-0.14568745,-0.05939333,0.06164755,0.21550182,-0.07661176,0.11220809,-0.09950436,-0.09692971,-0.07070584,0.054880418,0.10652492,-0.046561606,-0.093002304,0.050579056,-0.06485052,0.06521472,0.19677746,-0.0553048,-0.029088497,0.107434236,-0.15055563,-0.10064706,-0.1404661,0.017570116,-0.09515553,0.15823646,0.03290482,-0.0926986,-0.0054089455,-0.20200726,0.039367717,-0.023042686,-0.017249074,-0.11272762,0.0027986034,-0.111705385,-0.13029122,-0.14802417,-0.052030798,-0.1064095,-0.07099304,-0.14238584,0.11670721,-0.023843562,-0.16626325,-0.03578072,0.1578247,-0.04552498,-0.113193415,-0.0390337,0.040638816,0.10613801,-0.13299063,-0.054265484,0.16885222,0.009999917,0.18074596,-0.06505487,0.054385673,0.07903377,-0.19701608,-0.020930506,-0.17817667,0.1350175,0.11051168,0.0170135,0.024019128,0.14164488,0.00984789,-0.10374291,-0.11223135,0.082794,-0.0525927,-0.07294751,0.14082947,0.023172108,0.15856443,0.08655676,-0.06800324,-0.06804697,0.013116933,-0.114325486,0.15893072,-0.15186048,0.0016734641,-0.10850593,-0.012585831,-0.12060396,0.1446857,0.017789068,-0.10902734,-0.013850356,0.045591425,-0.05376263,0.051956747,-0.06488956,-0.081320524,-0.10359405,0.01434601,0.08963442,-0.11190565,0.05759059,0.096475996,-0.0014471068,0.04970419,-0.06522673,0.0017745594,0.014997427,0.132949,-0.13636507,0.054225985,0.014483897,0.12127136,0.13116448,-0.044823,0.110317014,-0.15985365,0.07859501,0.04710217,-0.15844639,0.011292718}, {0.20776513,-0.16616367,-0.08717283,-0.01959645,0.07271517,-0.045046553,-0.021120805,-0.059430737,0.0021963874,0.074204385,0.12119682,0.034212936,-0.016248597,0.07805169,-0.025571274,-0.09883841,0.039451186,-0.024560954,-0.0063257203,0.15893696,0.06757356,-0.02397436,0.03186294,-0.06891005,-0.12382951,0.15062214,0.12884603,-0.2051055,-0.12976845,-0.13330613,-0.043979995,-0.022627342,-0.1009877,-0.041537017,0.047634438,0.021327158,-0.047755092,-0.050228916,0.07265501,-0.1365607,0.037913688,0.12974636,0.26004165,0.053643987,0.08850725,-0.1996309,0.09359527,-0.07312192,-0.04463531,0.16017772,0.036677763,-0.109598175,0.12092686,-0.0699043,0.034222562,0.20978197,0.06820035,-0.015015375,0.10502364,-0.15255332,0.099084124,-0.1716672,-0.08775861,-0.0551889,-0.0076454813,-0.23280844,-0.03411223,0.020263694,0.030398283,0.06488262,-0.09468297,-0.13816962,-0.042965062,0.07172824,0.19519779,-0.032290004,0.0010163966,-0.21111387,-0.07966199,-0.007878166,-0.121755175,-0.16916366,0.025289992,-0.13582717,-0.13774472,-0.08503955,0.015323261,0.012866045,0.012682831,0.05451478,-0.030038469,0.22269876,-0.07899566,0.050065357,0.11007315,0.07304088,-0.1864578,-0.13217399,0.11186182,-0.02804993,0.11320186,0.16279238,-0.02189311,-0.05627485,0.01759132,0.013872767,-0.06789458,0.13943242,-0.14953792,0.120010525,-0.024248596,-0.17630145,0.16519277,0.0056652813,-0.002083439,0.034136057,0.11495166,0.0035664956,0.19882046,-0.03892838,0.14707133,0.02251746,0.005213405,-0.06576213,-0.13044642,0.071348645,-0.11747461,-0.052137073}, {0.03373089,-0.08453352,-0.1857792,-0.04972575,-0.22398277,-0.15121606,-0.18284684,-0.036491126,0.01865659,-0.011676574,-0.012750953,0.096521154,-0.029754054,-0.006842238,-0.13789608,0.027338319,-0.14083147,-0.13795869,0.050202575,-0.115992755,0.10722255,0.13048029,-0.17951679,0.13734663,0.0781248,0.12662956,-0.09559431,-0.14794359,-0.09601841,-0.11282772,0.088207506,0.0070746033,0.3227325,0.0018950994,-0.08609973,-0.0030008343,-0.037467968,-0.06482313,0.08447952,-0.15021744,0.11412617,0.12746406,-0.18831614,0.15582642,-0.026782023,0.03502725,0.040162843,-0.033033356,-0.04809207,0.1474988,0.12542163,-0.13921931,-0.0841031,0.115183085,-0.018006926,0.08248637,-0.057908755,-0.19405255,-0.030202882,0.13169765,0.0016812955,-0.047439147,0.22386809,0.15961342,-0.08919836,0.10298262,0.2674292,0.11737475,-0.038774505,-0.08712879,0.20012975,0.02283214,-0.16947109,-0.035183944,0.007868856,0.041818645,-0.11214426,0.16144793,-0.012661385,0.040837627,-0.07955587,-0.06412813,-0.062176485,0.03554709,0.067146845,-0.063991584,-0.040186897,0.03331372,0.038634054,0.21121089,0.02850902,0.064252675,0.15639584,-0.07560326,-0.108873025,0.0420894,-0.19135942,0.03900123,0.20187178,-0.15889251,0.07835929,-0.09397237,0.012911975,0.14182585,0.00908426,-0.029221445,0.056868784,0.018639162,0.008298907,-0.014935162,-0.22609681,-0.091983244,0.040151812,0.07309748,0.09320761,-0.019197095,0.040554374,0.038195938,0.033942323,-0.024389362,0.014108352,-0.029414589,0.0772066,0.029039647,0.0344706,0.06678711,-0.042206306,0.061523885}, {-0.0064123957,-0.05523339,0.11593909,-0.093215995,0.09919015,-0.042119663,0.07609282,-0.028803334,0.12604044,0.0640257,-0.05908469,0.09017581,-0.047326926,0.18400519,0.05343996,-0.06473743,-0.060048863,-0.042109337,-0.123844005,0.10442105,-0.00041332762,-0.02635438,0.04576426,0.052796442,-0.14923753,0.09676246,0.046231303,0.06897701,0.16547854,-0.09012125,-0.05583223,-0.018489257,0.1170005,-0.15642329,-0.023981825,0.09670396,0.062124725,0.14309461,0.09811967,-0.11658891,-0.10830207,0.091945864,-0.07516316,0.12458159,0.09610271,-0.014338544,-0.11164225,0.19454193,-0.1325409,0.09458545,-0.14624172,-0.061148137,-0.008539411,0.19779028,0.015256788,0.19846816,0.08646156,0.1034171,-0.008227176,0.11369662,-0.029799048,-0.030958235,-0.05448863,0.047463622,0.18254946,-0.17252217,0.118782766,-0.1222529,-0.13910064,0.058197465,0.10329301,0.15458763,-0.17347378,-0.15985577,0.11147096,0.026306462,0.19209956,-0.11284636,0.012444091,-0.17776723,-0.034030933,-0.20527244,0.15308712,-0.055666886,0.07372031,0.04082146,-0.061991,0.098429665,-0.050586276,0.041129995,0.0977604,-0.049095895,0.045044903,-0.026873212,0.025714507,-0.04685855,-0.21680908,0.16758195,-0.09515206,-0.09617769,0.12775293,-0.10096516,0.15261073,0.0024662765,-0.18464327,0.011641555,0.14272009,0.10672088,-0.043356802,0.123537116,-0.0145381205,-0.012450468,0.15633292,0.10866421,-0.04018114,0.20376626,0.168128,-0.05579717,-0.026517281,0.0822078,0.17808421,0.024543615,0.07813461,-0.11561936,-0.04772242,0.09449458,0.10470558,0.17345628}, {-0.10185746,0.15399462,0.05397617,0.025713459,-0.042447425,-0.17513418,0.13090461,0.25712064,-0.06699821,-0.025941769,-0.034370862,0.0015204838,-0.11372334,0.030450227,-0.04914755,0.16440788,-0.052105315,0.111745425,-0.029105533,-0.19171835,-0.016735358,0.118517786,0.00782044,-0.031098302,-0.1507548,-0.05957419,0.03853962,-0.10593132,0.16103546,-0.061587196,-0.11889409,0.19529158,-0.0843492,-0.074316055,0.21043071,0.09281854,0.028147362,-0.005118355,0.08132373,-0.05297908,0.062312543,0.05710321,-0.08915302,-0.16997498,-0.031733673,0.20820335,0.08499981,0.014792426,-0.005256708,-0.07329737,0.051111404,0.072197035,0.110124335,0.02969751,-0.068245135,0.025053902,-0.031740353,-0.045676596,0.016408948,0.017922912,0.13725063,0.09813672,-0.054348934,-0.043615542,-0.01979471,0.037988547,0.103015386,-0.16950542,0.03302933,-0.09127582,0.0820926,-0.009703372,-0.039041568,-0.10388587,-0.20326944,0.0647447,-0.1715588,-0.18763328,-0.23616436,0.08091137,0.06362632,-0.06640992,0.00788974,0.08991979,0.046199076,-0.007862285,-0.22767542,0.029626863,-0.10741572,0.03511476,-0.15861824,-0.0921355,-0.0052015367,0.11984051,0.013915142,0.046676505,0.08938867,0.055490885,-0.18302773,-0.13079664,-0.0069454685,0.15711074,-0.03119826,0.099521615,-0.038290493,0.07842471,0.13936965,0.13969123,-0.024658188,-0.17150587,0.12580241,-0.10599993,-0.13056476,-0.089777194,-0.02811671,0.12436415,-0.08491122,-0.055858698,-0.13674593,-0.038273342,-0.11284307,0.14753115,0.05438949,0.05036376,0.045381583,-0.17665815,0.12479021,-0.009860877}, {-0.06666745,0.10429318,0.047206666,0.0655498,-0.011070775,0.02916065,0.14909121,0.19399945,0.01863876,0.16398263,0.06343302,-0.08257305,-0.052158244,-0.024477387,-0.072984,0.048327193,0.045507975,0.09384765,-0.0743246,-0.0974732,0.0229594,-0.27722415,-0.07921205,-0.122169666,0.13956447,0.023258042,-0.05442325,-0.060811758,0.17456736,-0.042434867,0.076647006,0.18496658,-0.11426531,0.044952046,-0.04720394,0.055091795,0.00023874291,-0.004514651,0.024932325,-0.10277415,0.11646389,-0.008976879,0.00019054743,-0.10734592,-0.032993656,-0.10303179,0.039666194,0.0072529726,-0.13132866,-0.14019698,-0.049708623,-0.08504653,0.12126673,0.11969126,0.06594581,-0.07625443,0.055372234,0.09135716,0.113751434,0.08830645,0.088835366,-0.059146725,-0.072043605,0.008144271,-0.03633306,0.17225893,0.020746592,-0.1008801,-0.04514157,-0.18149187,0.044565383,0.14096887,-0.037015166,0.1264709,0.03517371,-0.04806572,0.059922677,0.15780531,0.12139643,0.09357625,0.05611176,0.0399766,0.0796888,0.19054304,0.07006316,-0.16358712,-0.014838962,0.137611,0.18131003,0.07979573,-0.13438205,-0.07279898,-0.06428765,0.025192486,-0.067295186,0.050833814,-0.018733377,0.1684621,0.12860197,-0.07742398,0.09082741,-0.1449308,0.12554805,0.13637447,0.059064485,-0.040175464,0.11888086,0.08183731,-0.09858173,-0.21027711,0.19666576,0.20002326,-0.20093592,0.1060886,0.16436179,0.058411755,-0.11061132,0.06128398,0.011055707,0.042418875,0.023415286,-0.085478894,-0.08695428,0.08203527,-0.09989991,0.15430477,-0.20794973,-0.095285796}, {-0.071940735,0.18440314,0.17435473,-0.12519021,-0.079420276,-0.22805725,0.12925036,0.09607212,-0.08914622,0.037496585,-0.0013472164,0.04768393,-0.15490964,0.08745899,0.03256755,0.059652824,0.16430542,0.02942834,-0.09624967,-0.057746857,-0.005878875,-0.106931746,-0.11724701,0.081205845,-0.08711075,0.102695435,0.04541605,-0.14964552,0.036083564,-0.1826866,0.03099266,0.08311052,0.040856175,0.0070226127,-0.02495346,0.13140513,0.030517934,-0.0463526,-0.013024709,-0.014231904,-0.07384308,0.04530243,-0.13090555,-0.102783285,-0.19286966,-0.015623835,-0.089695096,0.018098362,0.10960351,-0.07253303,0.047313944,0.06427022,0.034891527,0.031190718,-0.17358899,-0.15199095,0.098623,-0.026334014,-0.049225863,-0.07967293,-0.09317357,-0.0012964401,-0.20928721,0.16081618,0.11098679,-0.004157454,0.047525067,-0.19560131,-0.16779181,-0.10095034,-0.06710168,-0.06242363,0.085145615,0.11320004,0.08158711,-0.018974524,-0.058635946,0.08752316,0.064474784,0.038917627,0.118802406,0.024346717,0.012082929,0.022938637,0.068741135,-0.12953898,0.13581453,0.15384617,0.08808126,-0.1413359,0.08923146,0.06850266,0.034489192,-0.15370728,0.09186087,-0.06464041,0.09856361,-0.09687327,0.0073867603,-0.17484988,0.078116365,-0.11737665,-0.1702847,0.038512643,-0.109776884,-0.22944188,-0.051348366,0.020622402,0.16969413,0.2033862,0.13371047,0.15543434,0.106275775,-0.07209298,-0.03902303,-0.12131592,0.14201334,-0.10576621,-0.07895019,-0.1266121,0.13684936,0.027377812,-0.013907519,-0.13704142,-0.061250594,0.017506497,0.035302468,-0.05723971}, {-0.09509933,0.040273413,-0.17013817,-0.16103841,-0.033430446,0.055892956,-0.091196164,-0.008133339,5.49957e-05,-0.10632694,0.16760866,-0.09183825,-0.095561326,0.17327416,0.13723558,-0.16600749,-0.08137082,0.069740236,0.12234365,0.15089662,0.029149106,-0.11388038,-0.058321435,0.22236872,0.008739591,0.039878163,-0.014538357,-0.07320634,0.123036265,-0.17200479,-0.101489335,-0.22128353,0.029579805,0.09004322,-0.022033097,-0.17613038,0.06436807,-0.064179614,0.109091945,-0.030605054,-0.061556887,0.04004613,-0.009885548,-0.066129416,-0.059970338,-0.08655338,0.12331162,0.14938964,-0.13874167,-0.0962357,0.022339726,-0.241158,-0.15228924,0.094290055,-0.19149712,-0.0046467287,-0.07099302,-0.14056891,0.0057613696,0.019699484,-0.23466808,-0.1374544,-0.1354617,0.08584969,0.08010904,-0.11385667,0.050955188,0.094680585,0.08015797,-0.032229166,0.12026447,-0.027739171,-0.07319663,0.049483415,-0.11249249,-0.14888147,0.07821392,-0.09724802,0.07587581,-0.22937384,-0.16239086,-0.13663574,-0.030257829,-0.058337573,0.04117151,-0.010234674,-0.043028466,0.24464686,0.091604516,-0.002523935,0.06087088,0.15494406,-0.17841434,-0.0022955353,-0.12821048,0.13224171,-0.1732857,-0.16075067,0.10360072,-0.06648133,0.043607492,0.07258711,-0.014474451,-0.21523367,0.09333353,-0.068093486,0.030980432,0.09748083,-0.08277425,0.20829563,-0.13623571,0.02133673,0.20954308,0.062410776,0.08320814,0.020139359,-0.034249358,0.17689191,0.028926894,-0.012641078,0.0197993,-0.12056926,0.121581934,-0.16973871,-0.09122055,0.1109832,-0.15426582,0.10857831}, {0.023722772,0.0746733,0.019269075,0.037375245,0.08980704,0.0906793,-0.05896323,0.074785836,-0.20590101,0.15745981,-0.25460887,0.10410356,0.154402,0.01641906,0.070024885,-0.12707672,0.053858247,0.10920306,-0.04696202,0.051529616,-0.16521151,0.09388866,-0.0411487,-0.12632413,0.025076117,-0.22380657,-0.08320948,-0.086021334,0.16719523,0.05079839,-0.20692046,0.1232554,0.10028033,0.076483294,-0.05468557,0.13219815,0.09884408,-0.07311416,-0.13677306,-0.020513091,-0.052988093,0.15805961,0.06801278,-0.007827612,0.15508762,0.09630004,-0.08826326,0.024665106,-0.010418437,-0.1355477,0.15268601,0.038087606,0.15281549,-0.03125848,0.09994346,-0.2619442,-0.0738215,0.05215271,-0.014143863,0.046260245,0.16362275,0.049055412,0.061683405,-0.16020666,-0.14014545,-0.058160733,0.08488372,0.02122077,0.07577663,-0.12705104,-0.0016131952,0.10873559,-0.011861391,-0.044378117,0.08240812,0.2203241,-0.021329582,0.0735672,0.039495565,0.040905274,0.11989885,0.1251674,-0.21124814,0.20350623,-0.041375984,-0.034003057,-0.10776538,-0.16443548,0.12616119,-0.093800895,0.098561116,0.06290579,-0.072996534,0.050916523,0.039078284,0.10941254,0.16751498,0.15327846,-0.12779202,-0.0733206,0.027909504,0.08709102,-0.06931075,0.022955377,0.13866001,0.12440038,0.220581,0.03412189,-0.07699373,-0.14982952,0.15050334,-0.030583305,0.0294115,-0.114267364,0.18819353,0.13609871,-0.036486186,-0.10947676,-0.17333692,0.18456742,0.14509691,0.26501194,0.053793713,0.022964232,0.17158473,-0.14791597,0.1616651,-0.23608552}, {0.08418697,-0.03673713,0.027943728,-0.028889136,0.13772951,-0.114219084,0.19763751,0.10894941,-0.07045812,-0.08208891,0.10990124,-0.0635468,0.07689335,0.1197222,-0.0799444,0.10517423,0.116023876,-0.12449333,0.0027944827,-0.09126593,-0.13031375,-0.10134438,0.052952804,0.02715414,0.18907323,0.09186119,0.11600841,-0.038635135,0.093204774,0.16702685,0.22022271,0.15617858,0.0013667594,-0.101755105,0.14985178,0.11563215,-0.18566932,-0.06669141,-0.11350438,0.020169578,0.08078709,-0.08393342,0.026384585,0.09649774,-0.15004326,-0.050846115,0.05212172,0.13535005,0.03616698,-0.08576589,0.25414723,0.123250924,0.0023291893,0.12208181,-0.02469935,0.11539517,-0.20275816,-0.17286752,-0.1498941,0.085064776,-0.1371576,-0.022067634,0.20517537,0.08396746,0.003957686,0.04431649,0.26339805,-0.04543946,-0.12106211,-0.15900138,-0.15618218,-0.059931614,0.06769504,-0.15127523,0.015889013,-0.10306298,-0.13951236,0.025342062,0.037901133,-0.03422777,0.08980233,0.1951794,0.059019275,0.34149826,-0.032583594,-0.049280815,-0.035023052,0.028059352,0.17294051,0.08830255,0.05387749,-0.0486615,-0.024372464,-0.004640508,-0.15372081,0.08254731,0.12632371,0.1531121,-0.011415508,-0.04242515,-0.0460341,-0.03212004,-0.033858985,0.1389891,0.058426697,-0.1636965,-0.056630954,0.07798805,0.08370828,-0.08603155,-0.0802256,0.041685753,0.005893773,0.08993883,-0.059932966,-0.035621848,0.07676793,-0.032727182,0.10047211,0.0073656095,0.13388254,-0.21529032,-0.072411686,-0.117147006,-0.014424724,0.03835413,-0.18331234,0.027036281}, {0.12092934,-0.18002266,-0.14879568,-0.18613185,-0.026012791,0.15535635,-0.1166882,0.02497292,0.084935114,-0.1517523,-0.016238352,0.072874896,-0.09807414,-0.0022207014,-0.12340404,-0.07805605,-0.101685554,-0.08847081,-0.09782999,0.099241,0.054091968,0.15343162,0.28964582,0.12500647,0.08510847,0.066772506,-0.025774922,0.10125813,0.03463445,-0.07120823,-0.022798484,0.23360421,-0.13484207,0.1656238,-0.064113334,0.07086157,0.13288745,-0.13148531,-0.06455761,-0.071588494,0.05924839,0.061448105,-0.06021053,-0.14563753,0.010039529,0.13153073,0.16260584,0.061516922,0.12705539,0.17346606,0.08380928,0.20019212,0.046647657,-0.13190252,0.089035146,-0.14594294,0.12868927,0.035538964,-0.03173833,0.11816804,0.045802496,-0.10032271,0.03992646,-0.036653083,0.008894907,-0.09885347,-0.0031440319,-0.044846494,0.044925306,-0.005349078,0.092955604,-0.09064197,-0.11074461,0.23542781,-0.16819766,0.116581,0.016721413,0.009470648,-0.07994673,0.09684084,-0.033060096,0.09190339,-0.19131295,-0.07221842,-0.22009397,0.14360814,0.072700985,0.09614827,-0.04835196,-0.019532103,-0.17691053,-0.018209524,0.1453863,0.16286999,0.13031156,0.18392774,0.05949478,0.009752279,0.09923885,0.12001106,-0.17484644,-0.061762284,-0.10177503,-0.0013863874,0.033077806,0.16287479,0.023127068,-0.20024389,-0.14649439,-0.15598807,0.07154568,-0.20229925,-0.033179056,0.11287445,0.18374707,0.10890648,0.094905734,-0.11221515,-0.10841895,-0.04736979,0.030434519,0.054200225,0.00059025106,0.091683544,-0.1544623,0.07726745,0.25622728,-0.12050158}, {-0.120026395,-0.21332678,0.0072658164,-0.06869894,-0.1371151,-0.019717144,-0.15796296,-0.0713137,0.09054036,0.11192584,-0.097555384,0.004176002,-0.07304525,-0.018343374,-0.013422132,0.07363394,-0.0077257883,-0.020120088,-0.03998377,-0.03187226,-0.04259748,-0.00064198836,0.009770755,-0.08634813,-0.1220845,0.021833783,-0.06254497,0.16363074,0.079180844,0.04230476,-0.07304019,0.08153375,0.15419923,0.11704232,-0.069642,-0.049138345,0.08151367,0.05876489,-0.06419152,-0.013265165,-0.030467968,-0.074494176,-0.08699228,0.06378816,-0.071673326,-0.054114487,0.09337849,-0.12568444,-0.08358713,-0.05434808,-0.14353545,0.09890766,-0.1520728,0.1899242,0.1373473,0.021575825,0.061925653,0.18315768,-0.116069086,0.13415323,0.06515346,-0.14203669,-0.016278557,0.089165516,0.14645359,0.022618612,-0.116052605,-0.04091878,-0.15776189,0.042289313,-0.108558774,0.033570874,-0.18035947,0.074115366,0.05851507,0.074855685,-0.05166325,0.20169222,0.08924747,0.19252762,0.08384092,0.020027502,-0.02032342,-0.12796302,-0.07245859,0.010764202,-0.025148518,-0.06870221,-0.049109124,-0.042218637,0.04549849,-0.14981613,0.1306512,-0.05935211,-0.11471057,0.05701095,0.1750722,0.18479499,0.0049948897,0.050457317,0.011774615,-0.11915041,0.008690755,0.1678242,0.048450325,0.13409159,-0.13030402,-0.17587526,0.19190337,-0.090750664,-0.06966456,0.035011675,0.047509495,-0.18816048,-0.1001255,0.19822195,-0.11168929,0.11983169,0.012947658,-0.13802229,0.023729539,0.050672803,-0.103757925,0.09326462,0.15096375,0.15972497,-0.088367075,-0.078140095}, {-0.011650121,0.12500824,0.12595695,-0.025271233,-0.06671081,0.16619422,-0.018598355,-0.07302232,-0.11346899,-0.12475772,0.11660522,0.091930024,0.0827884,-0.029670762,0.10813178,0.019403394,0.13472389,-0.07828664,0.027914334,0.1177035,0.029795019,0.07487442,-0.02609666,0.018044613,0.07924341,-0.11467609,-0.20236276,-0.0898221,0.040946186,0.043863963,-0.2167014,0.07096661,0.00721067,0.15379557,0.017557949,-0.00038713473,-0.046749603,-0.15458427,-0.10475285,0.098979145,-0.02758972,0.024102911,-0.035258733,0.112238616,-0.1813999,0.10875084,-0.22161633,-0.047053907,-0.16563125,0.12024996,-0.11800544,0.0018562111,0.13709725,-0.08187812,0.14895155,0.08963963,0.092381306,-0.12742089,0.21143419,0.025620006,0.07215444,-0.03944023,-0.03907084,-0.116342686,0.10692651,-0.15680905,-0.02258172,0.07937445,-0.12368191,0.0979642,0.046080716,0.021267623,0.05859543,0.029811293,-0.09982408,-0.12972887,0.09998684,0.16129693,-0.09331803,-0.059477188,0.044916015,0.10462434,-0.013288686,0.15099311,-0.20433597,-0.041607164,-0.01565813,0.006529367,0.16101885,0.09349284,-0.08474937,-0.116544195,-0.10837856,0.07387269,-0.02431902,0.10635176,-0.027089266,-0.017457256,0.116390646,-0.04030672,0.124970846,0.043210365,-0.15987483,0.104899816,-0.023829604,-0.15573525,-0.045589037,-0.035587605,-0.07592217,0.10210763,0.16192809,-0.09787136,0.05069568,0.12572218,0.19142692,0.11581696,0.06661712,-0.09632555,-0.05820682,0.094377115,-0.20751381,-0.02837442,0.07939386,-0.12993121,0.057358954,-0.11734969,0.17632471,-0.04129959}, {0.06456794,0.04868648,-0.11081646,-0.108862475,-0.13747667,0.10740605,-0.20152022,-0.04296734,0.064135596,-0.08859882,0.015126311,-0.03419753,-0.074960336,0.014607801,0.14726755,0.0645169,0.14215088,0.04009586,0.09825666,0.086603254,-0.09566622,0.11985594,0.09700141,0.1376288,0.090619706,-0.086861484,-0.08023317,0.09703763,-0.038862262,0.15447637,-0.1406666,0.02218634,0.077800006,-0.0010463397,-0.11003077,0.13871661,-0.025141606,-0.0967376,0.08462586,0.12631822,0.14751405,0.089029014,-0.039331887,0.014204565,-0.039263427,0.00810136,-0.119899444,0.09359724,-0.08293454,0.09981084,-0.17519026,0.024304328,0.0404729,-0.112349525,0.12877217,-0.012696443,0.12683438,-0.08952524,0.16241083,-0.16047736,-0.03932978,-0.032080848,-0.089426085,-0.09658488,-0.08997073,-0.023038428,-0.17465335,-0.061541166,0.1205893,0.15989657,-0.16505979,0.12959236,0.044554055,-0.06592112,0.02412274,-0.070854984,-0.07017635,0.090265796,-0.083132386,-0.060343742,-0.01361496,-0.0066475766,0.00030908716,-0.2566747,-0.13717037,-0.02708014,0.09887228,0.14096622,-0.16136244,-0.07821649,-0.10781511,0.18814087,-0.07573332,0.15172055,0.2291099,0.22438659,0.19970784,0.066975564,-0.1463429,0.2032961,0.05118415,0.1182004,-0.14249405,-0.17397135,0.11672545,0.014355453,-0.13756509,-0.0043277824,-0.20860218,0.13877153,-0.17854145,0.043120876,0.033627197,-0.0139952395,-0.023384482,0.09747968,-0.04199577,0.1441281,-0.1611988,-0.080959335,0.09248557,-0.08031082,0.04429954,0.029390315,0.07376983,-0.030476172,0.029035933,-0.12537348}, {0.07740561,0.05085697,0.030750295,0.06291795,0.17174801,0.11682556,0.04156691,0.0035091336,0.12734514,-0.072573155,-0.22200778,0.059642464,-0.08992528,0.0820742,-0.11663688,0.050634477,-0.17373784,0.023038458,0.22962104,0.094690435,-0.12060402,0.09799153,0.0762018,-0.09164604,0.019879922,-0.11154862,0.12783943,-0.11833872,-0.18991138,0.052963853,0.18977448,0.067484915,-0.25659943,-0.051919702,0.034517683,0.010848198,0.1531669,-0.16089909,0.07919047,0.026348883,-0.06542292,-0.13574186,0.13798334,-0.10573858,0.15898539,-0.08920405,0.14534572,-0.06908416,0.08011006,-0.035471488,-0.033747725,0.16971576,0.10749366,-0.13467705,-0.084701866,-0.074575976,0.07492703,0.12829956,0.041065186,-0.11908551,-0.14874603,0.11484392,0.04823984,-0.10192182,-0.21262632,0.028851006,-0.044777825,0.1105706,0.062752984,-0.11623827,-0.14745682,0.09935866,0.16848636,0.061753586,-0.14856489,-0.23291172,-0.0015484965,0.04246214,0.029782778,0.11207078,-0.016084254,0.0522199,0.08480337,-0.001023265,0.0031426195,-0.15278094,-0.018610474,0.05001173,0.068668,-0.103484355,0.12128215,0.04011218,0.14455526,-0.0005939981,0.078969344,0.010342166,0.12043303,-0.10192492,-0.1207409,-0.098385036,0.08931628,-0.043045826,0.049284328,0.19234134,0.1931874,-0.017455008,-0.15359479,-0.08995663,0.103537805,-0.24237092,0.2859803,0.22324575,0.015136497,0.006528227,-0.1124685,-0.24732505,0.15026756,0.06722418,0.12010186,0.023365792,-0.14727008,0.07176757,-0.08530802,0.17488182,-0.094292834,0.1629589,-0.053218707,-0.09351392}, {-0.2079844,0.043598045,0.09235213,0.013762608,-0.051032797,-0.023548514,0.19773793,-0.042943653,0.085201666,-0.13075994,0.015791424,0.12428106,-0.09579376,0.15908422,0.09505369,-0.063122116,0.07104913,0.16557685,-0.012760012,0.18543251,-0.12891039,0.021152928,0.012054807,-0.0873073,-0.110919125,-0.030288612,0.03861772,-0.027357936,0.0991895,-0.06550533,0.01931929,-0.0052632447,-0.13407595,0.13115127,0.058879666,0.11641753,-0.033474676,0.0820839,0.060938325,-0.044920754,-0.23989244,-0.21789666,0.17729665,0.18716973,0.044204712,-0.034865182,-0.15119287,0.14699213,-0.13759354,-0.049031626,-0.062677465,0.06715695,0.07732887,-0.016899059,0.23277754,-0.05261562,0.08794949,0.16567218,0.087483816,0.12048263,0.023610467,-0.2206912,-0.19923797,0.001184939,-0.048727155,-0.0011274922,-0.084129006,-0.051386315,0.12659599,0.19675846,-0.014477451,-0.080644846,0.026544843,-0.032937106,-0.2761084,-0.023042431,0.22796176,0.11920404,-0.010015342,0.08463422,0.14306475,0.006470525,-0.09984518,-0.038884535,-0.07384988,0.15332769,0.074619636,0.0038906443,0.12538329,-0.07434886,0.036387794,-0.07296517,-0.040202275,0.15057845,0.10576774,-0.059232187,0.08487315,-0.0015899083,0.07395144,-0.04042918,0.23146072,0.11352322,-0.13470995,0.114692144,0.004253057,0.040157083,0.15598087,-0.1112605,0.006146419,-0.15016685,-0.07055426,0.16929458,0.15102862,-0.2203208,0.13425118,-0.066227935,0.10246377,-0.16232678,-0.034722038,0.17560941,0.106110804,0.05022219,0.19850801,0.15489917,0.14782481,-0.026693175,0.09184359,-0.12755081}, {0.15036558,-0.13013396,-0.17864016,0.13693793,0.021995107,-0.07227086,-0.20966525,0.06497856,0.09091604,0.013038284,-0.15452147,-0.24910636,0.008953434,0.0018755429,0.030948043,-0.034487803,-0.0033591364,0.07219718,0.08451475,-0.033524074,0.052190717,-0.1271256,0.12310064,-0.09423051,-0.076778315,-0.04602987,0.05873712,0.06557638,-0.11578977,0.12012283,-0.04392197,-0.054541126,0.1168619,0.047290016,-0.054271214,-0.10256979,0.06542558,0.09649632,-0.04384594,0.10907685,0.1760619,0.005149839,0.118392885,-0.041154932,-0.024075,-0.115200385,0.03985558,0.14951053,0.13736716,0.013116405,-0.13699111,-0.12343402,0.13775396,-0.0816922,0.048479244,-0.09367958,0.12703095,0.18958119,-0.06067437,-0.054513164,-0.0006487694,-0.13051042,-0.11188766,0.13227095,-0.14135128,-0.04524196,-0.04914329,-0.14678033,-0.08932636,0.11201088,-0.1295986,0.0020493611,0.09322518,0.06351355,0.12447378,-0.30651003,-0.052108977,0.048544865,0.039615214,-0.0020423317,0.14150542,-0.016983036,-0.099819005,-0.05130244,0.08160257,-0.0005693117,0.020198217,0.16479097,-0.13828973,-0.028396195,0.014038435,0.07875757,-0.031245632,-0.04420664,0.12822883,0.12676519,0.006211745,-0.04581937,0.008966247,-0.14850995,-0.12387631,0.0993178,0.025657592,-0.029511012,0.15053272,0.025501588,-0.24334155,-0.016759466,0.12555216,0.011451583,0.147061,-0.1572643,-0.21779095,-0.18569934,0.099583074,-0.17500597,-0.047343973,-0.10401176,0.06598338,0.0726068,-0.0029127344,-0.006539688,-0.078106746,0.053294033,-0.050474618,0.033021573,-0.15804735,-0.075241506}, {0.05422586,-0.062351372,-0.1439834,0.10374244,-0.03486513,0.09652846,0.058713783,-0.10702287,-0.11445548,-0.073469795,0.037318666,0.1341373,0.1168089,0.037514903,-0.053600594,-0.22285052,0.1489514,-0.01851174,0.083356075,-0.06214963,0.14600621,-0.1103432,-0.13074483,0.20211287,0.12168247,-0.13082653,-0.1224747,-0.039093237,0.012633344,0.019243289,-0.032327697,0.0020932108,-0.055572655,-0.11617925,0.062349107,0.08496488,0.06274776,0.014227199,0.19482777,-0.063433446,0.1640521,0.17190337,-0.10123519,0.04219725,-0.097971976,0.12996088,-0.061343517,0.0035263672,0.15141335,0.1590072,0.15402724,-0.1452107,0.06563746,0.08060959,0.09148712,-0.027645832,-0.19323657,0.16290848,-0.09123125,-0.1818488,-0.028707251,0.13546383,0.04338201,-0.08936677,-0.005519953,0.03899337,0.20018357,0.2351299,-0.14486417,-0.04102969,-0.066336416,0.072771505,0.067222774,-0.015607834,0.24087918,0.096990526,-0.03030794,0.2111387,-0.0032478333,0.16570467,0.13974883,0.029436333,-0.13780476,0.038656015,0.039488964,0.08784501,0.070251726,0.04688446,-0.11030301,0.115904346,-0.0022511168,-0.23576996,0.14131087,-0.13773672,0.09131177,0.017169219,0.09843,-0.0047231233,0.18241188,-0.08278953,0.00013917265,-0.03977257,0.14577392,0.06946716,0.057494048,-0.03130866,-0.031368565,0.10407179,-0.13271911,0.15635489,0.022695364,-0.018787745,-0.15025671,0.17681697,0.00970133,-0.06705185,-0.1480347,0.10274518,0.094432004,0.056669917,-0.10473376,-0.09351947,0.017359976,0.10080026,0.011100102,0.1964024,-0.0978599,-0.098725565}, {0.053366352,0.0078776805,-0.1501529,0.117529824,-0.037264574,-0.24588919,-0.015405308,0.12397234,-0.15815233,-0.07324286,-0.11274944,0.12990929,0.022590892,0.095498346,0.13713342,0.09343062,-0.17829496,0.10986085,-0.13522507,-0.054441545,0.06936905,-0.107048474,-0.18304566,-0.2297129,-0.07179936,-0.079726055,0.07412144,0.1286362,0.10172039,-0.023695473,0.060112853,-0.19118746,0.0010701839,-0.14476691,0.026259778,-0.00796076,-0.03996561,0.19334804,0.07355173,-0.20388328,-0.12066987,0.080402635,-0.07450699,-0.021692038,0.13628013,-0.084205434,-0.109257154,0.03995774,-0.027967008,0.0019432128,0.07667662,-0.24848884,-0.078068696,-0.16585389,-0.2447302,0.11219735,-0.021179331,-0.11401163,-0.10307593,-0.061096366,-0.1390493,-0.023690602,-0.11035967,0.03956962,-0.065788135,0.069434896,0.27625346,0.0740394,-0.14361961,-0.17520896,0.096704416,-0.09292643,-0.052453663,0.15045194,0.0065355697,0.15644008,-0.09238749,-0.15323569,-0.13712204,0.031057267,-0.027553098,0.03986299,-0.14773625,0.041464046,0.10080368,0.014289663,-0.16259812,-0.097036146,-0.026834644,0.22494763,0.20017631,-0.0062073646,0.03633849,0.021985406,-0.15555692,-0.13201101,-0.041470215,-0.17217267,-0.008500131,-0.060275078,0.005663131,-0.10983052,-0.047545668,0.11217914,-0.16811176,-0.046326697,-0.08815414,0.07527447,0.24654765,-0.13763756,0.06836091,-0.033813443,-0.018858619,0.23311803,0.012453474,0.0346317,0.10670186,0.13651273,-0.062378272,0.1476833,0.15598819,-0.20463395,-0.15447901,-0.16583295,-0.060615573,-0.034803864,-0.025682112,0.20623071}, {-0.025157675,-0.09073105,0.08906911,0.07761869,0.08383195,0.12820193,0.08569407,-0.15564322,-0.11004528,0.116128474,-0.17760782,-0.14931884,-0.19150466,0.12043642,-0.04484916,0.02214702,-0.08279532,-0.13979864,0.13511708,0.11468617,0.06713076,-0.022838432,-0.0782481,0.028897973,-0.09357637,-0.06707897,-0.034998316,0.07794046,0.038494732,0.039801244,0.038926966,-0.035965964,-0.20204094,0.149338,-0.071114995,-0.061396003,0.08664566,0.14235319,-0.09812956,-0.06674659,0.0746264,0.07109992,-0.067946725,0.0038052406,-0.15669312,-0.04345696,0.1525285,-0.14698204,0.014180469,-0.14891893,-0.080661535,-0.033991642,0.06136291,-0.010213375,-0.083839245,0.034360398,-0.016638722,0.010807303,0.11389534,-0.012394173,-0.050908763,0.085820094,-0.09114459,-0.02043928,-0.2123619,0.193385,-0.014890028,-0.13297185,-0.027251577,-0.057651617,0.0028136133,-0.15962817,0.11994762,0.1807042,-0.06150229,-0.26291522,-0.15573204,-0.026736947,0.14537695,-0.13996291,0.010523519,-0.0034326396,0.16246787,0.14594902,-0.101213045,0.05305371,0.12977189,-0.07422116,0.08755852,0.041371487,0.023764178,0.031255282,0.11617251,-0.05217341,0.105574235,0.12629664,-0.09605501,-0.27734914,0.15776132,0.017480105,-0.14757396,0.0622449,0.03500095,0.062486473,0.018665692,0.09592475,-0.18160859,0.06738773,-0.074956656,0.057681207,0.1532371,0.13755718,-0.11509399,0.13711073,0.080328695,-0.24582677,0.013747492,-0.11083439,-0.14423385,-0.0605279,-0.016297,-0.098680235,-0.18471858,0.04924173,-0.055421557,-0.060189698,0.02610832,0.06829719}, {0.09102346,0.022564024,0.029263092,-0.058390908,0.17008203,0.12707853,0.12373111,0.021705,-0.020270735,-0.05914305,-0.1359725,-0.082393564,0.038460452,-0.14488079,-0.12363125,-0.060622536,0.15902248,-0.13134177,0.20599511,-0.05864415,-0.13949193,0.018624706,-0.046429392,-0.18805258,0.047097754,0.043326266,0.037493687,0.0019725214,0.18746175,-0.08887475,0.008165714,0.17236526,0.012782537,0.035423934,-0.069378786,0.00024624204,0.24138103,0.06646005,-0.07162149,0.0054438906,-0.15216643,-0.00042783056,-0.11674513,-0.09038757,0.14502548,0.1439386,-0.002039526,0.018630741,0.21810926,-0.09799299,-0.022219736,0.18101694,0.016441846,-0.06421133,0.10679725,-0.14537819,-0.09013232,0.114247315,0.05901884,0.19751851,0.053355042,0.00084832194,-0.18178982,0.028432574,-0.07806125,0.10920435,-0.022276772,-0.106123514,0.19304071,0.07847106,-0.06518209,-0.09173359,0.17550565,-0.12981164,-0.21518108,0.17834188,0.007175215,-0.19912651,-0.005918022,-0.027525268,0.039484177,0.13201281,0.14654037,-0.012787438,0.06501065,-0.15810546,-0.08882591,0.116405234,0.023063285,-0.07190199,-0.07454001,0.13562758,-0.07948104,-0.14819077,0.08409617,-0.12041366,0.2106961,-0.010288634,-0.054142315,-0.100484826,0.07247821,-0.100605406,-0.008008879,-0.046755943,-0.013610518,0.081432864,-0.066178426,0.009852155,0.08246504,-0.08415521,0.1253276,0.09455207,-0.12935993,-0.11548398,0.031826932,0.011095446,-0.05477699,-0.12276639,-0.09552607,0.0091242865,-0.01739145,0.12579411,0.005173553,0.10858865,-0.07776458,0.04106427,-0.031190047,0.077906184}, {0.19871934,-0.030361556,0.038609903,0.05550494,-0.087013975,0.043146696,0.042023316,-0.10653349,-0.07937838,-0.23102634,0.08209062,-0.04491028,-0.092436865,-0.13894023,-0.12824011,-0.1171274,-0.14334963,-0.14251608,-0.023639899,0.02114601,0.06588279,0.08505137,0.13361071,-0.034908473,0.04115097,-0.10429142,-0.08667672,-0.11625041,-0.030059218,0.024598718,-0.15805899,-0.0105532035,0.036631756,0.0520259,0.06813969,-0.05415303,-0.09627016,-0.1555565,0.12757365,-0.014555333,0.095457144,-0.13260902,-0.06977916,-0.1887548,-0.1795398,0.12175229,0.11331077,0.21597342,-0.12627105,-0.01767756,0.04361018,0.005820517,0.22954778,-0.1273603,-0.049436986,-0.16687468,0.10439174,-0.24260828,-0.0689732,-0.05950806,-0.17510901,-0.09413966,0.008571432,-0.056829065,-0.017562652,-0.11932664,0.12652563,-0.05365673,-0.22402616,0.14589076,-0.12692536,0.093356736,-0.0021278523,-0.24370623,0.13093297,0.0574397,0.12240187,-0.112905316,-0.13505217,-0.047812663,-0.0056024985,-0.1354007,0.019204138,-0.117200546,0.1525059,0.10092477,-0.1270763,-0.042366233,0.2068039,0.26540792,0.13449001,-0.14428248,0.051765583,0.03909952,0.23072696,-0.1439525,0.13691278,-0.20218319,-0.076893955,-0.10495295,0.0278877,0.07149136,-0.110307634,0.09449578,0.05182025,-0.18947259,0.07814937,-0.1154552,-0.24893557,-0.0859093,-0.21616423,-0.18258281,-0.05356324,-0.11834353,0.06832163,0.2151003,-0.16287784,0.1524659,-0.17067336,-0.017984305,-0.26348385,-0.096795626,0.020498544,0.02820464,0.052280918,0.21120068,0.12486709,-0.16766933}, {-0.25938842,-0.14913143,0.12566206,-0.1960365,-0.1630238,-0.033000167,0.00044428132,0.23636998,0.110440284,0.2685014,-0.26489577,0.19545096,0.20559137,-0.21519671,0.24313094,0.009433355,0.021956585,0.14030768,0.10883275,-0.1977168,-0.008708639,-0.17544453,-0.031912424,-0.12653124,0.09101387,0.023875212,0.09140667,0.031847537,0.0063991398,0.047873925,0.10996135,0.025095714,0.17725997,0.08272648,0.119924076,0.012488648,0.18792768,0.12859744,0.0071846414,0.015831487,0.10077384,0.014635437,0.058696333,0.18962218,-0.05367047,-0.022066575,0.029008556,-0.09570579,-0.16110729,-0.2171768,-0.08018559,0.14180206,-0.21910101,0.21786675,-0.17390227,0.062868,-0.056458075,0.063436374,0.14437684,0.122169204,0.024280777,0.045775857,0.10561181,0.18243033,-0.0818014,0.14508611,0.1809048,0.128849,0.24996412,-0.17525145,-0.02224462,0.1647246,-0.09889251,0.20657913,-0.124966204,0.23881203,0.07969148,0.047515187,-0.038767967,0.187704,-0.047139622,0.1261317,-0.015843105,0.2399777,-0.01917434,-0.21042332,-0.22385982,0.03495334,-0.15086599,0.14832261,-0.14608508,0.0352526,-0.04076562,-0.072552666,-0.21463342,0.0023939675,-0.22051072,0.0754847,0.19613807,-0.12364431,0.08035979,-0.16127367,0.0072516147,0.08318693,-0.07726722,0.14084427,0.063292705,-0.11731997,0.326878,0.11288001,-0.1266967,-0.16950132,0.09542551,-0.032587394,-0.09284981,-0.023629839,0.013041483,-0.11036705,-0.03646458,-0.05804237,0.041649964,0.05840717,-0.02575614,0.05447404,0.10412779,0.0065884665,0.05702727,0.078156844}, {-0.016242383,-0.16609873,-0.1670483,-0.019991335,-0.12941667,0.10919703,-0.081850894,0.12879534,0.04787265,-0.07741549,0.04034575,-0.1185339,0.01855147,0.04326466,-0.15372019,-0.025185978,-0.19528335,-0.016708726,0.15332703,0.032754887,0.15191245,0.16151042,0.16010529,-0.04660188,-0.09411986,0.08878796,0.054126956,0.024340665,0.061298635,-0.28513348,0.21608497,-0.06986337,-0.11270466,-0.21461397,-0.1276704,0.046468154,0.03615231,0.19861832,-0.1149305,-0.091240644,0.17712826,-0.121049285,0.1974879,-0.040827174,-0.034622245,-0.082649015,0.15674935,0.1164425,0.2177688,-0.04510887,-0.22303161,-0.2824078,-0.029954351,-0.3109542,-0.024695873,0.09202602,0.09272559,-0.19946483,-0.10473568,0.08954604,-0.23372497,-0.23329844,-0.107376225,0.08064695,0.07913878,-0.08076691,0.1501875,-0.06399092,0.07999666,0.106108285,0.040465422,-0.009630721,-0.21690342,0.13049792,-0.14276193,0.062136747,0.101739556,-0.095010996,0.17726217,-0.14522815,-0.22596444,-0.08725316,0.0115533965,-0.2649625,0.21627262,-0.023732308,-0.16202438,0.09841433,-0.043007385,-0.17363428,-0.08672966,0.085553594,-0.0698076,0.099313535,-0.093328975,-0.026871229,-0.12646174,-0.26400155,-0.029554976,0.13215707,-0.057436116,-0.016136164,0.03491084,-0.14850806,-0.15311095,0.07425936,-0.019126475,0.041659437,0.07115753,0.0037133095,-0.16667195,-0.012544633,-0.015020748,0.05952362,-0.010744882,-0.099055365,-0.09928957,0.020571578,0.14181262,0.11279543,-0.2075417,-0.040982883,-0.019506954,-0.1998389,-0.2443477,0.16447636,0.094682746,0.036073506}, {-0.10531635,-0.019838769,-0.04508694,-0.10599222,-0.062071174,-0.07361158,-0.16812906,-0.17819536,-0.012760781,0.29929858,0.007407864,0.094917655,-0.08208893,-0.11237242,0.059137966,0.13629419,0.15283361,-0.0026859622,0.032545593,-0.077075124,0.08025698,-0.03149921,0.05821716,-0.09051658,-0.13152538,0.2456166,-0.03573394,-0.09637385,-0.084739156,-0.020918235,0.014816738,-0.22264579,0.06288144,-0.096227646,0.012683119,-0.013333814,0.04315399,0.17378406,-0.00925694,-0.060446225,0.00822739,-0.11585568,0.14689146,0.11735157,0.11714077,-0.10190781,0.04093487,-0.17859823,-0.005212147,-0.09572997,-0.14517777,0.10031657,0.083817795,0.06696897,-0.07400187,0.10505461,0.16156706,-0.03735137,0.024216106,0.05648459,-0.13299243,0.060575154,-0.011577257,-0.041794114,-0.2097439,-0.052449025,0.027608233,0.07073555,0.09662616,-0.1395815,0.16061988,-0.028044203,0.011844719,-0.031217422,0.0043537216,-0.051068716,-0.048553865,0.12295709,0.0007977139,0.15129232,-0.119729206,0.08941685,-0.022175584,-0.023314625,-0.08224123,-0.06289915,0.0023762742,0.124085605,0.035223633,-0.026402311,-0.011029269,0.09747701,-0.05142196,0.089761265,0.037106615,0.07183677,-0.05184906,0.07251647,0.051120926,-0.09020406,-0.06450666,0.075256914,0.08892038,-0.058618337,-0.0054108407,0.08065341,0.037736543,0.014455022,0.19111848,-0.12484484,0.045460273,0.04025656,-0.18443587,-0.14631559,-0.037767805,-0.124321215,0.3004703,-0.035549466,-0.07975722,-0.06918364,0.14838167,0.058094364,-0.034655333,0.14742208,-0.092137486,0.0025547051,0.10952614,0.12913169}, {-0.015784308,-0.13566346,0.10669445,0.07583897,-0.06957423,0.004398349,0.024520006,0.13168259,-0.045995407,-0.15761039,-0.11461517,0.09667686,0.32695204,0.046171088,0.06257897,-0.00085599546,0.13057604,0.019310808,-0.12363082,-0.124668494,-0.05869691,0.13068715,-0.011335638,0.016361017,0.21119736,-0.17345181,0.08731858,-0.10183863,0.16341698,0.09512962,0.07620573,-0.09985637,0.06422223,0.10389624,-0.0676063,0.098248124,-0.14700903,0.06289938,-0.015098013,0.008954881,-0.05244912,0.07960321,0.12115904,-0.059109904,0.05673012,0.008775028,-0.0120914485,-0.07500001,-0.09100743,-0.041947555,-0.0384377,-0.1642937,0.082182944,0.09430133,0.033230938,-0.13208833,-0.0217036,-0.06893075,0.14490189,-0.13608949,0.19271678,-0.14683606,0.2444242,-0.03278638,-0.015924765,-0.12577413,-0.023594508,0.10467507,0.009115401,0.012195865,-0.10988524,-0.08832116,-0.12064297,0.10277691,0.14336427,-0.014588689,-0.16136116,-0.048978522,-0.15050974,0.07570865,-0.083846755,0.111794405,-0.039650176,0.07825027,-0.044139378,-0.21644737,-0.1884476,-0.2304708,-0.018035537,0.15005264,-0.15779518,-0.02017457,-0.099437535,-0.14087167,-0.12567644,-0.14298505,0.07162781,0.22677925,0.14041887,-0.07583784,0.07059451,-0.019427981,-0.0070075705,-0.021805067,-0.110292196,-0.024842793,0.02784354,0.046780434,0.10187221,0.1374159,0.07740486,-0.1791009,-0.03415559,-0.058642715,-0.07705283,0.07969003,-0.08915227,-0.19322012,0.08353349,0.043923784,0.19354618,-0.03798367,-0.16297242,0.06489813,0.032763194,0.023022039,-0.0069661844,-0.00530186}, {-0.017630218,0.023708627,0.014292988,0.12489441,-0.004630535,0.069628105,-0.18709542,-0.15982604,0.14674215,0.14035778,0.10602737,-0.019492181,0.004049536,0.061545588,0.1143769,0.13128653,0.03307204,0.0493971,0.14672628,-0.08657394,-0.007338835,0.09712726,0.07803927,0.14931434,-0.078918636,-0.034242075,0.06770765,0.14073548,0.068186894,0.12945715,-0.011645123,0.067163356,0.043402024,0.064332224,-0.111347616,-0.13707323,-0.034720562,0.12579188,0.13706112,0.05370612,0.18861769,0.028799968,-0.13507679,-0.070304126,0.04772003,0.059611626,0.02848126,0.07697719,-0.08084478,0.04692772,0.027442891,-0.089624375,-0.1947715,0.12866516,-0.10692854,-0.10522718,-0.05158406,0.21561195,-0.20167165,-0.022541111,0.009419216,0.08274753,-0.27522683,0.26046088,-0.14978282,-0.058807556,0.061523,0.17627148,0.048914056,-0.0836492,-0.014787651,-0.025644818,-0.15571032,-0.12205926,-0.025077961,-0.2280914,0.0059636463,0.06075662,-0.052407324,0.055395503,-0.17491071,-0.12195701,0.036545627,-0.17664874,-0.09929163,0.06871387,-0.11246317,0.21708916,-0.17301439,0.04253114,-0.06145197,0.12367513,0.07615591,-0.04524185,0.03626056,-0.076776624,-0.08390718,-0.29471248,-0.043541703,0.0056312857,-0.09442671,-0.08729345,0.065693624,0.082183175,0.080594696,0.13746028,-0.092952,0.13435422,0.12521508,0.020155873,0.0773992,0.09750396,-0.028967088,0.0852543,0.12454062,-0.10179806,0.10881086,0.1440717,0.12320183,-0.04641064,0.08810479,0.029263398,-0.11244684,0.030096343,-0.084860966,0.18965031,-0.13415043,0.07821197}, {-0.039498057,0.16980815,0.011456231,0.035870988,0.04703601,0.13148142,0.03847309,0.025669152,0.20577621,0.026563056,-0.036284976,0.014811951,-0.14826967,0.0036670598,-0.0061069634,0.07213555,0.18071644,-0.09557014,0.23877218,-0.15718965,-0.10421244,0.028764913,0.094122015,0.032754935,0.06242516,0.22374877,0.15244052,-0.04552496,0.04826708,-0.047528446,-0.12137216,-0.09125784,0.028890643,0.1441834,-0.060888514,-0.10722569,0.20366885,-0.10934852,-0.1872572,0.033691727,0.014816045,0.15099616,-0.13021906,-0.06837862,-0.07474246,0.0470605,0.059647325,-0.11676995,-0.044246305,-0.06311742,0.11417044,0.07027903,0.11136793,0.27985236,-0.07458681,-0.027690161,-0.06177048,0.09580209,0.14121138,-0.07326094,-0.18549268,0.083315,0.14478122,-0.09296038,-0.14306597,-0.12788925,0.07337858,-0.1781273,-0.11692506,0.06394177,-0.094454885,0.01972108,0.044430364,-0.046251666,0.06041321,-0.062489066,-0.09484531,0.23327647,0.062068265,-0.08611887,0.1809069,-0.02060371,0.09795874,0.013189673,-0.24531738,-0.024767425,0.14841108,-0.04318046,-0.112496644,-0.1805833,-0.005102415,-0.018354151,-0.09187245,-0.0486964,-0.104971364,0.24143983,-0.06405567,-0.16211024,0.021829348,-0.07344929,0.04767633,0.16680717,-0.11660334,0.029089287,0.1299812,0.032209482,-0.025003633,-0.027259687,0.009705967,0.011442894,0.1117948,0.13806042,-0.11796276,0.044173807,0.042400267,-0.17574045,0.22532336,-0.10162435,-0.017071873,-0.14787127,-0.09591271,-0.010360547,-0.13128859,-0.014557595,0.17712797,0.14947496,-0.15608126,0.29189298}, {0.015098175,0.17245059,0.13127224,-0.07536069,0.06993012,0.01275267,0.10436314,0.06477047,-0.03891211,-0.004163964,0.15988371,0.06164254,0.011395102,0.02582356,-0.04260008,0.15133308,-0.06818829,0.021136021,-0.017706037,-0.085608214,-0.08814618,-0.06954439,0.0772027,0.07365522,0.16330437,-0.010389697,0.12786458,-0.15728813,-0.15886894,-0.26289853,-0.04799912,-0.20434695,0.0816909,0.05278873,-0.016491657,0.11914522,0.044667553,-0.22117169,0.051239476,0.06322512,0.09341316,-0.16493489,-0.20165265,-0.08272717,-0.012959478,0.034409434,-0.17617069,0.08122195,0.045690782,-0.027962567,0.025069786,-0.027800098,-0.040393446,0.21443585,-0.19488509,0.04272806,0.028865365,-0.1455095,0.11463221,0.0900517,0.04938468,0.18765101,-0.057106093,0.15833294,0.06680764,0.11214598,0.0944147,-0.018422937,0.004563486,-0.101040706,0.17807345,0.15336622,0.09276986,0.08932806,-0.023374379,-0.13169491,0.12733899,0.12910771,-0.081781976,-0.19926712,0.043707404,0.15397929,0.05102039,0.043190137,0.01325527,-0.090609886,-0.11227603,-0.043419894,-0.059588067,-0.08687441,-0.17954876,0.022437962,0.07601341,-0.19099686,-0.12377311,0.097912066,-0.051623937,-0.03849944,0.060273524,-0.1772397,0.13473776,-0.078974046,0.055036914,-0.049171768,0.062517166,-0.025356907,-0.051111028,-0.08578097,-0.092118755,0.056800418,-0.030188426,-0.055663373,-0.19482562,0.0070949798,0.005241603,0.1580732,-0.05521206,-0.019940097,-0.091511436,0.2157227,0.16303433,0.09074669,0.10152194,-0.054813776,-0.021661013,-0.22514766,-0.15163362,-0.14356847}, {0.08490246,-0.16355541,-0.24569917,-0.14070484,0.024734983,-0.11922142,0.112563975,-0.004667365,0.14233193,-0.02456467,-0.07082541,0.16571225,0.078146026,0.06971731,-0.0094839595,-0.19361313,-0.038089145,0.246258,-0.026586417,0.21955729,0.019165363,-0.1121721,0.23722734,-0.11866506,-0.13305883,-0.028793322,-0.016367543,-0.12643126,-0.1529475,-0.10461371,-0.10462692,-0.020230634,0.10754985,0.13019167,-0.2437582,-0.10274025,-0.014652503,-0.112273306,0.093974985,0.031587645,0.1500931,0.21939714,0.006376497,0.056550924,0.13895288,0.13411744,0.11966426,0.16571268,-0.08917925,-0.13308531,-0.120291494,0.0077932295,0.109781176,0.1399038,0.22420113,0.1616366,-0.057665013,0.15579087,-0.046954203,0.01236262,-0.010406211,0.10268578,-0.13392188,0.11840867,0.12538148,0.055480517,0.06164047,0.082364686,0.068118684,0.21515669,-0.18297806,0.16462347,0.08908487,-0.09803234,-0.0016947157,0.044327814,-0.034208108,-0.0036330768,-0.0038809776,-0.16284218,0.16664957,-0.042746566,-0.115255535,-0.15177035,-0.13825072,0.13471481,0.14345051,-0.098850556,-0.037649628,0.10525656,0.14098932,0.09356903,0.026936535,0.10970038,0.12947299,-0.11925182,-0.002786249,-0.07220746,-0.07251932,0.10658713,-0.06190921,-0.026890561,-0.045280974,-0.0036192946,-0.1087216,-0.13673046,0.014668534,0.029477429,0.0881317,-0.15396427,0.0007215466,0.030593328,-0.032200426,-0.0916472,0.049895704,0.10474383,0.012300696,0.050077897,0.04373464,-0.04308487,0.1082793,-0.055767804,0.22116737,0.036178917,-0.00034260572,0.16148199,0.06736417,0.023091184}, {0.08336656,0.034094512,0.08507719,0.2421004,-0.040758144,0.134388,0.02109988,-0.08835566,-0.0019470176,-0.01677299,-0.19294576,0.1091771,-0.09109502,0.17400552,-0.019413657,0.17582704,-0.030560084,0.013095443,-0.07014833,-0.07291475,0.08680554,0.144987,0.030113842,0.0058864346,0.18745348,0.2556681,0.20755072,-0.11799616,-0.15096056,0.20805942,-0.116484985,-0.040026315,0.17963219,0.118780516,-0.15705444,-0.14194165,0.08274851,-0.1966862,0.03290999,-0.03107903,-0.00050031976,0.0059326794,-0.10634323,0.025756642,0.04974906,-0.11316693,0.17055029,0.15347935,0.1391477,-0.01987771,0.09401361,0.13816953,0.051362887,0.2672303,-0.08597317,0.24225862,0.05677707,-0.07675375,-0.17767896,0.07199091,-0.008456852,0.15567459,0.22118309,0.13036385,0.13520896,-0.16248997,-0.10110177,-0.11217515,0.023687366,0.11219103,-0.1677104,0.023333268,-0.022253303,0.07767949,-0.014241439,-0.20407502,-0.049560055,0.20369062,-0.20735049,-0.09493082,0.019815072,0.12704788,-0.008750783,0.033276822,-0.08934048,-0.021832528,0.23430778,0.089529686,0.00031057483,-0.17051624,-0.054171313,0.19644204,-0.049756765,-0.024033574,0.09489895,0.19778506,0.20455588,0.06241526,0.009856663,0.060461808,-0.103764616,0.08702067,0.0045387493,0.046015292,0.14129676,0.06734299,0.05858016,-0.095856674,-0.091092646,-0.06905914,0.23416753,0.09821063,-0.076055475,-0.14244898,-0.017244266,-0.034484442,0.17029944,0.06983283,0.08090083,-0.07685994,-0.18495888,0.11714287,-0.054006837,0.24578442,0.13761277,-0.0322524,0.16343029,0.095599025}, {0.015453345,0.08512148,0.16384128,0.0017035624,-0.09624577,-0.12908651,-0.08344352,-0.13475877,-0.013973272,0.046069525,-0.08260645,0.07475622,-0.08913419,0.0031831064,0.08633441,0.22140023,0.095212445,0.044171654,-0.08682985,-0.050108545,-0.14459686,0.043510165,-0.1680596,-0.09806578,-0.03599512,0.13185884,0.018915283,-0.09925591,-0.02450718,-0.043174155,-0.025276778,-0.11093261,-0.13736483,-0.04421843,-0.0074532926,-0.030122783,-0.09607611,0.13160214,0.00695369,0.041160177,-0.07952121,-0.16516869,0.023532463,-0.008868153,0.07462963,-0.13492657,0.004255022,-0.062290903,-0.19287615,-0.13808535,0.11402044,0.15729277,-0.09631117,-0.08490354,-0.0011864167,0.19809136,0.083155654,0.028716566,-0.016508874,0.016634116,-0.10734836,-0.04324299,0.068857566,0.0692974,0.019494234,-0.11741181,-0.18264997,0.11002433,0.044114996,-0.16399476,0.0069992514,0.031277515,0.0979719,-0.12614237,0.023002759,-0.11861823,0.058320265,0.036809202,0.058930174,0.27756158,-0.039779473,0.104217425,0.003860368,0.12503034,-0.09448479,-0.16191669,-0.04627572,-0.16099645,0.12873816,0.12232768,-0.014124053,-0.095733985,0.07660157,0.022432808,0.0009354008,0.03793144,0.02259574,0.07038621,-0.08989515,-0.111431584,-0.13462667,-0.04672141,0.10453417,-0.0554556,-0.1414251,-0.001734498,0.10656918,0.050601944,-0.052653465,-0.08442472,0.11113109,0.05248643,0.11439781,0.11971833,0.110786274,-0.10823468,0.18016997,-0.14114337,-0.06801938,-0.13228422,-0.029001383,-0.096390516,0.0069906716,0.12364164,0.06133643,-0.19878912,-0.16405255,-0.0022229515}, {-0.124270365,0.020914283,0.07693748,0.040195473,-0.007884688,0.14483145,0.07991883,-0.15663296,-0.16861777,0.16334939,-0.019819122,-0.044898108,-0.029959679,-0.07843238,0.18745327,0.17938302,0.12643978,0.0015448676,0.16726783,-0.03270467,-0.11338993,0.00045870309,-0.04636549,-0.062005896,-0.11610569,-0.102200925,0.011134094,-0.19334063,0.13154404,0.043352466,-0.0054006753,-0.13447402,-0.018900737,0.027216194,0.18754259,0.1282017,0.24915405,0.05985994,-0.0044313828,0.2540708,-0.14819936,0.11815242,0.051044017,-0.18586895,-0.07361001,0.0020125692,0.16947144,-0.10190064,0.15681103,0.03465228,-0.0613939,0.07983045,0.16863286,-0.06036836,0.0355087,-0.013013274,0.053581502,-0.014951306,0.004977176,-0.08601911,-0.109118715,0.013489937,-0.16562267,0.05006382,0.06414348,-0.100778036,-0.2099468,0.0778873,0.06319233,-0.078214586,-0.034881428,0.029799351,0.04398965,-0.088690385,-0.027333932,-0.15438665,0.08699082,-0.08816793,0.11846857,0.021827603,0.11882351,0.1717407,0.10724984,0.017056396,0.033114977,-0.1499427,0.079326205,0.09481607,0.12522447,0.08409858,-0.22404853,0.13782194,-0.07430325,0.058976777,0.1291668,0.051968053,0.006145419,-0.12803508,-0.1606613,0.21880466,-0.10417299,-0.056095857,0.0787522,0.0023671833,0.054204613,0.20922743,-0.06654358,0.10601958,-0.13583606,-0.02031328,0.20639889,0.1454161,-0.07022477,-0.06963427,0.067169406,-0.19741318,0.13151243,0.10215359,0.06395953,-0.25465187,0.03086357,-0.11241213,-0.23579866,0.050860155,-0.038160127,0.0152458055,-0.041917656,0.10326936}, {-0.078053586,0.08009369,0.09829286,0.08796157,0.06477386,-0.017852737,0.123521365,-0.16210915,-0.16187286,0.10159944,-0.0006989088,0.110535644,-0.15967101,0.072753824,0.10407075,0.024186784,-0.06518151,-0.15904701,-0.0005138649,-0.053205173,-0.20533125,-0.031974304,-0.00668065,-0.048632532,-0.027074967,0.07466725,0.009459761,0.037779465,-0.11920564,0.1117083,0.040390354,-0.26058125,-0.18959223,-0.10142331,0.049842257,-0.05274699,0.19025628,-0.06715156,-0.037453264,0.15054813,-0.079383895,0.0012873567,0.10919037,0.16788387,0.031791758,-0.062976904,0.13797289,-0.10815604,-0.02161192,-0.20521936,-0.11774381,0.07415809,0.056822315,-0.07807578,-0.12658405,0.26054153,-0.117279075,-0.18787631,0.13718994,-0.014135941,0.013012389,-0.14817826,-0.10820644,-0.010538472,-0.07844248,-0.14180948,-0.10999887,0.044503793,0.09309033,0.072410665,0.10129998,0.031981196,0.09936804,0.028505472,-0.09674914,0.03817832,0.0025314912,0.0076058293,0.045599196,0.10275049,-0.04524479,-0.008060548,0.19256802,-0.012741565,-0.13635957,0.12291175,0.10260218,-0.07044765,0.059705656,-0.15794955,-0.17196746,0.19609171,0.013191543,0.06099692,-0.10938249,0.14731836,-0.086487174,-0.08701464,-0.18340768,0.08683585,0.20038988,-0.08904428,0.07988977,0.05176382,-0.16701618,-0.021351313,-0.16655739,0.1608211,-0.0286578,-0.06860808,0.0030827026,0.15303645,-0.024463352,-0.1116528,-0.19062418,-0.13981597,0.049032185,-0.08089522,-0.06917846,-0.13335809,0.16948506,-0.027121542,-0.12781791,