#pragma once
#define W_DENSE_BIAS {-0.040560644,0.0011178786,0.04307065,-0.021320174,-0.022352926,-0.014961456,0.034630045,-0.0012452941,-0.046098076,-0.019108098,0.007534262,0.00065360474,-0.0061194454,-0.05105606,-0.015635153,0.003543419,0.0330119,-0.007619825,-0.029557168,0.06633242,0.0038417566,-0.058524694,0.065155216,-0.022207526,0.013105041,-0.05770508,-0.05539706,-0.024231063,-0.01868336,-0.04366301,-0.065697365,0.037998438,0.05324856,0.034301408,0.01162025,0.053317193,-0.06570793,-0.053267993,-0.047900006,-0.0476694,-0.07363016,0.028745782,-0.051656812,0.029960623,0.014477213,0.029994993,-0.023192909,-0.006743299,-0.032328587,0.007858849,-0.06393812,0.05504514,-0.019752447,0.03278522,0.014028823,-0.021512853,0.0362462,-0.011512646,0.006409155,0.0611598,0.03357348,0.026497206,-0.005460388,-0.0652886,0.05923837,-0.018100463,0.02206473,0.030879656,-0.04859666,0.015664833,0.005292628,0.0015597953,0.033462565,0.016139418,0.03180647,0.04963199,-0.005094584,0.015173374,0.027554717,0.003747237,-0.03845603,-0.0059841136,-0.04050744,0.054179467,-0.026373057,0.049117588,0.011100273,-0.051876415,0.020231526,0.0058478555,0.052202992,-0.0029908628,-0.028131722,-0.011931918,0.004981065,-0.027571008,0.023458265,0.031615287,0.016759353,0.0065458557,0.017610272,-0.00028534082,-0.0033331723,0.05197291,-0.016909366,-0.067247525,0.09086369,-0.05280229,-0.015960788,-0.01006943,-0.0016090189,0.008142575,-0.026051013,-0.051025752,0.025962597,0.07503521,-0.045966346,-0.020928243,-0.016903376,0.038087707,0.0049787215,0.045070685,0.10691198,-0.017507154,-0.036651656,-0.01665243,0.015476724,-0.08278385}