#pragma once
#define W_LSTM_KERNEL_O {{-0.08454038,0.07249743,0.029953714,-0.065202005,-0.03887126,-0.061615963,0.08079072,-0.15331112,0.013827147,-0.06753032,-0.21112445,-0.14028956,-0.1096197,-0.118364096,0.059525825,0.026130004,-0.19680724,-0.06835683,0.033323042,-0.07071753,-0.048332572,-0.10430873,-0.048106033,-0.0038846359,-0.17565276,-0.0740082,-0.023287108,-0.16295755,0.06457521,-0.058610674,-0.1525261,0.026402296,-0.084191754,0.03436115,-0.07031983,-0.14944799,-0.07310815,-0.05515553,-0.14872305,0.022087844,-0.1372969,0.08380085,-0.11519057,-0.10673306,0.0051613357,0.078541584,0.072184525,0.077473275,-0.028473593,-0.14619641,-0.0552222,-0.08721694,-0.13631335,-0.014876718,-0.1066014,-0.042712957,0.014814113,-0.005793141,0.056809325,0.007409636,-0.13114518,0.008626454,0.0066148257,-0.06915177,0.010418782,0.08048715,-0.010566585,-0.06376255,-0.030579362,-0.053094428,-0.19787416,-0.031535193,-0.18924533,-0.10400906,0.06380664,-0.031571075,0.0072157644,-0.108452715,0.012727243,-0.02983095,-0.10838612,0.09757009,-0.02138869,-0.11855169,0.09510291,-0.037789002,0.061989784,0.029012293,0.082612865,-0.13685675,-0.100526705,-0.030943263,-0.06103652,0.07582867,0.06476126,0.053506054,0.08711931,-0.029575316,0.043458946,-0.027188288,-0.0122311795,0.048309196,-0.034670077,0.0871244,0.010428946,-0.026922278,0.021512728,-0.048468616,-0.05511455,0.039266612,-0.14939064,-0.1818176,-0.14012173,-0.10022241,0.10125996,-0.026406117,0.006699982,-0.06608875,-0.12339773,-0.06834784,0.0320834,-0.1251994,-0.076109916,-0.044825707,0.027795386,0.053352743,0.15668842,-0.0785707}, {-0.120975845,0.104635276,0.07616263,-0.00600983,0.068628326,0.045466106,-0.052035026,-0.1106749,0.023930078,-0.119941294,-0.2543171,-0.11561468,-0.16706343,-0.14612134,-0.0051471936,-0.1194168,-0.1852804,-0.024296125,-0.002204912,-0.011517171,0.017177874,-0.030889532,-0.08901124,-0.102551654,-0.15773359,-0.056061316,0.029353062,-0.14997128,0.051049974,-0.03202006,-0.09889016,0.06563012,0.009798806,-0.15915006,0.077214085,-0.04196437,0.027130919,-0.054603294,-0.07311233,-0.047534958,-0.026523916,0.029004652,-0.19874093,0.01324315,0.1243996,-0.064230554,0.07382677,-0.049874995,-0.10887606,-0.05638129,-0.0886996,-0.1273615,-0.05681521,-0.015517884,0.07488764,-0.06449493,-0.035057675,-0.11201703,0.06570998,-0.010952815,-0.008322634,0.0956706,-0.13289018,0.0053146016,0.058546733,0.0076177963,-0.08124188,0.0049027437,-0.06759098,-0.0084162075,-0.14376187,0.034829736,-0.056675885,-0.056564678,-0.071893945,-0.023572505,0.00016023708,-0.042482834,-0.0774845,-0.1419869,-0.105800144,0.01079233,-0.023964709,-0.09209015,0.07903679,0.053986847,-0.036863048,0.049912594,0.105001226,-0.09358318,-0.11860843,-0.037803207,-0.06562659,-0.0025450261,-0.036245663,-0.0529863,-0.009287419,-0.15084127,0.01580292,0.021532992,-0.024936425,-0.043247897,0.03303409,0.0690646,0.022027338,-0.019405015,-0.09693911,0.11849082,-0.1278669,0.0063839224,-0.28038105,-0.18276641,-0.029351441,-0.01518182,0.03752112,-0.1230885,-0.11469244,-0.16894172,-0.021670826,0.04954954,-0.081708394,-0.06642545,-0.03208062,-0.045400303,-0.114167616,-0.014978146,0.0861209,-0.032830868}, {-0.01727922,-0.020799313,-0.11996259,0.039117146,0.082025215,0.060790982,-0.07788987,-0.10453499,-0.12365103,-0.046612956,-0.16317871,-0.06533301,-0.14996943,-0.054460198,0.025356593,0.04367165,-0.113685094,-0.006485212,-0.029733913,-0.11297024,-0.12741664,-0.0018479258,0.026031796,-0.0369466,-0.21269129,-0.15976089,0.08169646,-0.05225564,0.049416542,0.09693354,0.047483753,-0.030206827,0.06881319,-0.15920466,0.07053808,-0.043205455,-0.042000305,0.08605868,0.003372785,-0.07664748,-0.00021801982,-0.106333844,-0.042485606,0.06795767,-0.017151624,0.048999373,-0.07468591,0.040482633,-0.1420932,0.039801445,0.016244296,-0.20194931,-0.06823125,0.0027699838,-0.016915966,-0.05496881,-0.10426703,-0.13266337,-0.13156769,0.024006158,-0.1618718,-0.018655475,-0.009102814,-0.012922076,0.04692636,0.019611938,-0.04647758,-0.06393076,-0.087822646,-0.061111607,-0.1234332,-0.03701037,-0.059918374,0.041143633,-0.009240501,0.023778398,-0.04012278,-0.019925894,-0.12454043,-0.07471645,-0.12480373,0.06058816,-0.037295412,0.01428315,0.039482493,-0.081323005,0.12464992,0.016562348,-0.084036805,-0.037769552,-0.107593514,-0.07342276,-0.02552296,0.03234607,-0.0108689135,0.13090523,-0.08776377,-0.095285974,0.051311318,0.08740601,-0.068784,-0.088871725,-0.07696929,0.0746998,0.0148693165,0.0056689274,-0.15577503,-0.064144306,-0.07067633,0.035323154,-0.19806531,-0.09736129,-0.05590582,0.002487308,0.00075719826,0.038390823,-0.0557269,-0.15623373,-0.04483032,-0.017017616,-0.07465052,-0.03072489,-0.13821106,-0.017582178,-0.08466243,0.048084896,-0.020022316,0.017903637}, {0.05759667,0.03584139,-0.021994585,-0.073493525,0.011282549,0.011962257,-0.08794235,-0.07636914,-0.15565822,-0.12247884,-0.18335512,-0.07454286,-0.036523372,-0.084861614,0.013801854,0.03961841,-0.16990642,0.06583554,-0.044732623,0.023722835,-0.12200727,0.06543581,0.029891789,-0.13052207,-0.13154456,-0.06371137,-0.106233254,0.017242748,-0.025790175,0.09813423,-0.10794727,-0.08935742,-0.08411286,-0.09633236,0.03825955,-0.0566275,0.09830646,0.07525483,-0.079493724,0.022962298,-0.09397419,-0.08639167,-0.09083563,-0.034502663,0.12685856,-0.108615115,0.059200604,0.05874961,-0.13249151,0.03655243,0.033483602,-0.2661569,-0.0058037676,0.030623112,0.06513243,0.031523544,0.065625265,-0.11018505,-0.10149928,0.055091076,-0.019557673,-0.052557804,0.055970885,0.075504586,-0.03350401,-0.012572157,-0.0151018435,0.027868858,-0.16460145,-0.094821714,-0.09921385,0.04208882,-0.14961766,0.026297793,0.038588,-0.03509671,-0.0045512053,-0.15636091,-0.06968763,-0.116253786,-0.117550835,0.014596984,-0.09230776,-0.08384721,0.09686584,0.0070399693,0.08023246,-0.12421135,-0.04504753,0.012415772,-0.15095036,0.039280836,0.039195158,-0.06631925,0.022884943,0.0988332,0.03315661,-0.0021343557,-0.06261866,-0.03354789,-0.10894611,-0.07035052,-0.00026138616,0.1216376,-0.092877164,0.0006462044,-0.016532917,0.07609837,-0.048060592,0.015818147,-0.10801634,-0.008490994,-0.094101034,0.053074505,-0.05632904,-0.017232941,0.013864323,-0.05255409,-0.12772775,0.05383591,0.026234733,-0.066354886,-0.061709467,-0.09860838,-0.06861362,-0.07961576,0.030064438,0.03532133}, {-0.07820461,-0.09974404,-0.081108265,0.0051970514,-0.10508192,-0.0029039532,0.0020236007,-0.09887499,-0.14824618,-0.16405834,-0.0841763,-0.11648141,-0.04607853,-0.17399348,0.04777155,0.05347229,-0.1412297,-0.03639341,0.05541635,-0.0533165,-0.061226465,-0.15785381,-0.027681354,-0.14053299,-0.05669936,-0.021508286,0.00831661,0.030029098,0.028203487,0.048203196,-0.09995497,-0.03998536,0.028623039,-0.08088596,-0.006793085,-0.14837727,0.025757963,-0.027147995,-0.00048395066,-0.004156485,-0.10168296,0.039852887,-0.1483052,-0.13454571,0.08411583,0.028315907,-0.037264887,-0.11586983,0.051763438,-0.114211366,0.055793934,-0.14796242,-0.0062093954,-0.1046187,-0.082225375,0.0642104,-0.118280426,-0.087610565,-0.04180185,-0.0022011958,-0.09178791,0.092468776,-0.09427369,-0.0027443983,-0.008121786,0.06706988,-0.13306534,0.015807318,0.01387094,0.056609184,-0.07369606,0.1234492,0.0022842463,-0.027357562,-0.02713703,0.062024202,0.03635972,-0.17232995,-0.14302355,-0.11336522,-0.18968172,0.0057599684,-0.124351375,0.0029991127,0.045049317,-0.07570664,0.07018232,-0.030586349,0.018146593,-0.10400474,-0.009537013,-0.062396504,-0.0025028381,0.057038464,0.011720997,0.14431985,-0.037051987,-0.017504204,-0.077999085,-0.07985884,0.040084884,0.0054804566,0.00043699495,-0.025817161,-0.052247003,-0.02859967,-0.04901408,-0.08090316,-0.20440602,-0.049115412,-0.17549343,-0.17200485,-0.18693556,0.0783124,-0.023426423,-0.07821503,-0.15509732,-0.09355695,-0.07425368,0.02138306,0.12184957,-0.022204692,-0.18579721,-0.17391972,-0.07592167,0.016195467,0.026764935,-0.15386438}, {0.012009658,-0.1253762,-0.008045419,0.002713636,-0.07850391,-0.02894647,0.07190017,0.07378346,-0.09653564,-0.17255172,-0.19077314,0.029905757,0.06673992,-0.03552255,-0.11066147,-0.04329283,-0.17626826,-0.004541744,0.13768485,0.01573296,-0.009740093,0.043754198,-0.002906973,-0.13721044,-0.004364481,-0.017774567,0.08158839,0.005668118,-0.0894603,-0.019261638,0.05826026,0.07247438,-0.10751062,-0.14007144,0.042400125,-0.019966802,0.020291852,-0.015386522,-0.017962564,-0.012576627,-0.124040134,0.031222874,-0.081558965,0.016030965,-0.050401695,-0.011495383,-0.057531357,0.057865288,0.0008708822,0.04619725,-0.00051512383,-0.25174657,-0.09595606,-0.025234545,-0.014786091,-0.009616498,-0.0060224384,-0.0014175848,0.044909507,-0.0049381275,0.017179597,0.07827432,-0.076864466,0.06763362,0.025285257,-0.063594386,-0.020118758,-0.106139675,-0.047552183,0.04192742,-0.053685147,-0.039760094,-0.047742058,-0.1374864,-0.045967363,0.1104169,0.016222749,-0.075410776,-0.08831267,-0.10050583,-0.1036838,0.03533494,-0.27006182,-0.00053176197,0.010290154,0.058562372,0.120871164,-0.17240106,-0.07500902,0.06498432,-0.028508687,-0.02216113,-0.110155225,0.05949197,0.030918963,0.058989417,-0.053064767,-0.11077578,-0.046179544,-0.03709402,-0.013185129,0.07574958,-0.20338525,-0.0012619261,-0.00075817143,-0.12513883,-0.17704299,0.12069977,-0.20630988,-0.13348906,-0.15620613,-0.16442846,-0.16808875,0.022455208,0.09649293,0.094081394,-0.14748935,-0.28202987,-0.08733118,0.045334823,0.08280368,-0.061230812,-0.061585788,0.042786893,0.03429047,-0.040418,-0.032103933,-0.098439075}, {0.07162289,-0.15331636,-0.08613938,0.06084755,-0.0026064308,0.044223633,-0.027143514,0.07201117,-0.11658073,-0.065946996,-0.024567585,-0.12502116,-0.06197682,-0.021630643,-0.11772379,-0.059551988,-0.0025872323,0.014508169,0.07991234,-0.0016111336,-0.0639488,-0.07356132,-0.0747102,-0.06374403,-0.068477854,-0.062199816,-0.05168715,-0.051359408,-0.116011515,-0.062013187,-0.065373875,0.10653197,-0.016031522,-0.10076037,0.0031122055,0.0383003,0.0013742278,0.11228465,-0.014807085,-0.116976365,-0.13258748,0.08096373,-0.025443206,-0.13356464,-0.016099848,0.0050933026,0.012572324,-0.057517473,-0.013522582,-0.02205906,-0.08413652,-0.23400064,-0.119526215,-0.014513538,-0.09655938,-0.04021928,-0.04416322,-0.1449495,0.08227872,0.0819908,0.048472606,-0.07981665,0.015332906,0.09470963,0.03338895,0.0820149,-0.06430714,0.08224144,-0.1802302,-0.13935119,-0.028671317,0.03253038,-0.11780643,-0.013526097,0.05773162,0.03009819,-0.20370482,-0.14467616,-0.053298432,-0.10338565,-0.1546462,0.07838059,-0.09953692,0.018342795,-0.01294826,0.056282654,0.04270138,-0.06956259,-0.1135081,-0.0054776403,-0.05790742,-0.01965736,0.04402106,-0.00501397,0.02239724,0.14357743,-0.124747165,-0.05047532,-0.009811209,0.049277272,0.0392137,-0.00628817,-0.14971045,-0.033501547,0.04247515,-0.16998698,-0.14366782,0.016375327,0.010715238,-0.09658988,-0.004903557,-0.21146582,-0.06335994,0.070847586,0.09680567,-0.04870266,0.034767754,-0.13910057,-0.012442147,-0.04169215,-0.034429405,-0.13717048,-0.040394157,-0.09496909,-0.11896943,-0.0427663,0.031306926,-0.10016374}, {-0.027967576,0.001170405,0.034885548,0.05428289,0.019941384,-0.03637276,-0.12712887,0.028835448,-0.07802896,-0.053435273,0.030295823,-0.040805243,0.07524152,0.024536977,0.025055189,-0.05087168,-0.16091473,-0.06591786,0.07442594,0.17692399,0.08875787,-0.086096436,-0.17710611,-0.13956524,0.010665766,-0.01828025,-0.0055439966,0.008005373,-0.13334696,-0.043283537,0.07275004,0.037177045,-0.06669291,-0.05548069,0.015282042,-0.06331174,-0.034630306,0.03001814,0.013339039,-0.12666221,-0.037415832,0.058001466,-0.06601578,-0.15100683,-0.07868594,-0.02560338,0.037614465,-0.08359353,0.10408905,0.03195372,0.0041835443,-0.08020499,-0.08387101,0.04147831,-0.05736709,-0.019139463,-0.07053648,-0.04965703,0.044008877,0.08142256,-0.026785431,0.08108256,-0.10346604,0.04179719,0.068479836,-0.08666728,-0.017133297,0.022539863,-0.12599045,-0.087357365,0.002577012,0.044454075,0.049875114,0.035470366,0.029579068,0.047696598,-0.14620404,0.03098624,-0.0071921404,-0.069256626,-0.18153436,0.032452215,-0.14870708,0.097037435,0.09641571,0.18097128,0.11191875,-0.13613953,0.07143619,0.02079579,-0.027749011,0.011478963,-0.0094483625,0.021504356,-0.048791908,0.005902464,-0.10905197,-0.07081911,-0.09135214,0.101689294,0.051869657,-0.035640225,-0.17572789,0.0116224885,0.04393646,-0.11660856,-0.10559358,-0.053604282,-0.09562785,-0.05203973,0.029516462,-0.08344634,-0.14853922,-0.123119295,-0.075764135,-0.029241174,0.0028998873,-0.18496671,-0.1244997,0.12410043,-0.0197021,-0.2263065,-0.24399103,-0.08182865,-0.027188895,-0.04440764,-0.07891491,-0.060021486}, {0.0877967,-0.046063386,-0.03215981,0.0635457,0.05638703,-0.013543778,-0.04948773,0.19665176,0.10207805,-0.12558067,-0.04779218,-0.13774583,0.020391503,0.07458178,0.01124323,-0.11071706,-0.21337138,0.13436507,0.11951533,-0.008991727,0.016735757,0.11597791,-0.1261825,-0.067006476,0.077301405,-0.18993445,0.0141823385,0.07375301,0.025048897,0.0640632,0.11760974,0.029206349,0.04702701,0.045653097,-0.060711842,0.11135945,-0.019770304,0.07253514,-0.09011397,-0.07880622,-0.12128957,0.049973313,0.0019138239,-0.20933604,-0.11929444,0.14127041,-0.044840533,-0.07452939,-0.103547364,0.10576007,-0.0910446,-0.06669446,0.09208714,0.05836362,0.040493388,0.021289308,0.02674042,-0.056720823,0.0620134,-0.05348902,-0.10768395,-0.13990542,-0.013207044,0.0047038943,0.06955053,-0.100384556,-0.116121806,0.11914299,-0.14893703,-0.031043941,-0.090340614,-0.0754318,-0.10949991,0.06027889,0.04579854,0.07452482,-0.22748452,-0.10359489,-0.009287967,0.073962085,0.0024619475,0.0419896,0.054043874,0.101586476,0.07489813,0.04671665,0.05749363,-0.014784082,0.0695019,-0.17137174,0.05473397,-0.06795376,-0.042392142,0.09811415,0.031309493,0.06476487,-0.05878085,-0.06528129,-0.09557544,0.1019261,-0.1183772,0.13512874,0.033233676,-0.08016264,0.19402952,-0.14570875,0.020720346,-0.07965843,0.041577145,-0.06807945,-0.04519694,-0.086032666,-0.019383283,0.016199572,-0.020322964,-0.13382633,-0.18572117,-0.165707,-0.11817274,0.04828659,-0.072019726,-0.36598632,-0.21945652,-0.109641075,-0.10026066,-0.0076547577,-0.04814431,-0.06616936}, {0.091577515,-0.0012994962,0.09041631,-0.04353153,-0.13412629,-0.12482648,-0.10479829,0.2622137,0.013502095,-0.12440036,-0.009476272,-0.051254738,0.038174674,0.10019239,0.11035432,-0.09647957,-0.03594562,0.09056582,0.03423574,-0.03980288,0.03591274,0.13774268,0.002695723,0.0045723096,-0.009241078,-0.0883344,-0.030894844,-0.071854524,0.047003772,0.002234841,0.1873924,0.108674206,0.011861541,0.01217293,-0.14983433,0.058512166,-0.08030751,0.12048572,0.029867804,-0.06673868,0.099479765,0.112789445,0.071457125,-0.13965498,-0.0553256,0.07958575,-0.0066140937,0.033557355,-0.053212464,0.008620521,-0.008910579,0.03320126,0.15239024,0.14525992,-0.017492674,-0.06245272,-0.06367316,-0.24882695,-0.08692322,-0.057799146,-0.058401957,-0.102963015,0.11144723,0.04520411,0.007639404,-0.08547908,-0.022351174,0.17544073,-0.18042561,0.054252967,-0.10181401,-0.0012765012,0.030950772,0.104805686,0.0467908,0.07037432,-0.060825817,0.07966791,0.021447245,-0.015825436,-0.080410525,0.04522081,0.063248895,0.1539191,0.0810932,0.08657728,-0.024472257,-0.107497595,0.042224243,-0.18721102,-0.090626195,-0.07724149,-0.05955868,0.19009386,0.010553547,0.11679634,-0.1452807,0.03430761,-0.20319016,0.039814267,-0.053082086,0.073114455,0.082200885,0.023018721,0.072527476,-0.07872377,-0.04602924,0.05244126,0.051474918,-0.142359,-0.13284363,-0.15404092,-0.06416128,-0.06666434,0.061047763,0.020070232,-0.031375058,-0.11486787,-0.091681756,0.14664836,0.09156983,-0.34806842,-0.25283688,-0.08755981,0.11603411,0.017505681,0.036690973,-0.15983291}, {0.08150459,0.051600855,-0.11561165,0.004952955,0.0068777883,0.004640338,-0.0342659,0.106160544,0.025520748,-0.045292296,-0.12392357,-0.10449734,0.09551692,0.09676344,0.10392114,-0.18565159,0.0076115434,-0.025218204,-0.02068075,-0.049098164,0.04319237,-0.0025327508,-0.038333353,-0.16439189,-0.055480838,-0.10302888,0.045020424,-0.07665635,0.111391775,0.0928929,0.02878737,0.03736147,-0.026663488,-0.095757805,0.029118897,0.099245645,-0.1037258,0.10377763,0.17031878,-0.0034210922,0.14960754,0.052531723,-0.14620373,0.017670192,0.025509315,-0.0046198857,-0.09636975,0.04204498,-0.04732172,0.06985784,-0.035356674,-0.12912378,-0.08148538,0.019715074,-0.026445672,0.11617429,-0.040542986,-0.11595019,-0.14629127,-0.0565877,0.22425903,0.08406977,-0.016227672,0.12389446,-0.022511248,-0.0176628,0.050869655,0.119510345,0.0002612163,-0.081298254,-0.030964574,0.037949234,-0.13115795,-0.037943456,-0.07145177,0.02798468,-0.19706266,0.1909707,0.16363803,0.07794553,-0.11027453,-0.0021176196,0.025308987,0.14356159,0.016619053,0.19826196,0.113180034,-0.064803384,0.06416004,-0.029389556,-0.13579203,0.043484084,-0.084419705,0.17846635,-0.07716131,0.117238425,-0.023440456,0.06514475,-0.0325632,0.06870284,0.043563303,-0.024332328,0.04452157,0.06546688,0.17984809,0.003386932,-0.14080538,-0.105025224,0.15406398,-0.15230557,-0.072654426,0.0056574363,-0.17195079,0.04384599,0.0440421,-0.12575394,-0.15599945,0.07375539,-0.021820934,0.20088194,0.0023136148,-0.1913747,-0.20377238,-0.15985699,-0.023719983,0.08343129,0.051093224,-0.06768974}, {0.14384839,0.029502964,-0.07918391,-0.057935856,0.0016737479,0.07656783,-0.17496876,0.25951424,0.019840628,-0.008415069,-0.019218879,0.022398518,-0.060824785,0.10188918,0.09958492,-0.09626289,-0.039809242,0.0228589,0.08734433,0.007346999,0.01119431,0.05788069,-0.14652622,-0.108541876,-0.021351313,0.011938581,-0.0567,0.06933076,0.30618986,0.035676334,0.0981445,0.122974634,0.12113185,-0.17538829,-0.07200447,0.018284716,-0.14061272,0.19567865,0.24790084,0.085995674,0.03887508,-0.016344711,-0.019895893,0.066006765,0.00441462,0.020635646,0.10110494,0.010031817,-0.098936304,0.05115332,0.039381996,-0.07415021,0.027292559,-0.011557203,0.08982476,0.1643152,-0.06340966,-0.11152818,-0.07767014,0.068473354,0.08204787,-0.046891373,-0.0736299,0.05320574,0.0064547914,-0.16262038,0.04815021,-0.02229264,-0.17531922,-0.032824535,-0.0026935788,0.06236915,-0.15193927,0.15447949,-0.08495484,-0.0548422,-0.17568474,0.09902659,0.109898984,0.066876516,0.044164356,0.05026525,0.06180246,0.003182416,-0.06441957,0.06291216,0.036498804,0.12279659,0.0451736,-0.11974955,0.06284976,-0.12090959,0.12176709,0.11271109,0.09149746,0.14679585,-0.041747063,0.11191373,-0.074177034,0.021765657,-0.056427084,0.08822407,0.1538757,0.08678826,-0.024375495,-0.067898355,-0.123524144,0.034755513,0.048336722,-0.1030652,0.081837416,0.05242766,-0.04681559,0.08065987,0.025874905,-0.16965242,-0.085080236,0.007740746,0.008454702,0.3096626,0.09659845,-0.20349956,-0.07001179,-0.050208546,0.047468804,0.05308435,-0.09509164,-0.07311792}, {-0.02788901,0.17044844,0.058394894,0.019004114,0.17074315,-0.035750523,-0.1457078,0.145023,0.043830585,0.04581301,-0.16779512,0.13289228,-0.09436312,0.03129876,0.16254403,-0.09259542,0.08005376,0.24014921,0.012638263,-0.124897964,0.0965557,0.069291905,-0.24695209,-0.10233999,-0.10601857,-0.08287018,-0.035812832,0.10885958,0.2531305,-0.02726931,-0.013806794,0.09785659,0.25621802,-0.13637437,0.04471713,0.15116963,-0.1303026,0.24731007,0.2010106,0.051847573,0.20432974,0.04095201,0.01012887,0.016642945,-0.008401187,0.08077485,-0.061585367,0.17622647,0.053609725,-0.017923072,-0.16102605,-0.06746429,-0.066685855,0.04322388,0.055485744,0.017046465,0.14138995,-0.09350718,-0.124707386,0.032665994,0.042369165,0.19126692,-0.12455475,0.00270846,0.1125103,-0.00783315,-0.11528431,-0.018626548,-0.015674664,0.15844703,-0.07325906,0.047385335,-0.010407099,0.23116009,0.03541012,-0.054465886,-0.17807586,0.045142002,0.07305623,-0.0658802,-0.11443217,0.015231319,-0.07185818,-0.04749297,0.09216612,0.122469425,-0.074463114,0.12524208,-0.07345729,0.117838725,-0.03127467,-0.063443236,0.12429908,0.061794132,-0.014393424,0.19460331,0.042476922,0.14190723,-0.08450903,0.10445202,-0.12779737,0.044194393,0.17000122,0.11302998,0.12870134,-0.09967617,-0.15964007,-0.06553862,0.07378048,0.12242873,-0.104887106,-0.032139294,-0.15468405,0.063021176,0.08319263,-0.13669494,-0.15079772,0.0096627,0.0018283844,0.13191316,-0.0037974631,-0.14206901,-0.11193653,-0.027445437,-0.10995677,0.10570502,-0.13546325,-0.008230701}, {-0.022230804,0.066895686,0.13142596,-0.0955497,0.06792559,-0.043054834,-0.11273769,0.15017138,0.034730934,0.0030741591,-0.061170913,0.0410241,-0.110677615,-0.055182207,-0.0013621097,0.055809192,0.019696632,0.2158992,-0.047303505,-0.08973621,0.13851817,0.1339711,-0.07935557,-0.18336809,-0.09276389,0.067616306,-0.03234327,0.09257796,0.20404711,-0.087892346,-0.05292719,0.17048177,0.10059841,0.0043099835,0.06326013,0.13763972,-0.03334368,0.18748617,0.053788554,-0.057677433,0.13632055,-0.039645053,-0.015888013,0.15662187,-0.120604716,0.012791816,0.10345597,0.28776264,-0.05224408,0.08524112,-0.13773714,-0.13675204,-0.13536446,-0.03169554,0.018963577,-0.085114144,0.19629745,-0.096291296,-0.037405882,0.07097494,-0.15063882,0.18790093,0.053526513,0.21679002,0.031337623,0.16325478,-0.18799299,0.06379542,-0.071855545,0.03283054,-0.033833135,0.05721167,-0.011965447,0.117713064,0.11463158,-0.06440077,-0.22254916,-0.034526985,0.13361196,0.10550747,-0.15477602,0.064788215,-0.23318522,-0.041665785,-0.033348322,0.1542042,-0.062299583,0.20980303,0.04013101,0.07236139,0.03717569,0.082584865,0.2612886,0.03541582,0.009776441,0.08445271,0.20462094,-0.03429565,0.18752515,0.03613959,0.08351932,0.049641762,0.18012258,0.049387716,0.09366654,0.07580876,-0.28495076,-0.030068094,0.08831725,-0.0005696241,-0.10275927,0.056473825,-0.052088946,-0.033511322,0.15451416,-0.10622782,-0.11578809,0.018560898,-0.07472825,0.17595996,0.052644305,-0.1289888,-0.0640214,0.08427904,-0.041511387,0.17102884,-0.047049467,0.16282563}, {-0.13531575,0.06641847,0.012750919,-0.069485955,0.24269728,0.0571097,0.024189217,0.09847553,-0.052608144,0.08861576,-0.013437165,-0.028208312,-0.1951404,-0.11851534,-0.03376846,-0.10110717,0.006524251,0.17858174,-0.18182738,0.017390845,0.13763748,0.140871,-0.16001105,-0.14075679,-0.15156047,0.16415572,-0.027794229,-0.030410932,0.09093588,0.01761147,-0.051122583,0.16235271,0.09325656,-0.08883102,-0.0166482,0.031824514,-0.10852912,0.08899774,0.1955598,-0.016973667,0.14147367,-0.021686045,-0.047030814,0.014559177,-0.02377189,-0.058471635,0.047648106,0.32104945,-0.068847835,-0.028692322,-0.08434062,-0.18395904,0.06611841,0.048040107,-0.08294747,0.029483192,0.07091612,-0.05354693,-0.04143413,-0.0418474,-0.09440967,-0.020315308,0.14407524,0.17178614,-0.0386493,0.13899907,-0.19012114,0.09444536,-0.0050174175,0.039474547,0.056087274,0.11340067,0.040850874,0.030968355,0.16768259,0.14869201,-0.22446218,0.07958773,0.094236866,-0.008132692,-0.054613635,0.07396109,-0.1911442,-0.02227983,0.06400495,-0.015280809,0.065632,0.003166935,0.18873739,0.28646564,0.15626672,0.12488855,0.21430932,0.14390711,-0.0654344,-0.022481944,0.054540157,-0.04466438,0.21141392,0.08694087,0.07711769,0.04279805,0.16292356,0.10638737,0.055280052,0.04469901,-0.05388205,-0.13172099,0.1114142,0.06991053,-0.19682522,0.0028347448,-0.21329533,0.04255763,0.058328632,-0.03073996,-0.049580704,0.14604075,-0.031986024,0.26536223,-0.018069565,-0.027617851,0.024009276,0.08736038,0.15345204,0.1822014,-0.011903356,0.039598998}, {-0.0444218,-0.0034277549,-0.0839153,-0.076137014,0.029827546,0.028560111,0.055684175,-0.023339631,-0.017644277,0.017713431,0.12715566,0.22631533,-0.13900384,-0.1351983,-0.07464496,0.07584626,0.048530646,0.075282104,-0.019418273,0.031450525,0.07746952,0.01155755,0.10276386,-0.2461503,0.0022345046,0.2651086,-0.0012432357,0.03586078,0.1406503,0.1316925,0.018418632,0.059210584,0.03226898,-0.0071629947,0.0974753,0.03269677,-0.11481025,0.08403773,0.05545972,0.079492785,0.2616284,-0.03729783,0.034352582,0.0966053,-0.104259275,-0.08189258,-0.024123088,0.17464797,-0.0073739705,-0.11491997,0.050627477,-0.052037418,-0.0126934815,-0.07569222,-0.185762,-0.0048378357,0.0045302617,-0.072772525,-0.23489887,0.034803096,-0.16877726,0.020552773,0.049636852,-0.029684091,-0.039572544,-0.010136651,0.037864618,0.11196927,0.049941823,-0.077874765,-0.16960615,0.14680405,0.10221379,0.08015182,0.05559651,0.033587404,-0.11202647,-0.029295009,-0.05087327,0.16743755,0.121809475,0.123003684,-0.24977194,-0.024861742,-0.12681979,-0.13115138,0.07479042,0.14257532,0.009296045,0.24974918,0.09466233,-0.020890046,0.16813394,0.027974948,0.023191962,-0.08704651,0.1164081,-0.093822874,0.28146172,0.09222799,0.15887183,-0.029124303,0.018562192,0.11844671,-0.044054918,0.032943647,0.028512713,0.007855453,0.06626132,-0.057376746,-0.194165,-0.019228049,-0.13625416,-0.05017453,0.06406584,0.14204639,0.12794629,0.028468981,-0.09657322,0.1017809,0.04389778,-0.18718892,0.022416564,0.01993754,0.30554092,0.14698033,0.09711945,0.025971228}, {0.06417582,-0.09995753,-0.22912928,-0.11605973,0.017694697,0.0067126798,0.034651533,0.05456243,-0.023149064,-0.09943286,-0.040513426,0.031286012,-0.13006127,-0.12983,0.014116961,-0.0670484,-0.051291432,0.018429704,-0.12007079,0.06112131,0.13147494,0.0005132647,0.09671256,-0.11073349,-0.04965139,0.3377468,0.06082933,-0.04261332,-0.026862632,0.039664745,0.00067765487,0.20950703,-0.0871838,0.039735857,0.13966134,0.10720675,-0.048126914,0.16147968,0.14455451,0.020640496,0.091223896,0.13438983,-0.077459686,-0.054599173,-0.057516184,-0.019311463,-0.16953744,-0.0037209822,-0.012813387,-0.10773473,-0.046321154,-0.08043934,0.025041906,0.046074774,-0.17573005,-0.10970892,-0.019736852,-0.027899262,-0.20681325,-0.008476724,0.013542886,0.019943083,0.0026696254,0.1005631,-0.009042662,-0.07567687,0.18010288,-0.023187438,0.2466985,0.13107471,-0.04440073,0.10355869,0.00032933266,0.028613428,0.13167521,0.0875695,-0.08703209,-0.062170763,0.12161124,0.20234695,-0.008925358,0.18176621,-0.122507036,-0.13879846,0.0043655303,0.06655308,-0.017254272,0.05946764,0.10042691,0.105740964,-0.065135315,0.023741301,0.22099419,0.2512094,0.048082,0.015023086,0.020686597,-0.1376942,0.11327031,-0.09468511,0.088253506,0.054551724,0.02829581,0.03151104,-0.049941257,0.12902296,-0.050500404,-0.16023709,0.16291098,-0.13707158,-0.11199362,-0.06955312,-0.15883406,0.012976578,0.16410626,0.13483876,0.13058169,0.018813506,-0.07981033,0.04908327,-0.017422032,-0.1080692,-0.07887479,0.023363432,0.07382721,0.20953305,0.1880696,0.04229815}, {0.056258034,-0.08148039,-0.16354093,-0.0046760375,-0.0043314234,0.13177927,0.17336006,0.17270188,-0.041541003,0.022894602,-0.012746492,0.03200185,-0.057218894,-0.031456694,0.086285174,0.0291727,0.07430105,0.116859525,-0.059510946,0.11002524,0.0059649916,0.1374669,-0.00950323,-0.024774402,-0.18999381,0.18528032,0.103921294,-0.062035035,0.13067089,-0.028871568,-0.05678408,0.06576903,0.03381273,0.17380491,0.10874723,-0.022691846,-0.1448502,0.011650329,0.12056626,0.039835602,0.16112067,0.0004552612,-0.14755589,-0.01874804,-0.04833731,-0.019598905,-0.06671507,-0.008259907,0.017729273,-0.12866646,-0.07886443,-0.037342604,-0.055945143,0.07213768,-0.07565661,-0.16411905,0.11904048,-0.078707516,-0.04207464,-0.059115723,-0.09909986,0.017517308,-0.056778688,0.059056338,0.010664665,-0.058841784,0.15219882,0.10794813,0.067282565,-0.049855307,-0.011047194,0.115428366,-0.09929426,0.050884895,0.001999685,-0.009198633,-0.09963983,-0.17033586,-0.12902522,-0.011440931,0.039614473,0.22718497,-0.01972442,-0.05974955,-0.11110894,-0.054911666,0.031957258,0.042744067,0.1184745,0.044342432,0.025528627,-0.059709106,0.11693287,0.08261243,0.019551266,0.011330116,0.10069462,0.09530526,0.123555146,-0.07336362,0.024510216,0.12861946,0.014965269,0.0007968941,0.034169678,0.0338192,-0.05966314,-0.055908643,0.043558974,0.055422723,-0.12684102,-0.18215832,-0.034791723,0.08383434,0.07160217,0.1867712,-0.04446231,0.011223596,-0.10675477,-0.05299756,0.06819659,-0.11637259,-0.09725761,-0.067322925,0.040581997,0.20658778,0.0062780534,0.16815847}, {0.0520682,0.040329568,-0.06483574,0.02612323,-0.042065024,0.07033375,0.08957825,0.12377625,0.094285436,-0.011675755,-0.13325252,0.06767804,0.12645088,-0.012852734,-0.019915732,-0.005484369,0.06410314,0.11517785,-0.14998631,0.03129338,-0.04269376,0.06676681,-0.024046963,-0.08658897,-0.095869675,0.029942501,-0.0146697275,-0.02860465,0.053350806,-0.008457604,-0.07442884,-0.011152849,-0.024543542,0.058226876,0.165364,-0.10940478,-0.00629848,0.073463194,0.07500423,0.039179202,0.0963115,-0.05793622,-0.04017092,-0.092922606,-0.00094031484,0.03433511,0.06596092,0.028664403,0.036207676,0.046393383,-0.028162876,-0.13907187,0.08810452,-0.05793673,-0.19194166,-0.041820303,0.087224655,0.021552213,0.13704318,0.0802434,-0.12647456,0.066563465,-0.13958889,-0.011536356,0.04684637,0.06891932,0.17935413,0.19958504,0.113401376,0.09037908,-0.04619891,0.09458251,-0.102409884,0.031241493,-0.041598707,-0.1453128,-0.15523873,-0.0912692,-0.16917317,-0.08801093,-0.14585683,0.14431617,-0.17771864,-0.10524626,0.06410711,0.081333265,0.04608546,-0.029455114,0.08158225,-0.16082987,0.06268955,-0.15132537,-0.08346916,0.22559519,0.09149888,0.092907906,0.09613687,0.0065662796,0.1600517,-0.0032661613,-0.10690567,0.05007605,0.075471066,0.023211688,-0.019320907,-0.10899433,0.015599636,-0.082476206,0.056823738,-0.024825212,-0.008287154,-0.22592746,0.10834896,-0.026461352,-0.03436982,0.08523859,-0.08067333,-0.051007718,0.010904951,0.114107676,0.010985951,-0.1450385,-0.12285147,-0.08102906,-0.014297669,0.20301475,0.15842845,0.05725476}, {-0.01611359,0.12086286,-0.079741016,0.10330914,0.092633754,-0.09671795,-0.06267153,-0.04353303,-0.056993745,-0.038560055,-0.07689657,-0.033278186,0.036549147,-0.008442152,-0.095720634,-0.0011707323,-0.11731145,0.13806242,0.062264014,0.06534816,-0.04603961,0.16728045,-0.10123944,0.027796699,0.032683477,0.08505968,-0.007980102,0.077417724,0.11712539,0.035522483,-0.04519339,0.05789602,0.040338974,0.008418696,0.018768895,-0.12449084,0.0258177,0.082982756,0.11865702,-0.028789395,0.1575686,0.11314665,0.046705715,-0.07746892,0.02468894,-0.0028281368,0.0027178335,-0.008386458,-0.0039726277,0.06777705,0.07735355,-0.07330977,-0.058392648,0.028703798,-0.07261406,0.067128,0.07002995,0.022286393,-0.022344291,-0.014019193,0.013316429,-0.056193866,-0.13673322,0.10887317,0.14169379,0.13756739,0.07945599,0.083310366,0.08090671,-0.024276262,-0.0056204805,0.15420659,-0.08315507,-0.068354145,-0.03325129,0.056872692,-0.17704134,-0.14839107,-0.22871797,-0.10905791,-0.18104182,0.01600668,-0.030527733,-0.07450129,0.08891098,0.086311646,0.007873055,0.02440959,-0.010231672,-0.061383832,0.0798479,1.3841447e-05,0.036488973,0.08102143,-0.002640679,-0.008180008,0.02472376,-0.06270093,0.10159182,0.17001107,-0.01222122,-0.039160833,-0.11081358,-0.017056208,-0.007711105,-0.095514745,-0.13649818,-0.035069495,0.10523523,-0.09567118,-0.122811854,-0.21606176,-0.066007495,0.0722208,-0.020801954,0.06755663,-0.1602851,-0.015885117,-0.029642697,0.049156647,0.067895114,-0.049958512,-0.0020822505,-0.19028331,-0.14310224,0.19563147,0.12564902,-0.10862717}, {-0.0009907166,-0.03900855,-0.122587234,0.031980284,0.04808591,-0.07197676,-0.033784263,0.0332803,0.09312692,-0.047751885,-0.17972364,-0.14574271,0.11666597,-0.10080204,-0.0074292705,-0.052903417,-0.16002259,0.043634694,-0.075727575,0.009615407,0.00598138,0.14402373,-0.10246698,-0.074673876,-0.120946184,-0.007633153,-0.004185304,0.10256876,0.0047216862,-0.08257907,0.0202598,0.03533854,0.105996035,-0.08770128,0.16677994,-0.1625262,-0.040351227,0.071726404,-0.005178233,0.034078155,0.050964754,-0.038084947,0.015010483,-0.043844335,-0.038569048,0.050882995,-0.07134305,-0.0113413185,-0.0017888346,0.055572085,0.023164766,-0.16022818,0.010541864,-0.045629583,0.009346389,0.03861062,-0.08562213,-0.087197505,0.09842659,-0.046116598,-0.077219,0.14012605,-0.12743689,0.09835008,0.0184601,0.07577622,-0.08983947,0.08584217,-0.1368763,-0.11862125,-0.040211618,0.09671419,0.06344576,-0.09179135,0.094516695,0.12729867,-0.14468879,-0.01949637,-0.18472224,-0.15247668,-0.22493424,0.16037501,-0.1357371,0.07383782,0.059628893,0.10970049,0.07145076,-0.13011028,0.08900885,-0.124249786,0.012193874,0.0016436672,-0.06813891,0.029996872,0.018015318,-0.030233935,-0.11117514,-0.017619472,0.150751,-0.0063858866,0.0441271,0.10500918,-0.18507802,0.10832258,0.07115872,-0.16179538,-0.07326935,-0.027447201,0.06396529,-0.06536124,-0.18444687,-0.11929986,-0.03300947,0.015910216,0.04433026,-0.0018800735,-0.1799344,-0.007916529,-0.069306985,0.027428264,0.12963639,-0.087686226,-0.10372139,-0.032869413,-0.017955273,0.107985616,0.06620056,0.033271138}, {0.030604644,-0.07730775,-0.13261454,0.10405261,0.034977846,0.027229698,0.03308066,0.08330758,0.094959006,0.033721242,-0.017127192,-0.024345133,0.04958332,-0.07285832,-0.058083832,-0.10038749,-0.17596325,0.05913678,0.07144632,-0.0014471734,-0.082179785,0.048292007,-0.11342154,-0.15251732,-0.16616976,-0.052586433,0.06091974,0.016678195,0.14903973,0.0336543,0.059268143,0.02128998,0.06656473,-0.101220466,0.0273522,-0.029401243,0.13357252,0.07441533,0.08924906,0.08531066,0.082507476,0.14613965,-0.08164096,-0.1567277,0.13333753,0.13452691,0.011301013,0.1236708,-0.06735871,0.0023441932,-0.017267667,-0.006072465,-0.039394416,0.1551972,-0.03868402,0.058516014,-0.0026736245,-0.07461547,0.124761395,0.031140938,-0.06316205,0.025400203,-0.030112036,0.07635433,0.11323774,0.17110023,-0.13122407,0.13727789,-0.10476135,-0.07094701,-0.1912978,-0.018115966,-0.15057182,-0.06018754,0.08917154,0.12521233,-0.15496342,0.009832249,-0.14452116,0.013574135,-0.046024073,0.15079708,-0.015023092,-0.06707125,0.0700418,0.14243421,-0.053653758,-0.050195213,0.06658712,-0.13827229,0.07502187,-0.0183884,-0.16609551,0.06289743,0.03019178,-0.0074469987,0.01009807,-0.0854439,0.04212648,0.16306025,0.042515818,-0.053845666,-0.10444334,0.078643546,-0.11190988,-0.13493021,-0.15757562,0.0071729147,-0.06255328,0.04161273,-0.08099016,-0.15622322,-0.02777784,0.005141755,-0.12998863,0.10312561,-0.03296325,-0.09237824,-0.039020725,0.039042782,-0.01924952,-0.093969874,-0.123923436,-0.03328634,-0.09424804,0.010464221,-0.045106735,-0.0990643}, {-0.017995875,0.044080917,0.03817292,0.038398445,0.072252825,-0.037035845,-0.1170839,0.004492997,-0.08956447,-0.072385,-0.027222116,-0.04288589,-0.057731207,-0.18518522,-0.009648934,-0.09149169,-0.19059126,-0.07023695,0.08983679,-0.018749071,-0.086774446,0.04393237,-0.109323785,-0.0359846,-0.15714727,0.027160522,0.099684745,-0.107013956,0.018187456,-0.08063157,0.015056233,0.10448066,0.018321594,-0.094974734,0.06185136,-0.20308341,0.092551395,0.07214847,0.111613795,-0.055592906,-0.047107067,0.13781776,-0.0012672062,-0.012363074,-0.041306246,0.03721434,0.0029794143,0.14546967,-0.12819059,0.042637795,-0.06500402,-0.21909872,0.047579452,-0.043694973,0.11088509,0.0124554,-0.12975472,0.002126136,0.1551221,0.08210283,-0.050414417,0.099831514,0.0048708497,-0.047098458,-0.046966795,0.11550531,0.020527195,0.12946202,-0.069864556,-0.09675797,0.0012301494,0.06130436,-0.09497192,0.07353161,0.044024173,0.12591644,-0.14407213,-0.124934964,-0.10423814,0.0063156765,-0.16670597,0.0852956,-0.21035725,-0.0068627675,-0.11722846,-0.059599586,0.13641806,0.021286167,0.037578337,-0.11138072,-0.071323626,0.004603708,-0.078007326,0.07395966,0.021235932,-0.042293474,-0.09450052,-0.053213857,-0.029458655,0.15501484,0.011953991,0.033704977,-0.0936386,0.097390994,0.06855383,-0.2042216,-0.19031826,0.091469474,0.05039882,-0.06261423,-0.20091905,0.048229825,-0.18208262,-0.09208558,0.0034758649,-0.065165475,0.04862075,-0.056510918,-0.059506573,-0.029785033,0.010009412,-0.18754646,-0.2046992,-0.08956818,0.0720145,0.012160333,-0.034585692,-0.014831146}, {-0.09139421,0.013044143,-0.005376578,0.0336951,-0.11413668,-0.017841922,0.07859808,-0.13973428,0.032229736,-0.14520955,-0.084154226,-0.17531087,-0.03337022,-0.025410585,0.015402113,-0.03110759,-0.0661802,-0.090709046,-0.03128479,0.0058331136,-0.0061892676,0.061052054,-0.10086713,0.03675454,-0.20266268,0.0594376,0.07877113,-0.13290538,0.10548816,-0.009910903,0.013704927,0.0331187,0.020927936,-0.091116734,-0.07021286,-0.17585337,0.027777174,0.10886017,0.06495408,-0.09920849,-0.032732606,0.045778986,-0.03905974,-0.05413482,-0.03157109,-0.03178815,-0.031101013,0.064111024,-0.11603859,0.022560775,-0.035298493,-0.11606214,-0.002166593,0.00036920444,0.019610643,-0.06865674,0.038677428,0.026776232,0.02588241,0.021094993,-0.17811826,0.15193741,-0.01627783,-0.010217622,-0.061074007,0.10599532,0.06206051,0.061617292,0.00018698751,0.0005278456,-0.18663684,0.08641291,-0.14696127,-0.027255457,0.11848191,0.1404966,-0.031948768,-0.11134793,-0.037086274,-0.20015769,-0.124355145,0.10498551,-0.20455585,-0.14700778,0.028980471,-0.08632217,0.071882956,-0.12181302,0.11541134,-0.13360053,0.09800595,0.059886817,-0.11164345,-0.023520049,0.11172253,0.08635231,-0.09138554,-0.06377144,0.0739786,-0.016911587,-0.0017308808,0.02660477,-0.12530304,0.019180749,-0.056383368,-0.008818631,-0.054571666,-0.01569588,0.0063405186,0.028519098,-0.123942785,-0.069970906,-0.0020065354,0.0101199625,0.014863021,0.01499999,-0.10865248,-0.16684097,-0.11493609,-0.009564186,-0.052803747,-0.08208224,-0.16813304,-0.17969693,0.07721581,-0.100171156,0.05733025,-0.025730783}, {-0.035250206,0.10047761,-0.024560833,0.09327047,0.0051932493,0.05614853,0.0635648,-0.12817344,0.014240844,-0.109946325,-0.03840168,-0.14940463,-0.04159342,-0.016475454,0.12375264,-0.055508636,-0.16435538,-0.0016963629,0.038234696,-0.045393854,0.0061594145,-0.07954371,0.025669897,0.009455078,-0.11351688,-0.14544593,-0.053288165,-0.107086115,-0.012809023,-0.059655536,-0.11233049,-0.041077815,0.028051563,-0.04748066,0.0049968483,0.01128652,0.015867285,-0.027578933,0.053463217,0.0607633,-0.047596365,0.05414557,0.006739983,0.02990928,-0.06328843,-0.06273782,0.05166101,-0.02480018,0.036675524,-0.13741691,0.072815806,-0.24594496,-0.1426297,-0.057569385,-0.029970113,-0.05659776,-0.10481094,-0.059650164,-0.04369041,0.07450462,0.007738251,0.01586857,-0.040792048,0.017584616,-0.083661966,0.052930728,-0.028605135,0.075046614,-0.02830966,0.003823569,-0.12004872,-0.028098471,-0.029145354,-0.10697441,-0.002173828,0.1110158,-0.116993465,-0.12091828,0.018303873,-0.17658986,-0.12323813,0.10731086,-0.104893595,-0.12612659,0.020345986,0.030976573,-0.043407343,-0.015840618,0.06623095,-0.057331324,-0.06306333,0.03930674,-0.032797415,-0.034161303,0.11014506,-0.029877674,-0.08729245,-0.18795775,0.037305523,-0.052983876,0.0022537592,-0.0557798,-0.019068252,0.11712505,-0.122896515,-0.03000085,-0.05218229,0.027681548,-0.11203846,-0.0007114448,-0.2483654,-0.06442301,0.0032015769,0.05540111,0.059598655,-0.093025036,0.02545374,-0.13383046,0.07003107,0.005727066,-0.0755584,-0.07261952,0.007968582,-0.08199787,-0.10532303,0.023339203,0.08318937,0.030326348}, {-0.028382992,0.03758613,-0.034032334,0.07706402,-0.009939725,0.008144385,0.047518704,-0.16758284,0.015560215,0.00997757,-0.22198911,-0.061239567,-0.20264222,-0.03892474,0.09338428,-0.090748526,-0.07538689,0.006059008,0.016020743,-0.0500146,-0.09366771,-0.08645733,0.009108724,-0.18696533,-0.08258041,-0.13773234,-0.056451324,-0.13002428,0.09384871,0.051874302,0.0074783857,0.053736933,0.009448975,-0.10499862,-0.10721972,-0.06195259,-0.0093494635,0.07433943,0.0058525894,0.042946182,0.041632667,-0.008333242,-0.08345568,0.03359925,0.023629617,0.06719132,-0.103534125,-0.07255554,0.058924332,0.006211139,-0.032444384,-0.10037451,-0.14995688,-0.055735394,0.056289002,0.023579963,-0.04810808,-0.13129887,-0.11616579,0.066928685,0.00087611715,0.13443863,0.027695052,0.04626794,0.055395767,0.12710293,-0.11612025,0.028196633,-0.07005024,-0.13187557,-0.04570842,0.09858696,-0.16773234,0.023365911,0.009684858,0.107253075,-0.08709442,-0.11447147,0.056445207,-0.00010904693,-0.2348444,0.03832908,-0.042318344,0.043826316,0.102751315,-0.1080946,0.10626128,-0.07846422,0.10480938,-0.007375406,0.0358199,-0.104897365,0.04317109,-0.027332872,0.06625623,-0.028510928,-0.08609025,-0.13735953,-0.09723523,0.07249316,0.0040249247,0.10056588,-0.15146558,0.02032771,-0.16064818,0.01924925,-0.05741732,-0.04461884,-0.1038501,-0.005652246,-0.1114788,-0.13222262,0.00063816144,-0.10276701,0.07794898,-0.07465971,-0.028392164,-0.029103495,0.001107709,0.00048209028,0.055321127,-0.060877007,-0.036538236,-0.0620765,-0.023101147,0.028816033,-0.016293688,-0.09970375}, {0.014820846,-0.014408678,0.02351704,0.075992376,-0.10985259,0.006594887,-0.06408234,-0.1722247,-0.072329514,-0.0143248085,-0.15502807,-0.13418435,-0.07544456,-0.19513005,0.03770513,0.03507461,-0.12093033,-0.04849152,0.11220765,0.018517314,-0.043614365,-0.076389395,-0.057092097,-0.096048765,-0.16660878,-0.17834835,0.0009477028,-0.011910023,0.037609745,-0.06287334,-0.09077459,-0.02893316,0.09144261,-0.073381536,-0.05556215,-0.008319803,0.1000555,0.015576014,0.011387665,-0.086644776,-0.13339368,0.08233099,-0.026088031,0.026194675,0.058802184,-0.051579323,0.09393877,0.05753842,0.036525726,0.027056819,-0.022512801,-0.25310588,0.015529668,-0.107072465,-0.074543566,-0.11559124,-0.1424676,-0.08490489,0.029840188,0.095811464,-0.1246879,-0.006374006,-0.11533018,0.04332296,-0.13261564,0.060260497,-0.088113025,-0.08557376,-0.1307561,-0.002277154,-0.06859835,-0.021660063,-0.19457164,-0.06305328,0.017300885,0.05835225,0.004088193,-0.12645192,0.054710492,-0.20513014,-0.22286882,0.08299421,-0.03675854,0.0330412,0.057452016,0.0085978,0.10739025,-0.10439875,-0.04075949,-0.15128677,-0.081353076,-0.036375694,-0.120323256,-0.10151849,0.12074712,0.14068468,-0.0975262,-0.14599134,0.020419858,-0.019899892,0.03828945,0.02980042,-0.012235842,0.120270185,-0.17928527,0.009701359,-0.10315006,-0.016762007,-0.11644303,0.033559043,-0.24460542,-0.16340342,-0.1315656,0.0038501178,0.09948861,-0.10536676,-0.0044831196,-0.08779657,0.054220516,-0.025203167,-0.026480671,-0.09714672,-0.027207,-0.115969226,-0.053115387,-0.114207804,-0.038359042,-0.06718279}, {-0.029927138,0.040232815,0.05026585,-0.08134294,-0.09339362,-0.07292922,0.07802835,-0.04258169,-0.09820211,-0.1679403,-0.23828563,-0.021049324,-0.1493016,-0.078984596,0.01593803,-0.12791169,-0.17706749,0.09068237,-0.0074149184,-0.05619006,-0.1089384,-0.12002579,0.038946643,-0.12481365,-0.21666706,-0.1600737,0.009148815,-0.01884689,0.10098712,-0.019020047,-0.028465426,-0.060927317,-0.08107628,-0.054637052,0.008654005,-0.096797116,0.030148417,-0.026997242,-0.053734574,-0.069442354,-0.078011476,-0.09066797,-0.1286041,-0.06724212,0.016196258,-0.003483203,-0.000675007,0.0929583,0.008310803,-0.0096506635,-0.0030479988,-0.08576335,-0.06094795,0.046148475,-0.09678668,-0.1524331,-0.13746016,-0.027444465,-0.092503995,-0.076979294,-0.13436076,-0.01678104,0.0144305,-0.063988805,-0.05728442,0.113518156,-0.055567358,-0.020723518,0.0066379416,-0.098341666,-0.09523765,-0.08195929,-0.16663408,-0.107245184,0.023621796,0.10042986,-0.13273472,-0.14595094,0.06655939,-0.04428096,-0.13660847,-0.077178776,-0.121028006,-0.10861443,0.07077682,-0.11713778,-0.011262622,0.067441374,-0.062379107,0.027448881,0.015252769,-0.007992406,0.011844318,-0.0995168,0.08967703,0.10669604,0.055452615,-0.13530244,0.009766201,-0.015879536,0.033305347,-0.04184634,-0.15964109,0.12287574,-0.14790694,0.018458188,0.0026326047,-0.007333461,-0.0057595507,0.0007938961,-0.16368462,-0.14268617,-0.12862535,-0.07578223,0.08423348,0.00026303664,-0.14456666,-0.070117004,-0.04825242,0.016368741,-0.06553366,-0.04011422,-0.055789962,-0.073139824,-0.10588351,-0.10478234,0.09150646,-0.1151597}}
#define W_LSTM_KERNEL_O_WIDTH 28
#define W_LSTM_KERNEL_O_HEIGHT 128