#pragma once
#define W_LSTM_RECURRENT_KERNEL_C {{0.031950485,-0.02768445,-0.10738288,-0.07215163,-0.020246109,0.081887715,-0.03028447,-0.04116732,0.07736389,0.081058584,0.0033516707,-0.0573168,0.11922587,-0.050095264,0.05314203,0.043679155,-0.09786581,-0.17157142,-0.04644274,0.0020843926,-0.077517025,0.046575177,0.04185731,0.034303147,-0.06088653,0.05257311,0.14530002,-0.091277085,0.18029512,-0.052398257,0.028320724,0.017146181,0.058410577,0.10363732,0.007036955,0.09530108,-0.054976497,-0.09226382,0.0129831005,0.038012356,0.0002602855,-0.012305138,-0.06106735,0.018973738,-0.016278667,-0.036511015,-0.006222131,-0.0024845072,-0.09190881,-0.046173334,-0.0023756928,-0.056003846,0.06366584,0.04990151,-0.047099937,-0.011118775,0.10628086,0.16449383,-0.07430081,-0.004215751,0.06368199,0.050726652,0.03492592,-0.048370827,0.034819946,-0.011438185,-0.043363616,-0.05212752,-0.042654477,0.018020269,-0.026772343,0.013137235,-0.025294943,0.04677061,0.06181064,0.018018624,0.046747424,0.07562997,-0.031864464,0.113791995,-0.012005851,-0.0049107056,0.068216205,-0.11564649,-0.026829436,-0.0619453,0.09380327,0.038702033,-0.040130887,0.03503385,0.018841136,-0.008939869,-0.059451982,0.02349918,0.06548966,-0.043593723,0.022825718,-0.07704292,-0.022104284,-0.02181102,-0.057242963,-0.009176009,-0.047299683,-0.004530499,-0.05000261,0.041872725,0.051612746,-0.017565282,0.030102737,-0.060949348,-0.00902659,0.11017297,-0.0013127683,0.07304661,-0.028727384,0.012983556,0.046027023,0.073654585,-0.04353003,0.032290496,-0.0025417218,0.007802532,0.031516384,-0.0022502355,0.051085528,0.02136776,0.015100017,0.02692082}, {-0.12739478,0.005506275,-0.012214871,-0.031956848,0.04352018,0.05032732,0.10229169,-0.057245214,0.0780497,-0.0487992,0.05112792,0.04149343,-0.018626358,0.03559762,0.04066296,0.0096685365,0.069580875,0.030960448,0.03311066,0.05629485,0.077183984,-0.042506125,0.020226156,0.0045014615,0.03827462,-0.14332391,-0.08561876,-0.023988178,0.053501196,0.033820935,-0.00376854,-0.026187852,-0.0070012617,-0.16934948,0.088987015,0.0011265426,0.039679673,-0.01949592,-0.12289411,-0.05818009,-0.026635807,-0.010263366,-0.057890613,0.0059708,0.066612855,0.017104933,0.049763907,0.09252552,-0.028200887,0.014540989,0.0019271777,-0.13278706,-0.011419827,-0.036689304,0.03675188,0.08813805,-0.052314278,-0.09506757,-0.02274791,-0.0020272986,0.036931355,-0.022034828,0.04413863,0.039981816,-0.04193454,-0.010097584,0.11267464,-0.009243405,0.12109962,0.05262572,-0.034047153,0.019193169,0.13797098,0.12667803,-0.050089464,-0.032024678,0.043809783,0.012281115,-0.07684821,0.0006233135,0.063124925,-0.054397445,-0.053749148,-0.041895505,0.051156793,-0.07458126,0.001111068,0.06007138,0.114568196,0.043479804,0.017418537,0.006358594,-0.063030444,0.036617987,0.05908961,0.00567956,0.05309578,-0.032485418,0.041204948,0.0227984,0.107956775,-0.02928453,0.014247548,0.056592222,0.103103355,-0.032269947,-0.10493872,-0.129291,0.012939891,0.047660273,-0.04656755,0.013722335,-0.040056232,0.06355387,0.0039600395,-0.032454364,0.12913401,0.03406009,0.041246824,0.058567777,-0.01425398,-0.02865618,0.035423122,-0.040322173,-0.025127707,0.021892995,0.19642255,-0.0283473}, {0.09546767,-0.14489995,0.06503733,0.13203266,0.04368418,0.1276534,-0.080448695,0.10626124,0.030521564,0.043219272,0.052273564,-0.028399907,-0.006588309,-0.024901528,0.025911799,-0.13066587,0.016883463,0.105526745,0.03182144,-0.06321749,-0.015659347,0.1226541,0.08395866,-0.04766716,0.02494247,0.15882905,0.090923876,-0.06781207,-0.010498096,0.030311475,-0.04306521,0.040043436,0.032757062,0.13674842,0.014271336,0.05014454,-0.039856236,0.02223881,-0.013303539,0.053527545,-0.0120885745,-0.016076852,-0.028025288,-0.07337476,-0.052072998,0.04272815,0.0954241,0.04833455,0.04441452,-0.027028827,0.056568425,0.031724278,-0.054418452,0.030525576,0.017333765,-0.07140982,-0.03402314,-0.13968743,0.08808021,-0.033879895,-0.00852317,0.033050712,-0.05687418,-0.08804108,0.04228054,0.08869121,-0.09672599,-0.0029621802,-0.009567676,-0.03637391,0.052054938,-0.08789682,-0.10256153,-0.07080581,0.099272706,0.07852744,-0.1043718,-0.11528987,0.00795001,0.038636394,-0.089831755,-0.0018917993,-0.06272315,-0.039584678,-0.0719775,0.013857979,-0.15522426,-0.08650681,-0.265247,-0.12013021,-0.10577296,0.059246223,-0.106468014,-0.12518159,-0.12369025,-0.0015876163,-0.028299449,-0.032183785,-0.031736784,-0.04368049,-0.10799744,0.03509438,-0.059118625,0.07846387,0.023479592,0.08261699,0.039207123,-0.025370488,0.049337104,0.026200736,0.0886488,0.084025994,-0.152607,-0.07349548,0.10062277,-0.10896054,-0.043512624,0.017125737,-0.103683926,0.033641476,0.039379686,0.042417992,0.0920573,0.0033036526,0.08520078,0.019433362,0.036099896,0.031593617}, {0.12371648,0.030283108,-0.009904281,0.06278684,0.04406027,0.0075733885,-0.00058610656,-0.07248496,0.01563247,0.018837273,-0.0120867705,0.06462798,-0.06892158,-0.054657962,0.11027268,0.039019514,-0.048904724,-0.04527152,0.09096127,-0.1069378,0.0033321606,0.16525652,0.08071208,-0.0015068763,-0.016943092,0.107508495,0.06407189,0.04624352,-0.021322947,-0.09854901,0.029399358,-0.013937727,-0.11843304,0.06625237,0.0010398771,0.0015505531,0.080288105,-0.02024145,0.026802441,0.040642414,0.011809363,-0.049207702,0.011895299,0.12766825,-0.095566414,0.023443025,0.09985968,-0.06648202,0.05972753,-0.0078970445,-0.0867178,-0.024796722,0.029430036,-0.039061595,-0.020218551,-0.09973149,0.06258439,-0.050495297,0.008903912,0.11394948,0.0991479,0.0977085,0.06271534,-0.009997162,0.12380555,-0.02361621,-0.04698269,0.039509576,-0.0025999798,-0.08723049,0.023322891,0.03671419,-0.0019743587,-0.0092809955,0.08847766,-0.05776522,0.073693015,0.06536391,-0.091369465,0.042074636,0.021677628,-0.0033968228,-0.005348688,0.016494155,0.08170144,-0.046359535,-0.16106431,-0.054732285,-0.009599623,-0.016817845,-0.017715894,0.121589124,0.082398936,-0.03800473,0.09771305,0.06184011,-0.014624503,0.025946796,0.02140038,-0.12895736,-0.02808417,-0.008361164,0.085876994,0.07023809,0.012246451,-0.0063366494,0.14456092,0.03804616,-0.019809728,0.06688951,0.055455815,-0.008869668,-0.101029165,0.018262029,-0.06695614,0.087301366,0.071350165,-0.03501154,0.0087798685,0.016854864,-0.033501983,0.0054849964,0.05514949,-0.019783266,-0.09242451,0.04595115,0.13512625,-0.07899372}, {-0.020573333,-0.020871965,0.013402153,0.06845166,-0.01985668,0.025407212,-0.07412903,0.114216015,-0.08019513,0.086458966,0.005141017,-0.10971516,0.055176925,-0.020003222,0.025115106,-0.037809093,0.10759431,0.06092097,-0.08552216,-0.016290361,-0.019115197,0.003880883,-0.014285548,0.018813048,0.024603218,0.020866016,-0.02455981,-0.029144138,0.019270942,-0.08068281,-0.0040234635,0.018547326,-0.09245234,0.03433386,0.025282523,-0.04327428,0.014252084,-0.029229812,-0.0630565,-0.07129185,0.03657195,-0.03353446,-0.015671931,-0.01599408,-0.120580904,-0.052467197,0.022875428,0.034174778,0.06681042,0.058840152,0.021536596,0.022327676,0.09821024,0.07538137,-0.01788424,-0.050493788,0.068589285,-0.07837248,0.07823658,0.0039220336,0.041427445,-0.025392544,-0.02043993,0.026774123,-0.03135926,-0.033383,-0.08828653,0.13003182,0.019388784,-0.048403278,0.0024326646,0.10419998,-0.017258314,-0.027431132,-0.017289238,0.12681589,-0.10830717,-0.011249313,-0.025387866,0.003782432,-0.095914744,0.007564024,0.07754726,-0.05995591,-0.03267371,-0.024419786,0.0022792555,-0.0118881455,-0.017333733,0.052086685,-0.06882122,-0.07944173,-0.05005291,-0.12736489,-0.030945478,0.111092165,0.11590721,0.12865326,-0.03617634,0.050452758,-0.026552195,-0.06195869,-0.093323715,0.12488558,-0.08256935,0.02813839,0.01972189,0.03370039,0.008857552,0.08779801,0.039784983,-0.03768627,-0.007265062,-0.049932424,0.036443967,-0.02437195,0.0057757795,-0.07340943,0.16083662,-0.16597028,0.02471983,0.11822328,-0.047672287,-0.03465199,0.0133834835,0.03723029,-0.017613035,-0.15904132}, {0.0142489225,-0.058167506,0.0014036311,-0.0090369675,0.04472206,0.09022577,0.0013656492,-0.04565197,0.06326013,-0.16519272,0.0018209643,-0.07006563,-0.057551757,0.1252932,0.11743889,-0.05605712,-0.045900326,0.07911355,0.041424513,0.0392241,-0.005805791,0.030215159,0.04952077,-0.06468357,0.06963949,-0.09099705,0.04505863,0.023438063,0.06493403,0.028454257,-0.014483599,0.0033914354,-0.017309792,-3.460888e-05,0.00047272863,0.015207328,-0.03125024,0.062694795,-0.009074295,0.030394197,0.06017863,-0.012997489,0.14735653,-0.029963253,0.04750459,-0.0080407765,0.0057787336,0.065946445,0.053649217,0.0626749,0.08250701,0.049302205,0.0947597,0.10892322,-0.1465289,-0.06051806,-0.05218858,-0.026150929,0.0527431,-0.112922855,-0.014937305,0.14469334,0.0075577837,0.021989157,-0.07962646,0.018781967,-0.060466807,0.08989975,-0.04116475,-0.02273091,0.038996674,-0.113173865,0.062269878,-0.059622295,0.07654506,0.061592408,-0.117308624,-0.069884434,-0.030574024,-0.056094635,-0.10098929,0.039495263,-0.039120086,-0.081751995,-0.14012404,0.039556596,-0.10445256,0.08563687,-0.10640769,-0.0227434,-0.121690065,-0.030437596,-0.09285141,0.06674246,-0.008837485,-0.11511864,-0.004852314,0.013040866,0.090805866,0.014658109,0.060173687,-0.07443584,-0.03302339,0.006256209,-0.07885566,-0.07394525,0.021899177,-0.037733745,-0.019882761,0.068815075,-0.003297932,0.012591958,-0.025972322,0.013954463,-0.03899312,0.09625509,-0.13946317,-0.12233503,0.12607789,0.031451236,-0.0028217065,0.046889186,0.13016044,-0.1390436,-0.09678044,-0.048235744,0.023278954,0.016296783}, {-0.084016405,-0.024524305,-0.016437965,-0.0003747628,-0.10742159,-0.07344091,-0.03795146,-0.03140118,0.02804611,-0.06236019,0.07853904,0.06675588,-0.057088014,-0.014538299,-0.032421157,-0.050260365,0.009903438,0.07771967,0.034886852,0.07264637,-0.04417284,-0.028220115,-0.048805136,-0.046526164,0.05370961,-0.0056541353,-0.12133716,-0.009517798,-0.08148038,0.045182668,-0.019291295,0.076831274,-0.08311236,-0.05398351,-0.066336736,0.102911636,0.06518931,0.074600495,0.12392571,-0.06457263,0.009598648,-0.03670225,-0.059281133,-0.015078926,0.033876292,-0.017162906,0.13680935,0.11397754,0.06685801,0.07815148,0.0570252,0.067624934,-0.013359223,0.093607925,-0.059016153,-0.09592256,-0.05119447,-0.21455379,0.10261272,0.015154841,0.056597132,0.046337616,-0.024506383,0.018018847,0.0041242307,-0.029382441,0.07328125,0.0113077555,0.05994024,-0.04812308,-0.04642935,-0.055778943,0.039500695,-0.04553544,-0.009420591,-0.014941999,-0.024760483,-0.09389689,-0.0018109934,-0.014449203,-0.06577306,-0.02055225,0.0066905953,-0.10782891,-0.09317073,0.17084678,-0.1172599,0.08888318,0.0661309,0.023129253,-0.069816984,-0.16126797,0.02039013,0.04165537,-0.07604804,0.032102957,0.023545109,0.056810692,0.012198422,0.016137755,0.035540856,-0.09520008,-0.11602359,0.02949982,0.066951975,-0.019623632,-0.085394725,-0.11734025,-0.010587969,0.10787495,0.11742783,0.021125242,-0.03836645,-0.041506153,-0.020472474,0.011703033,-0.036520425,-0.06462831,-0.017866258,-0.10117553,0.07827585,0.17080411,0.023666488,-0.00083059794,0.02806923,0.010275468,0.068122365,0.004329674}, {-0.09842492,0.10672411,-0.09160285,0.019809987,-0.01683686,-0.012725651,-0.0590364,0.004281016,-0.19742386,-0.04797308,-0.01616706,-0.043388862,0.11762218,0.12367927,0.07797148,0.045064706,-0.13027161,-0.050151944,-0.04822041,-0.09441529,0.06339428,-0.008795414,-0.05153553,0.050455723,0.008822324,0.0997178,0.09614984,0.002755645,0.11921035,0.0041878326,0.029921085,0.13248944,-0.063409634,0.13466157,0.011469877,-0.044072315,0.05855848,-0.01673109,-0.08121199,0.08911218,0.046164975,-0.05538811,0.0009095252,0.10845726,-0.10025169,-0.20634465,-0.039205827,-0.03283586,0.10353893,-0.018911436,0.13543832,-0.06525387,-0.08242953,0.025553882,0.0016043016,-0.11284889,-0.033304654,-0.017320389,0.21956418,-0.060465485,-0.06761727,-0.084104925,0.06132897,0.11273681,0.1783029,-0.06288504,0.034248423,-0.02239551,-0.044217557,-0.07342549,0.03583762,0.044584766,-0.046238586,-0.15826944,0.024509344,0.029821966,-0.037605174,0.07803262,0.015993027,0.047589142,0.068326674,0.0005915903,0.08104228,-0.02210041,0.029940005,-0.078743376,-0.10085924,-0.052303452,-0.056676365,0.14525184,-0.022650179,-0.013538625,0.06389786,-0.0014726423,0.025287498,0.048300326,0.1178367,-0.09081552,-0.03706742,-0.13553576,-0.040943094,0.0084392,-0.01339019,0.0053328667,0.011666227,-0.0075342827,0.027316067,0.028408678,0.071973115,-0.028822143,-0.012259057,0.019512199,0.061194398,-0.056138694,0.044222947,0.10574312,-0.08222068,-0.043477133,-0.05855901,0.08485211,0.0008581077,-0.013490134,0.112826966,0.020669587,0.13447137,-0.11149954,0.032828137,0.014680809}, {0.035983384,0.011330766,0.040422864,0.099411875,0.07375606,0.060740624,0.00028318813,0.0328891,0.017033149,0.04873286,0.11034796,-0.014612235,-0.117432036,0.06854445,0.13348538,-0.074531004,0.02145183,0.13317777,-0.010737795,0.015710078,-0.0058142315,-0.0016491407,0.0379021,0.07768058,-0.029792083,-0.1287386,-0.09296717,-0.027707938,-0.023044059,0.0013256888,0.04434507,-0.08102693,-0.13840622,-0.13910457,0.085120656,-0.014034534,0.027857764,0.06823301,0.005588102,-0.055620287,0.05198715,0.057139188,0.10738403,-0.021120043,-0.013066968,-0.012390593,0.06513393,0.098030955,-0.030590983,-0.024920287,0.010395559,0.12463725,0.13642003,0.047262605,-0.08312373,-0.039285593,0.0036648568,0.050761126,-0.03404454,-0.06553012,-0.021920368,-0.022584178,-0.1858531,-0.030878952,-0.012546797,0.044683866,-0.086054064,0.08369471,-0.07066176,-0.10501263,0.012773505,-0.10583041,-0.120440796,0.012717209,0.0045115417,-0.008548941,-0.11776573,-0.0660665,0.042002134,0.024555108,-0.057449464,0.010581908,-0.007895031,-0.059132773,-0.044443276,-0.05025968,-0.092411436,0.1217888,-0.104196616,-0.09569425,-0.07466036,-0.16202828,-0.069089144,0.005064957,-0.10029207,-0.010702563,-0.15468395,0.16223833,-0.0022859205,0.06957809,-0.036071863,-0.13686273,-0.040288478,-0.021271635,-0.051932987,-0.10651343,-0.0073956633,-0.024229085,-0.11436638,0.016285378,-0.000291528,-0.089581996,0.10339404,0.051296532,-0.14471564,-0.033878215,-0.071710534,-0.12065797,0.16560984,0.08841929,-0.05009856,-0.008605437,-0.0048114792,-0.011343705,-0.018644385,-0.07575317,-0.0103704445,-0.0053823725}, {-0.038441256,0.08372609,-0.043082513,-0.069509774,0.10824041,0.2437629,0.113120586,0.06057025,0.009265302,0.012165929,-0.03809951,-0.07070819,0.1318283,0.005148029,0.114048235,0.016065419,-0.0580034,0.07557289,-0.088120826,-0.09116761,-0.06933851,0.06999016,-0.06373697,-0.043018553,-0.032209843,0.08228931,0.03494604,0.19877294,-0.0032678745,-0.013412427,-0.024274848,0.05513382,0.0061855353,0.048908092,-0.027035207,0.09179713,-0.061995085,0.03144315,0.0016465128,0.085583314,-0.0071559497,-0.07633671,0.09457464,0.06600367,-0.020630267,-0.040261377,-0.07920515,0.056602977,-0.09200587,0.00095754163,0.107925355,-0.101061314,-0.054780915,0.21982275,-0.108307555,0.04732076,-0.06073015,0.09173658,-0.030750217,-0.21016817,-0.02643628,0.034734767,-0.049784314,-0.19117157,-0.04645668,-0.19575377,0.023026936,0.028195882,-0.10652158,0.0590612,-0.026450926,-0.032213047,0.16259912,-0.07883914,0.16248639,0.097972095,0.011402808,0.049929433,-0.032689575,0.022546161,-0.07861725,0.03138756,-0.011639575,-0.06967919,-0.15670165,-0.01864116,0.06648848,0.1157735,0.031778798,0.01656582,0.07879197,-0.06753033,-0.1708763,-0.02635493,-0.051446397,-0.035973527,-0.058245864,-0.1794769,0.06496179,-0.034294218,-0.036460135,-0.023751196,-0.0089912405,-0.05131295,-0.0021613517,0.10137015,0.16102982,-0.13427883,-0.05916079,0.12567443,-0.0124691315,0.06991716,-0.1058252,0.08208471,-0.008584677,0.07017096,0.092881195,0.033731062,0.03649709,0.0026148781,0.04795704,-0.09965196,0.00017187372,-0.044444647,-0.054541633,-0.06380123,0.11086733,-0.022529397}, {-0.029751444,0.016722081,0.0013205161,0.08925146,-0.092340596,-0.0076601193,-0.08121553,0.13763985,-0.2762311,0.049554825,0.047493402,-0.004853068,0.040963724,0.10474145,0.023882,-0.103747316,0.07564149,0.11351692,-0.13832869,-0.08124957,0.06550493,0.035364352,0.0035420905,0.21654561,-0.009387632,0.062261906,-0.013854957,0.045512483,-0.098143905,-0.050629005,0.024944924,0.051246367,-0.014751675,-0.036064085,0.012207896,-0.16046073,0.1349461,0.08930493,0.06027957,-0.0563809,0.063012436,0.13383967,-0.1309208,0.022386761,-0.050515864,-0.14898872,0.043427642,0.01385995,0.13424322,-0.065982394,0.046442926,0.041205797,0.009059413,-0.044078987,0.22162445,-0.11147383,0.08845541,-0.004113968,0.16030382,0.030038953,0.10283829,-0.114371024,-0.06704373,-0.01953415,0.25729713,0.03324793,-0.03005941,-0.082537234,-0.10190994,0.14714746,0.04690344,0.014313949,-0.02067567,-0.12712626,0.03003282,-0.07896194,-0.07040762,0.035014767,-0.10371326,0.042620204,-0.091448076,0.024041824,-0.051293667,-0.05907709,0.010997376,0.052534122,-0.07684295,-0.06831593,-0.053541176,-0.14111596,-0.11104847,0.058631755,-0.0052593676,-0.108963616,-0.08166706,0.019992638,0.08794541,0.10709185,-0.13894625,-0.047593303,-0.10947885,-0.0064885966,0.089996606,0.06305833,0.0075981733,-0.030145485,-0.013350691,-0.053714357,-0.036953654,-0.020734122,-0.066945836,0.0005782957,-0.062308516,0.020367138,0.0349412,0.10422772,-0.0437456,-0.02054129,-0.17291392,-0.06291349,0.0026151752,0.023971105,-0.09090723,0.07740561,0.037857525,-0.01649707,0.056039337,-0.03163768}, {0.027147315,-0.033633616,-0.0039223228,0.123362124,0.1329522,-0.07353734,0.039963342,0.019115891,-0.13925019,0.10536218,-0.03544183,0.021065047,0.006727077,-0.013703688,0.08424723,-0.021973135,-0.0009575774,-0.04163802,-0.11984682,-0.14911209,-0.024042703,-0.042376515,0.075464174,0.12189692,-0.011005369,0.06526734,0.026403327,-0.09419783,0.11246765,-0.11584075,-0.04682299,-0.045579627,-0.04965957,0.06772394,-0.11709782,-0.047709823,0.06495717,0.0027515064,-0.06185736,-0.0896644,0.09557612,-0.07620284,0.013345936,0.05750416,-0.11206778,0.011468326,0.14986877,0.07244712,0.065650195,-0.12430392,0.063607275,-0.025321271,0.034584135,-0.059652183,0.033503074,-0.041809622,0.12605254,0.060147163,0.022416167,0.011399223,-0.009156796,0.004969543,0.16904218,0.011397767,0.12767483,-0.013101301,-0.06320966,0.11825424,-0.13131052,-0.11158048,0.054175407,-0.037788223,0.0022602954,0.044999335,-0.09858467,-0.0071976413,-0.070638135,0.084032476,-0.14814523,0.004757734,-0.060088594,0.0038342613,0.11814086,0.062468622,0.07782212,-0.037765946,0.014695234,-0.0076811006,0.04578015,0.10831211,-0.115236886,0.08156404,0.1303465,-0.032509774,0.015966002,-0.051756807,0.037093695,0.022092737,0.04002332,-0.045304406,-0.06740305,0.006648547,-0.070381485,-0.03910239,0.034535497,-0.011031218,0.056485023,0.057257306,-0.08964865,0.07895765,-0.08759083,0.094850846,0.12713125,0.0709468,-0.018212799,0.03575756,-0.08528866,0.07327451,-0.04773573,0.0380246,0.14181475,0.01510977,0.10398303,0.08087987,0.01701207,0.038032766,0.08701954,-0.05417867}, {-0.0706543,0.014525353,-0.04485346,-0.052125555,-0.11381472,-0.017540542,-0.008533013,-0.003426768,-0.13236935,-0.030605718,0.0034329882,0.0020037983,-0.02363247,-0.12430378,-0.08886959,-0.04570613,0.056443624,-0.016370237,-0.11502036,-0.10123689,-0.12866937,-0.06864486,0.042248063,-0.049489923,0.06542229,-0.07016405,-0.0062424326,-0.08399009,0.014538208,0.017101657,-0.09424798,-0.016394503,-0.059915654,0.0021489623,-0.009382167,-0.074580416,-0.11835938,-0.14208372,-0.05603824,-0.02151451,0.14387695,-0.004291449,0.043745432,-0.0060701002,-0.080120794,0.056048106,-0.08106706,-0.03409362,-0.08460526,-0.073597014,-0.036111984,0.013507155,-0.1085943,-0.027886508,0.02377496,0.0984371,-0.033234116,0.08598519,0.052918185,-0.07026921,-0.07178611,0.023436133,0.10979425,0.13853934,0.047873706,0.026729504,-0.05225889,0.09347201,-0.06848514,0.05796334,0.12857755,-0.0298337,-0.12125814,-0.0027308944,-0.12906972,-0.1102501,-0.062240705,-0.112818316,-0.072877616,-0.070028074,-0.019254185,0.02796796,0.05420834,0.08197383,0.0068555023,-0.08952722,0.06820435,0.010963874,-0.12902594,0.0065423166,-0.11564668,0.055773124,-0.06360254,0.05420203,0.06393484,0.007902399,0.056364566,-0.05406053,0.047301013,0.030394902,0.023902407,-0.048219915,-0.012618344,-0.0481103,-0.049863655,0.21034713,0.026224159,0.13777314,0.080933504,-0.023492709,-0.10988722,-0.017040405,0.016494688,0.10966939,-0.0050228746,0.024147028,-0.049504627,-0.014144618,-0.03737837,0.16562693,0.0831094,-0.04422356,0.07951196,0.035056926,0.061892435,-0.00021516385,0.05154233,0.10216261}, {0.12629831,-0.018100958,0.044507224,0.098340005,-0.012398113,-0.11864519,-0.12574425,-0.15346909,-0.042292576,-0.024676692,-0.048227828,0.16718036,0.077454,0.059312616,0.03250529,0.02460655,0.04548087,-0.18157944,0.0049780384,-0.04202116,0.024598943,-0.078361236,-0.021332927,0.023417365,-0.11593012,-0.01836977,-0.058665987,0.030309003,0.1534726,0.033840775,0.16165121,-0.007890318,0.036955196,0.063303486,-0.003546992,-0.042728826,0.067387626,0.0017678087,0.04466276,-0.0046213125,0.06547859,-0.024831526,0.039561175,0.0009566336,0.022970898,-0.0417872,-0.058141973,-0.118202426,0.083447106,0.057762913,-0.04304459,-0.07529589,0.045701597,0.028162004,0.10195335,-0.010761296,0.022386305,0.07080509,-0.04713135,0.0775697,-0.13093036,0.048262812,-0.0019714804,0.01678887,0.0023101266,-0.1854233,-0.092854865,0.059424903,-0.135393,-0.058512982,0.010773743,0.07864795,-0.123466216,-0.059175793,-0.0062888353,-0.08138376,0.05191455,0.25525284,-0.012269786,0.08125858,-0.059722066,-0.069845505,0.1616843,-0.05416621,0.08941528,-0.056879368,0.12809978,-0.025676718,0.030905109,0.011680965,0.12720591,0.0059919166,0.08801134,-0.03476649,0.16304408,0.1130574,-0.06821412,0.08918255,-0.08016348,-0.02029384,-0.0073779514,0.00919961,0.06806618,0.036343094,-0.08131809,-0.025849825,0.037718862,0.04133556,0.010960285,-0.19852366,-0.27996188,0.113100246,-0.012138727,0.0372915,0.03490273,-0.07011824,-0.048257116,0.013104435,-0.060821515,-0.04716195,0.01589897,0.059530526,-0.009823145,0.011228229,-0.059625953,0.045666214,-0.14201891,-0.018749448}, {-0.0671647,0.03382022,-0.099322714,0.067893416,-0.01814338,0.053060677,0.06516868,0.103192665,-0.085358016,0.008949858,0.061181173,0.015631594,0.023696532,-0.031694606,0.0079375245,-0.10679103,-0.024088126,0.029666752,-0.013537204,-0.028486256,-0.026255539,-0.0807865,-0.031093784,-0.027926262,-0.05046901,0.019231107,0.060314924,-0.11366305,0.027021432,0.03932137,0.024626546,0.0031787087,-0.093327045,-0.06311727,-0.04280535,-0.062277555,0.012261666,0.01163416,0.025538439,-0.10210281,0.090407096,-0.07459483,-0.044602595,0.10704967,-0.17672202,-0.07759712,0.042786922,-0.03812404,0.03307725,-0.00036349345,-0.014359214,-0.039330207,0.11050547,-0.012890002,-0.035648268,0.017751444,-0.022252528,-0.012830633,0.02998892,-0.08907377,-0.17389154,0.0028016055,-0.0068884813,0.051356666,0.059881892,-0.10522073,-0.038083915,0.1536653,-0.032216012,-0.04066858,-0.017504815,0.01622345,-0.06180844,-0.09983497,-0.07774978,0.012163197,-0.10942101,0.062952526,0.026944427,0.09680617,-0.111044414,-0.026290376,0.017372394,0.06260971,-0.0063901325,-0.00041940412,0.02969255,0.0416382,-0.020567665,-0.033001296,-0.013975341,-0.030011471,-0.007504772,-0.018406814,-0.012682328,0.018483136,0.049111046,-0.0043886374,-0.057593483,0.007661337,0.060824253,-0.11088769,0.013833297,0.039262485,-0.022731738,0.0136170285,0.06574454,-0.06183794,-0.05943623,-0.12675644,-0.041509166,0.0127273835,0.033324506,0.009962494,-0.052279487,0.053287283,0.023131933,-0.16707331,0.21453488,0.00012883247,0.04367142,0.12113093,0.1784754,-0.06163574,0.0035118845,-0.022232769,-0.024140777,-0.010299915}, {-0.061281607,0.060712438,-0.1134957,-0.14745675,0.15688145,-0.017512843,0.17324,-0.082398824,0.11847154,-0.03816116,-0.07774701,0.04114906,-0.105315566,-0.088954024,0.05991911,-0.054019287,0.0042984397,-0.07660824,-0.07910818,-0.054976244,-0.0674199,-0.027606165,-0.035759874,-0.061993267,0.11776858,-0.0358814,-0.004198808,-0.05116263,-0.003802901,0.10061988,-0.016450012,0.058366373,0.068416454,-0.033931244,0.057975,-0.021102224,-0.025810447,-0.05108377,-0.04439129,0.0323173,-0.030602071,-0.02782915,-0.037747078,0.017632205,-0.069761306,0.013817819,-0.009542104,0.046935573,-0.007448027,-0.059031196,-0.010157559,-0.083157174,-0.048370752,-0.009907922,-0.15957299,0.19650659,-0.009843222,0.040716924,-0.04186469,-0.012198801,0.03875061,-0.032449238,-0.12714992,0.0044474695,-0.15760382,-0.021168882,0.059985183,0.11526417,0.08343817,-0.00032679702,0.042331282,-0.015292919,0.022634296,0.023131765,0.08701273,0.0017040216,0.014448476,-0.069998346,0.10975612,0.017096763,-0.017252812,0.013168771,0.036805388,-0.027840529,0.03267998,-0.0050583538,0.016806446,0.07292212,0.106691554,0.113315105,0.0028157567,-0.024898328,0.014888032,0.042814147,-0.01638718,0.04237937,-0.0151584,-0.062470693,-0.019380182,0.06501938,0.15120654,-0.08915918,0.17295256,-0.060223725,-0.015869878,-0.0339148,0.020722134,0.007498166,0.06730688,0.07990806,0.11686167,0.07315526,0.03679127,0.033605386,0.0052182153,0.11970476,0.04424528,0.015803691,0.09784393,0.0021746522,-0.073468044,-0.07502647,-0.049405705,0.029985555,0.13586259,0.044830993,-0.008874025,0.031722452}, {0.105319224,-0.051265214,-0.013050041,-0.10183434,-0.16303763,-0.025639035,-0.049551126,0.023896877,-0.04331798,0.03859784,-0.05549277,0.0086081885,0.047227822,-0.007476396,0.026790807,-0.00068083545,-0.06969263,0.122552685,0.1006422,-0.0410293,-0.07170947,0.06634483,-0.0200002,-0.019167535,-0.025848147,-0.019945486,0.016612712,0.07157232,-0.036648102,0.026632454,0.10052938,0.02904089,0.115891576,0.07043026,-0.030038774,0.01972736,-0.008698226,0.01395453,0.03406533,0.109653875,0.067208454,-0.0095031485,-0.05818448,-0.022166051,0.13911651,-0.06426816,-0.048804596,-0.00074661477,-0.11896819,-0.045469124,-0.053386148,-0.02439254,0.028098373,-0.05251499,-0.02798029,0.046010144,0.011652366,0.06895366,-0.07432983,0.19886038,0.09851279,-0.091985695,-0.02529379,-0.16129771,-0.021352407,-0.0035841053,0.10635752,-0.08148014,-0.016877985,0.06016057,0.06885266,0.050349224,0.02269906,-0.036781956,-0.00075022515,-0.08596215,0.0012339174,0.06505929,-0.0455403,-0.024018964,-0.014680938,-0.006156313,0.009744031,0.14006399,-0.022492029,0.08792844,-0.09192182,-0.05601398,-0.027333582,-0.17182103,0.11362625,0.06121412,-0.037802678,0.009288659,-0.0048491335,0.05497567,-0.07603519,-0.025311785,-0.029676039,0.007025594,-0.18416937,0.054090116,0.00050250976,-0.04087587,0.026843859,-0.014897043,0.065030344,0.09926944,-0.025994904,-0.16896674,-0.066812575,-0.03800944,-0.06352694,-0.037336234,0.07594856,-0.043393966,0.019700669,0.07953323,-0.17266776,-0.1112202,-0.12663914,-0.014847378,-0.09442591,-0.05782226,-0.12787923,-0.086990416,-0.09913641,0.10034625}, {0.028663272,-0.041133232,0.030697245,-0.08058953,-0.04144891,-0.08897177,0.047091734,0.05673352,-0.033460274,0.07825424,2.4443521e-05,0.022833876,-0.086915955,0.10262736,0.068321496,0.10454588,0.003062779,-0.02947284,-0.10854216,0.0778828,-0.050652396,0.009126386,-0.015870724,0.023121215,-0.03638434,-0.012204838,0.07721357,0.08461941,-0.0847557,-0.043490216,0.04138103,0.09417135,-0.028041903,0.025151106,0.11588281,0.0027063747,0.12341671,0.040181644,-0.008489084,0.037016977,-0.0320627,-0.043414243,0.040293954,-0.04564775,-0.007875397,0.090785906,0.016840689,0.03174401,-0.029496647,-0.15010908,0.05496033,0.07047752,-0.1498677,0.02815762,0.03132461,0.039433345,-0.06272551,0.02517736,-0.06496772,-0.10504079,0.024621697,-0.003847112,-0.0687859,-0.10515165,-0.02152879,-0.080796264,0.025287786,-0.021255627,-0.056584857,0.03331267,0.066162616,0.011979648,0.06843778,-0.10203775,0.11362512,0.042052712,-0.03690227,-0.038731556,0.0724675,-0.018728701,-0.06363088,-0.023504552,0.07067598,-0.003912027,-0.07114124,0.03271766,0.012648818,0.101234525,0.06385989,0.0035174997,0.0033245804,0.038068432,-0.035794865,0.047000326,-0.014213031,-0.02578916,-0.08031054,-0.07501209,-0.021014668,-0.11006947,-0.040938932,0.0360999,0.07558204,0.03642209,0.034517966,-0.053566154,-0.03262517,-0.1669404,-0.073981605,-0.06197779,-0.020882118,-0.008104444,-0.05718404,-0.05490532,-0.10793755,0.048334595,-0.070226125,-0.031845853,-0.041132092,-0.1259309,-0.055962265,0.043771196,0.044260733,-0.053509705,-0.02712335,-0.04303882,-0.032078885,0.038866147}, {0.18532114,-0.0577692,0.046935707,-0.01109363,0.07349582,0.020202836,0.06324651,0.06528883,-0.0606551,0.096669436,0.048248794,0.0026701863,0.047242936,-0.026295027,-0.012237786,-0.03347499,-0.07371976,0.056849353,0.03398839,0.15859152,0.036176894,0.07657566,-0.033477753,0.03813868,-0.03231726,0.01925419,-0.005759632,0.050077606,-0.076438576,-0.036144502,-0.03459276,0.011510103,0.033685584,-0.02490669,-0.039378896,-0.012118685,0.09693629,0.1454556,-0.02912004,0.14511397,-0.03437116,-0.0060121096,-0.0090082465,-0.124697015,-0.00064906955,-0.092740856,0.04215847,0.14437099,0.018892528,-0.03430589,-0.079828046,0.17474523,0.06762938,0.07470108,0.07036491,0.027947284,-0.08882154,0.0026649414,-0.047718536,0.0027664958,-0.009301852,-0.016567973,-0.04132714,-0.0009550238,0.012699423,0.07253285,0.034437988,-0.034370482,0.041272003,-0.045354813,-0.09873869,-0.025476562,0.036075473,-0.123697616,-0.0073494506,0.08924958,-0.01875556,-0.051638562,0.049141206,0.033545293,0.042090923,0.018039266,-0.074656904,-0.0036884737,-0.074230485,-0.013491758,-0.08180088,0.10653737,-0.10118019,-0.01569525,-0.059835028,-0.008619708,-0.051474,0.06621643,0.016144019,-0.0903912,-0.045154046,0.08280865,0.009849538,-0.0099690575,-0.05165938,0.025345147,0.019001657,0.037274364,0.024925025,-0.08269601,0.026383832,-0.0338351,-0.011473041,0.06830803,0.16741857,-0.031265594,0.033775512,-0.07424059,0.069873214,-0.10526451,-0.019431941,-0.029643472,-0.056144305,-0.063235834,-0.079822965,0.13359502,0.027457044,-0.089288644,-0.054152403,-0.10927881,-0.05223495,0.0021029501}, {0.05406051,-0.08088362,0.0037311644,0.08751508,-0.014598457,-0.0642474,-0.030876733,-0.04416088,-0.007497644,-0.061623476,-0.00019357321,0.1464685,-0.022810407,0.13456132,0.06951564,-0.07554745,-0.023841126,0.0388366,0.09276652,0.12678912,0.20662571,0.027612602,0.08935634,0.06822712,-0.14747651,0.07351878,0.0754861,0.14043808,-0.03382193,0.055829067,-0.055797093,0.10389444,0.051696833,0.0876065,-0.13406497,-0.03074384,-0.025373468,0.17810522,0.015485994,0.09047635,-0.06225619,-0.09992402,-0.09257516,-0.045958467,0.035275653,0.011074135,0.013033056,0.08356658,0.023962965,0.06172251,-0.06961714,0.029492712,-0.041649032,-0.06959541,0.0171485,-0.07030733,-0.037624657,-0.022854876,0.022651691,0.064930335,0.064844534,-0.052918397,0.01613282,-0.046297226,0.07727764,0.05298946,0.08882654,-0.057520892,0.11416684,0.0027970853,-0.08005338,-0.06269577,-0.029011859,-0.04063278,-0.0426286,-0.05838745,0.0075499443,-0.06451354,-0.0097419815,0.044957403,0.075449355,-0.07851382,-0.07667195,0.020401953,0.11534466,0.045239665,-0.028116588,-0.045487057,0.012313394,0.020624148,0.101093784,0.006851271,0.1057155,-0.0771485,-0.02889137,0.024642441,-0.10874285,0.047540735,-0.08023164,-0.10516523,-0.13102105,0.044419263,-0.12888628,-0.00749195,0.02649591,-0.10090304,-0.008731908,0.045955263,-0.021962812,0.038098,0.0052346005,-0.013966778,-0.036922,-0.09666106,0.032164574,-0.032897543,-0.0015709267,0.049435772,-0.11942566,-0.15982993,0.09206755,0.02869115,0.07645901,-0.10585055,0.09452924,-0.07738799,0.00905049,0.024551656}, {0.023288736,-0.009032019,-0.05457887,0.10129391,0.04808383,-0.007517841,0.091943294,-0.06741615,-0.045133874,0.098263636,0.0037620398,0.08855332,0.016200852,0.08942349,0.086989455,-0.014062417,-0.03565773,0.0097125545,-0.022424899,-0.1161176,-0.011842387,-0.030747121,-0.020571036,0.030439176,-0.21815209,0.04807769,0.059171688,-0.010336688,0.014693045,-0.005249434,-0.012800841,0.030264754,0.06054764,-0.09283061,-0.037565775,-0.029793615,0.062791,0.023662036,0.077415965,0.1280313,-0.097471215,-0.04612012,0.024982328,0.07666565,-0.1111049,-0.019353932,-0.006949427,-0.1883087,-0.06997156,0.08081924,-0.076092534,0.01581621,-0.013610414,-0.014712986,0.0423785,0.036230285,0.063556716,-0.06712283,-0.02970312,0.18294297,-0.009328829,-0.01740512,0.056714922,-0.079188354,0.016385337,0.039963856,0.089102946,-0.013217361,0.061528604,-0.15342139,-0.060322527,0.004549617,0.05548181,0.014783459,0.068794295,-0.01830099,0.03658916,0.07042195,0.080032706,0.013041253,0.13558608,-0.119261645,0.0741477,-0.032240096,0.07369516,0.023774814,-0.066124715,-0.010232468,-0.017297167,0.044132322,0.0346601,-0.04888718,0.17020379,-0.106599234,-0.010089315,0.049878277,0.0003562108,-0.0005477975,-0.03874268,-0.04155599,-0.013741139,-0.010139668,0.041589618,-0.0990733,0.036845814,-0.06734628,-0.00046899624,-0.07475903,-0.103091195,-0.04152232,-0.008850944,0.097865455,-0.013443781,-0.02790006,-0.048953056,-0.09113695,-0.046666276,0.11126689,-0.035040908,0.010489172,-0.0060881013,0.040442646,0.053062484,-0.03024194,0.017628387,-0.040522695,0.08666173,-0.0002540321}, {0.100711025,-0.05630842,-0.04478148,-0.21709469,0.00037711786,0.10370618,-0.047823664,0.027186988,0.03447068,0.022590838,-0.13527556,-0.07399418,0.054321915,0.068621874,0.016776724,0.14066352,0.030056736,-0.016093947,-0.05731063,-0.15533006,0.03861104,0.0014802641,-0.051925045,0.0046029286,-0.015117861,0.022345258,0.10639531,0.0074311197,0.026924195,-0.0251487,0.035811875,0.11440068,0.1082296,0.18790597,0.016947115,0.12519673,0.007881641,-0.08578505,0.031609904,0.066817895,-0.06769352,-0.060552064,-0.024463404,0.01873529,0.009879353,-0.06675801,-0.08697067,0.06532231,-0.06360571,0.013704942,0.011197676,0.016457126,0.006022129,-0.0033857177,0.022038866,0.046526637,-0.09152067,0.042104285,-0.021888448,-0.041304495,0.05583152,0.0365672,-0.0086080395,-0.09401522,-0.099013634,-0.08350228,-0.06652281,0.020396162,-0.07950218,0.10793897,-0.055127464,0.039362393,0.053187367,-0.082515314,0.124843754,0.11652643,0.12848058,0.012106652,0.100508034,0.11172424,0.08248598,-0.11964952,0.045769442,-0.025289029,-0.07823017,0.0627251,-0.108027995,0.054006226,-0.031191902,0.0753928,0.077106126,0.016316677,0.022740921,-0.07034387,-0.10579199,0.00825907,-0.012939446,-0.057263304,-0.009426969,-0.060506947,-0.060587306,-0.026027456,0.09736716,-0.036887888,0.032798734,0.015685974,0.07804963,-0.21392933,0.0013292079,-0.084577166,-0.06554366,-0.024445992,-0.054792963,0.057981275,0.059754103,0.053267203,-0.037863832,-0.08046687,0.094270915,-0.023782404,-0.0762949,-0.044239316,0.068742916,0.01911133,-0.0946133,0.011035874,-0.098997466,0.030884061}, {0.052475005,-0.06016474,0.09967747,0.19006728,0.16124898,-0.018598802,0.021355115,-0.005566869,0.11712723,0.007757488,0.061515026,-0.086887866,-0.09628532,-0.13560542,0.14927286,-0.009058093,0.03531637,0.0951108,0.07856519,0.028297424,0.013787462,0.034189425,-0.023875946,0.026916668,-0.068936236,-0.06553737,0.05191037,0.029969804,-0.12942758,-0.122964285,0.0013102054,0.07749768,-0.061768424,-0.092327036,-0.0801558,-0.08022687,0.0411393,0.06702767,-0.09476711,-0.11029057,0.0154463835,-0.0643537,0.06922765,-0.00768988,0.056761745,0.13302636,0.11864711,0.1280117,-0.0242477,-0.026300741,-0.05709029,0.045203935,0.050667,0.061767813,-0.025636792,-0.035943784,-0.011324374,-0.1455789,-0.06179274,-0.07537934,-0.03825734,0.06875393,-0.0026671109,0.018614274,0.10986073,0.07956028,0.0538669,0.009030221,0.03610513,-0.006584419,0.068889886,-0.023701284,-0.11300531,-0.052695133,-0.032904763,0.01360832,-0.0688495,-0.059024308,-0.08002848,-0.0437574,-0.06758521,-0.031913765,0.012308756,-0.00882259,0.03662459,0.07349037,-0.28551158,0.020414146,-0.048924454,-0.02357425,-0.17262541,0.040956985,-0.03829569,0.10961797,-0.10367419,0.029663198,0.004436836,0.044835906,0.11884475,-0.03745229,-0.07451547,-0.15188436,-0.08855955,0.026848711,0.012389568,0.020284139,0.025220688,-0.046991814,-0.007884188,0.1136301,-0.012111798,-0.03748582,0.03376757,0.0007753795,-0.049502056,0.11487307,0.014825914,-0.051730238,0.045005728,0.059731588,-0.030278496,0.04201795,0.030063974,0.042920824,0.013808522,0.029844364,0.16564684,-0.17236759}, {0.05441751,-0.043654356,0.0017853295,0.11187625,-0.0029513347,0.0005622747,-0.14478245,-0.087433174,-0.11889402,0.062591575,-0.026661975,-0.02299921,-0.039324533,-0.07774727,-0.01298001,0.07180984,-0.14080596,0.017200656,0.027993739,-0.13473682,-0.05722188,-0.090683274,-0.02943037,-0.08326719,0.0031555966,-0.022542976,-0.035777643,0.09629236,-0.07320362,0.02361156,0.11639318,0.09733435,-0.01986162,0.08082498,0.0455388,-0.00805867,0.15603209,-0.11888008,0.0044942303,-0.051485803,0.025144035,0.14398094,0.032847036,-0.1389126,-0.0055787675,-0.14372137,0.019257085,0.012058969,-0.034454495,0.040253673,0.026875619,-0.08152954,0.00017368284,0.07233968,-0.013968453,-0.008906061,0.0738319,0.060955834,-0.0017250831,-0.03835895,-0.015416276,-0.042117655,0.058529463,0.06584369,0.08791067,0.0058136494,-0.07426378,-0.003425789,-0.09020043,-0.00043920893,0.07573856,0.03694279,-0.106908135,0.0021777886,-0.08074784,-0.0026077458,0.027371667,-0.00468947,0.049613822,-0.03143461,-0.08210015,-0.014502181,0.08453602,0.0017709291,0.017420921,-0.07741022,0.07659241,-0.043790065,-0.018127829,0.07902399,-0.034734435,0.10344115,0.09812865,-0.14615455,0.080940224,0.018002767,0.088903874,0.07655207,-0.0556186,-0.041318186,-0.06898198,0.03852262,0.07392546,0.07092307,-0.09714817,0.10794273,0.048466723,-0.01709306,0.036711976,-0.056978833,-0.04404948,-0.02996149,-0.069809385,0.03424598,0.0060412153,-0.060991146,-0.08436014,-0.04056533,0.012495523,0.028575893,0.027883925,-0.06528439,-0.04798347,-0.008613178,0.08587593,0.13363047,0.03488944,0.013426109}, {0.05477653,-0.03948073,-0.012323366,0.12531929,0.025957877,-0.037553992,0.10378724,-0.05495365,0.099692576,-0.07382078,-0.017716922,-0.014673195,-0.20179911,0.0080048675,-0.010286361,0.033354998,0.013370741,0.054284774,0.11906803,0.085318096,0.12152383,0.085957885,0.04252481,0.006713761,-0.028975893,-0.09722021,0.09421372,0.043470055,-0.081188574,0.052434873,-0.065935545,-0.09476536,0.046134915,-0.028626034,0.0154751595,0.06989712,0.005649531,0.13613832,0.041226562,0.08071863,-0.11860618,0.09575142,0.052564945,0.08255042,0.05408482,-0.088282794,-0.008791986,0.024287311,0.07601135,-0.0099218255,0.11330627,0.1152375,-0.099776335,-0.044584524,-0.061653353,0.06290549,-0.07272346,-0.17018735,0.04478768,0.066702545,0.14989235,0.066336185,-0.060534883,-0.08453781,-0.07285769,0.031207886,0.04729537,0.030314015,0.025834475,0.0059053344,-0.1092169,0.055191208,-0.049641617,0.06630161,0.04272688,0.055981293,0.013911199,-0.09969255,0.10408777,-0.017259996,0.05651451,0.014753954,-0.11048979,0.0113234855,0.029850816,0.049443338,-0.06311665,0.14470299,0.053312995,0.049703754,0.09229835,-0.051703338,0.13847284,-0.024072917,-0.05504218,0.014211944,0.013850605,0.040295057,0.07680217,-0.073337235,0.04837415,-0.09186316,0.0098564215,0.07470181,0.107522145,-0.056233987,-0.016492143,0.080602236,-0.09683934,0.080103874,0.24454005,0.08202145,-0.02070574,-0.05466174,-0.047661625,-0.0145807285,0.00036276015,0.029169375,0.037015226,-0.055355404,-0.17805856,-0.08933943,0.0359354,-0.040826987,-0.014455665,-0.003027555,-0.005674547,-0.048459634}, {0.044231232,0.027447628,-0.024289839,-0.01261767,0.028153157,0.17681472,0.107794054,-0.22640215,0.086449444,0.011762087,-0.15369762,-0.061805524,-0.036534466,-0.13008906,-0.026002707,0.087348156,-0.007577435,-0.066646904,-0.018873828,-0.13034388,-0.078952,-0.049900733,0.11030479,-0.07715565,0.04721387,-0.0026052757,0.08063308,0.04551908,0.006666141,-0.13289233,-0.1613551,0.07334738,-0.020792855,0.12794198,-0.0099043315,0.07419151,-0.09706345,-0.10151557,0.07819596,0.011669267,-0.049453422,-0.1069214,0.07999667,0.21589567,-0.029806925,0.23811777,0.037642535,0.05299609,0.0071884375,0.09165813,-0.049203455,-0.031985793,-0.045897976,0.055237252,-0.13894449,0.06238638,0.021289641,0.033047043,-0.102339365,-0.088247985,-0.09057646,0.1326337,0.06754245,-0.09539132,0.024353383,-0.07806516,0.032545462,0.13242516,0.056316976,0.001439064,0.107098,0.060270645,-0.023063535,0.07196346,0.043162845,0.029547384,0.057326876,-0.062630475,0.051638447,-0.005614233,0.056555465,0.027140554,0.05649711,-0.038891863,0.011777194,-0.016478354,-0.020095702,0.08525551,-0.003137787,0.026518835,0.083577804,0.09056562,-0.030910503,0.023875713,0.04145137,0.1507427,-0.124860205,-0.069849856,0.010883309,-0.047691498,-0.049252257,-0.03296531,0.007463447,-0.13278243,-0.02920323,0.06726335,0.066559486,0.05991518,0.034066856,-0.047335826,0.029788973,-0.013729446,-0.014374085,-0.038025633,-0.09321518,-0.024939718,-0.041635912,-0.014889447,0.013865584,0.050462533,-0.09140034,-0.092513055,0.012044573,-0.038595892,0.006890605,0.08276387,0.03693266,-0.055641435}, {0.020230401,0.005354374,-0.06677026,-0.029804913,0.018022766,0.05569514,0.050740022,-0.09559733,0.09092782,0.07454051,0.023947857,-0.052876823,0.032338448,0.038554896,0.0816908,0.04189287,-0.047984883,0.03442522,-0.028291207,-0.08756348,-0.09337141,-0.011834733,-0.007932119,-0.017470349,-0.018400455,-0.082012355,-0.013642274,-0.033163913,0.07702528,-0.06869904,-0.004675395,-0.01408099,-0.07112936,0.07581722,-0.10350021,0.038544226,0.11143733,0.007586331,-0.04198273,0.012045342,0.060011122,-0.06785537,0.043871682,0.14515348,0.10887618,0.033561837,-0.06289249,0.024251085,-0.13738628,-0.06726768,-0.0038666548,-0.009516835,0.021636933,0.030175086,-0.00020525628,0.01588492,-0.015732735,-0.12586607,0.003706249,-0.08763521,-0.034055218,0.09317246,0.048008345,-0.08176883,-0.109266214,0.020713514,-0.0636672,0.008869974,0.04671104,0.02385143,0.011004778,0.041037887,0.080404036,-0.033735648,0.14022373,0.03674725,-0.11001184,0.045853518,-0.037146796,0.047116257,0.005023387,0.020718073,0.0062450594,-0.13254276,-0.031767588,-0.079709284,0.050165292,0.011963531,0.073726244,0.07523902,0.04324072,0.020756919,0.011373005,-0.0424526,-0.053646937,0.0033171116,0.019569492,0.029444354,0.045390222,-0.024124483,0.03827723,0.043415967,0.07231031,-0.054371223,-0.045151193,-0.025741978,0.0029225082,-0.06961901,-0.12266762,-0.06389681,-0.025705816,0.16811177,-0.0060803723,-0.08769715,-0.0067449883,-0.052675076,-0.00930406,0.0032750198,0.08273253,-0.026872763,-0.0049443305,0.062187403,-0.06346441,-0.08564483,-0.019879049,0.023014609,-0.11088786,-0.12172617}, {0.054282032,-0.060796805,-0.059004005,-0.023908636,0.04579995,0.011437492,-0.103993244,-0.037792835,0.049458005,-0.10531538,-0.09133436,-0.0077743875,0.043191537,0.057445064,0.030078257,0.11381279,-0.09166641,-0.101555854,-0.043987725,-0.09448836,-0.044208325,0.043302406,-0.015546922,0.08267067,-0.0055624815,-0.0070256903,0.10298648,0.06469241,0.13635662,0.08198558,0.13928685,0.0014815647,0.03722764,0.13042665,0.12693666,0.07808599,0.087952726,-0.12668501,0.06575341,0.14720105,-0.01906593,0.024783496,0.042473193,0.012283229,0.025570232,-0.12479485,-0.051746607,-0.053313453,-0.102549456,-0.07034133,0.048632078,-0.15228425,0.06444167,0.10906577,-0.029696696,-0.007550314,0.027928507,-0.002133295,0.040616095,0.0044052666,0.06855046,-0.018870084,-0.030498955,-0.034251433,-0.10884313,-0.084942244,-0.14648604,-0.0060551,-0.087215595,0.10982072,-0.043689776,-0.056433156,0.048930798,0.03744781,0.08337923,0.0151583105,0.0598785,0.055540446,0.04999269,0.06663651,0.024403578,-0.05781146,0.20363249,-0.038750987,-0.07281021,-0.09264034,0.045203384,0.0019261434,-0.01290206,0.029604396,-0.015556759,-0.034757424,-0.010813482,0.0002843564,0.019716583,0.08775366,-0.111775056,-0.13121174,-0.09386041,-0.058251552,-0.028618474,0.011826173,-0.109773874,-0.030451823,-0.09660699,0.08852659,0.064409174,-0.049646027,0.025318524,-0.07502357,-0.14259253,-0.0013629291,-0.08843133,0.044274166,0.05012206,-0.019737551,-0.045132965,0.014801544,0.03856909,0.026839549,0.020106148,-0.057688825,0.0011455134,0.059369594,0.08073373,0.14117494,-0.07322563,0.09665187}, {-0.021903336,0.12026523,-0.0050254483,0.03587103,0.07570417,0.045115072,0.026490392,0.08443883,0.07821434,-0.06702243,0.12419012,-0.14096805,-0.04435775,-0.048377138,-0.01661833,-0.072970085,-0.089994974,0.03907661,0.0056384923,0.017252175,-0.03214454,-0.08628349,-0.01867217,0.0011297306,0.006934667,-0.019541059,0.09830446,-0.07228571,0.012103417,-0.018665398,-0.03555821,-0.0131987,-0.025873082,-0.050644517,0.04426675,-0.084799714,0.025470065,-0.12354217,-0.1518997,-0.2106231,0.06675078,0.06965502,-0.10949821,-0.056452345,-0.0942057,-0.065936565,0.018719805,0.076852046,0.1067326,-0.05186524,0.07264344,0.038558356,0.046171125,-0.018956069,-0.019825105,0.025814185,0.032077525,-0.01533764,0.0666734,-0.10008259,-0.065178,-0.020799123,-0.07710869,0.15322682,-0.023824438,-0.05607844,0.06292311,0.04997868,-6.0677063e-05,-0.002460251,0.08337544,-0.18372436,-0.015407292,0.0083993785,-0.0027206768,-0.046367694,-0.04982452,-0.10968756,0.033803314,-0.010208537,-0.044510685,0.08556698,-0.11077237,-0.002048216,0.05272138,-0.12419582,0.053224817,0.04935502,-0.059868783,-0.059582222,-0.027858844,-0.00019822441,0.043934576,-0.10544311,0.058719993,-0.09146115,0.07094458,0.023230134,0.055980563,0.03865957,0.07753461,-0.068304315,-0.15489696,0.014646485,-0.009127307,0.10891959,0.10427638,0.020984605,-0.0016445869,0.024739798,-0.011485368,0.09177726,0.060463566,0.12184703,-0.07638362,-0.002620181,0.020912357,-0.112756215,0.01291185,0.19218688,0.10592742,0.056360092,0.058826737,0.013237112,0.037648432,-0.0017174741,-0.07327468,-0.092270695}, {0.024505008,-0.013957608,0.017564876,-0.004241476,0.04681212,-0.012435263,0.01977729,0.04547667,0.032113012,-0.03616938,0.045912195,0.027152538,-0.021990167,0.004874516,0.0016154032,-0.019805983,-0.05646313,-0.06772719,-0.0023731587,0.11374263,0.1550744,-0.07895315,0.15107343,0.043270342,-0.01979637,0.036138028,-0.008336731,-0.05774834,0.06490039,-0.021873526,0.058948357,0.06318579,0.064290255,0.040350433,-0.15584286,-0.016643917,-0.019753844,0.023425743,0.035283025,-0.00035353203,-0.05341012,0.02407168,-0.02866757,0.12588142,-0.1023478,-0.13514754,0.0064691533,-0.09442473,0.030597312,0.010134029,0.024744207,-0.06139492,0.0108144265,0.041741643,0.115214825,-0.014295723,-0.07932807,0.09733258,0.033101194,0.046313044,0.01927943,-0.0076247756,0.059721887,0.036210045,0.06644124,0.09316979,0.033498466,-0.016869787,0.11075579,-0.01785931,-0.036374934,-0.06636372,-0.05087526,0.0059357737,0.050636195,0.08407193,0.030338679,0.006698876,-0.086501546,-0.005226223,0.086664826,-0.060186762,0.07006325,-0.006314678,0.056645796,-0.032523535,0.07954601,-0.110322796,0.042104673,0.096300155,0.04342135,0.02878136,0.12410191,-0.082287714,-0.100813255,-0.0074553513,-0.0067320685,-0.028686028,-0.020789733,0.014846668,0.024825798,-0.027531002,-0.020272227,-0.076334246,-0.019075714,-0.1287573,-0.03651554,-0.016842714,-0.018197896,-0.040071126,-0.03282028,0.11291587,0.068323806,-0.018374987,0.03531219,-0.051720455,-0.08566045,0.06971918,-0.06252002,0.0017841291,0.07752279,-0.08793224,-6.9776084e-05,0.076952785,0.021205155,0.058451626,-0.043631986,0.017139914}, {-0.13962872,-0.06022029,0.057995446,0.008927845,0.032120876,0.029333333,0.012465569,-0.17150879,0.06612977,-0.10770686,-0.033780042,0.008282657,0.07002377,-0.08842605,-0.015011006,-0.056194596,-0.07694061,-0.12761447,0.07859983,0.0138726225,-0.051812664,-0.0718689,0.06997972,-0.06400202,0.09263828,0.044414517,-0.081914,-0.14240803,0.057406522,-0.047801178,0.013510949,-0.033112295,-0.020597352,-0.0004840489,0.013787034,-0.0259384,0.09818203,-0.16117851,0.0031930208,-0.0010243489,0.1637623,0.054717325,0.06310558,0.013185982,0.049541514,0.080445714,-0.048670247,-0.004545627,-0.062471982,-0.008389081,-0.09794966,0.011011199,0.06290466,0.06416036,-0.03934007,0.18029647,0.02835421,0.12838386,-0.056262016,-0.03186849,-0.077674694,-0.030678641,-0.013499782,0.030579023,0.01875035,0.026960738,-0.0037644764,0.031899437,0.039129604,0.0110419635,0.06445133,-0.050265655,-0.033746477,0.034184873,0.045084264,-0.018371405,0.072815344,0.07351652,-0.032768432,-0.056621257,0.039728627,-0.090455845,0.06735773,-0.005353656,0.015286858,0.043587767,0.021642106,-0.071016245,0.080296755,-0.055765543,0.092249915,0.06988809,-0.013720842,0.07323093,0.05696185,-0.025368722,-0.06418994,0.04622507,0.011786801,0.12174945,0.17768723,0.11091212,-0.026784182,0.038276095,-0.111885875,0.08857503,-0.03657108,-0.016869433,0.10632822,-0.010212548,-0.11799834,0.07235402,0.024678256,0.0143541405,0.014454026,-0.009201603,-0.076558515,0.010256471,-0.09662459,0.056222033,0.18146628,-0.016212601,-0.064067006,-0.02019175,0.019951409,0.002067253,-0.07477839,0.038753476}, {-0.085931644,0.019367075,-0.0019470188,-0.057717815,-0.09693471,0.10480255,0.1333365,-0.054550014,0.040906377,-0.07156967,0.0068519064,0.07554155,0.06244677,-0.0021635457,0.08104837,-0.034761816,-0.03207197,-0.059258327,0.08166061,0.05213192,-0.04557442,-0.104526766,0.13094537,0.040428277,-0.016315114,0.1285732,-0.011870305,-0.04648844,0.04785942,0.017739842,0.07841626,0.11805593,0.016939964,0.05446172,-0.023483537,0.037530154,-0.04960185,-0.08183005,0.024124295,0.086985976,-0.010984536,-0.030272266,0.07765818,0.15454556,-0.11210218,-0.034595024,0.0048523853,-0.04143411,0.017507883,0.12901199,0.017458702,-0.146274,-0.018993206,0.12534417,-0.023638109,0.055135157,-0.043010246,0.041948322,-0.030950816,0.013191944,-0.13680688,-0.035652798,0.04114748,-0.12383613,0.026815768,-0.094848536,0.036138456,-0.055731855,0.040572673,-0.06937764,0.0642723,-0.14012553,0.076423496,-0.029739369,0.017575478,-0.062344555,0.016977247,0.05734951,-0.10588938,-0.010610042,0.06760801,-0.0616731,0.11292698,-0.11121738,0.07430853,0.056788772,0.020540673,0.05478232,0.07020588,0.10718422,0.0059128874,0.0032562516,-0.0076318467,-0.08092674,0.047953207,0.08383721,-0.07374395,-0.01426401,0.0023177217,0.04073313,0.09405958,-0.026055707,-0.06668494,0.0073692063,0.0040377136,0.036074333,0.057330012,0.0051097786,0.08297853,0.058480434,-0.00033576955,0.15454625,0.12243955,0.031322807,0.085587144,-0.070405096,-0.034236163,0.07946564,-0.008788617,0.039012223,0.11150566,0.037792888,0.073021844,0.033038747,0.12678131,-0.004399749,0.1452848,0.08042678}, {0.023473112,0.023811536,0.06345089,0.112518646,-0.038227994,0.073233694,-0.035117324,-0.061036948,0.15449835,0.012020866,-0.07442837,0.008172517,0.09037146,-0.081857234,-0.0016224368,0.02530507,-0.031173399,-0.022345182,-0.056533758,-0.05329604,-0.13850257,0.014287276,0.04823249,0.017792527,-0.009318891,-0.005528091,0.09083314,0.044820614,0.08985564,0.003487077,0.056598358,-0.1012582,0.007634572,-0.016703121,0.001911814,-0.014220405,-0.05640495,-0.05431024,-0.025222214,0.18710254,0.05167707,-0.06926395,0.059414875,-0.080063745,0.06709562,0.07388869,-0.16085906,-0.080083966,-0.10012442,-0.03958929,0.07018477,-0.047756482,-0.022776252,-0.053338278,-0.041673396,-0.059491362,0.041760486,0.06225554,-0.014891405,-0.04825981,0.045737132,0.059670467,-0.054779988,-0.061576545,0.010418876,-0.0981467,-0.00888484,-0.028348098,0.008636402,-0.02515281,-0.06837473,-0.062217433,-0.07082765,0.090331584,0.07872321,0.06041262,0.1289462,0.05639033,0.005686914,-0.011290036,0.029861758,-0.0011977468,0.041442934,0.11532446,-0.05664227,-0.06966793,0.008303041,-0.03936519,-0.02540541,-0.08246504,0.028824715,0.050215565,-0.15066761,0.03528722,-0.11292713,-0.038309243,-0.0013893757,-0.07119957,0.0009756086,0.08375859,-0.095424354,-0.008729784,-0.013548792,-0.07593062,-0.0064813816,0.020415464,0.00640071,0.04604017,0.06606677,0.031756423,-0.0070613287,0.02442281,0.0644607,-0.07218448,0.0054195314,-0.0064649717,-0.044328693,0.10873294,0.004661505,0.14050184,0.069839045,-0.09304177,0.10626141,0.0077133733,-0.016062064,-0.018754091,-0.030012734,0.042042963}, {-0.015987795,0.07524525,0.11507317,0.00760551,-0.023288762,0.18862136,0.09626473,-0.16170253,0.18119654,-0.0016386972,-0.14103967,-0.03542171,-0.018959923,-0.03682494,0.08337517,-0.046566002,-0.043777894,-0.1366127,0.01358033,-0.036901344,-0.036201894,0.039852146,-0.046426278,-0.08172513,-0.02126124,-0.030406823,0.0040985867,-0.028141743,0.055185627,-0.006871689,-0.054508492,-0.029208217,0.034770116,0.03492385,0.14684576,-0.00070037483,-0.0075795236,-0.13754342,-0.043366056,0.10735401,0.046648312,-0.061606437,0.26585895,0.036977988,0.047826122,0.08317203,-0.03097576,-0.13708264,0.008212665,0.04263443,-0.02263127,-0.0064195204,0.037685756,0.106466904,-0.22247724,-0.015548388,0.047294255,0.04598826,-0.005012213,0.005162143,-0.046494532,0.09162668,0.008301442,-0.014511349,-0.12886651,0.0142014045,-0.059153233,0.096526414,-0.059482075,0.002113795,0.085761555,-0.0048688995,0.013440341,0.03736103,-0.0010733339,0.081971735,0.030093823,0.03843883,-0.0098074,-0.061249938,0.12425243,0.049068704,0.1602913,-0.042956874,0.015490496,0.010735306,0.051675227,-0.018258946,0.09742831,0.016128376,0.1561581,0.017080622,0.050719444,0.044304755,-0.033179842,0.0030294722,-0.03143571,-0.019968914,0.049142193,-0.025813218,-0.074324496,0.10568807,0.0011214997,-0.043429177,-0.036833476,0.03753252,0.0154312765,0.1912077,0.07666876,-0.039304573,-0.012158028,0.0570698,0.04657049,0.016646301,0.20264526,0.08395734,0.015323164,0.06638215,-0.0790374,0.036479674,-0.038301088,-0.11741566,-0.026181899,0.003632683,-0.07156211,0.10685015,-0.11996758,-0.03242004}, {0.06923045,-0.017159108,0.006705077,0.033022482,0.007117677,0.08726427,0.078941084,-0.13155952,0.042204466,-0.06503458,-0.054238115,0.03838992,-0.10976176,-0.02422365,0.14920993,-0.02953293,0.05271965,0.011134652,0.013857009,0.097222544,0.1570916,-0.0114198495,0.02440756,-0.05396985,0.119209856,-0.0607984,0.02093325,0.020394439,0.05519257,0.100158654,-0.01957278,0.015585281,0.0776339,-0.16323042,0.05175834,0.0013029759,-0.016493876,0.051939975,0.044073947,0.060433112,0.03195554,-0.081931904,-0.00020046334,0.15895703,-0.006326176,0.09436548,-0.12762284,-0.13386557,0.08046444,0.10515199,-0.07266842,0.10685366,-0.056311738,0.0319377,-0.017450176,0.07832725,-0.01778489,0.024975533,-0.006347062,-0.042077877,0.03400394,-0.015776807,0.033189617,0.036336575,-0.08675264,-0.08255145,0.06453735,-0.026930312,-0.018381704,-0.045285966,-0.0029382207,0.051699232,-0.032820538,0.24431482,0.0571817,0.13213617,0.047431346,0.06582267,0.03492288,-0.12666066,0.101132005,-0.084145494,-0.012157372,0.03346694,0.032257803,0.004578209,-0.0039418847,0.06635156,-0.07382993,-0.09044434,0.07102097,-0.0025874805,0.008668089,0.04531438,0.024789028,0.051895004,-0.11839261,-0.02055444,0.042376887,0.052336995,0.06658122,0.049667105,-0.019092856,-0.07269219,0.05246785,-0.04515283,0.045222893,0.102590084,0.020228064,-0.007705761,-0.05269769,-0.04776503,0.015556536,0.021421714,-0.025161585,-0.09839602,0.030974554,0.05707399,-0.040847678,0.03636278,-0.22058608,-0.061669033,-0.0053467173,-0.00084287504,-0.0029201596,0.049476452,-0.034729585,0.08543571}, {-0.054478824,0.00068182783,-0.062014703,-0.14446872,0.011015893,0.08539958,-0.04199691,-0.053549774,0.19233575,-0.10824092,0.00044733819,0.01837138,0.06495595,-0.01706757,0.094462134,0.10513026,0.037636243,-0.20743115,-0.015748011,-0.045053087,0.07502196,-0.09413227,0.017718928,-0.004927158,-0.084169544,-0.094717085,0.072307445,-0.022348095,-0.04790931,0.03496008,0.04475987,-0.050847642,-0.06346378,-0.06638812,0.008594631,0.020733798,-0.036469225,-0.018867955,-0.023693308,0.07789254,0.06802337,0.044917125,-0.06977304,0.02060281,0.024732111,-0.017653752,-0.08227937,-0.031942543,-0.11710922,0.0670998,0.09761198,-0.11973223,-0.002469378,0.0673446,0.015372379,0.07065882,-0.05961573,-0.016177401,-0.0568485,0.003133857,-0.036000613,0.042111065,0.01693111,0.057396125,-0.115376785,-0.013243682,0.021809638,-0.008771287,0.05996456,-0.08755151,-0.11792329,-0.02134077,-0.012417022,0.110696375,0.15146464,0.021301052,-0.026357912,0.053172357,0.089567795,0.047604702,0.0745282,-0.020546615,0.06856615,-0.043413367,-0.05053513,0.03494689,0.08984129,0.104576714,0.04367461,0.15011103,0.072250664,-0.060429137,0.041706108,0.039316416,0.004619776,0.009906904,-0.016655596,-0.06629896,0.040025093,0.009857402,0.07515018,-0.12928063,0.09128251,-0.082014054,0.029533664,-0.10907666,-0.024258656,0.010715357,-0.0057007303,0.06284445,0.023446973,0.10388574,0.13074556,-0.0068497495,0.0991193,-0.06311923,0.075446725,-0.02050182,0.17995492,0.03802094,0.031602304,-0.015482024,0.016517257,0.052510332,0.043261413,0.058280192,-0.040210474,-0.030783555}, {0.030650867,0.050496005,0.01982213,-0.016162165,0.051616535,-0.032033194,-0.04905125,0.05175087,-0.113295764,0.022506481,-0.05323317,-0.02105212,0.120627865,-0.03681451,-0.0985253,0.048395578,-0.013662932,-0.17634188,-0.036624115,-0.100722075,-0.0040483796,-0.044394802,-0.06754902,0.013109974,-0.038697217,-0.009680829,-0.043073844,-0.13641918,0.018727945,-0.004829703,-0.025920618,-0.022116829,-0.04653787,-0.06448825,-0.00055946875,0.042725813,-0.089861915,-0.051054984,-0.09339899,-0.050465867,0.04914068,-0.0130854985,0.04323293,0.05054235,-0.07382134,-0.005228579,-0.021480767,-0.02952108,-0.0328314,-0.09904339,-0.074545175,0.023055233,0.100523345,0.016270312,-0.08298977,0.041105967,0.09339758,-0.07177073,-0.008046018,-0.00620359,-0.041343246,0.033668537,-0.018578338,0.050974946,0.05318882,0.061895356,-0.030189684,0.12741427,-0.012190885,0.0928889,0.051173218,0.07115888,-0.06319238,-0.051023073,-0.05094754,-0.02016604,-0.025163477,0.061722606,-0.03650448,0.08707961,-0.038447812,0.03237888,0.08767871,0.019258082,0.05409692,-0.06472132,0.06684884,-0.09695661,-0.0036824017,0.08823882,-0.083430946,0.036799885,0.15860784,-0.1256275,0.030712916,-0.04150384,0.06973246,0.021978669,-0.022224141,-0.0071290783,-0.009250152,-0.08816124,-0.017118342,0.034521796,-0.121169545,0.08192496,0.0984342,-0.109168574,-0.06215989,0.0003277594,-0.0121861715,-0.030355377,0.010078043,0.032772973,-0.04914978,0.03803925,0.019932592,-0.049940664,-0.0017285653,0.19873133,0.13292876,-0.047299113,-0.071262114,0.105969176,-0.049914673,0.1428555,0.032147303,-0.038465325}, {-0.010343321,-0.04447176,-0.08917884,0.09772046,-0.092105575,-0.11875036,-0.12268865,-0.046962894,-0.042372968,0.048626516,-0.01507278,0.07393009,0.051917046,0.19851384,0.025472902,0.03955076,0.030625116,-0.06253011,-0.08495942,0.017202314,0.07896058,0.09049741,0.005792363,0.059686758,-0.09637064,0.074891314,0.025175203,0.07630879,-0.01942714,0.010435948,0.14553747,0.12225781,-0.010119309,-0.0060780966,-0.023281816,0.0009590527,0.12809767,0.008638708,0.026970042,-0.033178512,-0.034225598,0.05807152,0.03457439,-0.056102056,-0.027106995,-0.094463736,0.030867519,-0.084558815,0.040010497,0.0008068761,-0.011189138,-0.12806654,0.08772478,0.011545064,0.12926611,-0.080895655,0.010968803,-0.027551854,0.09198621,0.03365081,0.14079534,-0.016271422,-0.028016087,0.008063192,0.06055982,-0.042290587,-0.05468103,-0.14119408,-0.08665291,-0.010020927,0.08922917,-0.007834425,0.085370466,-0.095889755,-0.0056786537,-0.022990858,0.04263363,0.08582823,0.0021324004,0.16728811,0.018048592,-0.019993043,0.15980397,-0.046276335,0.091533996,0.1110159,0.0043105497,0.0139435725,-0.035393503,0.040577967,0.070281945,0.10869033,0.10950825,-0.037847042,-0.026318286,0.10940028,-0.0072710407,0.02407638,-0.087550044,-0.14770962,-0.1354423,-0.00087325333,-0.026742753,-0.058185555,0.010738223,0.040275563,0.041833363,-0.019500716,-0.057585903,-0.037186496,-0.083068475,0.0993235,-0.016386168,-0.004715901,0.049679965,0.058862068,0.04907011,0.0460625,-0.08131707,-0.117021866,0.04714973,0.06925632,0.14251855,-0.100114785,-0.05548567,-0.072348215,0.0027678167,-0.047580507}, {0.16279642,0.0090415655,0.0023630117,-0.005234538,-0.09250603,-0.047264945,-0.09434417,-0.13759464,0.08363392,0.14015245,-0.21528575,-0.027633231,0.09538963,-0.012589455,-0.16459131,-0.009903069,0.095337756,-0.072364435,0.052794475,-0.06292934,-0.1076917,0.10038277,0.048026115,-0.077750504,0.009386324,0.056019533,0.07643048,0.073816225,0.08814966,-0.080724694,0.0746707,-0.02454255,0.0631734,0.046163697,-0.10301198,0.14858447,0.055026792,-0.06302288,0.035350796,0.02162455,-0.031839177,-0.07413379,0.0003990183,0.032410886,0.091121286,0.019384267,-0.1217356,-0.10168386,-0.16284305,0.030329658,-0.12710945,-0.16650952,-0.014621508,-0.061663445,-0.042504556,0.03070471,-0.04189396,0.11721895,-0.057247773,0.036190834,-0.003287375,-0.12660514,0.11688956,-0.08343299,-0.061287615,0.0013964807,0.04356259,0.056481227,-0.060143117,0.027058315,0.031431668,-0.015727805,-0.08464387,0.0755444,-0.0036309103,-0.049570117,0.15763095,0.072443634,0.024371369,0.0040380983,0.12304913,-0.07272928,0.16410677,-0.05183944,0.036019165,-0.0013633769,-0.02852769,-0.06645831,-0.019091336,-0.0077431514,0.2425507,0.06688504,0.059467085,-0.038625855,0.09013312,0.09748492,-0.07724218,-0.038919576,-0.02320849,-0.01158357,-0.012711678,0.02480553,0.029460179,-0.17447002,0.03540614,0.09747382,0.071885705,-0.0053567085,0.018916551,-0.16751407,-0.1682689,0.031167086,-0.024046855,0.05629126,0.057188675,-0.068633154,-0.0020856333,0.05840983,-0.09841724,-0.11579151,0.08926793,-0.006578619,-0.037479408,-0.09384845,-0.044905774,-0.04682059,-0.03320062,-0.07878637}, {0.08746405,0.021156754,-0.040022906,-0.06612728,0.025304422,0.19380143,-0.04913631,-0.028460171,0.15036291,-0.00048976607,0.12166999,-0.0073709497,-0.011859015,0.022386378,0.11257359,-0.054932557,0.004720205,0.04344093,-0.010106493,-0.06959092,-0.09036727,0.015657391,0.03465451,-0.065945454,-0.11727958,0.02679764,-0.0065268264,-0.025750987,0.11848141,-0.041287635,-0.038611922,-0.058173046,-0.018858898,-0.02156592,0.023196088,0.0052677775,-0.02194732,0.03267502,-0.05399209,-0.012545867,0.046725426,-0.067816,-0.012788167,-0.03545264,-0.048003335,0.108480915,-0.19398353,0.044681948,-0.092124656,0.020672021,0.059013247,0.016537532,0.031011106,0.029325813,0.030697497,0.046110053,-0.023785068,0.07931388,-0.07942969,0.023677144,-0.08936744,-0.0139667075,-0.05454375,-0.045665454,-0.06404367,0.08779261,-0.064101405,0.11541383,0.023113767,-0.060411643,-0.04498493,-0.08923142,-0.0006720098,-0.015239403,0.0495974,0.11784767,-0.038260024,-0.044219207,0.0030051135,0.101168185,-0.072318785,0.053919256,0.14411448,0.010834151,-0.10932033,-0.04530075,0.018591048,0.020355623,0.032187246,0.08894421,-0.03057958,0.017801004,-0.100024104,-0.0117799835,-0.038886867,0.037899397,-0.015366901,-0.13593194,0.13647488,0.037085474,-0.05666481,-0.020289622,-0.020027854,-0.11181188,0.019453298,-0.037318856,0.07775779,0.11200285,-0.009487133,-0.0788312,-0.025123427,0.057936314,-0.033595532,-0.011706705,-0.06979689,0.006163683,-0.053644758,-0.043819398,0.036549315,0.024777604,-0.015668223,0.01333647,0.017820518,0.07544621,0.014405136,-0.13226306,-0.0005576465,0.106532104}, {0.07159464,0.044376552,0.06269016,0.0397291,0.012533911,-0.0962986,-0.038841974,0.081252046,-0.14104736,-0.14995909,0.046380814,-0.120364204,0.043599043,-0.0062209098,0.0196583,0.0029210537,-0.10839715,0.021136181,0.015844824,0.0577597,-0.0150842415,-0.056194033,0.026899237,0.13581654,0.016681693,-0.11581305,-0.09057453,0.06813508,0.020040406,0.031115483,0.020292534,-0.04716545,-0.124263115,0.0052383454,-0.016281914,-0.05505119,0.11429713,0.0030284144,-0.003119626,-0.09425911,0.021478184,0.00037736946,-0.0324229,-0.13944653,-0.0013181957,-0.1564146,0.09274185,-0.022296013,0.08902637,-0.091518745,0.023837356,0.050569333,0.1087151,-0.0010768459,0.046465635,-0.09333588,0.016042568,0.038890753,0.13639629,0.06864925,0.024184102,-0.017276954,-0.124427535,0.15898997,0.11003501,0.014024277,0.015397745,-0.11323399,-0.04206306,0.016587945,-0.049698588,-0.13273345,-0.028765272,-0.10806464,-0.17064111,-0.06073596,-0.08437853,-0.02004011,-0.1403677,-0.03440284,-0.13827817,0.029537702,-0.03614871,-0.0055498416,0.04159527,0.032824073,-0.0039987625,0.005464688,-0.016591921,0.010466068,-0.057919882,-0.10165932,-0.014695514,0.043244332,0.061118625,-0.12002504,0.11061654,0.07038198,-0.04243007,-0.02918236,0.055544004,-0.045870986,-0.084289365,0.116375595,-0.08879627,0.10424111,-0.08767383,-0.050641898,0.009379985,0.06278715,-0.051737346,0.097080074,0.024552183,-0.014339654,0.0899233,0.008494621,0.010133314,-0.06106252,0.047279708,0.117279746,0.08467608,0.014603404,0.023414537,0.05532547,0.033978492,0.15075584,0.025875019,-0.103329144}, {0.022926338,-0.07793814,0.08152092,0.17316498,-0.053936742,-0.069617175,-0.04551521,0.049559556,-0.16865396,0.0959776,0.0041538323,0.044483505,0.044671815,0.029203063,0.07718139,0.013482722,-0.07245509,0.088246696,-0.073612094,-0.008811072,-0.0073284376,0.014833344,-0.10304188,0.0058772527,0.044737022,0.09402434,-0.03702294,-0.03393487,0.030187376,0.080500506,0.048933234,-0.029310493,-0.042148847,-0.019909311,-0.049860556,-0.073810205,0.05389507,-0.026603112,0.035230912,0.0780492,-0.031363077,-0.0110015385,-0.04440718,-0.07042519,-0.07698138,-0.059960246,-0.029382786,0.07281473,0.004332683,0.08878683,0.06745504,0.04179215,-0.009032433,-0.047356892,0.15142994,-0.06250353,0.12920564,-0.037365973,0.07832543,-0.054424006,-0.01030651,-0.047240213,-0.0033987851,0.06959332,0.15600914,0.012214569,0.026131133,0.010905732,-0.018241724,0.10556913,0.09317357,0.008920412,-0.12941875,-0.08166144,0.012493364,0.038100816,-0.07460624,-0.029356202,-0.014608666,0.03979454,-0.03611365,0.017741987,0.029469276,0.04257149,0.071393184,-0.014994655,-0.045336053,0.021667209,-0.043802034,-0.023979774,-0.10589189,0.0005234879,0.068167835,-0.11074979,-0.013111826,-0.032616507,0.07257383,-0.031582363,-0.123035185,-0.03391702,-0.03041797,0.10677878,0.0926517,-0.0015162333,-0.037255228,0.06435103,-0.021147855,0.08137295,0.025692344,-0.10727174,0.03667459,-0.04501084,0.08337578,-0.06910804,-0.08826405,-0.031580146,-0.11611109,-0.0027750996,-0.04092778,0.09273421,-0.048507623,-0.1388382,0.118139625,-0.029841732,-0.05668589,-0.010292915,-0.0011237613,0.058064137}, {0.0928094,-0.07695195,0.025232283,0.027356166,0.03514916,0.041681267,0.059961975,-0.07387879,0.051423147,-0.011146466,-0.016210185,-0.20811012,-0.12564738,-0.12053414,0.020948648,0.023549503,-0.066056296,0.08985687,0.073869124,0.019528264,-0.01292938,0.11047892,-0.098371334,-0.0034157347,0.09700807,-0.0107436795,-0.014286193,0.06611701,-0.033805866,-0.020744318,0.036899563,-0.15674229,-0.065790385,-0.065032,0.029589832,-0.07710128,-0.09051584,-0.026291676,-0.07207029,-0.07523304,0.06495205,-0.10610365,0.06978411,-0.049889997,0.114660405,0.20210536,0.092144415,-0.06674694,0.02642072,-0.08224991,-0.15300739,0.11816165,0.029329848,0.105659135,0.006324535,0.06987142,0.06353131,-0.108731344,-0.05546592,-0.16754308,0.062700465,-0.022193016,-0.043303907,-0.012481224,-0.0060448847,-0.005424832,0.054023374,-0.006682826,0.08313068,-0.06242188,-0.028924305,-0.07751579,-0.08362648,-0.0032914588,-0.0045061214,0.04554703,-0.15377344,-0.09359846,-0.022311788,-0.28199583,-0.07906637,0.03354738,-0.031703915,-0.07339127,-0.0013909901,-0.037852503,-0.0436851,0.08733352,0.04105473,0.017156998,0.13145387,-0.051271114,-0.016416352,0.01518514,-0.00069496676,-0.07795494,-0.044106793,0.19607331,0.08125509,-0.055326197,-0.021614159,-0.013234112,0.0624396,0.14001511,-0.17339063,-0.021938056,0.047181927,0.035314854,-0.036352534,-0.035223123,0.014135489,-0.05887071,0.02445453,0.059642017,-0.023188816,0.055200737,0.053758375,-0.07076757,0.044570234,-0.007756703,0.0028163253,0.07225281,-0.008008442,-0.0475732,-0.07412728,-0.0022077295,0.024013586,-0.02122044}, {-0.018701509,0.01066849,-0.12555115,-0.03122809,0.11312104,-0.028917687,0.035597652,0.044630554,-0.0065872585,-0.09518926,0.04449853,-0.025039984,0.058200266,0.07445371,-0.014518113,-0.013816967,0.006685497,-0.074402735,-0.0886982,-0.025181307,-0.0073444946,-0.111106746,0.089312695,0.04485799,-0.14279602,-0.12631193,-0.038213078,-0.10432979,0.004668561,-0.054988906,0.06171527,-0.122817,0.029559541,-0.07538885,-0.07754832,0.04603069,0.016961485,0.062580094,-0.011773779,0.005138389,0.14574353,0.030736472,0.020246511,-0.00726955,-0.012977481,0.016220823,-0.0050717345,0.037755407,-0.07023142,0.05880765,-0.08248676,-0.076262295,0.08237317,-0.037429467,-0.021737799,0.09072726,0.07732978,-0.052665688,-0.095777325,0.12255444,0.009390023,-0.008673428,0.08968066,0.05867747,-0.01577083,0.031699833,-0.038167283,0.09753974,0.026177358,-0.112102956,0.0054297834,0.004917357,0.045421984,0.085669406,-0.0116586685,-0.06659405,-0.01757809,0.15511951,-0.0052387975,0.08469887,0.10142826,0.066005416,-0.046329062,-0.023015324,0.024668977,0.03149642,0.036635928,-0.03052205,0.019809553,0.079192944,0.005289089,-0.034255054,-0.01996748,0.045121644,-0.018339437,0.01758822,-0.017013924,0.0004969606,0.03357872,-0.016445287,-0.017388554,-0.07779324,-0.08057744,-0.031953987,0.03858169,-0.043344993,-0.1564888,-0.053201824,0.09786256,-0.03438088,-0.08358063,-0.00086435664,0.06458548,-0.02515877,-0.01744839,0.08576359,0.039970335,0.065130584,0.0070945853,0.075767495,0.0962809,0.09881975,-0.07863976,0.05986223,-0.019292869,0.0027058609,0.06465898,-0.09267626}, {0.033119228,-0.091821395,-0.028900381,0.042664055,0.06255382,0.06553449,-0.08049727,0.00485941,0.10566951,0.017249146,-0.026570385,0.06747668,-0.03449736,0.04507355,0.0595284,-0.01695933,-0.10784976,0.090419754,0.14256714,0.05165653,-0.06415385,0.13919796,0.021260086,-0.009631166,0.07013313,-0.06415978,-0.066170335,-0.018131943,0.05762831,-0.050471798,-0.032466907,0.018236414,0.014649466,-0.08273519,-0.004491964,-0.086429335,0.032836486,0.024539258,0.0010843935,-0.046886753,0.09316172,-0.012157761,0.04369873,-0.0032311752,-0.06508077,0.06255742,-0.008110799,-0.071847975,-0.00085607264,-0.0021881096,-0.06485766,0.071945205,-0.022574086,0.06612349,-0.036488187,0.018413436,0.010593313,-0.08109109,-0.026557516,-0.024539832,0.07810256,-0.01946744,-0.033905096,0.042027216,-0.020402523,-0.004314183,0.05582657,-0.056846526,-0.09660148,0.06455317,-0.07437766,-0.041988973,0.034967527,-0.022025546,-0.06613083,0.037387982,0.08051569,-0.11567745,0.014599365,-0.060695477,-0.021287488,-0.0026114986,0.0028434154,0.02426831,-0.036915015,0.01611028,-0.084031016,0.07810296,0.038867522,-0.08517306,0.0029040982,-0.11451085,-0.086807705,0.04449595,-0.03376817,0.036040083,-0.12946494,-0.0073846825,0.051816147,0.09277613,0.02317942,-0.042967726,-0.095435075,0.026869789,0.0128647415,-0.033262044,-0.02436736,0.018780543,0.069656365,0.06939388,0.03159221,-0.018320005,-0.09515563,-0.074369006,0.041103467,0.018129483,-0.05801284,-0.014928919,-0.014503441,-0.05329818,0.028473346,-0.03895204,-0.012578534,-0.010686038,-0.0685711,0.14611098,-0.017856803,0.05951535}, {-0.0021068621,-0.0844513,0.014525842,-0.11601336,-0.01910431,0.046729438,0.044503793,0.080375,0.117260754,0.033570506,0.058922816,0.045483164,-0.042587895,-0.08320681,-0.008912408,-0.0548232,0.03677547,0.08435882,-0.022442281,0.008488106,-0.01767705,0.005572443,0.00088761887,0.046681456,-0.066826366,-0.01753774,-0.090360805,0.09864122,-0.04798317,-0.0013803837,-0.110284194,-0.03429406,0.101776645,-0.09456514,-0.08537218,0.034180935,-0.07589427,-0.10666613,0.018064933,0.07408723,0.03240605,-0.023261566,-0.014316342,0.023058167,0.11186733,-0.046486665,-0.002168498,0.13163541,-0.10249838,-0.05189244,-0.039143156,0.07210817,-0.0554768,-0.069062695,-0.05107502,0.027605858,-0.06704071,-0.06532572,-0.10250212,-0.019057717,-0.044762224,0.03329138,-0.035312485,-0.0032770506,0.046829127,0.058022857,0.07119764,-0.020204013,0.05844231,0.02846329,-0.018668002,-0.0070931464,-0.058759067,0.10540242,-0.046391837,-0.076222986,-0.0075195814,-0.073587224,0.08762455,0.07541918,-0.078442246,-0.01252364,-0.06686212,0.026127517,-0.04887723,0.044867154,-0.032906685,0.080120236,-0.0050704805,-0.072237276,-0.05688347,-0.15172155,-0.13847919,-0.0073770136,-0.041137353,0.06962313,-0.13932765,0.07012183,0.06705532,-0.00084968226,-0.061531764,-0.030735323,-0.00902299,0.009689347,0.018306708,-0.033430945,0.018711263,0.05740205,-0.026744075,0.03032629,0.18646516,-0.041033294,-0.060902745,-0.10193827,-0.043929253,0.005865556,0.05409735,0.06002348,0.032572728,-0.03965959,-0.12991072,0.018897377,-0.06860507,0.03105616,0.024538461,-0.10002738,0.104426324,-0.03874583}, {0.13556358,-0.029949449,-0.028115645,-0.015651753,-0.060530305,-0.12457558,-0.13913386,0.05077574,-0.16442361,0.052674036,-0.010680687,0.07374504,-0.070483275,-0.0617364,-0.06935186,0.105565466,0.010530641,-0.048923932,-0.038469944,-0.074724846,0.08569281,0.043844905,-0.06703347,0.04695548,-0.08830761,0.09326839,0.081924014,0.02645967,-0.02901502,-0.0074781436,0.055035174,0.059353855,0.088346146,0.009801925,0.047404736,0.02468111,0.049830183,0.04719311,0.10580528,0.07474458,0.021236068,0.045756157,0.017825019,0.051478,-0.04262859,-0.03983518,0.044467572,0.045993704,-0.00481742,0.0023622843,0.021287106,-0.034365173,0.019448271,-0.10499385,0.058438916,-0.07070188,0.05123999,-0.034367476,0.05841493,0.1839181,0.040229112,-0.12919295,0.03927452,-0.03803378,0.029145977,0.04086416,0.0046185823,0.024046894,-0.05019394,0.027261537,-0.11317003,0.07814993,0.06925958,0.018773906,0.057228673,0.013594736,0.14840992,0.03714761,0.089179285,0.15125787,0.04028255,-0.07920599,0.044446968,0.07741352,0.10459442,-0.031617533,-0.109330215,-0.05328036,-0.00950814,0.008437604,-0.017378405,-0.015877783,0.04494515,-0.13245256,0.031148672,-0.0327724,0.025407108,0.07192877,-0.086348556,-0.017857505,-0.048334755,0.026905952,0.013805487,0.09355042,0.061061777,-0.08986244,0.043175954,-0.025179481,-0.054927275,-0.034072462,0.05667449,0.0009906514,-0.11753291,-0.112212986,-0.044265237,-0.02964826,0.13692248,0.030600803,0.032228973,-0.060471855,-0.046414904,0.08701986,-0.025009274,-0.05086504,0.05363992,0.06037127,0.016550897,-0.009057665}, {-0.08802794,-0.033247933,-0.012763081,-0.09384557,-0.016719945,-0.0785447,0.05954443,0.106369086,-0.049728457,-0.020786026,-0.029027363,0.03724296,-0.02020345,-0.009758281,-0.074158244,-0.023742257,0.06549985,0.02027577,-0.026988432,0.07954972,-0.025518376,-0.004046904,-0.04617154,0.0036578747,0.0027018362,0.06137784,-0.039251488,-0.09724121,-0.06151851,-0.024499364,-0.029382264,0.07238254,-0.028297812,0.065736964,0.08213195,-0.02326731,-0.015506156,-0.027675474,-0.110079214,-0.057323713,-0.15144125,0.11322899,-0.092713274,-0.12467602,0.037821066,-0.12036873,-0.0628598,0.11362862,-0.0093509825,-0.10252537,-0.014284723,0.053774774,-0.062208876,-0.0455987,0.082029186,-0.061419938,0.018197063,-0.013537069,0.13799846,-0.019537596,0.03488526,-0.011855333,0.045454472,-0.037775654,0.09882255,0.04188242,-0.009653501,-0.088541694,0.012627218,0.060165077,-0.058471095,0.034525666,0.02846125,-0.18205798,-0.0630766,-0.0103697395,-0.1020124,-0.08650495,0.015649412,0.04580071,-0.06758409,-0.016215656,0.019158788,-0.08322873,0.0020729424,0.02191439,-0.0741615,-0.08935679,0.026079582,0.008033581,-0.07065696,-0.07750325,-0.06449893,-0.098663785,-0.11742395,-0.041533507,0.051763475,0.04252782,-0.07789716,-0.06519477,0.01183246,-0.11669574,-0.057123255,-0.011436959,-0.09885616,0.043247845,-0.029320832,0.0033145188,0.034774825,0.04241934,0.1400169,-0.061082028,0.02770898,-0.032727353,-0.0007903654,0.05788511,-0.007975371,-0.09329323,-0.02115738,0.022261787,-0.05206186,0.031885326,-0.00042816473,0.019850945,0.03606369,-0.0033330678,0.114455625,0.049774338}, {-0.10397947,-0.050646923,-0.034813765,0.122854844,0.0623309,-0.22847138,0.014361153,0.01299135,-0.0142311,-0.016425723,-0.10279895,0.015489595,-0.061146177,0.046630878,-0.029610606,-0.058491223,0.037761144,-0.05187909,-0.007999724,0.060823493,-0.025421713,0.071843676,0.030045217,0.006717694,-0.02746256,0.059031885,0.07952368,0.0178264,-0.049938407,-0.118268535,0.039276864,-0.04045033,-0.0033199526,0.07473133,0.012955716,-0.049207535,0.036825776,0.094362915,0.0805768,-0.03941839,-0.052120447,-0.07754418,0.0025157141,0.09306226,-0.014199649,0.015678007,0.09596209,-0.07449856,0.09845082,-0.030188514,0.02156924,0.052261293,0.02298461,-0.037978638,-0.03835065,-0.032478377,-0.15341002,-0.0337756,0.09990704,0.081431806,0.0015081138,0.009206171,0.07153455,0.09198038,-0.11439641,0.056356113,0.086114354,0.073914304,0.080600046,-0.10222903,0.004144023,0.07294253,0.008374792,-0.055440262,-0.10965799,-0.097605884,-0.003017304,0.03253015,-0.04346886,0.16603188,0.15123035,-0.084586695,-0.030238133,0.07059293,0.08124839,-0.003032121,0.027528867,-0.01505948,0.11899431,0.10851674,0.10622707,0.061247434,0.18611492,0.045269843,0.050765608,0.06729807,0.09540758,0.14030229,0.02929657,-0.058516856,-0.10479866,0.05829722,0.02973565,0.010099818,0.050865553,-0.083110064,-0.06942809,0.025639696,-0.051121753,-0.015388418,0.025562234,0.061875567,0.050895195,-0.14230518,0.051422022,0.039992873,-0.026377233,0.075782426,0.0739919,-0.061034575,0.039521918,0.010234431,-0.043231945,-0.062015466,-0.10513782,0.09381816,-0.01383623,-0.111236006}, {0.14607838,-0.10154446,0.11336583,0.14217976,-0.10673558,0.11454591,-0.08132233,-0.03532991,0.032392398,-0.115436,0.05190464,-0.0067861336,0.05876759,0.029287122,0.024928583,-0.08486429,-0.037722692,0.028891332,0.0036845517,-0.002121869,-0.07052299,0.0081803035,0.16266203,0.058842734,0.02544934,0.064785555,0.012324051,0.16249517,-0.015099001,-0.11721173,0.05032212,-0.008704694,0.023664622,0.062994726,-0.0275082,0.008662597,-0.056732852,0.017353088,-0.05419143,0.08706477,-0.011095317,-0.006475367,0.13927715,-0.088317804,-0.029691752,0.10439352,0.052696604,-0.04812723,-0.1013482,-0.002098971,0.04088254,0.06534239,-0.04138807,0.04692565,-0.049596813,0.08346225,-0.034735713,-0.014417001,-0.16671789,-0.091959774,0.07368218,0.04376154,-0.029173572,0.04273106,0.035363313,-0.04815754,-0.035342064,0.027898906,-0.050715767,0.005646409,-0.011992367,-0.0919829,-0.07190728,0.030684914,-0.07525587,-0.06136739,0.061394762,0.019874746,0.011837607,-0.06546783,-0.048789017,0.07158929,0.00021250505,0.046092812,0.02549078,0.005650688,-0.04550728,-0.063881636,-0.10838723,-0.08320603,-0.030133948,0.12906268,-0.064243734,0.023125548,-0.003634925,0.090989046,-0.09081385,0.0011118707,0.0018547056,-0.11764723,0.049532764,0.027615426,-0.061878305,0.015715728,0.008434478,-0.0025343332,-0.111977465,0.11195086,-0.027470587,0.069949746,0.06528572,-0.01864358,0.13708323,-0.044759046,-0.042395346,0.044382397,-0.16391073,0.09235156,-0.021461114,-0.023170983,0.1431343,-0.015392596,0.08399575,-0.0030416837,-0.044679504,0.039963093,0.048805624,0.10786919}, {-0.00643664,0.037135083,0.009313697,0.0041360804,0.061609372,-0.10071923,0.022126466,0.017032191,-0.079057984,-0.0687828,-0.015553546,-0.055733617,0.002322199,0.22424272,0.01367381,-0.02007047,-0.040030934,-0.040046956,-0.013118005,-0.009444462,-0.010239795,-0.087580815,0.047743283,-0.008726827,-0.07118646,-0.046878196,0.040842123,-0.020120304,-0.0044256537,-0.011238226,0.08117398,-0.0051177354,-0.029768521,0.119732484,0.0038960846,0.07107945,0.05642804,0.02643305,0.07902059,-0.045660976,0.06859671,-0.05892802,0.015085075,0.00010339171,-0.065279916,-0.06873424,-0.03160887,-0.05352888,0.09424878,-0.060074314,0.058367882,0.035051595,0.015566107,0.011884509,0.12559311,-0.01298903,-0.02255564,-0.07606836,0.029772066,0.0030060406,-0.00988861,0.05733451,0.09577588,0.062609576,-0.08231308,0.015006415,0.02532965,-0.013427974,0.028907374,0.020063663,0.10161317,-0.024217399,-0.002835004,0.02446008,0.08819291,0.1416196,-0.060242742,0.093494795,-0.03056292,-0.023572773,0.021060325,-0.04386603,0.00014337257,-0.04602983,0.0015706811,0.030333502,-0.009478071,-0.05407638,0.0049512605,0.045432966,0.031552106,0.08700875,0.11793122,0.010291956,0.033119533,-0.025585461,0.13688108,0.12323216,-0.015672354,0.106569275,-0.036379047,0.06312874,-0.029481338,0.071441196,0.11588027,-0.0010488768,0.06261251,0.050422825,-0.04981816,0.022929685,0.0054356446,0.074732594,0.07178798,0.039898366,-0.016260415,0.016891513,0.04098059,-0.009059912,0.09500768,-0.042250413,0.006458747,0.052493148,0.017113978,-0.01963322,0.0986293,0.012656673,-0.015886731,-0.108241916}, {0.05917984,-0.026254078,-0.13337629,0.17399049,0.010594429,-0.012510826,-0.2244031,0.19959955,-0.082993805,0.06401935,0.06313383,0.0588489,-0.015162535,0.05972252,0.110548094,0.032773554,0.04987562,0.13638869,-0.07625261,0.0013478645,0.09580497,0.124422185,-0.100841224,0.05797116,-0.097727686,0.067698464,-0.06704463,0.085110605,-0.011328529,0.04775261,-0.118445925,0.13241976,0.09911873,-0.046633884,0.020378875,0.06533623,0.008739282,0.16106176,0.019298347,0.09771944,-0.11485876,0.12408815,-0.10688207,-0.090573244,-0.16122343,-0.10953065,0.04643674,0.07753829,0.002805501,-0.12241281,0.07957713,0.024149103,0.02142575,-0.12852827,0.15365086,0.010142485,0.07077635,0.0304167,0.13617563,0.009850641,0.066571735,-0.1392007,0.016467085,-0.033475243,0.112020664,0.023979468,0.02955541,0.016101075,-0.007903101,0.007935241,-0.036024753,0.053118594,-0.033907827,-0.10100806,0.08187941,0.06447669,-0.013680704,-0.036288813,-0.0026114697,0.11238465,-0.029751763,-0.01614726,-0.085092574,0.0075810286,0.027009232,-0.012949943,-0.029258873,-0.03319903,-0.13957016,-0.1747365,-0.009265733,-0.057276927,-0.055237755,-0.13380487,-0.08145032,-0.06690689,0.10595519,0.052546654,-0.036322534,-0.041445293,-0.083368555,0.019305775,0.045129362,0.036129165,0.0053771753,-0.026532596,-0.030584501,-0.047500137,-0.18455073,-0.06456773,0.066740945,-0.064995475,-0.04501223,-0.06712065,-0.11995624,-0.05822297,0.11473276,-0.054376766,0.04608035,-0.04302283,-0.04786112,-0.0062434906,0.074392274,-0.1218871,-0.009120916,-0.02319159,-0.042022757,0.0746665}, {-0.08648115,0.04804868,-0.06967566,-0.0012221579,0.017497703,-0.12961672,-0.07312118,0.10349014,-0.06608571,0.007415201,0.07609009,0.029131519,0.13778384,0.015114166,-0.021379456,-0.0013107066,-0.040861364,-0.010531248,-0.07099331,-0.036435395,-0.111775115,-0.033151563,-0.084756486,0.037404153,-0.02000974,0.018669305,-0.065116145,-0.06175676,0.026153298,0.0021449132,0.01419303,-0.0961235,-0.04373919,-0.05764751,-0.026008472,0.02007667,0.03926942,-0.065254256,-0.045762714,-0.09856691,-0.04064605,0.065314345,-0.1510596,-0.026995238,-0.033657596,-0.010836376,0.15915762,0.031418934,-0.025196347,-0.0021325273,-0.021291122,0.066901326,0.013132741,-0.0910322,-0.0028557652,0.019457432,0.05108864,0.017930986,0.029479256,-0.015525704,-0.048623994,-0.09385576,-0.019169018,0.048878293,0.01700661,0.067172416,0.0001488481,0.11732167,-0.094619475,-0.061510254,0.01599238,0.06977715,-0.1432105,-0.10764022,-0.092001766,-0.024601988,-0.0429516,-0.006934026,0.05292822,0.07646026,0.058396943,-0.066670425,0.008559708,0.06187951,0.100175045,-0.09837538,-0.0064888326,-0.0549317,-0.008686218,0.10765217,-0.08441636,-0.050432827,0.08866634,-0.07800097,0.1350922,-0.114959724,0.030044308,-0.039825603,-0.06645884,0.0259146,-0.004769509,-0.17846332,0.12034573,0.13559934,-0.02511884,0.023697527,-0.0012248585,-0.0076617855,-0.030836992,0.045173336,-0.016237056,0.035204224,-0.024054954,0.06545427,-0.056630164,-0.12509575,9.276008e-05,-0.10393594,0.20934822,0.15870327,0.0730278,0.16148598,-0.1146319,0.04255915,0.11353672,0.062044594,-0.061118994,-0.03484169}, {-0.113314226,-0.116000645,-0.025303315,0.10205018,0.05613841,0.07512871,0.065994665,0.030697592,0.035016254,0.0008073043,0.022172466,-0.059145957,-0.08383666,0.00019482843,0.019941853,-0.009019532,0.013766761,0.042333566,0.044567462,0.12110607,0.06756298,0.0029158692,-0.018669149,-0.05606368,0.08125328,-0.0145463105,-0.0413164,0.063832454,-0.060956474,0.04104547,-0.013130726,-0.09859433,-0.08391171,0.022707358,-0.05820081,-0.038130835,-0.09222208,0.058828987,-0.057275828,0.0062947236,0.05455469,-0.03138181,0.17612018,-0.018342506,-0.0052949227,0.05889921,0.13910937,0.008370029,0.019424908,0.054730292,-0.08795584,0.053814344,0.13374308,-0.10537113,-0.08306732,-0.03586031,0.0033531666,-0.035079427,0.007401527,0.019346794,-0.091115415,0.052995037,-0.10013891,0.14988145,-0.001688269,-0.085641205,-0.02775535,0.06935491,0.02512134,0.032706063,-0.04142842,-0.08156419,0.017676273,-0.02936702,-0.026236543,-0.044647988,0.00043617014,-0.06706622,-0.06174989,-0.007621874,0.00057793164,0.040451277,-0.12792787,-0.040696025,-0.055695526,-0.03867741,-0.016655497,0.10584941,0.105781205,0.10520995,-0.032871332,-0.059283517,-0.047706902,0.053323656,-0.036271457,-0.090110786,-0.09492959,0.019113408,0.097620115,0.0023797387,0.08413854,-0.08835096,-0.07726851,0.107877135,-0.13608067,-0.0058695665,-0.09616026,0.0072356914,0.0023116579,0.040544324,0.13879216,-0.026583536,0.012594602,-0.10524574,0.013292649,0.022766752,0.042813376,-0.14065413,-0.032313794,0.043409914,0.03285708,0.10361204,-0.023792801,-0.02247215,0.017441077,0.14981307,0.020078473,0.03453535}, {0.008300546,0.06899123,0.08543224,0.015497468,-0.016791087,0.0016163853,-0.112044826,0.009491287,-0.042096548,0.07642129,-0.015354051,0.029258307,0.1185554,-0.030821495,0.017228952,0.123832084,0.0011083828,-0.0075834915,-0.0266619,-0.042557098,-0.0894243,-0.024315786,0.042498577,-0.12107963,0.055702116,0.032100063,-0.024543103,-0.010898961,-0.028473943,-0.11479775,0.028485863,0.014281867,-0.066857494,0.09000206,-0.023316767,-0.030655188,0.04680457,0.02152429,-0.02554801,-0.060899444,0.014672028,-0.043566924,0.043742187,0.0069718324,-0.062001415,-0.03593343,-0.070818916,-0.060958587,0.04969971,-0.1008698,-0.08216877,-0.08570793,-0.043360237,-0.036142986,-0.011323712,-0.032501638,-0.047574867,0.03366998,0.05522973,-0.05391825,0.027719477,-0.084116675,0.1318894,-0.110506,0.05112816,0.07359306,0.07132409,-0.040847972,0.018364284,-0.0019016428,0.10231492,0.065459736,-0.0046903533,-0.09501408,0.014902626,0.064588144,0.03566702,0.14547296,-0.10965376,-0.034780346,-0.0068168747,-0.12578711,0.15410766,-0.019634036,0.04660725,-0.008596922,-0.038382143,-0.025434602,0.0068006483,0.093993105,0.037030436,0.09668433,0.013745133,0.045815412,-0.015430372,-0.028456282,0.104733214,0.024599254,0.012035286,-0.008406894,-0.02954894,0.13146858,0.024979321,-0.03688445,0.041604966,0.038775016,-0.053620934,4.6253437e-05,0.0324898,-0.0631671,-0.10195301,0.092416644,0.028160112,-0.037089657,0.10482909,0.015301785,0.004108547,0.05081675,-0.14890948,0.06364133,-0.0047242204,-0.11873448,-0.0073739723,0.06088963,0.015912415,0.061541222,-0.04071208,-0.053894743}, {0.0008888956,-0.10122098,0.08272068,-0.0765034,0.06737861,-0.0038682134,0.14617589,0.067681156,0.010910487,0.107832246,0.05956792,0.0045249453,0.057312362,-0.11777491,-0.00747369,-0.052299626,0.015563104,0.1210601,0.079604916,-0.16113478,-0.09438628,0.043049123,0.04495439,0.13187757,-0.02117725,-0.022769775,-0.045979545,0.097338334,-0.017055567,0.08297565,-0.13601245,-0.004181431,0.12508437,-0.005655298,-0.005057241,0.013890165,-0.054449923,-0.052262343,-0.07258029,0.022288674,0.0006294283,-0.0444831,-0.025358375,0.047324184,-0.0713061,0.069685176,0.077536285,0.07798049,-0.08278189,-0.0036569517,-0.050002035,0.0319857,0.034108557,-0.0067828186,-0.13627279,0.05231123,0.0004116255,-0.009341152,-0.15557453,-0.027424652,0.0488849,-0.04148135,-0.06916576,-0.03612553,0.03369352,0.06648408,-0.04624014,0.13107878,-0.04960396,0.02546559,-0.09784769,-0.025336074,-0.0006361852,0.0872631,0.076722674,-0.084506586,0.08444013,-0.079898715,0.084339075,-0.07778928,-0.04561454,-0.0593271,-0.06524697,0.10523782,-0.16426727,-0.018413942,0.054906934,-0.071495034,-0.07287738,0.008382965,-0.08977936,-0.048985522,-0.1415764,-0.046162143,0.014065463,0.00494406,0.005055957,-0.03332325,0.099349536,-8.500158e-05,0.038016297,-0.04056379,0.02306113,0.017682618,-0.12891205,0.002709964,-0.020193232,-0.009347023,-0.035675377,-0.015140577,0.008588949,-0.13568032,-0.02063981,0.034513563,-0.027092353,-0.06678344,-0.06860068,0.009515742,0.0054025995,-0.03488534,0.036821898,-0.021893255,0.019561786,-0.019926202,0.010353034,-0.07808885,0.08493266,0.028926276}, {-0.13389191,0.13418816,0.062502705,-0.06601098,0.054315623,-0.017173458,-0.028038934,-0.014499393,-0.08510606,0.031793274,-0.02720326,-0.16091712,-0.10192396,-0.16423106,0.033111833,0.033582747,0.021734327,0.044101954,0.021226695,0.0063222125,0.03746967,-0.0065973466,-0.14302826,-0.14179628,0.07812446,-0.13802394,0.02860847,-0.0474539,-0.0044695083,-0.0067236754,-0.03646085,-0.040797386,-0.0061249975,-0.10869623,0.05887235,0.0651283,-0.03976482,-0.12124379,-0.021660503,0.09384508,-0.053026427,-0.093174405,-0.07694564,0.00042099832,0.019813158,0.061919965,-0.086086564,-0.029128026,0.039450724,-0.0154327145,0.0024837558,0.041149236,0.041347258,-0.12541313,0.022321682,0.0116322255,-0.07622289,0.03098997,0.041847307,-0.12587328,-0.0105767585,0.024705531,0.031003121,-0.0109016355,-0.06709261,0.045522828,0.08834477,0.11587754,-0.01897429,-0.0053003663,0.09578179,0.1744507,0.015779726,-0.057401996,0.034262724,0.031457454,-0.03200554,-0.024420917,7.633958e-05,-0.10595143,-0.077004574,0.015390149,-0.07844279,0.02400626,-0.0029359686,-0.08556832,-0.008869333,0.03534519,-0.17063451,-0.044659205,0.019134441,-0.06561439,-0.10397105,-0.020415165,-0.03485933,-0.06405912,0.13879296,0.038026895,-0.08004146,-0.016082248,0.032785885,0.0010942094,0.10545467,0.005301943,0.05875841,0.053684056,0.0021528867,0.018469794,-0.043108385,-0.08326032,0.02662169,-0.0128062535,0.0014090419,0.002663212,0.019075027,0.10505302,0.08470633,-0.11338545,-0.0038900091,0.05177234,-0.06770038,0.009207185,-0.06636523,-0.038533397,-0.061186753,0.015394333,-0.15513976,-0.0181774}, {0.011181896,0.09212901,-0.023014717,-0.050205454,0.00485992,0.047184743,0.10283845,0.058925517,0.00798292,-0.09374853,0.053160854,0.011922198,-0.027800102,-0.065990396,-0.031186363,-0.055729974,-0.05746501,-0.095338605,-0.112016484,0.02602003,-0.13086504,-0.18459292,0.12813777,-0.049055375,0.045368504,-0.2167591,-0.010022448,0.004428384,0.13258086,0.040915053,-0.041070364,-0.106281534,-0.095121816,-0.07173142,-0.041975312,0.056820147,-0.014902082,-0.0004342969,-0.042672355,-0.11907974,0.21792874,0.0776001,0.0021276004,0.09872249,-0.004617844,-0.046929166,-0.0277618,0.08017152,0.0024427087,-0.04306385,0.1057053,-0.09501095,-0.03020889,-0.020641927,0.007914614,-0.07768518,-0.007729208,-0.042652126,-0.087683395,-0.0894994,-0.024450885,0.019507324,0.042917743,0.17496045,-0.03973637,0.02859226,0.031220382,0.017910184,0.029106628,0.04015066,0.030473948,-0.1164921,-0.010943068,0.112771764,-0.0725453,-0.038716372,0.050709166,0.04474374,0.0064874706,0.030685445,0.031159537,0.33087605,-0.022324309,-0.011701235,-0.048979826,0.06918503,0.10884239,-0.013764224,0.007780807,0.07890976,-0.17376523,-0.012406463,-0.06449762,0.11472368,0.15090778,-0.061199024,-0.017965378,-0.061001364,0.0021649576,0.20140713,0.060047727,0.001841206,-0.19730558,-0.02477308,0.14548577,-0.052378383,0.038835175,0.10968101,-0.013279004,0.0046233004,-0.019006535,-0.015003332,9.7771175e-05,0.14682178,-0.072664075,-0.039251644,0.026485173,0.031226655,-0.05341948,0.08309569,0.08828948,-0.15340671,0.04803251,0.057815563,0.050808907,-0.105735324,0.114977226,-0.016144587}, {-0.1202229,0.01424964,-0.066894524,-0.0822234,0.016737003,0.025211914,-0.06911323,-0.05701984,-0.0062800944,-0.013023501,-0.17603865,-0.08818953,-0.028718747,0.12774907,-0.025413658,0.016953073,0.0119067095,-0.08384953,-0.028226506,-0.081720114,0.14023685,0.0306965,-0.0863828,-0.024868129,-0.08521711,0.1036346,0.044307876,0.011670359,0.06295509,-0.009000904,0.030450433,0.06143104,0.00255151,0.10902374,0.12920326,0.096239015,-0.06885708,-0.069092445,0.10847925,0.06583944,-0.114521265,-0.008032671,-0.046179064,-0.011299622,0.057319075,-0.0031513104,0.059726812,-0.11639843,0.08960326,-0.010272251,-0.03268474,-0.07698046,-0.03910786,-0.009811046,-0.037003934,-0.022291621,0.057871796,-0.060605224,0.0068628257,0.010998818,0.046448838,0.019724684,0.14353068,-0.038974777,-0.032503143,-0.06857464,-0.07824879,0.013154458,0.017603755,0.0002354607,0.022809468,0.046889152,0.0015798334,-0.0018148773,-0.028496785,0.06835085,0.030651946,0.10375117,0.01545131,0.062350266,0.14010254,-0.14462298,0.12482979,0.0073645543,0.1264999,0.05024858,0.057280205,0.0099571785,0.07470053,0.18762068,0.107121065,0.009136492,0.2316064,0.038134865,0.016759407,0.058136106,0.055442195,-0.0008501619,-0.06952412,-0.06661909,0.04126826,0.018936722,0.05312817,-0.013584508,0.0762763,-0.030534565,-0.013639306,-0.113429375,-0.03372183,-0.0522001,-0.016338663,0.044789914,0.003896432,-0.04938116,-0.0039270385,0.1504856,0.029819753,-0.022686416,-0.026417578,-0.0004979391,-0.16234411,0.10990864,-0.005383898,0.011499007,0.05381562,0.23580028,-0.0972039,0.019905044}, {0.08373435,-0.06736783,0.03830405,0.06936384,-0.061776504,0.0017377309,0.01551385,-0.13526207,-0.011694174,0.06539262,0.01839091,0.1228176,0.0316617,-0.012619623,0.07805648,-0.008324572,-0.01185224,-0.034731984,0.16119199,-0.032940283,-0.045452062,0.027001917,0.07612032,-0.062299285,-0.057524294,0.096338525,0.07483637,-0.012740466,0.08769301,-0.08756756,-0.03801279,0.01804097,0.023287917,-0.08976267,-0.07189374,-0.06623873,-0.03124434,-0.08348734,-0.046156466,0.06594269,-0.09315179,-0.015286786,0.07259887,0.015542352,0.038281873,0.046380956,-0.058966544,-0.1315297,-0.07478682,0.0063832263,-0.06600252,-0.044683762,0.04648067,0.061070908,-0.016147813,0.081534,0.008162987,0.052534796,-0.06192758,-0.058246557,-0.08367048,-0.056972798,0.19364305,-0.017035248,0.012296962,0.084072575,0.0050004283,-0.11645929,-0.017271202,-0.007781484,-0.04428314,0.14408842,-0.03423504,-0.021146825,0.0014484362,-0.022017868,-0.0012995915,0.049767736,-0.011625886,-0.05966058,-0.009895776,-0.055402867,0.093947664,0.075833075,0.02329825,-0.014312296,0.028764566,-0.01169006,-0.019055383,-0.004499183,-0.03444553,0.060627695,-0.019878712,0.02821449,0.11064031,0.09604607,-0.04115874,-0.08795281,-0.0051810797,0.093931496,-0.12788622,0.09490955,0.012272746,-0.105933934,-0.0067587895,0.0538415,0.01181223,0.050616093,0.025350887,-0.14966342,-0.14058769,0.04832925,-0.0005263579,-0.00597518,0.070185386,0.06491554,-0.03539995,0.046914443,-0.12419886,0.08461986,0.07631914,-0.06589401,0.030150719,-0.02616373,-0.032522764,-0.05560826,-0.04234191,-0.063011244}, {0.0578877,0.039647695,-0.05775906,-0.03251684,-0.06566642,0.05410311,-0.13733178,0.0067015444,0.03985737,-0.0017934676,-0.076679945,0.04423402,-0.027656078,0.18954527,0.052083984,-0.02583869,-0.08143754,-0.041987278,-0.049249597,-0.015409704,0.03330567,-0.013701851,-0.042588893,0.07202484,-0.11441884,0.03535252,0.11892822,0.037684448,0.065395504,0.036469948,0.096909165,0.066963814,0.062572114,0.04687379,0.049017493,0.09791197,0.041199576,0.031659886,0.09201311,0.114842884,-0.046969213,0.08655066,-0.03212604,0.07781768,0.0015487924,-0.089625165,-0.15312573,-0.15606873,0.114703394,-0.11958375,0.031728882,-0.07958575,0.052254554,-0.08714155,0.07649529,-0.116914116,0.002568351,0.027619654,0.08158754,0.039185893,0.002555843,-0.067215495,0.14147334,-0.022774562,-0.02008279,-0.036119524,-0.018977718,-0.055504836,-0.040233485,-0.081432804,-0.13342202,-0.027555855,0.04817186,0.010457522,0.017419782,0.08538593,0.06785599,0.11060888,0.036429185,-0.012606235,0.028772289,-0.064213164,0.025517073,0.00056302897,-0.10249032,0.0077788937,0.030011173,-0.010658779,0.094900064,0.053647913,0.0325182,0.0051714364,0.04848406,0.04788074,-0.00012748512,0.008080555,-0.022816721,-0.046053976,-0.12277528,0.012961241,0.044218574,0.016618513,-0.11469021,-0.068891786,0.028183702,-0.07864299,0.049672823,-0.0056902748,-0.018712826,0.0071416665,-0.0733057,-0.08800547,0.065190084,-0.047355272,0.054819826,0.115084745,-0.08974664,0.06567187,0.010207749,0.04762866,-0.17166393,0.019119946,-0.050721847,0.04820432,-0.09286728,0.039774522,-0.04199888,-0.040931694}, {-0.022555673,0.09194464,-0.005733852,-0.030186981,-0.01120232,-0.052559085,-0.0017123453,-0.01937763,0.0003034111,-0.061685506,0.04373184,-0.079472974,0.0466185,0.028792484,0.027274175,0.009008681,0.045878306,-0.048402037,0.100264676,-0.018022602,0.011300183,-0.073937155,-0.032539416,-0.049238052,-0.07294044,-0.028768038,-0.05956458,-0.12990741,-0.012533445,0.082867414,0.055782255,-0.091288015,-0.057141908,0.035933133,-0.042805366,0.033145823,0.0004466253,-0.00885771,-0.07601093,-0.07191204,0.011942345,0.040053047,-0.045673236,0.009506551,-0.10390869,-0.011527049,0.005310107,0.09857026,0.045328815,-0.10429231,0.00134699,0.042058263,0.112080246,0.010928802,-0.00964845,-0.080542855,-0.079970166,-0.12748137,0.023325741,-0.03762053,0.045249667,-0.025819609,-0.04979401,0.034235444,-0.07665567,0.012312243,-0.043349765,-0.008382742,-0.03604633,-0.013172892,-0.041668057,-0.02166555,0.0073511256,-0.048346367,-0.04935423,-0.023149855,-0.07071831,-0.04755403,-0.033894587,-0.048926868,-0.008992211,0.05015484,0.009358289,-0.06740377,-0.028762601,0.0077107083,-0.009302487,0.068542145,-0.089058444,-0.03080439,-0.04949059,-0.028745186,0.01694078,0.12577109,0.030190658,-0.20359753,0.08014885,0.047574133,-0.010437896,-0.047962952,-0.027535412,0.027407281,-0.07979064,0.016916351,0.008500203,0.015587252,0.009050175,-0.034681447,-0.07133741,0.04873563,0.08481386,0.06794948,-0.006958094,-0.072313726,0.034830973,0.037613187,-0.013120254,-0.08001591,0.04750317,-0.024754982,-0.033731006,0.16280937,0.04647663,-0.022941593,-0.13356933,0.009070958,-0.045109633,0.03512971}, {-0.09933499,0.12456802,0.014349312,-0.10752573,0.033717435,-0.015162482,0.01084985,-0.10754766,-0.110417105,0.03357458,-0.0033384725,-0.06313478,-0.0201505,0.00886107,-0.014747148,0.014356779,0.06775603,0.14085639,0.108521834,0.06802662,-0.050624263,0.027309915,-0.01143445,-0.026088998,-0.0030521331,0.013652143,-0.031521868,-0.08082102,0.018942311,-0.0795916,-0.035577923,-0.092444174,-0.020664057,-0.043048035,-0.12395839,-0.055216495,0.0061147553,-0.0005928391,-0.08094356,0.03553082,-0.0044037784,-0.025412781,-0.031986445,-0.01219898,0.04659981,0.093881756,-0.026462488,-0.023363521,-0.014922606,0.019182205,-0.20380759,0.026413292,0.0043660793,0.038307935,-0.01573664,-0.030290594,0.025847765,-0.043479137,0.063522406,0.054189235,-0.035624422,0.039911795,0.018570261,0.031829517,0.023570798,0.05032853,-0.048634022,0.019281965,-0.005788321,0.008910339,0.045693364,0.049950797,-0.037178032,0.052168593,-0.06995313,-0.019591779,-0.057586696,-0.016723186,-0.042690758,-0.088608176,0.099492095,0.031980347,-0.0043328833,0.04936668,0.09443911,0.047069315,-0.08636484,-0.11007628,0.10379926,-0.053014025,0.098523535,-0.0034198868,-0.009500653,0.0762995,-0.07976013,-0.011897854,0.06375585,-0.0018378224,0.092651464,-0.029169176,-0.09266441,-0.025425192,-0.030518407,0.005904185,0.014710975,-0.00365791,-0.04822369,-0.09577818,0.01792723,-0.064381674,-0.07527115,0.036620904,-0.0742451,-0.027999097,0.0020613172,0.09982588,0.09008698,-0.07587918,0.030021198,-0.0019953188,-0.10660365,0.07349032,-0.061825827,0.06827698,-0.13108191,-0.09606196,0.080833875,-0.10418457}, {-0.029090947,0.03674512,-0.052843876,0.09152608,-0.061888263,-0.16596183,-0.10174132,-0.03585034,-0.10203759,-0.003793699,-0.052716654,-0.037604664,0.022764044,-0.03418128,-0.14957246,-0.13014887,0.011555128,-0.012261723,0.017399415,0.015389189,-0.027736686,-0.01558529,-0.060398255,0.02048886,0.14697708,-0.058278386,-0.12942682,0.00075692846,-0.046111792,-0.033686183,-0.14365578,-0.116777144,0.0145350825,-0.036462743,0.05934641,-0.054865405,-0.04990449,0.06309311,0.06061997,-0.06391766,-0.117471114,-0.0018328666,-0.12773344,0.012929477,0.08368908,-0.008688628,0.049623072,-0.06590639,0.09054115,0.0060117044,-0.115757406,-0.0435676,-0.08011037,-0.13216245,0.15659231,-0.047549553,0.029190835,-0.11783799,0.1416257,0.087310545,0.16296561,0.011164899,0.090364106,0.14916547,0.10004098,0.090848245,-0.009167205,0.050032616,0.0024688097,0.05918916,-0.0036483547,0.010845878,-0.07591055,-0.07365706,-0.22089694,-0.10925105,0.019123213,-0.011293124,-0.030959211,-0.07032223,0.046877768,-0.0027108702,-0.0051429467,0.03563376,0.14453872,-0.062753946,0.0019469026,-0.12211437,-0.06728053,-0.0032777982,0.12811673,0.11675876,0.14028987,-0.036295034,-0.03088835,-0.033344705,0.06909331,0.1453344,-0.08548428,0.015954906,0.023250189,0.0013810167,-0.004800029,0.04130844,0.053034734,0.071167864,-0.023592576,0.16401194,0.035857964,0.00010457805,-0.033461694,-0.0036725607,0.02808713,-0.037754953,0.021709096,0.091654785,0.1371658,-0.043615658,-0.118886225,0.028762514,0.017382698,0.017383533,-0.052318174,-0.017525356,0.024767408,0.09414625,0.044982895,-0.13962264}, {0.0551083,0.0525717,0.05393014,0.116688624,-0.053927585,-0.051704675,0.056359332,0.014972593,-0.1539542,0.11594477,-0.03159204,0.04621956,-0.019006971,-0.07351757,-0.066890724,0.05965892,0.0539906,-0.011284298,0.06552626,-0.12046065,-0.025509512,0.029093144,-0.05736735,-0.069602415,0.09081086,0.12997754,0.04769752,0.092067406,0.022037862,-0.036783166,-0.08456156,0.14746411,-0.016186774,0.070511565,0.12074706,0.04583288,0.0071048187,-0.09239544,-0.040081587,0.024712715,-0.122401975,-0.19936606,-0.00613089,-0.026526086,-0.016639343,0.0205958,0.041590527,-0.044299014,0.082269326,-0.07964836,0.03659737,-0.049448013,0.026402084,-0.058044437,0.05052538,0.0664885,0.115140855,-0.065052725,