#pragma once
#define W_LSTM_RECURRENT_KERNEL_O {{-0.0331225,0.10580157,0.19293763,0.09436631,-0.011342778,0.0048055984,0.1503676,-0.032670733,0.0047489544,-0.22050664,-0.0056607616,-0.06813833,-0.04810052,-0.017918022,-0.023159003,0.047390677,0.042377178,-0.1044072,-0.07090778,0.10814878,0.081398,-0.105319194,0.10254957,0.11352978,-0.010712265,0.01114212,-0.07066901,0.0818873,0.06995994,-0.0023809196,-0.001349567,0.016246902,-0.017811637,0.14363977,-0.05719695,-0.008244948,0.10002595,0.013059245,0.05331796,-0.063559696,0.0013471494,-0.011080218,-0.02964482,0.114812784,-0.026006017,0.16272035,-0.0054457514,0.0014381948,0.050226625,0.08058225,-0.047442526,0.15789379,0.09168893,-0.13924375,0.12576576,-0.0040987018,0.047793273,0.010645096,0.009321927,-0.020679308,0.049769647,0.059842993,0.11395705,-0.025026793,0.011192263,0.076464824,-0.049019974,-0.058490746,0.096639715,0.07129428,0.106139995,-0.105852716,-0.16925071,-0.02516107,-0.12781383,-0.055341125,0.14220488,0.078081846,-0.023577042,-0.032581586,-0.16011648,-0.05412173,0.04651511,0.15453929,0.047580976,0.074000925,-0.0119062895,-0.041642535,-0.009475965,0.08881407,-0.07754025,-0.0010517573,0.0009384124,0.059708953,-0.027018355,0.035066437,0.17321168,0.08880017,-0.0470532,-0.015852982,0.0009689296,0.073209,-0.088656604,-0.010286894,0.039190143,0.13669042,0.009385883,0.07411905,-0.061752032,0.024648013,-0.017775249,0.107394196,0.034551665,0.09933821,-0.062055204,0.009003681,-0.035086077,-0.090214595,0.06715281,0.006670708,-0.04459238,-0.020901727,-0.01002701,0.02807601,-0.01710069,0.040921737,0.0624507,-0.04812973}, {0.036314618,0.057366572,0.11453364,-0.13195154,0.079188555,-0.023817772,-0.11187781,-0.05660429,-0.030192103,-0.12866253,-0.04013693,-0.13260113,-0.059202347,-0.0024935089,-0.0026272528,-0.030559553,0.012554228,0.017499143,0.18670148,-0.07296847,-0.053225428,-0.023795294,-0.007652151,0.026615517,0.039542723,-0.02862274,-0.020113356,-0.04216407,0.07818237,0.05616536,0.08750013,-0.0030303593,0.09962366,-0.18458572,-0.14141707,-0.015453318,-0.020687323,-0.035566445,-0.26791126,0.04104595,0.0043234443,-0.035920348,-0.19042669,-0.0023612464,-0.0024582827,0.013809892,-0.10269141,-0.11830485,-0.03557318,0.04168402,0.1458924,0.055395827,-0.033436526,0.053011604,-0.061601326,0.0825476,-0.124005206,0.041018676,-0.05144988,0.1360458,0.01225537,-0.023862498,0.08203962,0.1338281,-0.040431842,-0.008982511,-0.0003918719,-0.019691154,-0.08633503,0.12348971,-0.02361384,-0.035046894,0.05935686,0.031909455,0.038808685,0.019659963,0.08543878,0.013112154,-0.13692477,-0.08633221,0.038783316,0.040923614,-0.053966783,0.1397187,0.026469363,0.0017170534,0.13201185,0.1159545,0.052739322,-0.024773907,-0.022966132,0.06728168,0.12116799,0.008607926,0.02597267,0.062807076,-0.015510034,0.08637561,-0.08792945,0.032940123,0.037167422,-0.14263852,-0.00077959336,-0.03189624,-0.0104335295,-0.16194668,0.018796429,-0.10992244,-0.05284084,0.040840607,-0.029880272,-0.016336853,-0.04066391,-0.0016113548,0.16958828,-0.13659275,0.015367068,-0.00063278107,0.060307134,-0.059120417,0.023810836,0.0934654,0.014541721,0.025911754,0.018713351,-0.004305428,-0.16126922,0.0812197}, {-0.10727258,-0.04625848,-0.14158739,0.02424496,-0.05915534,0.032043416,0.18364564,0.071805716,0.07333046,0.044002216,0.13803601,0.10413077,0.10611693,0.088904284,0.011662067,0.022408923,0.07660706,-0.14738989,-0.12828188,0.038077697,0.021925516,-0.05222882,0.10557823,-0.029938444,0.06125995,0.16308434,-0.031984664,-0.03992229,-0.033612385,-0.03715453,0.023565676,-0.06698313,-0.03649726,0.09794686,0.1152356,-0.086970955,0.0134378895,0.012295568,0.03859222,-0.06335502,0.017610207,0.07980476,0.11046262,-0.07134151,-0.06578039,0.007842635,0.058858033,0.020628974,-0.018617736,0.015550054,-0.081316695,-0.019760052,0.06351561,0.026218629,-0.10283854,-0.07377349,-0.06259195,-0.09428048,-0.0020206585,-0.047673263,-0.038549885,-0.046884492,-0.20415796,0.0029467326,0.05182904,-0.055832066,0.034385845,0.07470376,0.17854011,-0.032101877,-0.011927685,0.035985373,0.0017092066,-0.017884074,-0.18303473,-0.07570279,0.021103889,-0.00017191027,0.04782188,-0.049995095,-0.1326352,0.039866053,0.08042746,-0.013593372,-0.11119525,0.000172069,-0.14308223,-0.05335234,-0.14641826,0.091180444,0.1327424,-0.04917814,-0.0639151,0.004301982,-0.07898342,0.058912624,-0.018092286,-0.10789873,-0.02457726,-0.059048284,0.030001212,0.03028898,0.19618535,-0.06151194,-0.013984671,0.12613198,0.031365514,-0.04649571,0.086303875,-0.012784706,0.02133537,0.13463144,0.014210084,0.0064526256,0.058786333,0.06845957,-0.010738676,0.053480268,-0.07717671,0.10369749,-0.054468293,-0.022073727,-0.2574074,-0.033457246,-0.07859818,-0.07641916,0.042373296,0.039503615}, {0.06262351,-0.06829056,-0.039990503,-0.054569792,-0.05515891,0.07921004,-0.09446521,-0.06595417,-0.02862741,-0.107687786,0.016173145,-0.0076756026,-0.11119354,-0.008345884,-0.052390274,-0.05554306,-0.10090409,-0.0807505,-0.07222565,-0.17523886,-0.17047141,-0.013535944,-0.016428407,0.051598463,-0.15174022,-0.07821075,-0.2382737,-0.0018329273,-0.052104864,-0.045250114,-0.104246385,-0.053376436,-0.08250252,-0.13380717,-0.13410701,0.07083583,-0.11654805,-0.12160781,-0.07095848,0.11822051,-0.20413117,0.04195373,-0.029631417,-0.017788155,0.040724434,-0.00011518627,-0.032690465,-0.122070104,-0.06482604,-0.12014983,-0.06986972,0.032488003,-0.09239272,-0.06300672,0.08160366,0.16139494,-0.04733842,-0.09351806,-0.09217432,-0.15991716,-0.024641981,-0.013360375,-0.015319719,0.015389007,-0.034886654,-0.16151552,-0.13374647,-0.11127828,-0.12404768,-0.146629,-0.019871842,0.0057516103,0.049867697,0.054252923,0.07595937,0.0143286735,-0.052879006,-0.013248969,-0.01181932,-0.1774241,-0.06797886,-0.11751712,0.031479973,-0.0031497288,0.0028325506,-0.07993368,-0.033842657,-0.07741276,-0.023075975,0.0071779625,-0.03532445,0.058046885,-0.100871205,-0.012604067,-0.024504364,0.015936077,0.05375996,0.031473547,-0.03288797,-0.013122986,-0.020232148,0.12008216,0.0018446438,-0.017867066,-0.16210373,0.10698564,-0.03227016,-0.11954375,-0.07380174,-0.00703722,-0.014314668,0.084312685,-0.18485606,-0.114805005,0.00042957417,-0.031871542,-0.09364585,0.037375264,0.010786799,-0.12765792,-9.416579e-05,0.034865074,0.06719013,-0.15154245,-0.05789581,-0.024351891,0.017478785,-0.015731238}, {0.049934078,0.0029637231,0.065129586,-0.0077291946,0.020569418,0.018512348,-0.03649776,0.06131834,-0.047675397,0.060509738,-0.1578516,-0.077973634,-0.05446594,-0.13545315,-0.049447466,0.00057313085,-0.047659036,-0.076180845,-0.14910297,0.0055182856,-0.052749503,0.0031965382,-0.040223017,-0.112260915,-0.19116743,-0.11856954,-0.0036938787,0.053290155,0.012835758,-0.037014727,0.07219203,-0.057928137,-0.07917605,0.049824115,-0.15268351,0.04753744,-0.105530545,-0.06461881,-0.038176946,-0.069944024,-0.09573955,-0.074151956,0.020352883,0.008383188,0.09553471,-0.03445862,0.0625781,-0.04001624,-0.07600145,-0.021235667,0.014414463,-0.13407332,0.04584758,-0.082839124,-0.083694346,-0.0896585,-0.17960119,-0.11975935,-0.13446413,-0.046059936,-0.116867416,-0.02779766,0.0597994,-0.035567045,-0.17703561,-0.07465267,0.04219805,0.030199828,0.1360304,-0.062282406,-0.30339453,0.052288122,-0.025099535,-0.17441483,0.03896166,0.046246447,-0.06355727,-0.10656577,-0.0044879103,-0.030083628,-0.026319847,0.023416843,5.869672e-05,0.026273204,0.011479311,-0.019994566,0.012135988,-0.17958958,0.0930523,-0.025765242,0.056354187,-0.06857947,0.0009448316,-0.05352077,-0.11032812,-0.010265819,-0.05926131,-0.06459765,-0.03382625,-0.12493979,-0.08101242,0.027444666,-0.04381708,-0.019061225,-0.022653017,-0.05955755,0.044078417,-0.10559964,-0.10650702,-0.043013975,-0.06447099,0.04613604,-0.012115795,-0.082963124,-0.0773504,-0.04427611,0.016269902,0.0040994426,-0.009331927,-0.043700896,-0.17012855,-0.17339087,-0.07143443,-0.041446745,-0.04228123,0.12826356,-0.11628059,-0.069277056}, {-0.01423435,-0.047740456,0.0658754,0.13106151,-0.022543456,-0.02237205,0.04002026,0.08954746,0.005741326,-0.023723379,-0.0131185595,0.21275292,-0.10966576,0.13193141,-0.05413518,0.000857338,-0.033622537,-0.0045453226,0.010816574,-0.044450704,0.0047828015,-0.016676737,0.0205229,-0.08971114,0.028784322,0.03283401,-0.045189995,-0.03663891,0.00013232161,-0.04871559,-0.02570646,0.00036522688,-0.02447613,0.028144078,0.03993429,0.090890445,0.06481011,0.075726956,-0.042924266,0.0655026,0.05269303,-0.049709342,0.13758166,-0.0434575,-0.04694201,-0.0007081975,-0.00048839673,0.0075957556,0.024686582,-0.0043597035,-0.08658366,0.0847429,-0.07444501,-0.05585438,-0.03980916,-0.016314877,0.047445104,-0.0841966,-0.017635208,-0.050097186,0.013305929,-0.07344487,-0.08392226,0.023680884,0.14189456,-0.05919633,0.008264741,-0.025973784,0.028131295,0.114635974,-0.13704754,-0.009669987,0.10569542,0.1074716,-0.08211893,0.042539306,0.014654595,-0.0028158193,0.053160146,0.12796071,-0.010825875,0.07202624,-0.009917366,0.0018707418,0.058130566,-0.15213656,-0.082123384,-0.0033800104,0.026049327,0.09406796,-0.08655219,0.051468216,0.02917712,-0.035908807,0.0739826,0.09151139,0.010252824,0.0029425952,0.060084563,0.077577524,0.13392463,0.0009930455,-0.00939168,-0.002347241,-0.026496693,0.137379,0.12329119,-0.01858379,-0.0041645006,0.07305305,-0.0725795,-0.032080144,-0.019830586,-0.003042698,0.004371778,0.009021909,0.04346228,0.10068446,-0.12475456,-0.06953663,-0.0058596963,0.05301739,-0.08657369,-0.08136781,0.021149239,0.10458096,0.025047775,0.068200774}, {-0.028962806,0.008272416,0.14733028,-0.061016638,-0.1029205,-0.0056137796,-0.14095278,-0.048468422,0.17294833,0.029548923,0.022661818,-0.031130144,-0.050676968,0.00014813259,0.060063615,0.12522879,0.13504316,0.036074452,0.08666828,-0.0009477458,0.03995092,-0.03388114,-0.16705774,0.10554284,0.008972144,-0.07268339,-0.07569401,-0.06012837,0.008550573,-0.007917483,-0.02541452,0.01990717,0.0996119,0.071651675,-0.1553147,0.018533483,-0.053386692,-0.012479856,0.02562699,0.13083458,-0.1544801,-0.017854862,0.09850178,0.032597642,0.03009069,-0.058952346,-0.015409205,-0.10373512,-0.0028605235,0.04565867,-0.021669991,-0.011891527,-0.06410074,-0.012492896,-0.16344963,-0.10535587,0.026671076,-0.043845993,-0.08666401,0.10276413,0.05693692,-0.017702986,-0.113749176,0.038234975,-0.021220922,-0.011364581,0.0042346967,-0.0068943263,-0.0517529,0.117614605,-0.030477053,-0.06959024,0.07686499,-0.047786538,0.033209033,0.040128306,-0.012433128,0.106544554,-0.03604462,-0.111730784,0.030052083,-0.09847388,0.15565075,0.16128808,0.03252816,0.032148432,-0.056892347,0.098829,0.12414234,0.013472997,0.001767553,0.03954069,0.039259102,-0.11659768,-0.0013435055,0.10167024,0.097918205,0.04185117,-0.103622824,-0.06838522,0.03796874,0.035913035,0.012131964,-0.0113151,-0.0068321154,0.09824642,0.07702139,-0.012757906,0.094131455,-0.023003135,0.0019768109,-0.07805012,-0.033614688,0.0040288395,0.05251979,-0.06275945,-0.059664696,0.08333528,0.021399576,-0.06539663,-0.04468478,0.0043720454,-0.026768437,-0.12249509,0.1638178,-0.08961743,-0.17231487,0.014020212}, {0.079712056,0.050182626,-0.0018854192,-0.07274519,0.050642405,-0.028812034,0.07193,0.094179,0.036473844,0.16572228,0.12110129,0.01027128,0.16724363,0.09950497,0.015708927,0.035874225,0.03723931,-0.07610307,-0.07871841,0.058958124,0.11804176,0.096544996,0.0436563,0.045703355,-0.029423783,-0.037278324,0.115665525,0.03656437,-0.092375636,-0.07848708,-0.008647603,-0.022207607,-0.010242243,0.069598384,-0.027835123,0.22209336,-0.026839469,0.0577437,0.12175882,0.034296364,0.09710527,0.10087164,0.12328447,0.10017085,-0.001645675,-0.10251256,0.23329057,-0.050419725,-0.007758672,0.035965964,-0.0704344,0.029462948,0.09374311,-0.11496089,0.0066007725,-0.12152646,0.09684966,-0.030701563,0.07209559,0.114830956,0.16892014,-0.22789514,0.04730799,0.12141788,0.02926829,-0.034163386,0.1470177,-0.015284437,-0.0010072025,-0.043542087,-0.014449465,-0.011202207,0.12939455,-0.11900225,0.10548091,0.056398936,0.013092897,0.10714975,0.14652194,-0.04984831,0.013531068,-0.0143477535,0.05800643,-0.102489375,0.072321296,0.12301726,-0.14863521,0.07542786,0.06007881,0.089202195,0.12348226,-0.041684814,-0.008877936,0.09220607,-0.025083864,0.024598788,0.016928166,0.030131102,-0.053195268,0.076531604,-0.063641466,0.06472462,0.08842464,0.03277591,0.11043897,0.11542299,0.009888423,-0.005293296,0.16509813,-0.044331755,0.06398082,0.09055181,0.1337266,-0.05209177,0.051370185,0.19355382,-0.05514867,0.15249997,0.101161234,0.12837447,-0.042815007,-0.07268462,-0.14641257,0.12207839,0.042980142,-0.03076198,0.04335788,-0.12198572}, {0.012174016,0.08986736,-0.03563712,-0.027731152,-0.08341977,-0.030125422,-0.069641545,0.0717822,0.016779091,0.02917701,0.025748353,0.07764028,-0.13748446,0.08472184,-0.088628106,0.079568975,-0.08053712,0.02077439,0.09241385,0.0035872464,0.0062684715,-0.12038468,0.05660884,-0.053601876,0.0039163707,0.06714638,-0.19767897,-0.034156747,-0.04559668,0.015165903,-0.10000781,0.006687816,-0.062252004,0.036420878,0.041386798,0.0786967,-0.0638349,-0.00937938,-0.11490861,0.023288045,-0.11750813,0.0017586225,0.050001785,0.059815235,-0.09853988,0.07102795,-0.13498537,-0.09438745,0.1032458,-0.11576211,0.016230287,0.05120679,-0.013236084,0.03022581,0.08042511,0.2096071,0.15071188,-0.07632256,-0.14480776,-0.11409811,0.01260565,-0.019056164,-0.13327882,0.0568085,0.19811888,0.034425844,-0.049463164,-0.11291331,0.05751799,0.02778588,-0.024514988,-0.031617712,-0.061632264,0.107341334,-0.06317406,-0.013946627,0.01595283,0.032813065,-0.031352878,0.0007741854,-0.12883784,-0.02621781,0.069111146,0.06844928,0.059801396,-0.111043066,-0.012631192,0.04842927,0.021438027,0.060927983,-0.16629991,0.021972777,0.021157645,0.041972674,0.048232757,0.12839727,0.08367018,-0.024351403,0.08645971,-0.034608074,0.059552073,0.0016536275,0.08842795,-0.05551688,-0.020341394,0.10927184,-0.0011413203,-0.039364003,-0.00780645,-0.04890733,-0.123622335,-0.04307426,-0.027461955,0.011638162,0.02910074,0.028618326,-0.031812575,-0.04395901,-0.0961282,0.0125233885,-0.07738175,-0.05279404,0.007960275,-0.22573087,-0.053788118,0.023830336,-0.004434472,0.10223613}, {-0.072801456,0.0006602723,0.058893915,0.0356021,0.07629288,0.021211077,0.08424839,0.13564402,-0.034378156,-0.06270263,0.040363006,0.15329856,-0.011071441,0.11455503,0.072205074,0.045343533,-0.021171182,0.076820664,0.014028355,-0.014327126,-0.10771424,0.028143415,-0.11844449,0.06780317,0.06526747,0.114711665,0.004346285,0.04552729,0.05458255,0.06749229,-0.04285274,-0.09360898,0.1679664,0.0017213799,0.14378673,0.083094165,0.0862208,0.013090928,0.0987388,0.06600287,0.036700077,-0.079949476,-0.012633623,-0.030964663,0.030907752,0.085010156,-0.07190706,-0.032988377,-0.055751212,0.05560763,-0.0050483383,0.02302081,0.022831365,-0.14001714,-0.01971249,0.06710041,0.09208318,0.08039499,0.025588956,0.106603846,0.07096424,0.2554356,-0.19081597,-0.10783402,0.00787099,0.041173343,-0.04219917,-0.035615403,0.05111699,0.059767477,0.07406108,0.010075049,0.013801242,0.021059936,-0.04048671,0.007888066,0.0036070694,-0.06477023,0.031814948,0.011141572,0.03816775,0.10185204,0.109290555,0.047764078,0.030115625,0.010054504,0.060954724,0.051591754,-0.12702624,0.009926458,-0.074897066,-0.08212752,0.058928713,-0.19146265,0.21090406,0.1075784,0.0970013,-0.06853098,0.044458233,-0.029926285,0.07423165,0.07159674,-0.028336378,-0.06604341,-0.072636366,0.00010460356,-0.015267886,0.10326834,-0.024631862,0.09424628,0.050271764,-0.06997851,-0.109701484,0.04304648,0.06348485,-0.041454487,0.09971013,0.12458404,-0.011254504,-0.024333967,0.1342785,0.11697392,0.11010427,-0.028710155,-0.058465924,-0.115300395,-0.0035895207,0.04597887}, {0.04099018,0.005835834,-0.059232738,-0.035095643,0.018748935,0.046596214,0.007990084,-0.033443145,-0.020877194,0.017535236,-0.04185979,-0.031623255,0.082385704,0.047355216,-0.025588453,-0.026609415,0.12782091,0.12266801,0.007496518,-0.017535739,-0.099001355,-0.037848715,0.10648718,0.061434682,0.10721835,-0.054954484,0.06362197,-0.092036836,-0.0015727945,0.0033162842,0.07716124,-0.020291734,-0.014579043,-0.14586489,0.006006944,-0.015890587,0.00021508837,0.23875749,-0.018817073,-0.004996654,-0.022716044,0.12543349,0.10936064,0.05389562,-0.077859715,-0.117596015,0.04786242,-0.039497294,-0.05812891,-0.06587742,0.101626515,-0.056478314,0.077595025,-0.11670313,-0.031106235,-0.08180485,0.08045899,-0.04956594,-0.027314825,-0.049641304,-0.09703292,-0.00932871,0.07041056,0.06410686,0.053153433,0.0045020916,-0.02370903,-0.032697782,-0.12850925,-0.05273676,0.09914097,0.090357326,0.032513574,-0.017397733,0.13055688,0.1327057,0.0061005685,-0.04950408,-0.036696892,-0.039097086,-0.025055567,-0.15548839,-0.11817694,-0.04060178,0.090536036,0.14426237,-0.07557,0.015147149,-0.056266155,0.033723913,-0.09074919,0.053585507,0.028279075,-0.10262592,0.059849717,-0.04595157,0.012922195,-0.001256974,-0.02563371,-0.09444737,0.07185328,0.08934483,-0.13471119,-0.058391694,0.029919384,0.18764953,-0.066257745,-0.09365701,0.033940345,-0.074675694,-0.030873897,0.15377837,-0.06270524,-0.029737929,-0.043373138,0.08918683,0.05378531,0.10239558,-0.027008113,-0.1092823,-0.09477806,0.0724538,-0.034410927,-0.031385615,0.017219014,-0.13212928,-0.10035329,0.05963459}, {0.051994245,0.05835754,0.17585509,-0.12882303,-0.14009702,-0.0063972175,-0.10065782,-0.022093808,-0.11008464,-0.04610436,-0.10515489,-0.100490116,-0.067650184,-0.07046336,-0.12912348,0.096661516,0.008184836,0.0741817,-0.11093811,0.00071596255,-0.0065743094,0.021290231,-0.064721346,0.03264286,-0.17777643,0.0015771013,0.12509564,-0.0015945792,0.017477445,-0.023913922,0.011641366,-0.030880049,0.06663052,0.12973894,-0.15742305,0.12886795,-0.15829882,-0.045202225,-0.0315507,0.033322345,-0.09038807,0.10667995,-0.021818187,0.04305817,0.027892826,0.08077537,0.03977674,-0.05177008,0.03146612,0.01386947,0.032636423,0.12359503,-0.09372089,-0.02996721,-0.046308387,0.09718502,0.034035377,-0.04547745,-0.05697923,0.03397952,0.034999363,-0.023898656,-0.00042005154,0.113693565,-0.09463949,-0.09980813,-0.013748766,-0.008195031,0.021014595,-0.0110645,-0.06534931,0.018553428,-0.012275723,0.032691553,0.14739443,0.024522103,0.0695807,0.060559794,0.067235366,0.059512876,-0.04722351,-0.1062033,0.025738247,0.11026912,-0.097234406,-0.12780756,0.05743832,-0.049868695,0.17066088,0.01858353,-0.062042322,0.06836305,0.17762123,-0.045203988,-0.12209916,0.0102409655,0.090634786,0.04062535,0.020256175,-0.05204838,0.020943189,0.023801029,0.044226192,-0.021984056,-0.0883541,0.016417239,0.067964025,-0.10685014,0.029336173,0.121773385,0.039963536,0.092765205,0.04054741,0.009722235,0.014295986,-0.11526478,0.10521384,-0.081549816,0.040414453,0.09492435,-0.096069574,0.036587715,0.16089879,-0.009723737,-0.015249595,0.07993984,-0.051944762,-0.10212632}, {0.106736146,0.1197234,-0.07355476,0.055974375,-0.03905459,0.09627008,0.038756922,-0.046346046,-0.07030734,0.043917388,-0.10012373,-0.030563172,0.09509618,-0.010959263,0.010433667,-0.069370694,-0.06863653,-0.03676414,0.0065989913,0.01804153,-0.02282777,0.09063645,-0.035490487,-0.020193841,0.040415544,0.082158774,0.044744983,0.16131978,0.05336686,-0.113975234,0.013631514,-0.052048896,-0.010861626,0.19034003,-0.072546266,0.07760867,-0.0532532,-0.016802566,0.115982175,0.048445288,0.044267926,0.0016900045,-0.099652156,0.05401993,-0.15463312,-0.058852553,-0.05674272,0.10741321,-0.017202498,0.010730989,0.07487301,0.044163797,0.002074676,-0.124554805,0.016210351,0.09528263,-0.023689719,-0.040562533,0.05903316,-0.08295424,0.102762446,-0.07510949,0.050544232,0.0843177,-0.075350344,-0.015304714,-0.0051742047,0.05390732,0.006450708,-0.012274275,-0.06402553,0.0026897853,-0.018407231,0.06595318,0.048955392,0.12769572,-0.16682385,0.03512548,-0.14035092,0.013990245,0.08688264,-0.043749075,0.027901892,0.11952954,-0.029788943,0.0228676,0.07391419,-0.12635794,0.052532233,0.031324085,-0.024731375,-0.026168587,0.105287425,-0.018693179,0.00585584,-0.0054289806,-0.0141352555,0.0006899324,0.06427646,0.14954281,-0.071550995,-0.07740512,-0.08703007,-0.06038805,0.098347716,0.0021860285,0.008940056,0.034642566,-0.017190935,-0.04141701,-0.01806461,-0.054494854,0.0323168,0.10168166,-0.03876887,0.02737657,0.052893627,0.0061321515,0.022506313,0.10322417,0.014868695,-0.10583518,-0.040402927,0.036854006,-0.04125446,0.14299944,0.070622906,-0.011493966}, {0.02888754,0.08900047,-0.06959977,-0.11515927,-0.056180734,-0.05586252,0.011714085,0.007246254,-0.13460125,-0.10862542,-0.13363917,0.004680385,-0.048103154,0.06399195,-0.14513366,-0.09170754,-0.09412276,0.049601723,-0.06251833,-0.08931736,-0.08009197,-0.061069377,0.04136942,0.0046987473,-0.06396117,-0.05172948,0.105010994,-0.004725888,-0.07175911,0.045786027,0.13950093,0.04266271,-0.19766888,-0.10398231,-0.067065075,-0.056255776,-0.10945198,0.003822174,0.016154692,-0.022430265,-0.029081019,-0.031020619,-0.033173975,-0.05844119,-0.09618454,-0.010850057,0.107212365,-0.0113837775,-0.0876435,0.08642974,0.002842856,-0.023110075,-0.15737617,-0.016394403,0.18067907,-0.007034715,-0.08119537,-0.12079078,0.03499925,-0.10728042,0.090482704,-0.015260907,0.18599488,-0.060880847,-0.08969831,-0.046885885,-0.08750232,0.011281699,0.015477584,-0.046481874,0.032930933,-0.0726863,0.085562415,-0.06479746,0.09889778,0.071996085,0.02769204,0.077308245,0.08488527,0.12106845,-0.012390669,0.06528567,-0.04750321,-0.10812393,0.04698011,-0.022250598,0.0010704063,-0.11193046,0.04512752,0.065203704,-0.06292583,0.01965955,0.006263952,-0.04173609,0.00801868,-0.031905558,-0.09341425,-0.08848156,0.08463342,-0.03845434,-0.053335674,0.0119564,-0.15038939,0.09704617,-0.05588171,-0.074448265,0.11530387,-0.04102321,0.09160178,-0.05647384,-0.01739937,0.029368553,0.09682202,0.04213556,-0.093575515,0.03769613,-0.046134837,-0.08857347,-0.047881216,-0.0029228907,-0.07785804,-0.04097737,-0.039459698,-0.029755358,-0.11558453,0.10230667,0.10023408,-0.054634757}, {-0.07468053,0.029895447,-0.04902692,-0.10105797,-0.043293003,-0.0966943,0.12152823,-0.07848831,-0.09882815,0.11916848,-0.019960213,-0.028357876,0.17940743,-0.011460116,-0.03658775,-0.18344444,-0.1246039,0.06881392,-0.095764905,-0.03313671,0.0016170787,0.047543176,0.09413795,-0.13012847,-0.042839903,-0.054940365,-0.13689226,0.10016849,-0.06706718,-0.100245096,-0.009112488,0.053496394,-0.058444984,0.1710716,-0.027808039,0.005736597,-0.113183916,0.046509866,0.10890544,0.033000518,-0.06802186,0.012973614,0.19477712,0.05680073,-0.15076286,-0.043405257,-0.010057069,0.07860621,-0.012117203,-0.05155755,-0.026423533,-0.08264987,-0.015337209,0.0024150012,0.041504897,-0.019359054,-0.020912606,-0.11408838,-0.032236386,-0.033060007,-0.12129777,0.032431625,-0.06491164,0.12067195,-0.08918919,0.001998615,-0.012764243,-0.040661667,-0.071708314,-0.08960883,-0.062255565,-0.015203365,0.102760255,-0.04832422,0.026695058,-0.08532976,-0.019204967,0.011621032,0.07884814,0.018710304,-0.047024846,-0.1789486,-0.052148294,0.011319611,2.0239735e-05,0.07042468,-0.054729257,-0.12227245,-0.0039229495,-0.060843296,0.07518007,-0.0006057872,-0.02725289,0.056984946,0.01614999,-0.009625731,-0.08915516,-0.14868984,0.0338955,0.07078971,-0.06913143,0.034060262,-0.23711406,-0.0061878553,0.025419062,0.07266605,-0.06664033,-0.0014588581,0.010887538,-0.09019319,-0.07074193,0.040060077,0.020699222,0.05738548,-0.047997545,0.0012082809,-0.004047328,0.06725109,0.043987732,-0.01678481,-0.14534259,-0.170904,-0.12953787,0.0193073,0.008249171,0.06276759,-0.002816347,-0.15991668}, {0.050372124,0.099987455,0.14722742,0.037826277,0.015213011,0.005327499,-0.057607967,0.016480811,0.00085770007,-0.023345225,-0.10460722,-0.17256762,0.023393178,-0.02711983,-0.0061184336,-0.08887023,-0.13810559,-0.013724435,0.07623581,-0.089603335,0.14235303,-0.031970628,-0.058984943,0.062597804,-0.030634182,-0.0786745,-0.029971797,0.18180658,-0.016018996,0.038921677,0.011325454,-0.047872577,0.06315471,0.01009054,-0.10876212,-0.05132862,-0.03229484,-0.16675666,0.00893366,-0.108809516,0.037073717,-0.06637528,0.01907903,-0.029412089,-0.08626102,0.039269224,-0.12592626,0.020580277,-0.032465156,0.027430126,-0.14649458,0.0798852,-0.1323308,0.08425773,0.034192484,-0.10060902,0.09353225,0.035122894,-0.07013226,0.03647158,0.1338612,0.10272409,0.08944433,0.099625506,0.019405717,0.07742279,0.07631811,-0.058559507,0.039936434,0.05755553,-0.066808574,-0.03373217,-0.0016701636,0.041610584,0.016213086,-0.06088675,0.0007370295,-0.03142921,-0.117446005,0.069423884,0.031834897,-0.14213468,-0.09376022,-0.13148358,-0.04895854,0.01197847,0.12010439,0.00912072,0.059794247,-0.09853476,0.0019270626,-0.015880499,-0.013921495,0.003992315,0.003777672,-0.01814848,0.07755959,-0.05924243,0.002473833,0.16352707,-0.16250035,-0.15256609,-0.070054896,0.010583478,0.031213565,-0.26568684,-0.09076884,0.03191664,-0.06953741,0.0076368926,0.05325873,-0.06886497,-0.0030089966,-0.043250486,-0.1026122,-0.1327672,-0.010597847,-0.043350577,0.044529703,-0.035247102,0.13474481,-0.0150805265,0.014813046,0.046152383,-0.11370036,0.065176316,-0.14869241,0.0070864493}, {-0.076776154,-0.031217879,-0.14086048,-0.003173491,0.050351616,0.009780968,-0.059307717,0.029690245,0.014411872,-0.0030053048,0.058657963,0.0996458,-0.07883727,-0.028879067,-0.024932504,-0.0058353636,0.006791669,-0.060849793,-0.09656289,0.084878474,-0.07039919,0.0872049,0.06003201,-0.036647394,-0.018182233,0.05982167,-0.021703014,-0.0634397,0.066763416,-0.0017775669,0.022367343,0.033278305,-0.058008503,-0.058734708,0.08322433,-0.068441205,0.047210064,0.063887395,0.025374977,-0.06904985,0.116204835,0.0106872255,-0.024601761,-0.08532236,0.10193013,-0.044877328,0.059811935,-0.08168904,0.04144336,0.0076801605,0.033296794,0.0044727367,-0.083350174,-0.0058496348,-0.0052887006,-0.041039944,-0.06908208,0.057489403,0.060007576,-0.09122119,-0.11950632,0.02369765,-0.0010443691,-0.060396634,-0.12007085,0.11537959,0.005949151,0.013939591,-0.016451018,-0.016273605,-0.11420187,0.007656093,0.07265736,-0.031603906,0.031715307,0.0560477,0.032945596,-0.15265313,0.0022828444,0.026114577,-0.022923118,-0.066499926,-0.012422471,-0.06206458,0.024341939,0.015035572,-0.07086209,-0.12186631,-0.0663422,0.052722007,5.5610668e-05,-0.09733707,-0.20669253,-0.07110397,-0.012008001,0.017847117,-0.06512807,-0.13159949,-0.099719524,0.019345945,0.11048504,-0.00069299096,-0.089590654,0.05044515,-0.19278006,0.0070285476,0.071051225,-0.008400601,0.029620353,-0.16243684,0.08076966,-0.10113889,0.015287474,-0.07232853,0.002289577,0.1655037,0.083247885,-0.08380901,-0.054493513,-0.01130169,0.05695414,0.068600096,0.063228294,0.027614295,0.03205968,-0.041883502,0.025860514,0.01431328}, {0.06483018,-0.04575778,-0.17276044,0.0110109225,0.10816586,-0.039351076,0.011795957,0.009878123,0.13777918,0.06635517,0.10206677,0.042979386,-0.046262924,0.061026588,-0.09042084,-0.013191648,0.103280164,-0.025559641,-0.0034631714,-0.012131589,0.06703233,0.009685654,0.031007407,0.12708291,0.028013527,-0.09119469,-0.057460982,0.07050729,-0.068822265,-0.07451683,-0.019166486,-0.0136880735,0.040854264,0.02537337,0.0008817309,0.06218069,0.09083726,-0.007278099,0.034777854,0.0018543907,-0.09546406,-0.029727776,0.050493445,-0.03449383,0.067057446,0.062035225,0.12769447,-0.025896799,-0.03624095,0.04658204,-0.030492537,0.097226,0.038181223,0.014000636,0.09401244,-0.10328839,0.04834464,-0.04747042,0.057256643,-0.0040293,-0.013723507,-0.061356205,-0.19491543,-0.017525095,-0.09546356,0.080597885,0.023296442,0.01619739,-0.08553326,-0.039359927,0.031115504,-0.013269918,-0.040462248,-0.14639333,0.16492648,-0.08369546,0.12837984,0.10186867,0.05409112,0.00019350601,0.0643479,-0.103457674,0.13854243,-0.12676626,0.05543226,0.068941996,-0.15941428,-0.035835512,-0.062149946,0.009512424,0.015892543,0.08483383,-0.07259055,0.08520926,0.013988065,0.021038597,-0.01842999,-0.116718985,-0.036295418,0.06051602,-0.029643033,-0.0071996916,0.023734301,-0.023247838,0.11866518,0.07726016,-0.0051718536,0.017020933,0.07657399,-0.07815475,0.08380254,0.011450829,0.045093212,0.031483136,0.043528832,0.016218355,-0.041538645,0.027055826,0.007758485,0.04056321,0.030581294,0.08187537,-0.027849106,0.15948997,0.09003683,-0.26934642,0.13683821,-0.038846664}, {-0.046815246,-0.1351352,-0.14075822,0.07817272,0.0071976865,0.030879553,0.031319287,0.07984592,0.18705465,0.036513563,0.1390377,-0.022520987,0.09920052,0.07732919,0.059434,0.05327803,0.20981663,0.06264302,-0.04279011,0.007453079,-0.032754615,-0.044204637,-0.041196536,0.070955545,0.05593877,0.015245426,-0.08287045,0.09103906,0.021875145,-0.04298556,-0.1215674,-0.008517077,-0.040864605,0.09521549,0.15900835,-0.0029883226,0.08929183,0.03459172,0.16425145,0.01397587,0.018026557,0.031999506,0.16181192,-0.1602589,0.01729336,0.021475615,-0.09414999,0.031234005,0.09289985,-0.051243838,-0.026884856,0.007069866,0.14164196,0.07798976,0.0070927776,0.034546573,0.082867645,-0.025893329,-0.057915907,-0.016118532,-0.016608238,-0.040066574,-0.08879369,-0.08376702,0.02142163,0.031184979,-0.01970017,0.13228291,-0.011262804,-0.06123094,-0.0033163312,0.029458553,0.011385856,-0.03925528,-0.035462618,-0.06564932,0.03400071,-0.029193394,0.059673034,-0.07362919,-0.0009345894,-0.044904724,0.13361815,0.05755705,-0.029264675,-0.06700863,-0.048071258,0.03751415,-0.12178179,0.071526125,0.08700474,-0.070661135,-0.1184607,0.02542076,-0.10955018,0.063320994,-0.09173635,-0.19910793,-0.008423042,-0.05881613,0.10765343,0.0008949769,0.0014935494,-0.092524715,0.10171867,-0.10802191,0.00292164,0.053386558,0.031247167,-0.014876198,0.16198125,0.08474798,-0.11661696,0.026527038,-0.058977406,0.024513936,0.024675913,-0.020684835,-0.0064928234,0.08599817,0.09530328,0.047464903,-0.025977204,-0.046258364,0.034543715,-0.14239389,-0.02127074,0.06288578}, {-0.040657632,0.19030131,0.090977795,0.011956103,0.02588098,0.054754145,-0.17845851,-0.0011698375,0.122439526,-0.0057422617,-0.027730173,-0.08566999,-0.030542566,-0.010291843,-0.035645105,0.06408306,0.0066741384,0.0090271775,-0.028759575,-0.060315702,-0.088962086,-0.008806307,-0.04158485,0.17270386,-0.15062815,-0.1295937,0.08923289,0.042816803,0.027468149,0.13595223,-0.08766914,0.011207737,-0.01563513,-0.17095138,-0.05606457,-0.045910776,-0.0006001214,-0.049556028,-0.06627795,0.0070910566,-0.094141714,0.017129028,0.053371202,-0.1522576,0.14342628,0.003976434,0.06929762,-0.064160116,0.026674151,0.1797371,0.044886433,0.038922504,-0.06463329,0.036483914,0.06860187,0.025208931,0.022861108,-0.0011933177,0.07718751,-0.026021596,-0.13341945,-0.041763783,0.04271657,-0.06581645,-0.034964025,0.035375796,-0.0280679,-0.002627614,-0.14445202,-0.07585422,0.16746756,0.025050733,-0.12437014,-0.047115188,-0.023118716,0.068848744,0.018502494,0.18754902,-0.010167616,-0.039800256,-0.056404725,-0.09717865,0.051970452,-0.019222038,-0.01961561,-0.00531054,-0.018516112,0.15301141,0.038904846,-0.104331456,0.042466573,0.030642416,0.03789819,0.03367684,0.04608703,-0.019684518,-0.034029394,-0.0016928656,-0.11694204,-0.06500201,0.014453501,0.0038072497,0.010782593,-0.013245785,-0.017534433,-0.15410572,0.05903293,-0.01042294,0.12808841,0.078336224,0.045022048,0.0835137,0.07874536,0.0201664,0.006256627,-0.010460643,0.04177715,0.048145752,-0.045990713,0.026273936,-0.0029129132,0.13101397,0.13568076,0.076656535,0.022089532,-0.1503008,0.02278409,0.0018887207}, {-0.03443736,-0.021149116,0.0667216,-0.08536607,-0.107639164,-0.022170408,-0.10579891,0.0072669378,-0.07017045,-0.019753138,-0.04312411,-0.07830974,-0.047872122,-0.11214979,-0.08904784,-0.051385637,-0.11563169,0.027820144,0.039113626,0.03569193,0.014997853,-0.034596413,-0.10981504,0.08861368,0.009842936,0.023767177,-0.008384228,0.059529647,-0.043129552,0.096833035,-0.024851039,0.17392501,-0.026681153,-0.08733813,-0.1701717,-0.13994126,-0.14657319,-0.07001274,-0.0128392875,-0.055905186,-0.11220866,-0.09934491,-0.074016415,0.035241142,0.027103141,0.12691112,0.0082514435,-0.050306324,0.09087458,0.09893522,0.16291657,0.060373858,-0.23335266,0.14981459,0.118443124,0.13306183,-0.10276688,-0.04884886,0.017957672,-0.03281729,0.11237879,0.01369073,0.19126599,0.07297758,-0.09487254,0.043574676,-0.054798923,-0.032984033,0.03984597,-0.117617294,-0.0719445,0.036197778,0.16644976,-0.08630997,0.081113614,-0.11201269,-0.020113438,0.12140507,0.019494269,0.085464105,0.021782877,-0.0070915427,-0.045371987,-0.116169035,0.06448785,-0.06522539,-0.0341338,-0.011078853,0.088813916,-0.11927374,-0.117722034,0.05814422,-0.032234363,0.082713865,-0.030465519,-0.009762216,-0.07333027,-0.00025425677,0.057797957,0.04401696,-0.010157848,0.0312918,-0.12045428,0.053155184,-0.15202193,-0.10727716,-0.030343316,0.07756911,0.08464719,0.056607366,0.04685409,0.08447,0.11387629,-0.0076006115,0.0064084083,-0.016323347,0.023744894,0.00891804,0.03565649,0.019834273,0.016249217,-0.064515114,0.086003,0.018391322,-0.07946563,-0.09125316,-0.090112954,-0.052833136}, {0.15945522,0.090746775,-0.046700817,0.04034131,-0.106031895,-0.054935344,0.044941947,0.012180977,0.019685172,-0.03018487,-0.03608081,0.036283154,-9.897072e-05,0.09343936,-0.073580086,-0.105193384,-0.011793591,-0.15954798,-0.034276098,0.030856786,0.08772076,0.02192289,0.051673383,-0.034802433,-0.061365377,-0.06117813,-0.069634356,0.018649446,-0.12038893,-0.085596025,0.033269715,-0.053373817,-0.02486083,0.140496,0.00939515,0.029627556,0.081632785,-0.116208434,0.039532054,0.018370658,-0.08515877,-0.03846117,0.048853833,0.025539307,0.014317284,-0.033498663,0.16198601,-0.09004541,0.0036752515,0.0120258,-0.15853232,0.09228527,0.10135993,0.044585902,0.045220263,-0.08466819,-0.027550044,-0.07449867,0.09054397,-0.07598498,0.015365463,0.02951487,0.024550265,-0.1029263,-0.054974493,0.07859766,-0.021590624,0.115984514,0.16379029,0.06306996,0.009976808,-0.06370484,-0.04925588,-0.071931586,-0.05182472,-0.19845174,0.082005896,-0.013225964,0.08212422,0.004347032,-0.07206068,-0.10117481,0.0423574,0.05108939,0.18952717,0.011108717,-0.06904937,0.024630483,0.016158465,0.05927378,0.007367507,-0.07341027,-0.11535501,0.0035679373,-0.021395097,0.0019032576,-0.020299334,-0.088592604,-0.08983268,0.0665559,-0.042709652,0.12051908,0.06915122,0.13747464,0.001107916,0.0075191325,-0.12137156,0.0009921115,-0.115251034,-0.0044729533,0.2332647,-0.07260106,-0.090408586,0.040043954,0.0016706412,0.08403071,-0.17539054,-0.045308627,0.095224164,0.012613084,0.032699242,0.09341546,-0.027821068,-0.06275175,-0.090640225,-0.026970234,0.08649201,-0.18150455}, {-0.03547182,-0.011698659,0.057833318,0.021303749,-0.07616161,-0.09191561,-0.034181327,-0.008270004,-0.0067575104,0.049240038,0.09585934,0.04099226,-0.026481332,-0.0018648283,0.037208643,0.15533188,-0.0010062082,-0.0014669817,-0.0034283763,-0.0056427154,-0.08672886,-0.06541558,-0.08048741,0.08734758,0.035690013,-0.09840834,-0.10311281,0.04586781,-0.042032853,-0.10747545,-0.08910544,0.033053007,0.06004274,0.04955008,-0.056391083,0.15564305,-0.01920167,0.02764993,-0.15573442,0.05095986,-0.04535768,0.04059232,0.060684197,0.083989576,-0.046435356,0.055225484,0.054278135,-0.07537222,0.032551106,-0.0074074464,0.005712265,0.05278726,-0.058416586,-0.13268028,-0.03699802,0.05524415,0.07872786,-0.13139838,-0.21243788,-0.028363468,0.03401729,-0.044107296,-0.09075044,0.09324572,0.07229088,-0.035022546,0.053148642,0.084772035,-0.06795727,0.048563026,0.085802674,0.034487735,-0.07048808,0.14931488,-0.040486477,0.018695172,-0.007172647,-0.0049713007,0.0045835413,-0.020241497,0.045115177,-0.24033192,0.050875593,0.04325662,-0.06263344,-0.055426773,-0.018539522,0.027551437,-0.10450144,0.0557961,-0.03146464,-0.04769054,0.06109344,-0.038022768,-0.027263302,0.011128118,0.09210525,0.046936847,-0.09229598,-0.16636205,0.026294263,-0.097223766,-0.020023972,-0.11919732,0.05921827,-0.016301803,0.10085421,-0.07999819,0.032983862,0.016766343,-0.080892846,-0.070374645,-0.0625771,0.10021663,0.044820264,-0.05448114,-0.01671093,-0.009760416,-0.0376318,0.0108847,0.11312452,0.050030038,0.03260322,-0.08731657,0.060637537,-0.06863801,-0.18516918,0.10278242}, {0.028246254,-0.0041562878,-0.12405242,-0.020750908,0.042657096,0.01518589,0.044872407,-0.04618366,-0.008297945,-0.10278648,-0.06794969,-0.051863164,0.010839199,-0.0394216,-0.061609935,-0.1171008,-0.08276527,0.07372933,-0.037836377,0.069916144,0.0077867806,0.018708121,0.09518047,0.07041176,-0.10358593,-0.02112676,0.04818915,0.14997563,-0.098621935,0.03670877,-0.014794523,-0.07038354,-0.07197768,0.10919569,0.10237392,-0.035685398,0.019112645,-0.042495653,0.06536086,-0.054040607,-0.033910073,0.09609871,-0.0036496136,0.11961254,-0.08129933,0.08605054,0.053758435,-0.066783816,-0.10804264,-0.016535083,0.11622114,-0.08998416,0.12294388,-0.07053128,0.08071841,0.057795767,-0.08398056,-0.16391084,0.06713184,-0.06526899,-0.026791414,0.0447802,0.16594112,-0.032458473,0.008037206,0.021008745,-0.060317736,-0.090964295,0.008241047,-0.0780692,0.0965527,0.017819446,-0.16109133,-0.01084493,0.041621014,0.04276549,-0.059930082,-0.014576905,0.0034602243,0.07757605,-0.0062925667,-0.04513086,-0.14305761,-0.0715619,-0.054212917,-0.0050623138,0.10619092,-0.062502794,0.043279536,0.05016392,-0.01107663,0.16517985,0.03190759,0.06755622,0.11535457,-0.099618904,0.07783122,-0.0029287366,0.006618061,-0.014648095,-0.05475063,0.13184118,0.0059652897,0.046777077,0.12593952,-0.0017392258,-0.101557665,-0.09396954,-0.062410735,-0.02634089,-0.054168224,0.058288157,-0.0076975585,-0.083119266,-0.091983445,-0.0963805,-0.087072685,-0.15477966,0.037275597,0.013675025,-0.048343975,-0.1527254,0.061885636,0.012631705,-0.1192392,-0.017272517,-0.0883116,0.020666892}, {0.023594841,0.063516095,0.10327617,-0.075135425,0.050424766,0.11255871,-0.17822535,-0.050425608,0.12629601,0.08069487,0.118760936,0.05371245,0.060593583,-0.12014433,0.01329466,0.055563625,0.09684216,-0.07793171,0.09388158,0.049865022,0.11374201,-0.0003810547,-0.04121916,0.042299904,0.026363153,-0.076730125,0.10793164,-0.046830956,-0.054826684,0.087321326,0.019417118,0.13311318,0.088532835,-0.032875907,0.003986185,0.07604481,-0.101409435,-0.09828251,-0.11255411,0.13370228,-0.045476034,0.07361033,-0.026483899,0.0011822032,0.052575037,0.055284098,-0.05342893,-0.028595012,-0.053724416,-0.084824346,0.10354657,-0.03385613,-0.0836518,0.12554188,-0.07752044,-0.10614838,0.026344487,0.16407973,-0.08393246,0.2219929,-0.10771674,0.12856285,-0.17774463,0.028493982,0.09691907,-0.033922594,0.07182008,-0.06827646,0.06197658,0.073840894,0.052701574,-0.045606848,-0.04068099,-0.019361705,0.08597594,-0.0023857816,0.04959393,-0.023548048,0.05620756,-0.07860255,0.06478225,-0.019699438,0.08317502,0.088147506,0.09165052,-0.009073283,-0.059364893,0.05057639,0.07274241,-0.071299285,0.1459551,-0.10791208,-0.0014909166,0.10744332,-0.042834815,-0.027971158,0.08848103,0.11467354,-0.05506642,0.050938815,-0.020960454,-0.04017076,0.15859546,-0.09579651,-0.07527334,0.026211383,0.0050676162,0.14728628,-0.04888082,0.16682293,0.03297488,-0.0009009505,0.03188333,-0.115473405,0.15353954,-0.092524305,0.038070586,0.15453766,0.0133387195,-0.071069114,-0.06066647,0.02151368,0.009193445,-0.13221818,0.0005358192,-0.009394149,0.092075564,0.0030066404}, {0.039401013,0.06393448,-0.057932656,-0.041814484,0.039183524,0.0341637,0.015223048,-0.012309854,-0.015913012,0.0090253465,-0.14257699,-0.008916623,-0.074072674,-0.00093674095,0.014856848,-0.14991894,-0.08902895,-0.087981425,-0.0032346393,-0.06458461,0.0718877,0.0061482904,-0.010170285,-0.06753879,-0.07895057,0.09584377,-0.13218038,0.057414692,0.1202147,0.03428865,0.020260343,0.03272142,0.05131563,0.024827695,0.0878096,-0.05849929,-0.06995184,-0.0125285145,0.0007259937,0.110649005,-0.03079067,-0.059061345,-0.042874146,0.04431683,-0.015494394,-0.012914197,-0.044965062,0.08207799,-0.09656682,0.021088881,-0.08468613,0.0251251,-0.027799265,0.01812541,-0.0013221946,0.0840522,-0.10453654,-0.026305804,0.043886524,-0.055064015,0.012972949,0.07157434,0.07450095,-0.051522482,-0.19052875,0.089631565,-0.07103986,-0.06450444,0.1496049,0.12140628,-0.10369308,0.004591676,-0.022544604,-0.035464406,-0.009058068,-0.072289735,-0.122440584,-0.12373547,-0.02040484,0.102325566,0.07316631,-0.032716017,-0.10564782,-0.17211124,0.02755322,-0.045310125,0.044338103,-0.0065479986,-0.04663226,0.085249364,0.10409291,-0.05828502,0.023862485,-0.09472939,-0.05177025,-0.008926884,0.030833595,-0.11992792,0.06361952,-0.01269592,-0.015546857,-0.031123469,-0.074859835,0.12905984,-0.12241819,-0.08257989,-0.1109881,0.13234834,-0.07401761,0.035234544,0.039573435,-0.0806912,-0.08491192,0.008777423,0.026002841,0.037962355,-0.004200404,-0.10993743,0.049534313,0.014060241,-0.024492474,0.06807686,0.028389094,-0.11091681,0.006537305,0.09193637,0.08985012,-0.0696554}, {0.13730808,0.10408886,0.018946808,-0.11765027,-0.048073854,-0.09154094,-0.019751322,0.078904346,-0.081387416,-0.012029183,-0.018730748,0.11180677,-0.028292293,0.07704549,-0.078620695,-0.06253137,-0.13392334,-0.07403218,-0.061332103,-0.073170654,0.04541809,-0.09059032,-0.012001126,-0.04071596,0.061636012,0.010165677,-0.11347006,0.14732811,0.0202838,-0.0009761826,0.022434285,0.05243355,0.079704486,0.09964366,0.03854991,-0.044180956,-0.09895967,-0.050353587,0.098658994,-0.0034973768,-0.07804558,-0.19616318,0.14029944,-0.035999306,-0.021244446,-0.045109753,0.05748183,-0.14605296,0.060163546,0.015566303,-0.09826574,0.16442227,-0.012718145,0.081488684,0.11312793,-0.09152247,0.12780076,-0.06731098,0.09739469,-0.051686134,0.098860495,-0.09131881,0.11908274,-0.097331114,-0.0026169356,0.0012397089,0.102789156,0.074928805,0.10561901,0.09114128,-0.085220926,-0.18514526,0.08939097,-0.030754454,-0.072503075,-0.14904694,0.0007823219,0.057302795,0.06346671,0.06925613,0.00030878937,-0.12256694,0.031217596,-0.009588401,0.03856992,0.10657125,0.032125156,-0.0033862402,-0.010414054,-0.07109771,-0.052177086,-0.037080735,0.03328234,0.14215295,-0.15232879,0.07588927,0.016719509,0.07054506,0.07516584,-0.06886914,-0.046343926,-0.020789793,-0.024831234,0.063698635,0.090160504,-0.0026387158,-0.12529996,0.057484526,-0.020745985,0.032888785,0.13055615,-0.043563724,-0.030325238,0.022104772,0.01685047,-0.097180285,-0.08415273,-0.01451599,0.059063748,-0.024671897,-0.03440192,-0.13158913,-0.13722022,0.019261835,-0.088761374,0.10817789,0.080839016,-0.1706882}, {0.0013824431,-0.026273513,0.048260733,0.023075962,0.039212663,0.09784928,0.05713262,0.0148845855,0.008922631,0.007386171,0.07363965,-0.070821434,-0.13020352,0.0055320887,0.07159601,-0.018536195,-0.02332937,-0.017708095,-0.022255179,0.109351285,0.07226866,-0.040129256,0.015538176,0.029010028,-0.08822051,-0.005340483,-0.020440152,0.119579375,-0.04389528,-0.011892146,-0.06598592,-0.005067721,0.104205444,0.03910943,0.078984864,-0.024296788,0.07950084,-0.010252155,0.116220556,-0.034406982,-0.09914089,0.021996632,-0.042121723,-0.054207798,0.034806795,-0.022380605,-0.12132332,0.04791501,-0.074524954,0.118222296,0.061676674,0.035273753,0.092093095,0.015530485,0.08588212,-0.022595758,0.061525065,0.058637857,-0.052159198,-0.025160884,0.06274161,0.101276934,0.01279124,-0.034115747,-0.028150484,0.013985312,0.010004282,0.030134425,0.010403129,-0.07181331,0.18916462,0.06440884,-0.014796004,-0.11701657,-0.0928845,-0.00845669,-0.05208085,0.034800693,-0.014562216,0.08525682,-0.14894523,0.049237527,0.037305936,-0.02913854,0.12699664,0.06246353,0.082961395,-0.09463046,0.028454177,-0.03994681,-0.13062663,0.0710821,-0.036473762,-0.016242644,-0.14586298,-0.06789824,0.01939292,0.088694245,-0.0020822096,-0.019070508,-0.043165196,0.078651704,-0.08588114,0.03882479,0.081416965,0.008478872,-0.0926866,0.05789453,-0.14051671,0.054674666,0.00030670682,0.0047607385,0.006816621,0.0083450265,-0.11018893,0.12646724,0.04898746,-0.006909325,-0.07037611,-0.08309939,0.01435346,0.12923907,0.038254563,0.07751162,0.0386136,0.07972416,0.013522131,0.035737943}, {0.07904221,-0.09740223,-0.0663161,-0.03123823,-0.053280044,-0.0750212,-0.011679048,-0.055680614,-0.11841688,0.048834294,-0.050958198,-0.058496594,-0.03728312,-0.040859852,-0.054998886,-0.10242083,-0.15803172,0.017582532,-0.004994898,0.027192226,-0.022957811,-0.026442189,-0.09342582,-0.20704085,-0.06566039,0.14383648,-0.056310803,-0.0007253996,-0.027945863,-0.057716414,-0.005770646,0.03215822,-0.13464108,0.08562743,-0.07027934,0.009441003,-0.18189967,0.047884103,-0.11590792,-0.0952111,-0.06374933,0.0067477976,0.0026168416,0.011315837,-0.016505336,-0.029299965,-0.079325974,0.04724516,-0.05518374,-0.062940665,-0.0283577,-0.121272355,0.04076044,-0.033262435,0.035619203,0.04524653,-0.027138103,-0.052310817,0.048214436,-0.058818128,0.012991524,0.0036844655,0.01874346,0.010876456,-0.06306466,-0.018992374,0.041122608,-0.0055871587,-0.07105865,-0.08598018,-0.035719175,-0.03971382,-0.00093190337,-0.012705655,-0.045560535,-0.02860781,-0.08167609,-0.083301544,0.026117755,0.0488578,0.11377356,0.026399085,-0.0427054,0.07565164,0.073040396,0.017005898,0.025366312,-0.021061104,0.11929828,-0.027868036,0.067046955,0.0381402,0.0007198984,-0.011711314,-0.034045216,0.02147917,-0.10452451,-0.052425757,0.025525944,-0.0063824374,-0.057246532,-0.015481287,-0.08073704,0.14125612,-0.024120009,-0.037728697,0.20118842,-0.12473975,-0.008790699,-0.020329304,-0.1178263,0.024564909,-0.021650022,0.0784771,-0.008753631,-0.064695,0.030601712,0.0005653545,0.014227438,-0.029899746,-0.10046273,-0.15305361,-0.051451523,0.04540445,-0.05073064,0.1398694,-0.00016285322,-0.066546485}, {-0.023597743,0.11236522,0.21182798,0.028695533,-0.06976025,0.103414856,0.0058740205,-0.025223974,-0.02241176,0.013616265,-0.04205061,-0.14392358,0.12489705,-0.030634461,-0.046564724,-0.13361096,-0.011694618,0.05765971,0.14914213,-0.024527404,0.15169407,0.06742345,-0.046786085,0.12839477,0.24021134,-0.032595303,0.076777,0.030929815,-0.15692233,0.037617933,-0.07806646,-0.10440785,0.02779987,-0.09028181,-0.0061477385,-0.035378296,-0.032201488,0.004692727,-0.080684,-0.005739744,-0.047071103,0.0016792741,-0.07220036,0.047017723,-0.06521227,0.042925816,0.03743691,0.018276004,-0.013860111,0.058163874,0.08524659,0.08504754,0.06519129,0.0805735,0.0074939644,0.05994167,0.061301365,0.097124785,0.08234667,0.053835843,0.09277602,0.07510226,0.051397968,-0.050296262,0.13796832,0.047037844,-0.037073806,-0.12427014,0.031653665,-0.0267997,0.20478067,0.028166179,0.101634994,-0.07416794,0.122988366,0.057235956,0.16051045,0.0838206,-0.06277128,-0.018241825,0.13820153,-0.06481172,-0.025901055,0.021348076,0.081129804,0.008860192,0.120555,0.045354504,-0.046333563,-0.04816681,0.005313234,0.16248025,0.07630346,0.020060616,0.10558576,-0.01662954,-0.048134394,0.0750554,0.0004126812,0.08345624,-0.115353204,-0.044212393,-0.09276085,0.034130275,-0.0466212,0.08867274,-0.03406014,0.05689385,-0.06520681,0.10990723,0.07751651,0.071362585,0.11980147,0.006872759,0.014120914,0.018152561,0.029750489,0.023785518,-0.006468801,0.04408648,-0.010042209,0.06020558,-0.018222883,0.12900199,-0.17121588,0.058598246,0.06689922,-0.04833891}, {-0.0383747,-0.047414776,-0.11150978,-0.05127426,0.034848597,-0.05227001,0.19887185,-0.1031624,-0.13869141,0.008342562,0.054271787,0.09371406,-0.036587644,0.024504328,-0.038735114,0.045409337,-0.008128499,-0.047205284,-0.12762423,0.03867307,-0.029268485,-0.10774158,0.12877093,-0.07371743,0.07935669,0.027629662,0.0902715,0.14183348,-0.05504919,0.015392354,0.0099432,0.001353923,-0.04209844,-0.067071296,0.21914102,-0.090875894,-0.0058259,0.10475851,0.21040727,-0.014683992,0.022698447,-0.02473368,0.02958829,-0.08888734,-0.13488501,-0.047611266,-0.067592405,0.14770415,0.029843092,0.004714156,-0.015842821,0.07938487,0.02097521,0.051123537,0.06566844,0.09925761,0.015415884,0.045139138,-0.06296977,-0.01576102,0.11257253,-0.0058368896,0.03939385,-0.073251076,0.042716723,0.003974002,-0.1341009,-0.073214784,-0.11648261,-0.14584337,0.19094375,0.012541141,0.015158852,0.06704029,-0.07507521,0.06675494,-0.014304125,0.005514426,-0.04046898,0.053717636,-0.074634254,0.055566214,-0.008143633,0.037069477,0.040128924,-0.005607366,0.07864309,-0.024257833,-0.10723829,0.050936308,-0.021535615,0.043278866,0.021954373,0.030305777,-0.020361407,-0.07998201,-0.020171888,-0.109388545,0.14574473,0.012505753,0.004197566,0.016197285,-0.024323497,0.080289446,0.1984103,-0.024963211,0.04127633,0.12762065,-0.07409702,-0.01724743,0.10183915,0.0038813245,0.027042981,0.011864492,-0.14358099,-0.06454938,0.081978105,-0.043759774,0.057819802,0.050124936,0.049626477,0.10194804,0.11782168,0.12813158,-0.018819107,0.16445996,0.0761157,0.05486602}, {0.09516479,0.026400577,0.05863668,0.010030751,0.0056829527,0.086855434,0.06499567,1.2024306e-05,-0.04316152,-0.033870555,0.03032154,0.027515221,0.060610045,0.03525503,0.072181985,-0.10890625,-0.09724289,-0.08559881,-0.0044225967,0.09509925,0.15113646,-0.0009799734,-0.05094137,0.14626507,0.0658095,-0.034274854,0.11452525,0.079175994,-0.030934766,0.03016845,-0.0038946166,0.1125392,0.19455309,-0.029310707,0.007286972,-0.072166346,0.030059094,-0.018570367,0.07953275,0.009045984,-0.022186879,-0.10307123,0.010044498,0.083569266,-0.08064455,0.010329051,-0.0029767295,0.0030652108,0.05575022,0.039821457,0.11701169,0.13787295,0.0138034625,0.10768546,0.05995235,0.07342222,0.014185997,0.003823671,0.19468285,0.04529614,0.12249173,0.06950323,0.12258915,-0.003364,-0.11630851,0.03942949,0.040752,0.024402492,0.064796425,-0.036811266,0.09960169,-0.04423547,0.045232605,-0.13336802,0.09563845,0.22456628,-0.017439261,0.1485131,-0.05261385,0.00056163734,0.061275445,-0.09163358,0.09207675,-0.0017718088,-0.02069144,0.046851054,0.05284539,0.06503561,0.011196989,-0.047436625,-0.035465762,0.13669501,0.093401775,-0.074576154,-0.011318672,-0.11814637,0.04417345,0.10193697,-0.07697868,0.05581301,0.032108743,-0.05689592,-0.057391357,0.0379851,0.079913884,-0.04342117,0.0038638045,0.0032118405,-0.090498865,-0.0026805385,0.108793564,0.10250893,-0.02467136,-0.046772987,-0.043360118,-0.006951091,0.120389596,0.12334125,0.0849034,-0.04276192,-0.0036252667,0.045677327,0.063415274,0.1040996,-0.098860025,-0.058833774,-0.023009049,-0.095331594}, {-0.05494469,-0.018303981,0.041249868,0.088008225,-0.041387208,-0.05327207,-0.014268847,-0.06462285,0.020529533,0.08140305,0.08532389,0.11998557,-0.12000862,-0.027875323,-0.12624152,0.057758555,-0.10044601,0.03551588,-0.10180837,-0.04820462,0.12413183,0.021662286,-0.008465725,-0.039727133,0.009649997,0.09357582,0.040005844,0.10219583,-0.08992835,0.045384806,-0.07986462,-0.049576625,-0.027902726,0.06368023,-0.07083938,0.1007251,0.07368926,0.010242805,-0.0053721517,0.05455002,0.03771894,0.007003633,-0.13965377,0.060928054,-0.037570175,0.028791443,0.045056753,-0.051982213,-0.0012610885,0.025717217,0.00014390587,0.031126752,-0.08760062,-0.05404001,0.0067192656,0.05720927,0.11602078,0.117020935,0.014548598,-0.11901563,0.0072333096,0.05661968,-0.087576635,0.009698922,-0.011192771,-0.013019707,0.013332047,0.05583158,0.08578365,0.032887198,0.025814703,0.03666014,-0.018875467,0.06759143,-0.035660077,-0.048439026,0.03583774,-0.11005933,0.031702347,0.09734568,-0.0043039373,-0.0018694954,0.050659977,-0.057940893,0.065940164,-0.070117146,0.063833594,0.021614695,0.10302442,0.036473103,0.105276436,-0.07625002,0.01949486,-0.059196476,-0.13405539,0.0200404,-0.03336851,0.049930744,0.06373827,-0.034476373,-0.1147987,0.09392695,0.08721688,0.025655838,-0.0020306981,0.022684414,-0.114079416,0.09066319,-0.06432445,-0.014300178,0.022142367,-0.06309792,0.16472468,-0.0022805096,-0.10850505,0.014408737,-0.021625837,-0.045799386,-0.014500469,0.110578805,0.07555975,-0.02135382,0.026200704,-0.02310391,-0.18452035,0.17373148,0.13940461,0.10260827}, {-0.11967193,-0.08026801,-0.056290865,0.008865565,0.061046407,0.024255702,0.013057764,0.06380894,0.10309876,0.035540186,-0.08389495,0.023568861,-0.17395356,-0.037436653,0.023350969,0.0004352481,-0.1877147,-0.024780348,0.047583982,-0.019829962,0.027694669,-0.10405233,0.0067630466,-0.15108377,0.03519171,0.025485361,0.0510457,-0.042570326,0.002818448,0.016336564,0.061532546,-0.0245745,-0.046993896,0.04890919,0.037419874,-0.03270473,-0.018257173,-0.056881838,0.032843295,-0.015613499,0.09368974,-0.015518115,-0.077731825,-0.1478128,0.036994886,-0.04420993,-0.04780691,0.114443436,0.0025221691,-0.06479061,-0.052617755,-0.15702394,-0.07624252,-0.051432088,0.06453093,-0.06509009,-0.11399944,0.07297811,-0.035746172,0.0321791,0.0025835708,0.09975696,0.005058365,-0.10328913,-0.033696868,0.10099517,-0.08894816,-0.062007993,-0.046557724,0.047651257,-0.028142601,0.045741133,0.0076536136,0.03872399,-0.05487034,-0.06525936,-0.042393163,-0.24219792,0.025152028,0.04662853,-0.10533437,0.19125769,-0.14349729,0.005964984,0.067656495,-0.09808138,0.10090881,-0.007492985,-0.07140249,-0.061817825,-0.02163292,-0.027624214,-0.05700184,-0.07032166,0.0133040035,0.0045407843,-0.04936238,-0.08605316,0.1710362,9.3939714e-05,-0.059584044,-0.045099087,-0.051317826,-0.05600556,-0.054954868,-0.067258164,-0.14039224,0.20853873,-0.08115353,-0.055472657,0.024472456,-0.15081297,-0.07573472,0.010986741,0.005284768,0.04549469,0.022492625,-0.14238018,-0.16473514,-0.017367212,0.0126289455,-0.052590318,0.0011035054,-0.0513117,-0.08022956,0.1005464,0.20980966,0.028233258}, {-0.0026502688,-0.016797842,-0.103744596,-0.03148035,0.16606319,-0.05821497,-0.08440727,-0.022495313,0.08304386,0.017958624,0.12101409,0.060279083,-0.0610611,-0.066746615,-0.023727853,0.09780638,-0.171272,0.040077403,-0.07359831,-0.06710666,-0.055575874,0.0018098562,0.0685362,-0.05803559,0.022554187,0.06355515,-0.15530784,-0.10315288,-0.0048414893,0.17888223,0.011855826,0.03573526,-0.0022927593,-0.18823324,-0.006121626,-0.09685616,-0.008991648,0.05632446,-0.078613356,0.047200788,0.08734204,-0.05467129,0.0042405915,-0.14199659,0.059237443,-0.022735123,0.020136163,0.033143632,-0.06866697,-0.05604511,-0.018776456,-0.10976153,-0.033808634,0.049804896,0.12060602,0.11200257,0.06791067,0.107617304,0.06711634,-0.06274934,-0.0943154,0.03387061,0.0015465736,0.071347736,0.13277663,0.15097208,0.08142337,-0.049231075,-0.08410588,-0.0136024505,0.14280741,0.010076933,0.101885416,-0.03554594,-0.09455976,0.030421622,0.09645017,0.061451886,-0.08692593,0.10809361,0.14656188,0.09538232,0.04070018,-0.044182684,0.01716695,-0.13514498,-0.0030219313,0.021324806,-0.14640546,0.08572893,0.04642151,0.0023557954,-0.084809676,0.013683795,0.0036115663,-0.05508783,0.039736953,0.0056248694,0.08148267,0.013454146,-0.009168078,-0.06523621,0.06296025,0.101415865,-0.14227791,-0.12984483,-0.07222599,-0.024467003,-0.072146446,0.014749217,-0.005937635,-0.033457626,0.011995094,-0.033138383,-0.08166531,-0.029277302,0.114414096,0.05243322,-0.04405298,-0.041393444,0.07896715,0.15634936,0.048524458,0.09285652,-0.08543477,-0.01582019,0.11750598,0.14898248}, {0.11930358,0.12411411,0.0775568,0.100810915,-0.07145435,-0.013826376,0.0015863271,-0.041407373,-0.008751298,-0.10566279,-0.043700583,-0.03087954,0.031131627,-0.0040478874,-0.051457655,-0.022215711,-0.08505291,-0.09301078,0.16077465,-0.022958426,0.18911137,0.04794508,0.011256824,0.052283905,0.068964556,0.09946961,-0.11530982,0.025159443,-0.04076383,-0.053385273,0.0063684853,0.09173537,-0.03839982,0.08040788,-0.12226904,-0.08520371,-0.052970827,0.0036192276,0.03767314,-0.043079432,0.009799217,-0.06200795,-0.087623976,0.03067647,0.059749838,0.025380295,-0.06118593,0.00037336192,0.060951047,0.15588133,0.019585477,0.05552345,-0.17535943,0.0018203601,-0.0047848905,-0.016841594,0.06326893,0.10598379,0.020297723,0.034655023,0.10534604,0.07536241,0.07421446,-0.014295787,-0.010117358,-0.028948361,0.0017908316,0.03351139,0.19184963,0.08744989,-0.07152497,0.025933564,0.07467884,0.0684827,-0.06477439,-0.021697992,0.04569427,-0.092600316,0.0016597125,0.20262273,-0.0078879185,0.00896341,0.08794524,0.023760794,0.022658424,-0.066451296,0.053960864,0.084246136,0.13144058,-0.014625826,-0.10031126,0.06011315,-0.12861584,0.037906613,-0.0704453,-0.007113655,-0.03590159,0.09805015,-0.019086745,0.14486419,0.031614333,-0.00045078908,0.05958953,0.117135786,-0.11017875,0.100885876,-0.028152851,0.079276696,0.010189087,-0.015740821,0.084925696,0.06576423,0.08298542,0.02800309,0.024803843,-0.035421,-0.0013576304,0.008059232,0.06615168,-0.013230789,0.041537926,0.014513399,0.043573916,0.06957043,-0.11335959,0.08825105,0.063664794,-0.07823721}, {0.06635551,0.113274164,0.03704497,-0.08168107,0.03023442,-0.004357931,0.061979435,-0.046119012,-0.13658473,-0.09496284,-0.11231188,-0.12812874,-0.0036151835,0.100499764,0.0060106292,-0.06041226,-0.04975661,-0.044018116,-0.0035760175,-0.0074707083,0.058660686,-0.008148278,-0.037797168,-0.0138670765,-0.031975403,0.0034991591,-0.043901667,0.12203256,0.019786,0.007852529,0.05923435,-0.09886906,0.041639835,-0.017223304,-0.048240993,-0.07169156,-0.032804884,-0.10485298,0.17393655,0.03793,-0.09788791,0.09491961,0.044624466,0.10229182,-0.01927425,-0.0010995602,-0.07550449,0.039012045,0.059016947,-0.018292483,0.026850602,-0.05832763,0.060651235,-0.069934584,-0.028780544,0.048653092,-0.05145288,-0.14144957,0.0702135,-0.108671814,0.12958354,0.017050037,0.16734932,0.015529231,-0.05645202,-0.06147484,-0.03638675,0.018075824,-0.039160863,0.044030715,0.022901012,0.033139434,-0.06729343,-0.023727642,0.10386489,0.054527055,-0.04508174,-0.024672737,0.0112705305,-0.061615925,-0.027972313,-0.12403541,-0.10103799,-0.0057570813,0.00056619896,0.1545763,0.08055491,-0.031173384,-0.050577033,-0.009682747,0.03314887,0.10107665,0.025848579,0.047080483,0.02637562,0.016029006,-0.0016518787,-0.10916676,0.06284277,-0.10206594,-0.021080522,0.017457396,-0.06780289,0.056002203,0.09347828,-0.07132685,-0.05125476,-0.09017485,-0.08614117,0.08638456,-0.069869384,8.6381915e-05,-0.050582897,-0.009501808,-0.09583939,0.038204174,-0.0049150637,-0.046069093,0.034464873,0.03526645,-0.031529624,-0.24367616,0.020369252,0.10709498,0.0051584877,0.07449392,-0.031435438,-0.002797322}, {0.03097451,0.11425197,-0.0605641,-0.08164989,-0.09703264,0.10369495,-0.027885407,0.017644577,0.047719546,-0.017481504,0.021101497,0.022029692,-0.09042732,0.0681782,0.009860354,0.049491283,0.073324315,0.030597549,-0.039357,-0.029706588,-0.01188452,0.037916694,0.06668097,0.0690718,0.00075024203,-0.015817866,0.07695706,-0.04599139,-0.05923693,-0.027539223,-0.0020969678,0.00818403,-0.04308204,-0.051454064,-0.028559871,-0.069278255,-0.027376603,0.025678748,0.07222799,0.07758534,-0.08753146,-0.028782226,0.056175668,-0.041718982,0.049471363,-0.07873345,0.09786936,-0.08340414,0.044497088,0.09149641,0.0090657445,0.06270415,0.08193051,-0.037142254,-0.01624783,-0.07502758,-0.013327339,0.03458421,0.10702436,0.018912695,0.0153669445,0.008845052,0.012294406,0.045690708,-0.14030272,0.096043155,-0.052604344,-0.020157779,0.0064666937,0.08285681,0.093281105,0.030059202,-0.11458595,-0.04533203,0.025677642,0.10639985,0.043297127,0.14318268,-0.017901583,-0.0024874923,-0.106776156,-0.07663244,0.0028585258,-0.029198699,0.09940919,-0.0062257973,-0.12152463,0.014080862,-0.016786434,0.03412307,0.06356904,0.0065883812,-0.06972735,-0.042604525,0.045820225,-0.04861829,-0.00014968001,0.038800817,-0.014850074,-0.026530065,0.0071354737,-0.039673142,-0.032959275,-0.04472173,0.10185421,0.032534763,0.08351139,0.012254814,0.0793423,0.13296442,0.035495885,0.09571391,0.042853896,0.04665112,-0.00069151376,-0.11023076,-0.026221555,0.06607915,0.007832212,-0.053255994,-0.07343363,-0.022731917,0.014230711,-0.09883555,0.0034060846,-0.07217511,-0.0018351066,-0.017679112}, {-0.02247898,0.07874383,-0.23759767,-0.043633007,0.016029146,-0.008895817,-0.102582924,-0.034611635,0.045541056,-0.061203655,0.0045574973,-0.04015736,-0.19525015,0.043768384,-0.102323934,0.06395793,-0.14070399,0.04554896,-0.085603625,0.06188244,-0.0626592,-0.032430243,0.07338001,0.02304382,-0.036427706,0.10942036,0.11426917,0.08476499,-0.026771508,0.027710486,0.058514,0.20976898,-0.02165386,-0.010903311,0.11695966,-0.100087754,-0.042112265,0.16406173,0.06261043,0.029558145,0.010495025,-0.060657233,-0.0756889,-0.07168117,-0.047411088,0.102024786,-0.105678424,0.045003142,0.050410118,0.024869017,0.0918373,0.06016209,-0.18221107,-0.0579654,0.13837852,0.20177014,-0.057880275,-0.0333222,0.022609334,0.030052625,0.06105652,0.10041656,0.09105369,-0.07185382,-0.05164347,0.034145102,-0.015352628,0.03379166,-0.014853258,-0.008601183,0.18263522,0.05379637,0.036208052,0.11805827,-0.07765407,0.0057755215,-0.05936306,-0.14604945,-0.0014726932,0.11939826,0.0021144056,-0.013320623,-0.04215837,-0.09631941,0.043900326,-0.046512388,0.15810783,0.10286118,-0.052357666,0.028282616,-0.08847869,0.0023303346,-0.026573505,0.013924982,-0.061454747,-0.14344476,-0.0077875424,0.028142283,-0.028970562,-0.064792596,-0.05058694,0.030499075,-0.063576676,-0.042763326,-0.116725944,-0.119817525,-0.18447934,0.02795364,-0.0063019767,0.08337617,0.07691587,0.075929545,0.02135431,-0.0074816537,-0.06207451,0.083041005,-0.056326464,-0.09378608,-0.09726201,0.061272655,0.107612655,0.10416714,0.17251901,-0.006969883,-0.08144378,0.014318814,0.06345012,0.15720408}, {-0.03893875,0.015975902,-0.068292744,0.011599512,-0.020175306,-0.02150905,0.01410229,0.03293313,-0.022946063,-0.055565197,0.01353538,0.067042105,-0.10474567,-0.009027395,-0.06181201,0.036091782,-0.083980456,-0.07743524,-0.039925694,-0.00043754443,0.04993746,-0.027431875,0.06574713,-0.050912615,-0.21298786,-0.015200724,-0.019971708,0.06995612,0.017138455,-0.12703212,-0.049050394,-0.06856631,-0.101310246,0.18836519,-0.016301028,-0.055059593,-0.03573324,0.015740417,-0.011869179,-0.011386217,-0.08085877,-0.04349478,-0.012715848,-0.05079164,-0.019231368,0.006153301,-0.011180323,0.023161707,0.007401922,-0.00043348817,-0.13396518,-0.046292167,-0.050093275,-0.0071308585,0.029041847,-0.057372626,0.043492954,-0.07058206,0.08600845,-0.11695221,0.008691997,-0.024400502,0.033065327,-0.09925394,-0.059353553,-0.035025675,-0.004464117,0.0008973426,0.17562214,-0.03355382,-0.15114924,-0.09884964,0.0058830744,-0.024621997,-0.15021788,-0.13178101,-0.01170276,-0.03576062,0.10168905,0.079839684,-0.100040205,0.04960071,0.00018841401,-0.09053783,-0.028378963,-0.0095809065,-0.06430761,-0.062284898,0.035195913,-0.061139554,-0.047019623,-0.02756585,-0.060603853,0.00063829316,-0.07171883,0.041018438,-0.027911145,-0.10434632,0.037132584,-0.011617266,0.019653248,0.12029763,-0.013321536,-0.01711548,-0.10718727,-0.0059009255,-0.07177242,0.06399098,-0.046930473,0.004142265,0.0033031204,-0.1593205,0.073270924,0.05495429,-0.04965413,0.07586804,-0.044102848,-0.051199153,0.051909138,-0.053028736,-0.10417781,-0.112921886,-0.09134042,0.028366175,-0.04333297,0.031521615,0.13900815,-0.09875265}, {-0.019719642,-0.053979665,-0.004821974,-0.13559023,-0.09744379,0.08635913,0.0050237994,0.052570064,0.0034268885,-0.06103192,-0.025727926,-0.0465798,0.059503384,0.101086415,0.11190532,0.106179856,0.17985854,0.1182381,-0.09566654,-0.0950658,-0.035798375,-0.034262247,0.09644098,-0.040170856,0.047224946,-0.0033852067,0.16894539,-0.020409731,-0.010693621,-0.0023090416,0.006101492,-0.061552,-0.06980562,-0.06573384,-0.12383688,-0.009066444,0.04132589,0.03116176,0.09614921,0.022509689,0.08630547,0.19239743,0.100426845,-0.004859631,-0.08786719,-0.0069757737,-0.006220317,-0.07187058,0.03337843,0.04084324,0.0012409728,-0.050012734,0.18386173,-0.08459985,0.010132372,-0.030654721,0.06827418,-0.015119047,-0.025687464,-0.012697545,-0.015829312,-0.11596298,-0.0686422,0.098768756,-0.0008086963,-0.08245586,0.00432976,-0.024264075,-0.07784964,-0.080378525,0.123351336,-0.063950315,-0.107944556,0.011953724,-0.0074852975,0.2884918,0.060491778,0.09879922,-0.010629181,-0.10178116,-0.026625574,-0.048047706,0.030362567,0.18524964,-0.028774373,0.08477457,-0.0010168116,-0.116876334,-0.0076475176,0.016360851,-0.101179175,0.113105394,0.02135036,-0.0126187615,0.001927893,0.004306302,0.008894096,0.06081441,0.0039360663,-0.06747119,0.044332765,0.007098554,-0.006071674,-0.08754601,0.26578784,0.16021623,0.12397236,-0.19328478,0.09394521,-0.0023787708,-0.09203931,0.084695935,-0.04532302,0.049106803,-0.07774014,-0.076380774,-0.040512536,-0.005841603,-0.039917365,0.1092846,0.03279473,0.010897103,0.000545286,0.10279495,0.021157227,-0.0126989465,-0.1303142,0.02845862}, {-0.07978523,0.08687445,0.0034536272,0.012536545,0.09579183,0.09537819,0.03097642,-0.002113755,0.12535068,0.073058784,0.10507201,0.14320807,0.2182693,0.10214205,-0.030413283,-0.03739992,0.1622644,0.06885181,-0.049652528,0.19773826,0.123803616,0.022443298,-0.047430567,0.1326886,0.13505907,0.22054432,0.051648445,0.079906866,-0.01942964,-0.022497289,0.07646441,0.0009158633,-0.08625151,0.121229425,0.09569589,0.05003526,0.041984167,0.23916902,0.12435617,0.08876541,0.13959412,0.17828505,0.046729654,0.17887299,-0.06983068,0.08950081,0.10160751,0.058211163,0.053925946,-0.05440872,0.09490715,-0.048479572,0.13360251,0.054452118,0.078270786,0.086875655,0.104847394,0.18655533,0.012233239,0.08383782,0.115983054,-0.014856554,0.095076896,0.1664661,0.11193199,-0.048276026,0.0125040095,-0.035696097,0.08344753,-0.10879691,0.112803094,0.026125178,0.1605416,0.07225687,0.10016265,0.032877143,-0.016428512,0.039976757,-0.037129212,-0.02199189,0.043420125,0.007984918,0.011442217,-0.03308167,0.066555806,0.14724761,0.028162753,0.11527535,0.12609686,0.026852503,0.12135361,0.14024724,-0.014225372,0.12190956,-0.025375115,0.033848964,0.12141303,-0.03605807,-0.01675692,-0.0025817088,0.09665692,0.08640275,0.148811,0.092630714,0.066871546,0.14700335,0.02295801,0.021461407,0.011258556,0.025969222,0.027671617,0.009812256,0.059592348,-0.09603425,0.03963946,0.108687505,0.09753244,0.08964903,-0.056623485,0.0486117,0.021680972,0.028119871,-0.05260295,0.14788027,0.017485684,-0.04169201,0.09113853,0.03207541}, {0.0073233405,-0.104043216,-0.034042507,-0.114843816,-0.05945345,0.113689855,-0.03581404,0.069593556,0.10482299,0.083537,-0.05087166,0.10490857,-0.15170285,0.09510035,0.05869653,0.04458798,0.028669039,0.034859892,0.09612656,-0.029356215,0.074554384,-0.03629949,-0.0143214185,0.029786376,0.076296896,0.07659858,-0.07633836,-0.101807445,0.011534335,-0.031806916,0.018300813,0.029610388,0.10267047,-0.09274515,0.083996035,0.023958297,0.037024442,-0.031778466,-0.036134124,0.031256273,0.036568943,-0.070893005,-0.013030523,-0.021543741,-0.00013729208,0.053519364,-0.004219519,0.048693735,0.09923358,-0.052672822,-0.053942073,0.13100532,-0.047144733,0.07558244,0.0829164,-0.029596264,0.0885567,0.11437581,-0.09148166,0.1732957,-0.051149998,0.064315565,-0.13725741,-0.03083967,0.002815846,-0.07977793,-0.006496563,-0.06310985,0.019878842,0.08350131,0.021306006,0.026292335,-0.15479444,0.06318874,-0.08880975,-0.091626294,0.05849553,-0.00766518,0.0209531,0.04193913,0.01005213,0.10525067,0.023672218,0.04544679,0.11787381,0.038705423,-0.0065661087,0.10937961,-0.11047247,0.19821368,0.044482656,-0.025944848,-0.039013207,0.04622022,0.039893076,-0.053353235,0.14892358,0.06471722,0.0070227096,-0.048964273,0.10300576,-0.05307335,0.13093731,0.0011806439,0.096436314,-0.020694116,0.032018617,-0.02651224,-0.08412607,0.12177976,0.099086426,-0.060967192,-0.2299093,0.035149135,-0.0004960069,-0.119604126,0.041752987,0.08760698,-0.13170597,-0.031392403,0.062533535,0.11069037,0.088969365,0.016142912,0.092192866,0.07145408,0.048616026,-0.029634343}, {0.054974433,0.013249912,0.06808121,-0.045496576,-0.030868223,0.06832881,-0.033401877,0.023073426,-0.06229928,-0.078056365,-0.09328078,-0.015136318,-0.046733532,-0.13687094,0.073910885,0.006302986,-0.1105969,0.05558917,0.14134818,0.019440966,0.006432534,-0.04096957,-0.0028472045,-0.05033968,-0.15255451,-0.012721176,0.023786413,-0.06948659,0.0554934,0.009064611,0.037599225,0.059501667,0.0075004715,-0.032565847,-0.11649412,-0.021728115,-0.04760216,-0.03671662,-0.16282022,0.14345847,-0.03197853,-0.058484513,-0.07919651,0.06368638,0.109448336,0.14365317,-0.009067962,-0.058499385,0.12627603,0.06646524,0.18037835,-0.03461203,-0.2134494,0.023375103,0.047367193,-0.0064584822,-0.10546443,0.17757586,0.030975176,0.1320473,0.09788542,-0.00021019345,0.09919149,0.03987208,-0.030070186,-0.11897548,0.042519122,0.035522178,-0.048731204,0.043389264,-0.034807887,0.06337788,-0.024803681,0.074913636,-0.021826215,-0.0076465765,-0.043332215,0.0902966,-0.05947528,-0.0040349327,0.06350401,0.046116885,-0.014933552,0.12553091,-0.009601686,0.0055937455,0.22026668,0.001261421,0.016780969,0.032161195,-0.12389073,-0.042236514,0.14183001,-0.03671104,0.0667254,0.05865231,-0.00042107733,0.10999982,-0.033808574,0.08403792,0.03183437,-0.093392916,0.02208361,0.06550399,-0.031527616,-0.12334197,-0.073271476,0.08004916,-0.019561762,0.0488101,0.083882086,0.03345712,-0.036939677,0.08604622,0.06166996,0.03905944,0.068372086,0.00081125303,0.056641135,0.005585065,0.07799181,0.0513157,0.109215215,-0.029654987,-0.12837389,0.06519789,-0.020958899,-0.08016434}, {0.011775568,-0.01745132,0.01883672,0.057440512,-0.035805974,-0.060271237,-0.04742645,-0.012428152,0.06226958,-0.035555422,0.04825713,0.05771206,-0.16405153,-0.008204571,-0.06268442,0.19761455,0.0871927,0.08611228,0.111692205,-0.06267733,-0.17736217,-0.05648527,-0.023048554,-0.0019289335,-0.059956063,0.017042832,-0.1078304,0.06130967,-0.01924451,0.031556938,-0.10560089,0.05541524,-0.005672626,-0.07277291,0.051148333,0.10732563,0.08436071,0.027868548,0.0024875705,0.07618588,0.016744161,0.055153694,-0.054688204,-0.052544776,-0.01335547,0.102718785,-0.10975098,0.02969988,-0.016781982,-0.018893428,-0.053567793,0.07231332,0.056189593,-0.09409647,-0.031951018,0.07107969,0.10432793,-0.07686257,-0.1318937,0.013333382,0.060709037,0.03762986,-0.07757607,0.04617388,0.12450577,0.018167559,-0.054132678,-0.033622384,-0.053572986,0.049330797,0.13482152,-0.0028245975,-0.044636913,0.06727522,-0.06717486,-0.010489923,0.0645937,0.06379018,0.04063218,0.019356942,-0.009929698,0.07748819,0.036571357,0.12693317,-0.04907011,-0.13136159,0.010549725,0.08304678,-0.075837724,0.14317402,-0.103603475,0.017324744,-0.08880735,-0.054974098,-0.082888186,0.0034649784,0.0743107,0.11077527,-0.0670176,-0.08328383,0.0886982,-0.1099381,-0.03277568,0.047363766,0.089394264,-0.15021195,0.06592326,-0.05472232,0.021945322,-0.017173301,0.013366655,0.05268572,-0.0013058747,0.06678112,-0.0635912,-0.04813118,0.08742182,-0.008194826,-0.11067038,-0.03448214,0.08311827,0.06931665,0.035064727,0.031063449,0.017627195,-0.04110731,0.018277425,0.06568745}, {0.0031177136,-0.026975244,0.0546504,0.079440296,-0.014121129,-0.045187116,-0.18073699,-0.102688655,-0.033682495,-0.021567069,0.019154329,-0.025813945,-0.14491716,-0.25181124,0.05810766,0.06837789,0.033565685,-0.0055067022,0.024531933,-0.056092996,-0.09909472,-0.1398724,-0.082032464,-0.111797705,-0.1419124,-0.1768637,-0.08753231,-0.15483618,0.20568556,0.025627226,-0.030378282,-0.023447456,-0.0016504144,-0.1697603,0.071536094,0.052005813,0.12169611,-0.18990852,-0.11221313,0.0127526065,-0.04491231,0.0625167,-0.12620075,-0.07890295,0.019631473,-0.081858866,-0.19103293,0.05720356,0.003339028,-0.078945205,0.018617442,-0.112053014,-0.11334691,0.0040143696,-0.03744188,0.021877017,-0.041639507,-0.03266057,-0.025745621,0.00043935643,-0.1252614,-0.111487515,-0.047023855,-0.01729633,-0.15004133,0.007128674,-0.1259384,0.037974805,-0.024357874,0.04736165,-0.14446747,-0.05750133,-0.08662129,0.12789384,-0.052377082,-0.03804428,0.01513089,-0.05719641,-0.012012279,-0.23216023,-0.080892,0.009925313,-0.00749673,0.008068281,-0.12482054,-0.13043335,0.05048052,-0.006066472,0.07858264,0.021957379,-0.22813144,-0.07368635,-0.080056325,-0.024511095,0.019351572,-0.02913955,0.057372287,0.03516801,-0.09896114,-0.019092344,-0.041645583,-0.058168318,-0.06577196,0.06699498,-0.04681996,0.005783947,0.039296452,-0.048959192,0.09243559,-0.13033535,-0.11672969,0.005944565,-0.14594273,-0.0047613503,-0.050442852,-0.08766658,0.025767172,0.019001484,-0.0433197,0.011531313,0.076258615,-0.05809245,0.08964995,-0.111476995,-0.042611025,0.005370014,-0.084020495,0.11424341}, {-0.07510292,0.008145946,0.0030200616,0.022910465,-0.00376194,0.11067575,-0.14351097,0.09705218,0.050007522,-0.065215625,-0.16073135,-0.16963336,-0.0020065762,-0.25750104,-0.10509622,0.027614918,-0.07621834,-0.0570596,0.0631354,0.0327267,-0.06354714,-0.0033279755,-0.054652877,0.15591076,-0.12023682,-0.10181556,0.07871915,0.0039461763,0.040120073,-0.002206032,0.030404394,-0.01218563,0.01957488,-0.09768306,-0.11596732,-0.058250565,-0.009097935,-0.085624844,-0.005716668,0.005700537,-0.0743488,0.0754936,-0.031114183,0.09934577,0.017100846,0.029657705,0.04779877,-0.05368715,-0.061822828,0.10916607,0.102758095,-0.06111097,-0.02301367,0.011619211,-0.0258213,0.024854247,-0.089661226,-0.101175286,0.100575194,0.08424224,-0.11448841,0.03396701,0.09121173,-0.029640783,-0.08645584,-0.016093865,0.008897981,0.047993116,-0.08203327,-0.063063815,-0.047250804,0.0109857945,-0.042961616,-0.048191655,0.17224681,0.008620191,-0.10703253,-0.060804285,-0.018749215,0.013144235,-0.116629496,-0.1518046,-0.11035589,-0.049180537,-0.100754395,0.014137957,-0.025704738,-0.07880202,-0.054025523,0.07467482,0.025722358,-0.098600835,-0.0023148223,0.066436745,0.016594231,-0.0187137,-0.15115991,-0.010275976,-0.124348365,-0.0006620814,0.09036958,-0.036059387,-0.06879823,0.02466183,-0.016388651,-0.02111815,-0.017011182,-0.0012398169,0.04201629,-0.034853898,0.010198089,-0.019985728,-0.047789793,0.0051906966,-0.046056863,0.0758053,-0.09756579,-0.10015541,0.082400836,-0.027993472,-0.07336424,-0.0780638,-0.0037580377,-0.09569944,-0.08285358,-0.10607397,-0.15078434,-0.18706958}, {0.121090814,0.083700314,0.17195305,-0.09948308,-0.0032782278,0.100304894,0.061031085,0.030123847,0.05269619,0.1841181,0.02926555,-0.00044726278,0.10268134,0.0203289,0.027885249,-0.024247386,0.17090528,-0.020462949,0.013178724,-0.040409464,0.062398296,0.03156115,-0.017690301,0.12576151,-0.061040696,-0.008289196,0.12465714,0.06746015,0.042419888,0.013044798,-0.014628849,-0.056186046,0.031154076,0.09986496,0.015640672,0.102157734,0.035068642,-0.076405935,0.18044537,-0.09843255,-0.009822043,0.036775127,0.093952775,0.093098655,0.01288816,-0.06559474,0.1386365,-0.036489014,0.0290183,0.10894399,-0.07409766,-0.020704802,0.1879483,0.1316737,-0.04398639,-0.20055647,0.016146407,-0.057096157,0.02420813,0.04409502,0.09661133,-0.14279793,-0.04504317,0.06607505,0.015679818,0.008115176,0.07206174,0.030249886,0.025467083,0.09888146,0.046675403,-0.035882868,0.026370196,-0.087886825,0.07920354,0.0075358446,-0.006475785,0.068040885,0.06114566,-0.030793015,-0.011328855,-0.19485222,0.03610885,0.0356567,-0.08443899,0.03903567,-0.02010049,-0.0064044273,0.13870649,0.14131339,-0.0147332605,-0.023710163,0.087514654,0.03251064,-0.024111204,-0.029572386,0.021078696,0.09117432,-0.020483525,0.043041028,0.078991115,0.0031481974,0.056629438,0.0899366,0.12077868,0.17799395,0.07140508,-0.057765044,0.11786552,-0.029181262,0.023959413,0.12072984,0.018418256,-0.06859188,0.08076572,0.117275,0.034117274,0.1904754,0.07453199,0.013435068,-0.019753996,0.03062145,-0.07667464,0.06195709,0.111576214,-0.116219565,-0.1281151,-0.11554491}, {0.11010914,-0.042214774,-0.04542956,-0.10157636,0.10507497,0.03733626,-0.091746405,-0.00047283527,0.045799274,0.035980634,0.015944827,0.028986178,-0.036351115,-0.06794948,-0.07578592,-0.0030737007,-0.0030743016,-0.0019754723,-0.008159393,-0.16976692,-0.1798609,0.026558619,0.010218254,0.085971355,0.061734214,-0.14694357,-0.024576234,-0.039923176,0.015928024,-0.007261779,0.029471805,0.027578933,-0.10364058,-0.14853573,-0.19502835,-0.012959353,-0.17622639,0.021582058,-0.08877882,0.052267835,-0.06375005,-0.13708228,0.1612296,-0.051784556,0.025803737,0.031064974,-0.03832715,-0.17361209,-0.05238634,0.02406737,-0.10532047,-0.12552388,-0.12212819,0.19724911,0.11014133,-0.025046937,-0.010544016,-0.031472176,-0.024035439,0.002238403,0.050371967,-0.044741374,0.012294823,-0.029548056,-0.031329703,-0.08081523,0.032219958,0.07860957,-0.029054565,0.038166113,-0.07007422,-0.13348244,0.058295015,-0.083701484,0.16279663,0.03316407,0.10883808,0.12850496,0.02863179,-0.0042578424,0.06588671,-0.091096796,0.045355424,0.02849087,0.10525769,-0.100646876,0.0409109,-0.01356096,0.01677606,0.030362343,0.05015573,-0.03029341,0.06641732,-0.0138167,-0.0036196134,-0.10791209,-0.15741092,-0.09985357,-0.029080503,0.041772675,0.10966796,-0.040674545,-0.014188161,0.06195783,-0.11528822,-0.026574498,0.07847021,-0.055543788,0.0075225327,0.05647461,0.010868608,0.021657629,-0.013659772,-0.029583395,-0.087525114,-0.123456456,-0.021230776,0.06397692,0.005460408,-0.04512814,-0.05854498,-0.08130652,0.02926623,-0.05935612,0.052868403,-0.047207393,-0.06544194,-0.094221056}, {0.02344419,-0.060941678,-0.106049255,-0.043796692,0.07894267,0.006664403,0.039460547,0.0043703765,0.06887214,0.12299311,0.19355132,0.074590676,0.10257912,0.031230988,-0.09702376,0.09747477,0.081347406,0.02663369,-0.07599088,0.13537301,0.10528504,0.099460244,0.050725874,-0.032578714,0.06152941,0.15842442,0.06676401,0.017345693,0.09705693,0.06147204,-0.011639283,0.028142877,0.06910503,-0.0029325807,0.16844964,-0.016389687,-0.09325535,0.1486084,0.074288905,0.04804816,0.08868106,0.14458734,-0.07383214,-0.015893606,-0.11649174,0.027692651,-0.093122505,0.08473604,0.058919672,0.011554373,0.12546901,0.078350894,0.02869219,0.0037594372,0.05096874,-0.0012482422,0.13250011,0.27500233,-0.027726106,0.009883553,0.020162486,-0.02187306,-0.07200425,0.041483033,0.14292729,0.0492967,0.025293443,-0.017479537,0.04536645,0.083781786,0.14032793,0.047688276,0.14104207,0.21252108,-0.057819717,0.05445021,0.06811648,-0.056191094,-0.0869462,0.10627549,0.029411715,0.08572914,0.1376095,0.008016317,-0.018523764,0.02932195,0.024425162,0.04146343,-0.048177306,0.11760076,0.097555175,-0.02229131,-0.06313154,0.12845306,-0.031301275,0.0061435373,0.05865181,0.07151491,-0.040826276,-0.10042696,0.00091737555,-0.08718276,0.10366694,-0.07660943,0.14097281,0.0069105085,0.021161389,0.14747296,0.066958316,-0.029263284,-0.037862174,0.018455002,-0.007482768,0.08322441,0.07216348,0.07431337,0.12981717,0.090762846,-0.12691039,0.11544282,0.047297467,0.043964636,0.13634239,-0.023018122,0.03858487,-0.016955756,0.10973485,0.1028893}, {0.015630888,-0.01141127,-0.04212912,-0.10784239,-0.036021892,-0.07881498,-0.018434683,-0.12465681,-0.15396069,-0.077461384,0.03299958,0.15215127,-0.05763081,0.16502234,-0.124843314,0.011187005,-0.07594206,-0.020805208,0.039917365,0.05661499,0.117777675,-0.11638075,0.010675293,0.036647454,0.055801217,0.035060216,-0.1825333,-0.006421443,-0.20997296,-0.012003509,0.014921389,-0.112252265,-0.20948212,0.001525953,-0.039995283,-0.030557387,-0.10147204,0.09333873,-0.04548945,-0.07627923,-0.0907848,-0.11185066,0.041392464,0.015087472,-0.1329904,-0.023845628,0.038365882,-0.1453451,-0.08389323,-0.015672334,-0.11514922,-0.22329229,-0.14747031,-0.009461682,0.09615171,-0.127124,-0.019006182,-0.12487812,-0.018832812,-0.24329045,0.06725175,-0.090382494,0.101771355,0.011063943,0.2826256,-0.060895376,0.005745087,-0.19736898,0.0897603,0.11633263,-0.11321487,-0.079675615,0.082090065,-0.14471003,-0.0194464,-0.17338769,-0.03487502,0.009644425,0.105191804,0.018303756,-0.014382416,-0.050822314,0.06276488,-0.011393244,-0.024297468,-0.034933515,-0.08103212,0.012692379,-0.038283408,-0.050472517,-0.03453038,0.09213922,0.07277287,0.025665207,0.06957581,0.080568686,-0.18246457,-0.17502907,0.09758765,0.02506939,-0.052971,0.022668432,-0.04253469,0.014661967,-0.22708948,0.19081059,-0.07517274,-0.011448879,0.024355303,-0.0064578787,0.025636658,0.019031577,0.025862021,0.011315462,0.016093515,-0.106147684,-0.024207605,0.017121214,0.088775575,0.05525507,-0.061027974,0.00039263326,-0.10474868,0.018100359,-0.04016696,-0.009570135,0.15327233,-0.14206919}, {-0.071433134,-0.0008268304,-0.08723787,-0.06452413,0.0052866684,-0.031941995,0.043309268,-0.10136942,-0.028732926,0.1457199,-0.02367517,-0.021357799,0.067761205,-0.06253111,-0.051537987,-0.07308625,-0.098145746,-0.04119885,-0.085146755,0.10005131,-0.011272801,0.06773186,0.015989175,0.00087186194,0.10196017,-0.067227684,-0.10338117,-0.041753516,-0.039631356,-0.011043466,-0.03926113,-0.06344802,-0.106853165,0.06831312,0.020886218,0.00859195,0.044085134,0.080975294,-0.016008155,-0.021807663,-0.10339031,0.05595049,0.038533293,0.057884783,-0.031736664,-0.05723542,0.11893823,-0.040191185,-0.036968753,-0.10271751,-0.08714695,-0.06435934,0.047854695,-0.036318347,0.06558681,-0.05564476,0.012986642,-0.03971977,0.13009363,0.015552629,-0.017315663,0.00069676584,0.029245956,0.00911234,0.0037808307,-0.09427737,-0.028406909,0.045460586,0.023807881,-0.13097037,-0.056620583,0.033603255,0.016478747,-0.14008506,0.06217378,-0.13699502,-0.03838949,-0.04513058,-0.0128878765,0.0348971,-0.0151585955,-0.16341725,-0.024481915,-0.034540858,0.04135037,0.0039987117,-0.14660306,-0.05151595,-0.02944301,0.0033374266,0.03920701,-0.03202176,-0.12174307,0.103921816,-0.0710989,0.07484575,-0.03944575,-0.0022514334,0.07222373,-0.042089947,0.02586774,0.13266543,-0.050108332,0.01944907,-0.09410152,0.07204241,-0.009079976,0.06693952,0.04529875,0.06165224,-0.08068756,0.016892467,0.00759188,-0.0673168,-0.01153489,0.17517838,-0.045792416,0.07952176,-0.012305085,-0.0044664177,-0.26189235,0.009822905,0.046047594,-0.15072289,0.07238556,-0.10895234,0.058388293,-0.11916715}, {0.10401234,-0.0344288,0.043672554,0.06906378,-0.04797058,-0.054608636,0.19309813,0.023383358,0.084946945,0.04270591,-0.07904512,-0.06881307,0.002877781,-0.056215964,-0.011255094,-0.027770653,0.050372437,-0.020951265,0.13256755,0.030005371,-0.0016516782,-0.0076332726,0.027825903,-0.069078065,-0.0052706962,0.020350937,-0.0076349657,0.0529984,0.074691236,-0.061203398,-0.01686619,0.051287517,-0.09484183,0.08737549,0.0071486533,-0.12191922,-0.0013515938,-0.13030913,0.15224023,-0.0051440015,0.021970673,0.031797122,0.05029894,-0.048559714,-0.0002823767,-0.07275288,-0.02319236,0.03346367,-0.011316853,-0.02034204,-0.038123433,-0.04226035,0.09517934,-0.024519937,0.028282495,0.04988048,-0.03128991,-0.10661897,0.024710646,-0.08162394,-0.0023500365,0.041201297,0.19444871,0.09865491,-0.10398726,-0.035932545,0.03691438,0.0685235,0.06218329,-0.025593104,0.029495649,-0.023705024,-0.040669706,0.046148866,0.038202107,0.0757386,0.043991953,0.21639608,0.071898945,0.10285875,-0.04108721,0.008865916,-0.039661016,0.052526373,0.039479718,0.09084771,-0.026245717,-0.19880669,-0.010725541,-0.037313726,-0.11077035,0.032576833,0.036064208,0.20949672,0.0864361,0.05066364,-0.07373267,-0.026999388,0.013744008,-0.12430871,-0.057883944,-0.04429671,-0.017412746,0.11482738,0.08502819,-0.022599116,-0.09232232,-0.05273984,-0.06629079,-0.023764106,-0.10579248,-0.019328235,0.113559075,-0.0068030357,0.039723273,-0.043840196,-0.01732144,-0.02211313,0.14198354,0.01987325,-0.0980136,-0.044690747,-0.08294423,0.0016518563,-0.0028475276,0.06787489,-0.0539115,-0.110238716}, {0.08532943,-0.1432756,-0.170722,-0.012583139,0.016777363,-0.07267971,-0.07768702,-0.025644472,-0.032010816,-0.022147939,-0.011050415,0.09462245,-0.03773822,0.08848372,0.10371983,-0.08857257,-0.04492807,0.032000087,-0.07941779,-0.020276356,-0.051768206,-0.11472212,0.053923514,-0.10724202,0.04219938,0.0024429346,-0.118800126,0.029408168,-0.077013336,0.0026499822,-0.059131924,0.0024760456,-0.05677057,-0.04669713,0.10629027,0.016636688,-0.0151971225,0.005527052,0.08795255,0.029275002,-0.0743581,-0.08663057,0.12483074,-0.11761291,-0.055379312,-0.0020730891,-0.04584869,0.06573963,-0.08350515,0.086324535,-0.0811063,0.06719191,-0.010272516,0.017619086,-0.07811359,-0.045494337,0.013641933,0.048112992,-0.14910711,-0.10421139,-0.027605457,0.07090726,-0.019354632,0.086176075,-0.004521518,-0.032766894,-0.14819653,0.041376036,-0.11185779,-0.083704256,-0.068392634,-0.092431925,0.09376889,0.079877056,-0.065784514,-0.04087312,-0.11302872,-0.053315915,-0.14631377,0.03602995,0.019260539,0.034068193,-0.03226549,-0.11926227,-0.036851913,-0.041351616,-0.05851657,-0.19274163,-0.19082238,-0.038082987,-0.15502101,0.03671523,-0.063209854,-0.06431736,0.08551421,0.05047864,0.05732709,-0.0497106,0.0034712078,0.008938792,0.08314165,-0.070614204,-0.103686534,0.016539754,0.082558945,0.08761754,-0.10150451,-0.012014593,0.025699902,-0.044170484,-0.09362553,-0.1272668,-0.10324044,0.035546057,-0.04760374,-0.0840155,-0.0020610394,-0.10969697,-0.16773127,-0.015222439,-0.030958634,-0.056344666,-0.048341073,0.018662369,0.14579181,0.074649215,-0.062667064,0.044586435}, {0.052499518,-0.08953378,-0.0114708785,-0.14666654,0.018695498,-0.049211945,0.09944046,0.08020794,-0.003764872,0.046984103,-0.02892257,-0.03039912,0.1261405,0.22452083,0.06918432,-0.10243954,0.066543706,0.010104263,0.0071052583,-0.033991177,0.12368397,0.11450034,0.059296485,0.06930075,0.2775163,-0.0032227947,0.14698057,0.10117008,-0.02930259,0.03384142,0.022993911,-0.014815749,0.010962449,-0.08601512,0.03925074,-0.060151316,0.01513227,0.12346961,0.13198926,-0.043310672,0.120672606,-0.012433271,0.004370673,-0.051100463,-0.019804185,-0.04292942,0.058805905,-0.09090949,-0.008245639,0.030997032,-0.0998629,0.11583513,0.10377612,0.20755304,-0.015729422,-0.07547852,-0.016904786,-0.12653065,0.004463086,0.09561561,0.1923702,-0.05765061,0.11220992,0.09443618,-0.05764911,-0.003358323,0.10134716,0.026726522,0.04485131,-0.0041613667,0.2243634,0.08371524,-0.07508719,0.1054067,-0.0024136195,0.09044505,-0.003303716,0.20731628,0.08502895,0.062315498,0.03183818,0.04236936,0.020427248,-0.008234695,0.19091885,0.22783956,-0.015133779,-0.0024210655,0.057321854,-0.040533766,0.09990185,-0.0006562963,0.16016297,0.022747625,-0.038129084,0.026509926,-0.07622345,0.017561872,0.07022284,0.079715095,0.013546258,-0.018965378,0.009585767,-0.043816525,0.06133058,-0.015710494,0.025591882,0.12964742,-0.027324073,0.16381165,0.13836397,0.03840483,0.09578857,-0.07855724,0.039098717,0.14915319,0.011485133,-0.02013501,0.11999249,0.058288254,0.08129494,-0.033531837,-0.04975956,0.13675225,0.14081687,0.08061871,0.09817927,-0.1309913}, {0.052600797,-0.019962491,-0.041531827,-0.14806306,-0.030901892,-0.06881467,-0.105399944,0.05076813,0.13072744,0.0011776763,-0.01567978,0.04963512,0.19885008,-0.08811999,-0.077971555,0.006059404,0.041576087,0.057117812,0.024877582,0.158531,0.0506823,0.1389099,-0.033223968,0.11520398,0.07812187,0.0557801,-0.04595219,0.19078149,0.14351268,-0.11757533,-0.018056717,0.022742372,0.0242744,0.08384095,0.09756068,0.0152949,-0.018375847,-0.06537982,-0.03818567,-0.10089208,-0.09232174,-0.018883402,-0.11841662,0.10430359,0.0061058053,0.10213045,0.017185457,0.088812545,0.17952122,-0.059340324,-0.09951332,0.07956224,-0.0355111,0.0041678594,0.10349393,0.053238396,0.16382544,0.11610671,0.01649435,-0.10216794,-0.08035445,0.066222064,0.0011620342,-0.031526994,-0.028239658,0.07887686,0.086059794,0.12736244,0.16141987,-0.06164638,-0.06233058,-0.07096146,0.10213704,0.03638582,-0.09016397,-0.16585664,-0.09518886,-0.03394127,-0.1024354,0.17557961,-0.0793913,-0.063572414,-0.028861642,-0.06722205,-0.114124544,0.12489446,-0.060181446,0.007144228,0.017458135,-0.0038175187,-0.06881604,-0.14235274,-0.082801215,0.03317949,0.004202451,-0.035147015,0.09386285,-0.03613557,0.046959594,-0.018113634,-0.055814516,-0.027486168,-0.08132364,0.023709679,0.0053113173,0.09016428,-0.09122568,0.036706354,0.010415984,-0.01273207,0.05160156,-0.05224975,-0.036306296,-0.03374178,-0.031817913,0.08318877,-0.16603366,0.036724262,0.091060676,0.0050721853,0.012478465,-0.11222899,0.025049742,-0.06874837,-0.12688969,-0.0016370642,0.022424052,0.056572165}, {0.071080714,-0.048628595,-0.13220783,-0.07962713,0.020692872,-0.006136077,0.11572253,-0.028603557,-0.073514245,0.024017634,-0.016488416,-0.06806332,0.05377728,-0.05810047,0.06666706,0.015923016,0.046312176,-0.04625746,-0.036136173,0.031222273,0.015081975,0.05572991,0.0035736426,-0.1405096,0.12204058,0.012988511,-0.03716214,-0.1736061,-0.031568304,0.00012503378,0.029808687,0.06115109,-0.059888996,0.03277462,0.010259086,-0.09325774,-0.019745307,0.015683217,-0.0075184507,-0.021483382,-0.0056064143,-0.07242587,0.002480254,-0.03437499,0.06984051,-0.066397496,-0.0528004,0.023217779,-0.033032537,-0.086748384,-0.057272263,-0.0412499,0.13194276,0.10676582,0.03517013,0.015599229,-0.036806382,-0.10247046,0.17210235,0.058252923,-0.05869078,0.06490731,-0.03010114,-0.0009515431,-0.08573443,-0.0075128796,0.0439463,-0.06169081,0.14643204,0.026325291,-0.17857139,-0.053409506,0.0011010019,-0.22950657,0.05730101,0.04616057,-0.12734035,-0.17831977,0.033197872,-0.07333349,0.09033374,0.033558212,-0.042600133,-0.026359923,0.08154119,0.031173985,0.037950534,-0.012118433,-0.0020776668,-0.038688626,-0.055464122,-0.05125337,0.03409732,0.015651723,-0.0037511503,0.06458546,-0.010362701,-0.09926711,0.045022167,0.020929065,-0.061968796,0.120186344,0.10465089,-0.054045316,0.020923393,0.034364965,0.0035312846,0.09114796,-0.0168764,-0.03564959,0.022592701,-0.005081929,0.032249417,-0.19006225,-0.034302216,0.10792065,0.015030271,0.07275344,0.16036794,0.0033366228,-0.03954321,0.029178156,-0.031296633,-0.0136527335,0.18905553,-0.022232898,0.056214638,0.037076395}, {-0.10989882,0.063506305,0.043703392,0.05800522,0.06561973,0.04155961,-0.032377575,-0.09072078,-0.0829079,-0.06551335,-0.18315443,0.00492458,-0.12297113,0.14888929,0.048006944,-0.057374563,-0.04966643,0.0774814,-0.05710806,-0.044100937,0.13504799,0.032513287,-0.0022865555,-0.03473553,-0.11883657,0.1433535,0.099178456,-0.18616486,0.0057435036,0.07853942,-0.054402143,-0.009429195,-0.0022901215,-0.076769456,0.08036643,0.060505137,-0.08401955,0.05458118,-0.086305924,0.03311684,0.062552504,0.14196336,-0.18084025,0.11785617,-0.09985521,-0.0004905694,-0.0827236,0.0980066,0.043385535,-0.035087716,0.086773045,0.08931413,-0.1373732,-0.11927847,0.046239976,0.12034754,0.123346545,0.13293378,-0.043630503,0.002728033,0.06765866,0.042583693,0.022137983,0.027274992,0.21477602,-0.048253987,-0.07223717,-0.087531924,-0.02022179,-0.016069245,0.069033965,0.051405773,-0.052429542,0.019521536,0.017703667,0.0819991,0.034514222,-0.042241763,-0.06803885,-0.054536916,0.0021350652,0.07347895,-0.10819806,0.085988745,-0.04123214,-0.04057947,0.009183755,0.050480656,0.041080352,0.015649334,0.0054087657,0.07216727,0.20572585,-0.08448667,0.05749772,-0.086738676,0.14280185,0.101438,0.10653163,-0.032800224,-0.08505929,-0.1631093,0.07038725,0.008648939,-0.11640359,0.011302315,0.07473563,-0.007881886,-0.045679383,-0.07501019,-0.0582001,0.019282712,-0.01952649,0.021003302,0.010097538,-0.14958474,0.15003279,-0.07574991,-0.10935468,-0.11493618,0.10202962,-0.0096188,0.014769872,-0.08884551,-0.098685436,-0.070104085,0.06475997,0.19195598}, {-0.005193,-0.032495786,-0.0232151,-0.1326127,0.00770945,0.05424901,-0.011957491,-0.019422326,0.037144277,0.086207464,0.05250704,0.0142678805,0.030123578,-0.10599576,-0.117099725,0.03607429,0.04105392,-0.09515729,-0.0782399,-0.09961751,0.049937777,0.13318756,0.1140878,-0.07996388,-0.055922896,-0.033629958,0.10356062,0.01055261,0.026469193,0.024245836,0.03318814,-0.010386194,-0.070591494,0.03662123,-0.081170745,0.044674125,-0.0806611,-0.0089119915,0.1711586,-0.008681502,0.16990536,-0.17938055,-0.071566105,-0.052876394,0.025967352,-0.012582131,0.08737787,-0.0028444477,-0.17473352,0.012072367,-0.1015584,-0.04710172,0.098939925,0.22071967,-0.07968338,-0.07141239,-0.060687196,-0.047765065,0.08207274,0.07659665,0.014225483,-0.033242337,0.12994005,0.015373275,-0.11883805,-0.033241015,0.005428709,0.06865035,0.08818894,0.056469496,-0.056087907,-0.04673762,0.11643089,-0.028219622,0.053427916,-0.020598568,0.02695718,-0.0066452473,0.16412483,-0.045775652,0.039796833,0.12298381,0.11089665,-0.04132645,0.13096875,-0.058231167,0.02463038,0.017174227,0.0761307,-0.025890771,0.238814,-0.0745715,-0.029785838,-0.0016275088,0.028495027,0.069409885,-0.17124298,0.05469207,0.029759917,0.15798846,-0.0111580165,0.10939434,0.02265534,0.030179583,-0.13269241,-0.101548076,-0.12223171,-0.052153595,0.056966797,-0.009800419,0.007898679,-0.01657155,0.09096275,-0.03322952,0.06361335,-0.085135445,-0.09286021,0.0988061,0.027893055,0.009387124,0.022240879,-0.0756591,-0.060211804,0.018781982,0.0636441,0.05723731,0.07441672,-0.037213225}, {-0.0066786325,-0.07339816,0.050796602,-0.005321862,0.006155233,0.035417214,-0.14551198,-0.08085681,0.03874325,-0.036429044,-0.07854588,-0.21536595,-0.07263019,-0.03695736,0.04304789,0.08435686,0.11047671,-0.046233,-0.056747016,-0.015654648,-0.061962895,0.09255579,0.12714843,-0.1121728,-0.11313434,0.0011864073,0.13193996,-0.074229755,0.12851577,0.10987805,-0.04447483,0.07597122,0.0552597,-0.14331,-0.031783402,-0.047451373,-0.0019726981,0.025885988,0.044948038,-0.02935104,-0.038780883,0.13701247,-0.005806931,-0.06649262,-0.0022261103,0.022659343,0.012959353,0.027159937,0.048270747,0.027521783,0.050864186,0.038554754,-0.17282133,0.07283858,0.08209088,-0.03535509,-0.037494708,0.048161212,0.006152191,0.07011164,0.012546247,-0.025278792,0.10850975,-0.043089215,-0.028701894,0.15475778,0.0069540106,0.047876395,-0.028454382,-0.18466127,0.019181088,0.06661458,-0.04273993,0.006763557,0.049714956,0.08969309,-0.03559458,0.032323785,-0.038106672,-0.11457954,0.07680437,-0.010561148,-0.0035431944,-0.032434043,-0.035437934,-0.016161747,0.11654593,0.07019906,0.010867478,-0.030906597,0.038283467,-0.04525841,-0.030555736,0.07203598,-0.002420247,-0.05517367,0.05817295,0.064742744,0.21138465,-0.007218399,-0.014661402,-0.084670275,-0.103790045,-0.07880196,0.0021650349,-0.26225716,0.033531398,0.04094911,-0.026824616,-0.06872354,0.054906834,0.006586306,0.09104382,-0.021948116,-0.0567639,0.09677493,0.049625844,-0.105963856,-0.035002135,0.019013261,-0.05480416,0.023457458,0.18208757,0.03893176,-0.106975995,-0.08041663,-0.009849522,-0.0055999374}, {-0.06862556,0.08519818,0.186581,-0.020330474,-0.01920077,0.08747947,-0.031265203,-0.11320263,-0.1006831,-0.052045163,0.19431275,0.044312887,-0.08800767,0.014407219,-0.066224545,0.09022946,-0.0092095975,-0.06090519,0.045942254,-0.06460784,-0.0383256,-0.018133326,-0.06878093,0.1230528,-0.09410064,-0.022533735,-0.016699579,-0.072380915,-0.015181026,0.09632268,-0.086385824,-0.11717594,-0.18273377,-0.04912619,-0.19830556,0.15037842,-0.057889342,-0.084918246,-0.10898681,0.018094778,-0.09824258,0.050355133,-0.05144944,-0.061562575,-0.09476377,0.033242937,0.05780706,-0.15453593,-0.036695883,0.04095258,-0.027528906,-0.07475321,-0.21165575,0.05257997,0.0008901318,-0.13330916,-0.077286534,-0.078408405,-0.021649802,-0.12780051,-0.007905484,0.017205361,-0.04267747,0.010880623,0.036912333,-0.039610498,0.020357022,-0.06188506,0.047668666,-0.0092542935,0.00680964,0.017399224,-0.0060829083,-0.11718108,-0.040648155,0.015243326,-0.027816469,-0.088029824,0.16375346,-0.039564807,-0.06471736,0.13907328,0.07130773,0.01793455,0.052172244,-0.14249729,-0.09035876,0.024260962,0.07724023,-0.08820306,-0.05044855,0.029057845,-0.08649144,-0.027803276,-0.11985303,-0.093541145,-0.029145742,-0.015200482,0.004293816,0.056122277,-0.018154467,0.18431847,0.07797161,0.0011764596,-0.07957248,-0.020243146,-0.13538213,-0.011211156,0.05358004,-0.01469597,-0.06366327,0.020622501,0.12475751,0.0073669488,-0.09357004,-0.0025769246,-0.045610346,-0.1276433,-0.0398271,-0.0400789,0.043835655,-0.00785894,-0.073299885,-0.14811829,-0.15148982,0.051592074,0.0382733,-0.03373603}, {0.040742654,-0.16849905,-0.09373906,0.09086299,-0.06522061,-0.13125573,0.06307734,0.014588412,0.07167671,0.02034906,0.09084352,0.21879265,0.020056583,0.026443612,-0.087273754,0.02368235,0.085976616,-0.04774711,-0.07150343,0.033367027,0.048902884,0.09037681,0.00528783,-0.046606667,0.17601122,0.0218028,-0.01458873,-0.028998682,-0.14531979,0.026959462,0.034626033,0.003149146,-0.13607356,0.08109462,-0.054144908,0.12185373,0.007030976,0.0067112157,-0.07047923,-0.02858097,0.041171677,-0.07203082,0.19021222,0.027976912,-0.008582859,-0.15928504,0.0022508595,0.019231351,-0.0072134854,-0.024379458,-0.13312382,-0.035476845,0.03565777,0.0773508,-0.038781542,-0.14693862,-0.075065866,0.011382077,-0.000702256,0.093358696,-0.082513474,-0.09308375,-0.03159395,0.03291692,0.13721627,-0.13858366,0.023587497,-0.083258465,0.034690805,0.03360033,-0.1881003,-0.042228144,0.032245938,0.075271666,-0.04850163,-0.019344809,0.07136756,0.025970208,0.067449346,0.05982068,0.062201995,-0.08187583,0.13841847,-0.0197857,0.06849703,-0.016874122,-0.08346649,-0.021218829,-0.010289392,0.011432642,-0.0039831735,-0.010440778,-0.054681506,0.024957811,0.025071444,-0.0005111662,-0.13119143,-0.08717026,-0.0679249,-0.048963673,0.15365793,0.007963896,0.00055553846,0.04754129,0.10194594,0.23343258,0.052158494,-0.09065958,0.071406476,0.03873752,0.014912081,0.12144933,-0.038350224,0.055139128,0.050791357,0.0078133615,0.012868734,0.039637834,0.005852388,0.026183601,-0.046639755,0.048581675,-0.06946385,-0.02895832,0.03511453,0.1816219,-0.07244739,-0.076119855}, {0.028868044,0.12679312,0.10448973,0.062534936,0.0011882597,0.11932074,-0.06290161,-0.01635755,0.0008771118,0.055647213,-0.03621611,0.007453701,-0.06947591,-0.05600092,0.07972211,0.020032786,0.15965267,-0.04608563,0.06714235,-0.02030062,-0.06546904,0.07151053,0.030834071,-0.03410367,-0.032646734,-0.0154184755,-0.014064813,0.033680502,-0.023093019,-0.049124777,-0.0028315617,0.07151949,0.11592672,0.007826433,-0.04424688,0.09879876,0.095786646,-0.06826174,0.015760297,0.19000006,0.08751281,-0.043301027,-0.095667325,0.15833816,-0.06775839,-0.075647,0.037514076,-0.1317967,0.04512676,0.054085102,0.03709031,0.1169169,0.04083098,0.15888882,-0.15757816,0.08400145,0.046505075,0.05431111,0.051753175,0.11860574,0.09149488,0.010574457,0.015772348,0.07230741,-0.06699971,0.1275862,0.11437477,0.19865434,0.022742545,-0.008157518,-0.0063121784,0.10453436,0.11678928,-0.0015465843,0.027606757,0.07470656,0.05155725,0.15570822,0.07086029,0.0138185555,0.19183224,-0.061081976,0.1968272,0.033254847,0.0022165184,0.05998574,-0.03162108,0.008702023,0.07952142,-0.055753127,0.18727824,0.1085279,0.17433809,-0.080262884,0.027231203,-0.04231749,0.04802733,0.13295144,-0.0007427126,-0.064197265,0.1201821,-0.11469299,0.14467469,-0.06080401,0.1262578,-0.03799604,0.081322,-0.031183599,0.060727645,0.036952786,0.038380485,-0.011580299,0.015941266,0.058152158,0.16184436,-0.2012633,0.030030595,0.025315307,0.061940506,0.11934844,0.08415356,-0.006631138,0.101786934,0.07351241,0.010084885,0.048838995,0.0040480075,0.0066620577}, {-0.15300548,-0.08992455,-0.0058469116,0.0048321104,0.013411225,0.1447075,0.011311578,-0.13995212,-0.055152252,0.072323084,-0.069762915,0.020994717,-0.04311757,-0.03708696,0.13532943,-0.029228099,0.08619553,0.032586146,-0.062065072,-0.085240394,-0.11528317,0.09335952,-0.044413634,-0.087439,-0.05440594,0.0035896632,0.07484032,-0.1871827,0.020941954,0.032026056,0.0072631305,0.060246058,-0.05359583,-0.06029029,-0.054054085,0.056812495,-0.058294177,-0.05440754,-0.079177074,0.103382766,0.045334667,-0.03673251,-0.01315209,-0.058189772,0.012445913,0.0392341,0.073277734,-0.07570758,-0.074113965,-0.08179712,0.044147845,-0.074292466,0.11263889,0.069241256,-0.21513729,0.031937603,-0.07276676,0.021769183,0.0045369538,0.047536556,0.024103351,0.0015120468,-0.010293782,0.10532745,0.03893917,-0.07465104,-0.0037329404,0.060584918,-0.105481975,0.07539399,0.030100647,-0.033511616,-0.071702756,0.09490674,-0.030757781,0.11039799,0.005105836,-0.17448777,0.06298848,-0.025707511,0.054839067,0.054426268,0.0545521,0.07307442,-0.07354284,-0.09604994,-0.04517489,0.035199784,-0.1104434,-0.058204234,0.04048667,-0.028974295,0.0005090177,-0.014368338,0.0019200527,-0.018106638,-0.015597087,0.1091729,-0.07728488,-0.05092399,-0.021241855,0.18620783,0.11501779,0.05376902,-0.038805693,-0.07572617,0.10653612,-0.035084207,-0.027607204,-0.061385546,0.037950166,-0.026901443,0.021708207,-0.026571607,0.07042753,-0.095422894,0.04652761,0.022345094,-0.036989324,0.063310064,-0.057543855,-0.060206465,0.018566972,-0.003947868,0.12156376,0.113396496,-0.052427962,0.07577335}, {0.11145024,0.026454488,-0.048497997,-0.030234119,0.041005835,0.13431095,-0.062152132,-0.121593796,0.072959796,0.11439263,0.053231258,-0.091099605,0.017827626,0.06645199,-0.018039063,0.0013278282,-0.034156084,-0.1370194,-0.07137709,-0.11796744,-0.003994626,0.041877,-0.14415966,0.10812781,0.09281113,-0.05390296,0.01090973,0.05311649,0.108894855,-0.06681327,0.09096974,0.020549754,0.0710344,0.0055275466,0.047958054,0.008760643,0.038382452,0.0016245368,-0.013574069,0.061747815,-0.016962564,0.053157732,-0.02463416,0.11289934,0.03862177,-0.060408738,0.07519074,-0.018877178,-0.008276745,-0.031320546,0.03511058,-0.00531449,0.05981029,0.040308617,0.038894083,0.049046036,-0.073779516,-0.12662053,0.036097176,0.048422296,0.06611802,-0.08647295,0.038147166,0.015043248,-0.052525483,0.09891589,-0.03944244,0.11103093,-0.017068509,-0.11835298,0.07327255,0.03147752,-0.036271933,-0.041185223,0.105559215,0.07838782,-0.08954881,0.023009384,0.14662188,-0.039134886,0.07788656,-0.058165535,-0.06666647,-0.04015483,0.01722505,0.0019162983,-0.1504368,0.018619122,0.025939891,0.094356515,0.078950286,-0.031448424,-0.014332781,-0.014994452,-0.034493558,0.01574068,0.056711588,0.038304698,-0.0083339475,-0.049132053,-0.00520383,