#pragma once
#define W_LSTM_KERNEL_F {{-0.06838929,0.013190071,0.045685153,0.03668925,0.116659775,-0.07925661,0.012404258,-0.021610474,-0.040552337,-0.14933273,0.010300742,-0.12120929,-0.058743,0.07487381,-0.010825344,0.086405925,0.023793295,-0.068285175,0.020920705,0.03197596,0.07304394,-0.038448036,-0.02653737,-0.041588414,-0.09359154,-0.07335688,0.05020657,-0.10823593,0.051238958,0.114568196,0.10729433,-0.006989197,0.017585784,0.004242992,-0.079329565,0.062968515,0.10481884,-0.03278596,-0.0834895,0.020012317,-0.10846392,0.03534341,-0.06060978,-0.053669367,-0.13915804,0.030598963,0.13001402,0.092855446,-0.13126266,0.027333723,0.05358393,-0.034010727,-0.056559093,-0.06549011,-0.014987407,0.08593262,0.010141472,0.07143327,0.036036458,0.03514812,-0.025609862,0.1069357,-0.095056474,-0.07625882,0.07726854,0.012528042,-0.08342837,-0.011061333,0.05722485,0.037781544,-0.012999346,0.07448908,-0.0050852527,-0.07116474,-0.09940643,-0.1213115,-0.053751796,0.14463377,0.07910896,0.045678202,-0.046669554,0.06345352,0.029846527,-0.08526975,-0.008484258,-0.12034925,-0.06981776,-0.016110836,0.07115835,0.018275455,-0.049693517,0.0040680007,-0.0128372265,-0.004971952,-0.019510353,0.04430746,-0.12872036,-0.053406503,-0.057302464,0.08513033,0.041180063,0.079116344,-0.017478827,0.07021863,-0.013118514,-0.06364741,0.11809671,0.03232473,-0.12622644,0.04572882,0.0021156918,0.008125766,-0.029456228,0.040350053,-0.020497119,0.14243565,-0.09470064,0.08709874,0.048923634,-0.01972893,0.044010963,0.1122529,-0.04337512,0.071800776,0.11162024,-0.07116403,0.04347449,0.081308894}, {0.068837576,0.03269569,0.028671205,0.08791148,0.039315697,0.038688462,0.011139548,-0.11100821,-0.046981204,-0.16290465,-0.022359729,-0.035395905,0.06399182,-0.08842596,-0.06310149,0.112545304,0.022297848,-0.069806494,-0.027238932,0.028619945,-0.059146356,-0.05488764,0.057970677,0.027525455,-0.029752858,0.055064127,0.055676777,-0.021615634,-0.01796128,0.012361555,-0.045562636,-0.06949926,0.08367117,-0.07434192,0.039779056,-0.08885909,0.0017098661,-0.09024717,0.03640244,-0.053809196,0.035135295,-0.034544777,-0.025259444,0.04323733,-0.04924041,0.08841042,0.105035074,0.099381424,-0.0008774644,-0.049493812,0.02438126,0.05005984,0.03915361,-0.022629425,-0.0069011217,0.0011908704,-0.07013399,0.083392896,0.0128962435,0.040749736,-0.107946746,0.07860753,0.035911176,-0.035313483,0.014472172,-0.06525112,0.018925136,-0.06402607,0.055085808,-0.022904534,0.05856994,0.081840165,0.088020556,0.07131039,0.037545323,0.017401868,0.026720522,0.03673806,0.041139096,-0.12640019,-0.0074805114,-0.043243233,-0.038827427,0.043983694,-0.11119254,-0.020531865,-0.020643707,0.09674309,-0.05489568,0.03576753,0.070713945,0.0066745756,-0.017507058,-0.033392146,-0.13201174,0.12301995,-0.09186532,0.09247861,-0.0022836297,0.016794628,0.03947551,-0.01925609,0.057708398,0.096586145,-0.08859455,0.074055694,0.071678504,-0.016706536,-0.06334304,-0.021318518,0.020985488,-0.049982235,0.091450155,0.055602614,-0.020185163,0.033703767,-0.04958322,0.03043197,0.04812845,-0.087462306,-0.033385236,-0.015433587,-0.026477195,0.06875521,0.029272635,-0.07173664,-0.103215404,-0.048168134}, {0.085653536,0.12156597,-0.04587723,-0.032999426,0.053672574,-0.122936234,-0.08103447,-0.14204952,-0.056922346,-0.01257195,-0.10014882,0.07107645,0.086334765,-0.1098539,-0.022914622,0.11810085,0.02932238,-0.09671012,-0.080598384,0.027472977,0.04290938,-0.13538067,0.057648584,-0.05965243,0.09907286,-0.042987138,0.014921961,0.052446734,0.007058703,0.0063440953,-0.039761562,-0.15412079,-0.070739724,0.01590615,-0.007611667,0.061636385,0.07188212,-0.083814904,-0.11465564,0.11226643,-0.00077466574,0.014460335,-0.0672843,-0.040843282,-0.040493425,-0.010730052,-0.010259898,-0.041921012,0.028133895,0.05858563,-0.06655981,0.07394232,0.0015945225,-0.052507523,0.020299567,0.0948508,-0.105287746,0.044878505,0.018505506,-0.08374283,0.014261156,0.06202592,0.009910629,0.017710706,0.09106802,-0.0329308,-0.07858595,-0.17090935,0.008466398,-0.07085392,-0.038812738,0.041795556,-0.040330812,0.012999605,0.049418643,-0.073514305,0.007882714,0.005510632,-0.1186385,0.033736926,0.026950594,-0.06427216,0.015738897,-0.10051381,-0.03021062,-0.12959336,-0.06886821,0.11351505,0.03860034,-0.06324265,0.07767495,-0.048297346,-0.08485877,-0.041344814,-0.12419913,-0.025743254,-0.034405768,-0.053088125,0.024341468,-0.019145537,0.08240911,-0.07453024,-0.096586645,-0.0044923974,0.01770194,0.008812934,0.12439312,-0.027080974,-0.08946858,0.099997066,-0.114829816,-0.03126414,0.010622341,0.11894124,0.021815075,0.07399639,-0.0068154377,0.09211647,-0.013701283,-0.07048529,-0.06525393,0.037400924,0.06655823,0.029549284,0.057734992,-0.04450992,-0.14238654,0.12624262}, {-0.05414518,0.025978917,-0.016971512,-0.009927903,0.03513357,-0.031260155,-0.0008851278,0.061966516,-0.054370716,-0.12249152,-0.044094514,-0.054941088,0.0067857765,0.013035442,-0.038678434,-0.029712802,0.1168877,-0.045486845,0.034966208,-0.016322028,-0.07050369,0.0577512,0.078435734,0.098188095,-0.03918494,0.039174434,-0.02440264,-0.076774605,-0.07652263,-0.03213718,0.03273943,-0.12047079,-0.0608185,-0.030826356,-0.088726915,0.066597834,0.06635121,0.10861919,-0.016554944,0.12499458,-0.06177069,0.08681786,-0.09092009,0.015202312,-0.123071276,0.06864967,-0.0048531983,0.004098994,-0.12398082,0.10132568,-0.019569626,0.12068525,-6.222888e-05,-0.066298634,-0.04997146,0.05666595,-0.07871501,-0.0029961907,0.091414295,0.011631907,-0.020076133,0.09715545,0.015503208,-0.17168863,-0.06162149,-0.037077587,-0.15398821,-0.11250785,-0.086708836,-0.08626261,-0.028983954,0.023000415,-0.030101566,-0.11775372,-0.13277881,0.004664741,0.12147829,0.025086278,0.080881394,0.056197472,0.075538315,0.06602582,0.16041042,0.101822786,0.03636107,-0.1478942,-0.07306804,0.10330896,-0.045298766,-0.12359359,-0.009278972,-0.02268797,0.020272478,-0.007835723,0.00029261532,0.10608883,-0.13601814,-0.02323194,0.0162874,0.06112926,0.08975459,0.001152277,-0.054908577,0.107814945,0.008330427,0.09236446,0.11614304,-0.13569507,0.042349808,0.098037034,-0.13570268,0.1149551,-0.0149392085,0.046920303,0.0071363444,0.06850205,0.09319536,0.023231274,-0.014491375,0.037638113,0.083280325,-0.07751776,-0.088067986,-0.04273498,0.11256487,-0.11173338,0.012539969,0.04534453}, {-0.00580096,0.0054951725,0.039593633,0.0010003331,-0.07198832,-0.107373394,0.0568305,-0.073348254,-0.011837283,-0.041657686,0.076129586,-0.1258918,0.1209625,-0.103657424,-0.11600148,0.052018397,-0.067912936,-0.08301472,-0.040445518,-0.025228966,0.03790621,-0.1443655,0.030166728,-0.055048946,-0.052237928,0.09571983,0.028954526,-0.081764035,-0.13688877,-0.043142065,-0.08201189,-0.07021398,-0.027873304,0.0016184864,-0.06762354,-0.08326331,-0.02400596,0.04215966,0.007829113,0.10626552,0.021456027,0.019996475,-0.0939414,0.02961647,-0.03491394,0.0014113846,0.15764496,-0.072780296,-0.04763278,-0.06582943,-0.025843909,-0.08522255,0.03650793,-0.021832535,-0.075921945,0.02550617,-0.11438194,0.048758242,-0.0049483264,0.08837794,-0.06254279,-0.007166451,-0.029763933,0.009192414,0.13201897,0.08516782,-0.064888865,-0.10448772,-0.10936837,-0.05928668,0.043480575,-0.012540271,-0.07435706,0.04421624,-0.031645518,-0.114862174,-0.057727676,-0.00078723126,0.0191415,0.050735164,0.003056719,0.006115252,0.011605169,0.06777578,-0.07491178,-0.108042374,0.06617046,-0.09155755,0.007981233,-0.10252657,-0.072075464,0.06910454,0.0447235,-0.083635926,-0.15649065,0.029379226,0.017965604,0.06802875,0.087991826,-0.051611155,0.034159724,0.06183907,0.020974083,0.1714015,-0.045527555,-0.02061351,-0.006888771,0.0012559363,-0.12983571,0.010551714,-0.009517961,-0.010852123,-0.03971765,-0.032964,0.10620022,0.026425371,-0.041534163,0.071894094,0.10306732,-0.0071735047,0.07210399,-0.029925134,-0.13197282,0.071357764,0.04588302,0.055797067,0.05822951,-0.041366577}, {0.013390454,0.010394839,-0.017880233,-0.039722487,0.11188234,0.011054032,-0.061261132,0.06982344,-0.01787939,-0.04902053,0.16814516,-0.15860908,0.12677181,0.09706804,-0.12977535,0.068970166,-0.020149257,0.041715983,0.07401363,-0.03038329,-0.014791909,-0.04339064,-0.11806392,-0.0037854922,0.12395156,0.06991105,0.0880094,0.07352282,-0.13023257,0.04679209,0.029325882,-0.0036891794,-0.050596338,0.063496985,0.08956656,0.009329402,0.0008684978,0.021283884,0.03611732,0.08425972,-0.035118327,0.12750979,0.04590342,0.0035866755,-0.05613388,-0.02476415,0.07470019,0.118783444,-0.022154296,0.00843231,0.06662837,-0.08832188,-0.13288184,-0.027424319,-0.01820353,-0.008840732,0.013392632,0.023073519,-0.037308544,-0.07015396,0.14837264,0.012073176,-0.04539815,-0.11879158,0.027970247,0.086783886,0.017521475,-0.13984388,-0.088119335,-0.097211845,-0.008436161,0.06693863,-0.05003757,-0.054554593,-0.046444308,-0.074963,-0.0011064792,0.0340389,-0.08735214,0.050936595,0.0316393,-0.063904434,0.10893711,0.10052255,-0.06808352,0.0348155,-0.059204463,0.037156682,-0.050695915,0.0022834896,0.03451335,-0.0026927388,-0.090543464,-0.020998904,-0.097718306,0.12996872,0.0014192857,0.042136423,0.05420725,0.050326623,0.09178717,-0.059877124,-0.05875317,0.017518444,-0.081661455,0.010059682,0.081556424,-0.15824841,-0.014850712,0.074491404,-0.03819387,0.05963602,0.04323506,-0.086769044,-0.04830775,0.025839599,0.06173015,-0.037773967,-0.06940638,-0.069354795,-0.07519006,0.068127014,-0.10231039,0.05099812,-0.07949341,0.067092195,-0.07866107,0.043120734}, {0.006498692,-0.06437908,0.071997136,-0.03203446,-0.052903287,0.0054543526,-0.07466787,0.12188883,-0.095392466,-0.13559224,0.1170818,-0.19917135,0.09415957,0.1020339,0.031858824,0.12919515,0.03262357,0.046051864,0.08131241,-0.0019280971,-0.008812116,-0.021709949,0.05386349,-0.058300357,0.09752238,0.07031374,0.14890045,-0.10944311,-0.05632171,0.10400711,0.0006738568,-0.08487462,-0.06319946,0.07484726,0.016301583,0.13612197,-0.051381502,0.14893039,-0.047673482,0.09582162,-0.07669354,0.045277845,0.059134405,-0.054402776,-0.06431586,0.05045662,0.027431285,0.016698489,-0.10918734,0.085701086,0.062773734,0.040020686,0.07765306,0.068661936,-0.09047626,-0.025584228,0.07255127,0.047418382,-0.07411508,-0.05091985,-0.01900387,0.055246964,-0.048057962,-0.021620395,-0.0065821786,0.118994564,0.06709566,-0.06117716,0.074434966,0.018435583,-0.019132093,-0.0020566613,-0.013261351,-0.08002184,0.019963533,-0.09434129,0.046275817,0.0011437568,0.04571542,-0.0008433852,0.0301318,-0.03834329,0.0036702384,-0.042447295,0.07444283,-0.020186512,-0.043808717,-0.009251546,-0.06626236,-0.110417224,0.049911596,-0.03931746,-0.018186636,-0.03025444,0.005470548,0.07361144,0.0671995,0.01549976,0.10879331,0.081181526,0.11115237,-0.009456965,-0.091139585,-0.005746241,0.09578178,0.04811247,0.009238297,-0.044920787,-0.12180965,-0.09306235,-0.09154709,-0.04246257,0.020993251,-0.07877668,0.0466473,0.043780196,0.08715089,-0.10866905,0.053255603,0.0001844815,-0.021021238,-0.042101618,-0.11544598,-0.041826747,-0.10729121,-0.019447818,0.10251353,0.12192054}, {-0.034448814,-0.022591861,0.013861302,-0.053600915,-0.030303894,-0.113085054,-0.0671725,0.08626054,-0.094059445,-0.09917897,0.14182362,-0.1348139,-0.02402005,0.20879076,-0.043182824,-0.007613513,-0.016256338,0.057667263,-0.06148869,-0.05767117,0.03128561,0.09674165,0.032860626,-0.07064,-0.028656067,0.10607627,0.15007555,0.023935791,-0.123684004,0.0024978088,0.050908245,-0.0613569,0.030503903,-0.059321288,-0.0572495,0.03459393,-0.03025329,0.07721893,0.033640463,-0.025772449,0.005042297,0.13726771,0.088591196,0.093721405,0.054000758,0.09122255,-0.0027906075,0.06979902,-0.02295667,-0.055420104,-0.096986875,1.0523974e-05,-0.02102085,0.06195451,-0.060195465,0.16704373,-0.038707025,-0.03888246,-0.12104397,-0.09566192,-0.004924974,-0.008830809,0.048295498,-0.0027113308,0.096012205,0.06527726,-0.050090544,-0.047752824,0.1201796,0.11705155,-0.10208386,-0.049543235,-0.1335074,-0.011601685,0.029462667,-0.0017710843,0.026920246,0.06194771,0.0351436,-0.045125093,0.10981777,0.07086827,-0.08337409,-0.02266228,-0.107508,-0.00093779695,0.044939563,-0.014283089,-0.03831682,-0.093167804,-0.124803625,-0.062155448,-0.08000862,-0.05386882,-0.10171754,0.0839268,0.020097118,0.046543613,0.0770994,0.041465566,-0.063397355,0.04753829,-0.018274933,0.067090094,0.124765866,-0.088822484,0.116403215,-0.13214909,0.12550408,-0.081458636,0.007714577,-0.0325763,-0.08137209,0.046125405,0.06467853,0.103575,0.046913203,-0.118281305,0.05421643,0.061391987,-0.10212765,-0.106154166,0.030382043,-0.015407134,0.045721456,0.063038014,-0.0731108,-0.0036837524}, {-0.040279415,0.011777485,-0.022349939,-0.047925092,-0.04044878,-0.03322899,0.050520916,0.0772917,0.05025486,-0.13718548,0.1285034,-0.14208728,0.15593915,0.1921598,0.16015983,-0.039352104,-0.011082329,-0.08540633,0.03958773,0.037042238,0.10484029,0.107916415,-0.08672116,0.014703174,0.121619515,0.1385558,0.04567339,0.0705249,-0.108819954,-0.06125402,0.06430703,-0.00034261885,-0.072216704,0.018949647,0.033066638,0.11000035,0.05718876,0.02205873,0.18619968,-0.10690414,0.09579038,-0.049172625,0.13341367,0.09213297,-0.1271429,0.030849544,0.036466815,0.09824571,-0.1916984,0.09515588,-0.04127268,-0.05446905,0.15850013,0.003529746,0.07177789,0.09449021,0.06798569,-0.09099089,-0.16481787,0.0015415935,-0.007921547,0.026905065,-0.07835191,0.038969588,0.07789733,-0.023223916,0.063130535,0.034183964,0.16634569,-0.028165363,0.095841214,0.06000643,-0.061358817,-0.08903775,-0.026291719,-0.027550457,0.17535217,-0.032545432,0.11329188,0.028400274,-0.025142116,0.10320654,0.089929536,0.05729156,-0.07901284,-0.026269298,-0.084062,-0.025663346,0.074415006,0.009014903,-0.12667874,-0.1484922,-0.13058546,0.04323022,-0.07280878,0.091496944,0.08176416,-0.07376703,-0.063115515,-0.045158118,-0.079882376,0.047884572,0.035160474,-0.048474014,0.02755552,-0.056066614,0.22699392,-0.07114041,0.030947383,0.06162436,0.124808386,-0.122299455,-0.112475835,-0.09160918,-0.09292187,-0.03885135,-0.100802496,-0.044938236,0.005852,0.14986522,-0.07558854,-0.047515176,0.0071146316,-0.07804459,-0.11796969,0.06709731,0.10972235,-0.0034082448}, {-0.05486112,0.015821438,-0.032695312,-0.07335937,0.02512408,-0.09980893,-0.089302845,0.21640018,-0.080239594,-0.15006448,0.13456959,-0.035022307,0.041990068,0.18579935,0.09691049,0.0629608,0.030435445,-0.010374075,0.009808678,-0.06748472,0.060420297,0.02868975,0.022099273,-0.07955287,-0.049528774,0.08198271,0.07464315,0.02626038,-0.025049048,-0.094437376,-0.109597825,-0.1009305,0.06896454,-0.016682439,0.058674667,-0.040670875,-0.07838076,0.011404495,0.20854756,-0.12241928,0.2987524,-0.081620775,0.04023756,-0.032915015,0.09980385,0.11842157,-0.08040842,0.05406103,-0.20225304,-0.017329937,-0.04459246,-0.08980828,0.038394645,0.06580739,-0.0022305916,0.07530352,0.0050147977,-0.13585538,-0.101849996,0.040874127,0.14061666,0.06813521,-0.08379204,-0.06298627,0.12692969,-0.05812883,0.01997696,0.03374092,0.095336944,0.1021045,0.09986609,0.08609457,-0.088931456,0.004967781,-0.08749696,0.008204691,0.16532966,-0.037833564,0.12596239,-0.11258252,-0.030509118,0.1545001,0.10290663,-0.07820931,-0.094474465,0.027492907,-0.05349349,-0.023198418,0.117058605,-0.015156721,-0.12935236,0.006013418,-0.10319953,0.013394811,0.030478349,0.08887249,-0.07764853,0.09776441,0.11697317,0.04693476,0.06029015,0.049226087,0.12178952,0.09526215,-0.10334347,0.15018679,0.04160082,-0.08782403,0.15750359,0.07201694,-0.0010946831,-0.12414842,-0.07074337,0.03995683,0.007310305,0.10533255,0.011057646,0.06580568,-0.073328935,0.1537346,-4.4003536e-05,0.05068269,-0.027596252,-0.09438707,-0.020451551,0.029172376,-0.019825287,-0.031662248}, {-0.12452527,0.060530867,-0.06930261,-0.027427737,0.23204911,-0.0040548686,-0.022421733,0.1706622,0.04458578,0.10855722,-0.07007814,0.0874633,-0.09213634,0.07468716,-0.08288364,-0.0009962502,0.10131159,-0.018113758,-0.085968725,0.040398248,0.06501979,-0.0068973415,-0.14650138,-0.029517604,-0.14275639,-0.06149703,-0.07488549,-0.01417689,0.26684085,-0.08264522,-0.17539634,0.042548195,0.08596138,0.075275615,-0.11610091,-0.029511796,0.030967329,0.12833199,0.13452223,-0.10828261,0.12976317,-0.029836737,-0.11756991,-0.008824697,-0.023547497,0.13122864,0.009025678,-0.04592244,-0.1900051,-0.042617768,-0.13375825,-0.029928586,-0.020013029,0.060291678,0.024200186,-0.021003563,0.03965428,-0.1482245,-0.15816367,-0.1504664,0.1672948,0.10375496,-0.08748036,-0.0561298,0.19160725,0.083776705,0.0044374485,0.09608321,0.029055158,0.062991954,-0.048628885,-0.033568326,-0.27581763,0.10940719,-0.09207425,-0.122106604,0.09235495,-0.14636946,0.0842611,-0.07744476,-0.059518144,0.051086854,0.018480476,-0.06643188,0.04048981,-0.10663829,-0.1459529,0.13722755,0.16286321,-0.004448008,-0.019689467,-0.13522255,-0.062275313,-0.006326958,-0.10180688,-0.019775828,-0.0199783,0.14925186,0.076823734,0.034264084,-0.13532972,0.066860564,0.26187387,0.07372836,-0.16833231,0.03719369,0.025919642,-0.046409085,0.075503096,-0.009226012,0.14017287,-0.0793372,-0.034287695,0.11655844,0.052330684,-0.0895363,-0.014474764,0.18298317,-0.0112677105,0.093259156,-0.0063553173,0.13692066,0.0018082757,-0.13313732,-0.032658596,0.18424618,0.08714238,0.04828125}, {-0.142848,0.0030422288,-0.09007949,-0.078075506,0.17162451,0.06789232,-0.12910256,0.100789174,-0.10020388,0.052862752,-0.2160625,0.13729192,-0.029975817,-0.036026448,0.018125333,0.1358296,0.1882479,-0.0359401,0.15046866,0.06610254,-0.04965435,0.004464396,-0.21788505,0.06415676,-0.21085879,-0.09166366,-0.035363697,0.13933143,0.014261579,0.029707393,-0.07027013,0.03671976,0.08991506,-0.19841821,-0.0678812,0.1256732,-0.0052626766,0.061446834,0.13042462,-0.10471349,0.0062463265,-0.09105466,-0.09233617,0.0844677,-0.08535208,0.07869851,-0.035130586,0.1173859,-0.21316715,-0.07281156,-0.07427055,-0.1405569,-0.052600045,-0.03934834,-0.011552332,0.018153436,-0.084612645,-0.117290504,-0.1930404,-0.098844066,0.07109116,0.08316989,-0.015344288,0.062482182,0.06308228,0.050588515,-0.12777208,-0.06477069,0.08396162,0.25903684,-0.117261074,0.11676188,-0.26397878,0.21503668,0.04101146,-0.2067305,-0.028372908,-0.02884646,0.11976952,-0.008920305,-0.035593707,-0.0058731143,-0.055816576,0.09669897,-0.022210792,0.03298332,-0.07211807,0.042991288,-0.06143867,0.1743928,0.021466788,-0.056479216,-0.16758716,-0.04814047,-0.062134497,-0.038049575,0.04365367,0.1496394,0.09134191,0.036235902,-0.08312824,0.0759705,0.17695478,-0.0029783552,-0.2043334,0.013909003,-0.13650279,0.059264768,0.16102552,-0.016326167,0.08621673,-0.15346761,-0.05863283,0.19321029,-0.0477895,-0.065333545,-0.07050138,0.16318512,0.017497195,0.10925896,-0.0071005207,0.11763896,-0.06418048,-0.16979727,-0.18582484,0.05843788,0.03612686,0.03985043}, {-0.16700873,0.13700567,-0.15242873,-0.044794627,0.023767466,0.040649567,-0.14676356,0.1307631,0.012362714,-0.026261132,-0.27672637,0.17045088,-0.13790318,-0.23853265,0.08790401,0.11005084,0.06524568,0.010464783,-0.018412836,0.05907248,-0.043395065,-0.11296649,-0.17621979,0.07882893,-0.010323986,-0.20757557,-0.098050535,0.05952048,-0.0013202666,-0.016931843,0.013032324,-0.13839915,-0.07197494,-0.25263566,-0.004928715,0.07634124,-0.13282327,-0.06367249,0.031084215,-0.14588925,-0.043308992,-0.05438037,-0.18663728,-0.03130338,-0.07999722,-0.014018885,-0.07612532,0.0820645,-0.22476035,-0.04557431,-0.16897254,-0.10958435,-0.17095628,-0.09488559,0.10130457,-0.034995507,0.02378779,-0.03141145,-0.119485185,0.04258342,-0.17477058,0.12004995,0.041193273,-0.050427053,0.10729708,-0.020122001,-0.0671432,-0.07103605,0.025787665,0.14332697,-0.018687854,0.11233186,-0.26167437,0.22130868,-0.022235895,-0.22872457,-0.122336335,-0.045467865,0.030068573,-0.23120952,-0.16397385,0.019871619,-0.17241746,-0.06344882,-0.079406075,-0.005625592,0.031316936,0.060071252,-0.1722159,0.18395735,0.0040931995,-0.10137888,0.08909629,-0.09016217,-0.059222374,-0.05712429,-0.0045455834,0.07278448,-0.0021067164,0.100626625,-0.1882436,0.03804768,0.07550453,-0.06354602,-0.045723617,0.06371943,-0.055304326,-0.09364119,0.08946222,-0.055066776,-0.01755721,-0.15057822,-0.09523198,0.14914498,0.09266738,-0.17505711,0.115124986,0.09191969,0.024778714,0.08822781,-0.0005271545,-0.010300348,0.042069804,-0.10456483,0.020682834,0.064491935,-0.14168788,0.09156209}, {-0.22546943,0.005879596,-0.100558214,-0.13140738,0.12184176,0.11743786,-0.06910149,-0.11011859,-0.14876573,0.03723785,-0.081931956,0.11948146,-0.08801734,-0.07382197,0.0049933987,-0.03791372,0.15302695,0.017808145,-0.17552708,0.025586916,-0.06825468,-0.014628359,-0.25778893,-0.007679032,-0.013864163,-0.119352214,0.089922145,-0.05303849,0.009439628,0.084950946,0.079746656,0.05521269,-0.12100754,-0.17749093,-0.013780013,0.08783811,-0.00014846626,-0.0394161,0.11575647,-0.10935771,0.061415024,-0.018588863,-0.15161966,0.0877456,0.084598854,-0.10663677,0.008492228,0.08354277,-0.12398804,-0.022988457,-0.01918029,-0.17076603,-0.08162877,0.049449228,0.027812699,-0.043511696,0.010087073,0.046669688,-0.26542675,-0.07804485,-0.15440415,0.07190378,-0.045499988,-0.01580365,0.0034255064,0.17275693,-0.12734388,-0.025102219,-0.06175288,-0.060875386,-0.16669069,0.089850426,0.0064695105,0.047397833,0.05442292,-0.09596593,-0.17384697,0.004416181,-0.12074778,-0.1796818,-0.04367329,-0.0843789,-0.21242535,-0.049521636,-0.010506491,-0.008814158,-0.11596545,0.07893285,-0.13978603,-0.09235454,0.0933186,-0.14571251,0.08590394,0.1382987,0.062237512,-0.031217104,-0.031481806,0.02458329,0.15462968,0.07070545,-0.15799023,-0.11291372,0.058777705,-0.06802066,0.079274066,0.027669564,-0.10948247,-0.06197541,-0.03231191,0.1320866,-0.07015777,0.060797002,-0.18056981,-0.012272171,0.05447335,-0.18018174,0.18795744,0.1235876,-0.017643664,-0.12918082,-0.06843538,0.031782635,0.23733306,-0.14251414,0.030560493,0.09473855,-0.16175357,-0.009734299}, {-0.101910144,0.036565028,0.009576528,-0.18703431,0.1265363,0.1388391,-0.05578723,-0.008118792,-0.08150124,-0.04032653,-0.043396544,0.12017854,-0.19402298,-0.1176578,0.039360892,0.021742342,0.08395373,0.08548916,-0.17405707,-0.07060604,0.13388297,0.060227744,-0.25214255,-0.032965496,0.042843312,0.0070968405,-0.027157983,-0.20214325,0.13643983,0.06237545,-0.008677753,0.0058946298,-0.064679205,-0.13700916,0.040693738,-0.10991599,0.072153784,-0.018553345,0.035779327,0.11792921,0.04407987,-0.13073276,-0.03993202,0.096210144,0.061250824,-0.11726385,0.028651666,0.20660438,-0.26119834,-0.024474142,-0.10094046,-0.106871895,0.016132796,-0.1022706,-0.06944384,-0.11596654,-0.045081843,-0.09292954,-0.0551509,-0.055570487,-0.27873966,-0.030839264,-0.010613416,-0.072462246,-0.108133845,-0.041536346,-0.181595,0.01941741,0.016425248,-0.23678643,-0.16175687,0.061988596,0.029279511,-0.112121865,0.008183963,-0.09374636,-0.17368974,-0.16993737,0.04221721,-0.06273181,-0.13158755,0.03819256,-0.14633481,-0.053765453,0.013460791,-0.08380463,-0.02550726,0.16996703,-0.1329355,0.01027743,0.0869612,0.01571432,0.18114421,0.07388164,-0.07355282,-0.0051846304,0.054389548,-0.0020413545,0.029452827,-0.04995624,0.024470521,-0.15444742,-0.008679988,-0.12487789,0.06533436,-0.034367494,0.02882283,0.04831657,0.1206941,0.053180713,-0.12950768,0.17978151,-0.1988236,-0.10395334,0.12900192,-0.12688701,0.16472472,0.0046748146,-0.08624775,-0.0536861,-0.053205796,-0.19023575,0.15724075,-0.008590007,0.062632196,-0.05139581,-0.09583358,0.11018774}, {-0.14827555,-0.17032318,-0.037442368,0.013956688,0.10522797,0.11276568,-0.07914538,-0.14162274,-0.15966496,0.1305106,-0.18178906,-0.044675224,-0.13275118,-0.15228695,-0.1289853,-0.14791684,-0.047684103,0.19369242,-0.027296642,-0.0026941586,0.09442907,-0.011921736,-0.14300938,0.06324059,0.0021625296,0.089297846,0.11485286,-0.20915122,0.07530066,0.06578049,0.03989567,0.04762904,-0.19090173,-0.1687726,0.008306346,-0.0110706575,0.0014179449,-0.06114882,-0.04260349,0.012785509,0.08565269,-0.09406234,0.058353387,-0.02196522,-0.11755558,-0.20164439,0.05403392,0.21385883,-0.14050618,0.020543426,0.045485593,-0.1730549,-0.07559651,-0.053427868,-0.112078674,-0.13475674,0.16863626,-0.08508749,-0.21257152,-0.0526407,-0.26223817,0.005285297,0.025157193,-0.10784222,0.028882623,0.042815216,-0.1047872,-0.06517506,-0.057103556,-0.22501679,-0.15298916,-0.17243047,0.022409504,-0.0631561,0.14955154,0.05002306,-0.18218745,-0.23556614,0.08092863,0.053421214,0.05096306,0.11268932,-0.17104529,0.062446844,-0.11494131,-0.06302407,-0.012337377,-0.00646422,0.016332645,0.00024681518,-0.07562038,-0.16107455,0.16169815,0.11116452,0.04028801,-0.15113425,-0.01851422,-0.017482044,0.2192959,-0.04686974,0.07469377,0.02550886,-0.0050107525,-0.08440201,-0.07275001,-0.1086612,0.078707434,-0.0073605212,-0.04737615,0.006414112,-0.1371065,0.06062457,-0.26590082,-0.07476372,0.09390328,0.06118621,-0.01498791,-0.039983314,-0.038176302,0.0672618,-0.1174705,-0.18886195,0.23329729,-0.1284044,0.16980948,0.083400555,-0.024952313,0.054815326}, {0.014221413,-0.2152777,-0.07376201,-0.1825805,0.11221579,-0.052908886,0.072084144,-0.15937495,-0.11198694,-0.035981454,-0.07051524,-0.11808438,-0.15557277,0.021477742,-0.14445777,-0.14721416,-0.0024203302,0.08340829,-0.06973775,0.099511944,0.09841289,-0.041409094,0.04337314,-0.10551061,0.022817766,0.2137624,0.03911128,-0.22633506,-0.018320128,-0.078665674,-0.09813751,0.004294795,0.06744478,0.013499518,0.018584471,0.10065592,-0.038379997,-0.11419062,-0.074241474,0.13342059,0.033258483,-0.034702636,-0.0809529,-0.052259754,-0.071969636,-0.27411866,-0.07546936,0.21529628,0.007707562,-0.06197915,0.020228649,-0.21419053,-0.156144,0.015647177,-0.07226056,0.008242127,0.13221939,-0.14736632,-0.11339967,-0.07026723,-0.22269987,0.0400254,-0.089141764,0.06051188,0.021020588,-0.16054374,0.078950256,-0.1506001,0.09724897,-0.12682933,-0.24873297,-0.09223749,0.0284972,-0.13396327,-0.096430756,0.01612086,-0.047872424,-0.1378162,-0.002960871,0.121257365,-0.0132492585,0.23056085,0.017663399,-0.047183488,-0.0009455157,-0.029582398,-0.021271298,-0.06954422,-0.03345353,-0.081297494,0.09795096,-0.0673601,0.14158027,0.08582797,0.061414957,0.0025877608,-0.1215473,-0.070172675,0.20038919,-0.12093212,-0.048969083,-0.012638088,-0.02142723,-0.014109416,0.029534357,-0.023962807,-0.01884811,0.100794844,-0.05051273,-0.13061935,-0.11722971,-0.12190378,-0.2757184,-0.0104391,-0.03302418,0.05484188,-0.18418197,0.019067608,-0.06220145,0.05148109,-0.099360935,-0.09763993,0.13350245,-0.112389214,0.10760252,0.13859074,0.15039557,0.111832514}, {0.011024648,-0.15097934,-0.1085787,-0.05850964,0.083733685,0.01930286,0.033069327,0.10461333,-0.1425646,0.052745447,-0.017179037,-0.11027507,0.001447313,0.008418762,-0.12867935,-0.02454448,-0.070802614,-0.0160537,-0.14312348,0.0899353,0.08985082,-0.11393667,0.0798133,0.073159814,0.023941647,0.15602921,-0.004388236,-0.19331205,0.027758162,0.027661474,-0.11541214,-0.06646386,0.11979394,0.06842688,0.049327202,-0.025020525,-0.12171376,-0.14170758,-0.10496076,-0.079585284,0.022555126,-0.0894651,0.016984224,0.049355894,-0.19006748,-0.17611195,-0.11270188,0.13403961,-0.04311057,0.16655606,0.061081044,-0.10477695,-0.17565575,0.033220347,-0.03188094,-0.02460468,0.032201957,-0.15242994,-0.026790984,0.038303524,-0.13449438,0.00530822,0.0063295714,-0.0996384,0.062376477,-0.014608209,-0.0042968513,0.06659178,0.0575226,-0.13912855,-0.1412472,-0.013498571,-0.03848816,-0.14321749,-0.12108713,-0.049201522,-0.061819073,-0.26346993,0.048086736,-0.08856357,-0.037511844,0.0837144,-0.14690463,-0.14872622,-0.05077262,-0.047880124,-0.15472281,-0.08348852,-0.11845817,-0.013850819,-0.06897865,-0.25927535,0.088728875,-0.03912608,-0.06664924,0.11221415,-0.14112222,0.032049775,0.20662239,-0.20813915,0.025752971,-0.07912559,0.015685067,0.029736625,0.051239815,-0.1617301,-0.20101249,-0.076155566,0.0018140142,-0.013216538,-0.05614127,0.03417046,-0.14706536,-0.026462365,0.086535424,0.15121849,-0.28787142,-0.0020140207,-0.11476053,0.014206231,-0.059120465,-0.06795217,-0.07988666,-0.20485313,0.023841575,0.10855612,-0.04981689,-0.050438553}, {-0.12712206,-0.0071713408,-0.012604641,-0.0069347518,-0.017742999,-0.0744248,0.11115545,0.03765996,-0.16620466,-0.06629586,-0.087459624,-0.03662617,-0.059442155,0.047818698,-0.0550357,-0.038499758,-0.01856633,0.061863642,-0.1623263,-0.00056234375,0.11089892,0.022390215,-0.025946427,-0.03727527,-0.05695985,0.1300739,-0.01688844,0.010347382,-0.06518748,-0.13312544,-0.15486735,-0.10240238,0.06756006,0.12409131,0.006236589,-0.03368756,-0.018105755,-0.08252418,0.030094448,-0.016037412,-0.014847679,-0.13621597,-0.09938904,-0.048395026,-0.19341394,-0.03494227,-0.18045688,0.024871657,0.004255268,0.12379282,0.10757502,-0.08857424,-0.036094468,0.068481475,-0.09458156,-0.022139693,-0.049904216,-0.093612514,-0.034525067,-0.13936539,-0.052527383,0.008153625,0.039884813,0.0051357313,-0.03382552,-0.02210223,0.044006184,0.046422437,-0.03091584,-0.10989079,-0.12714477,-0.092260666,-0.06428059,0.05356049,-0.12778853,-0.078028075,-0.11629878,-0.24294193,0.021561647,0.0017020392,0.03837165,0.01794388,-0.07660542,-0.12698391,-0.06505025,0.08971508,-0.0006678028,0.013319317,0.032080624,0.019484732,0.0018641392,-0.20059672,0.00525672,-0.14216675,-0.119507276,0.16790247,-0.1264422,0.03448041,0.1318937,-0.1359956,0.045978855,-0.028788328,-0.08588685,0.10360146,-0.10624459,-0.113123626,-0.06976484,-0.11446853,0.10205342,-0.074347444,-0.043783877,-0.081094876,0.0042776577,0.11035561,0.056484956,-0.04396216,-0.17635852,-0.08933905,-0.09633387,-0.03386596,-0.0007194831,-0.016368983,-0.040793307,-0.09256163,0.04396393,0.043475207,0.044381022,-0.07096432}, {-0.11446614,0.11498531,0.0077200956,0.0050443686,0.0007879545,-0.09500991,-0.010859655,0.13294815,-0.1384752,0.016519928,0.0019999968,-0.06016604,0.07286463,-0.003905393,-0.1140835,0.042873368,-0.023314487,-0.082830936,-0.07507569,0.006324848,-0.041784402,0.008040151,0.044578023,0.079921275,0.08278108,0.12458503,0.07095919,-0.006305968,-0.08010904,-0.121937305,-0.018788459,0.04113658,0.11621626,0.07672614,0.023185143,-0.074817345,0.03812307,-0.08319849,0.041744094,-0.0081896,0.07258423,-0.033733603,0.029646127,0.050467025,-0.045219123,0.047862105,-0.036966298,0.074180186,0.05276259,0.11419017,0.051079128,-0.03350865,0.08130946,0.0060468432,0.018035455,0.08818269,-0.1412012,-0.105218396,-0.022300584,-0.05339841,-0.07851913,0.0071020196,-0.051610496,-0.12059043,0.112432696,-0.05822896,0.031903025,0.049294088,0.05507091,0.05308327,-0.11659277,-0.092860006,0.071157955,0.026110735,-0.094010584,-0.042439144,-0.053517044,-0.1377059,-0.036725644,-0.044701252,-0.13693905,-0.015820473,-0.11254047,0.04164693,-0.08782766,-0.018627679,-0.04214239,0.14683188,-0.028922793,-0.0738355,-0.104554854,-0.16895646,0.0056487033,-0.07879323,-0.08928201,0.19298911,-0.07887976,0.015428756,0.10200015,-0.06687824,-0.0843659,0.059782024,-0.05809864,0.024157595,0.0077354824,0.032918844,0.07268175,-0.0678891,0.06330084,-0.12006207,-0.010667174,-0.030264894,0.07208255,-0.033475243,-0.058762528,0.0018403513,-0.03379826,-0.043620475,0.004887878,-0.047006506,-0.008018538,0.06876628,-0.10287598,-0.051223684,0.09889488,0.12968719,-0.16566415,0.1250647}, {-0.005893351,0.119997844,-0.12305513,-0.07502694,-0.06597031,-0.12459988,0.024058329,0.06339792,-0.004601771,0.07032921,-0.10315577,-0.09274765,0.006730413,0.030784082,0.060694695,0.0035663336,0.08664855,-0.09123887,0.02428501,0.07056984,-0.12538186,0.09678004,0.01784315,-0.061624896,-0.12196047,0.07085106,-0.061256357,0.12917046,-0.047921505,-0.0617661,-0.097977586,-0.113615714,0.15065445,-0.008660615,0.14662406,0.07330979,-0.04019624,0.040154077,-0.009859796,0.02823741,0.10813408,0.0067316256,-0.12482245,-0.071882404,-0.0747559,-0.071193546,-0.019310944,-0.05765055,-0.056516934,-0.040450506,-0.046435032,0.034933973,0.07196743,0.02331031,-0.11271829,-0.0028176724,-0.13909616,-0.15390703,-0.07855955,-0.11839131,-0.095313765,0.10217952,0.024908066,0.02967461,-0.004223529,0.1158971,-0.053607002,-0.07801765,0.060230363,0.1467532,-0.07424971,-0.082394935,-0.09455672,-0.036553472,0.009599453,0.0071951714,0.020455254,-0.11689076,-0.15559033,-0.028919278,-0.061504677,0.17659433,-0.019421672,-0.038709454,-0.102490634,-0.0027126863,-0.022327079,-0.058313638,0.019450413,-0.07083141,-0.049479272,-0.0025208786,-0.11642809,-0.06753088,-0.1737317,0.17834368,-0.048602052,0.056004845,0.053766456,0.101213746,-0.0046232548,-0.14322206,-0.082684875,0.007859158,-0.021625385,-0.10389984,0.13559788,-0.019302083,0.10832323,-0.10421924,-0.0151662445,-0.036501355,0.09131675,0.0015656002,0.020398047,0.047202565,-0.15137872,-0.051679,0.010817366,0.10210716,0.05562786,0.0110813975,-0.018312167,-0.12269488,0.09227906,-0.020458255,-0.028191779,0.06966986}, {-0.03771628,0.0805545,0.07065939,-0.031664133,0.0740718,-0.15062734,-0.053137135,-0.033781707,0.02122255,-0.06647529,-0.049728632,0.0052767983,0.1515268,0.0106144305,0.11100529,0.00012748409,0.112621844,0.016600573,0.04712983,-0.06291404,-0.13694336,0.101227514,-0.090981536,0.0799854,-0.06881125,0.15502462,0.07652025,0.025994672,-0.019750655,0.06901604,0.040763874,-0.024948083,-0.04179736,-0.035616346,0.13729534,-0.020641465,-0.042544287,0.07582459,-0.0432569,0.07967589,0.0631646,0.20438024,0.106286,-0.09401448,0.043578845,0.11002681,-0.112028904,0.058414385,0.040851086,0.10510334,0.05800935,0.008367828,-0.038587004,0.08239057,0.028432427,0.0891056,-0.07572185,-0.14211927,-0.008389744,0.02699635,0.010451939,0.09385027,-0.10054665,0.0053604986,0.090280026,0.07327594,-0.17049254,-0.07898526,-0.09751706,-0.04657266,0.03377258,-0.07425743,-0.06899231,0.0067548873,-0.06834269,0.081302024,0.083162464,-0.0039647217,-0.09059123,-0.039290607,-0.03148614,0.13538851,0.09177761,0.033120923,-0.0061115786,0.07165211,0.065449335,-0.038812935,-0.018606197,0.017550258,0.009193701,0.077828944,-0.079788856,-0.010502835,-0.110429674,-0.02046591,-0.057761442,-0.10117163,0.0883036,0.0066597746,0.053088203,0.0007457989,-0.10699146,-0.0008422424,-0.13038822,0.026077405,0.06805083,-0.027845666,-0.04351353,-0.03995077,-0.08783228,0.06343786,0.01258571,0.03049661,-0.049425244,-0.014420308,-0.059010062,-0.005948627,-0.03355366,-0.092225224,0.00538053,0.08133116,-0.06331281,0.0009948304,-0.0620103,0.04250883,-0.1528453,-0.057974525}, {0.039588645,0.07668854,-0.051162194,0.03947276,-0.048598807,0.021511732,-0.022619754,0.026893698,-0.0013562499,-0.024353903,0.101671584,0.014243173,0.0809797,-0.06557574,0.09590049,0.06170803,0.11561009,0.05650536,-0.020764282,-0.043076985,-0.042175014,0.021560755,-0.057830717,-0.031328946,-0.07922895,0.05446258,0.100238375,-0.0071085556,-0.038331583,-0.049006555,-0.016597388,-0.08561839,0.10087966,0.029102465,-0.025473261,0.08464121,0.11031154,-0.028966922,-0.09281772,-0.04430065,0.03323621,0.04557946,0.10329626,-0.043477368,-0.0373636,0.019447748,0.018883785,-0.007372308,0.0022899695,0.10121259,0.011145284,-0.024671474,0.021239737,-0.00885158,0.05657332,0.15768887,-0.032553315,-0.1082582,-0.018257162,0.08349307,0.1052308,-0.037025627,-0.040635083,0.050903194,-0.059970398,0.029691355,-0.14477704,-0.06240741,-0.1378171,0.02107094,0.041116897,0.015884558,-0.092128865,-0.013023343,-0.054571114,0.024652278,0.13558139,0.019237045,-0.13679805,-0.17104998,-0.065053485,0.057726335,0.104276925,0.034055132,-0.035304047,0.018595321,-0.11106247,0.0364473,-0.0030212125,-0.11497598,-0.0012387186,0.010832572,-0.07919491,0.08128193,-0.13326,-0.026832715,-0.004703229,0.059949502,0.020857321,0.093651995,0.08274862,-0.057114348,0.06548005,-0.014591549,-0.02406328,-0.1042441,0.024006702,0.0067892848,-0.07835423,-0.07368275,-0.10174405,0.0011212454,-0.06547531,0.13688758,-0.029166155,0.06295833,-0.007914389,0.05265399,-0.09015976,-0.05548421,0.0526407,-0.011657824,-0.08500097,0.050173767,0.041077547,0.047431264,-0.09650762,-0.07665549}, {0.048014604,-0.051647283,-0.13190092,-0.04478442,-0.070873365,-0.06517081,0.068023935,0.07167604,-0.14309546,-0.007828389,0.08135289,-0.034686543,0.03607616,-0.0083774235,0.032227043,0.15792282,0.05222958,-0.10798265,0.00631912,-0.14313412,0.001621984,0.09101024,-0.06787838,-0.034661822,0.08871979,0.017627576,0.021514371,0.040523414,0.08927435,0.0673634,-0.037041493,-0.019015323,-0.13429055,-0.0014270953,0.11140744,0.11388805,-0.0127115445,-0.06374329,0.02585438,0.11679229,-0.041483294,0.015454925,0.0046950937,0.00641792,-0.035483,0.10463898,-0.037217043,-0.048638187,-0.121320784,0.12829375,0.11272882,0.07549164,-0.03811307,0.05718831,0.10906142,0.11603992,-0.090078756,0.07092905,-0.018587613,0.054848425,0.031273324,0.083733454,0.10565506,-0.06513277,0.016686449,-0.024300346,-0.08544124,-0.108636394,-0.03871367,-0.035421096,0.11127524,-0.002080488,-0.051565085,-0.09761579,0.06591583,-0.018061364,0.008036709,-0.019620301,-0.07634009,-0.12785263,-0.014797672,0.067764595,-0.02483913,-0.020420933,-0.051277727,0.035854235,0.04943768,-0.09706761,0.07158691,-0.116583675,-0.06857717,0.056755617,0.021685926,0.08128153,-0.06495438,0.048635304,-0.10547426,-0.097606994,0.1230223,0.14417,-0.040206928,-0.034510244,-0.08261007,0.0132749025,-0.06496959,-0.031137923,-0.023404764,-0.13341945,-0.022518864,0.013588395,0.015960515,0.044361215,0.016648289,0.10648662,0.093436815,0.014191379,-0.10207614,0.09753465,-0.016223283,0.0049770325,0.010372706,0.087928,-0.023216963,-0.069072686,0.109494165,-0.058930606,-0.0794385,0.040829103}, {0.11240689,0.052723847,0.0086541865,0.043295756,-0.05968759,-0.052646875,0.03736971,-0.034741685,-0.04967038,0.037022926,0.073616646,-0.06912516,-0.03285174,-0.057164304,0.08983937,0.029822247,-0.050641116,-0.13702302,0.07490024,-0.13558806,0.019095736,-0.052565545,-0.10181739,0.014439781,0.018292999,0.026607066,-0.022007769,-0.122899085,-0.018157734,0.0028745579,0.031154916,0.02782583,-0.018658174,-0.07206134,0.061181247,0.046457928,0.015480873,0.094331615,-0.017815286,-0.04286724,-0.029401524,-0.02702357,-0.0015665276,0.060262196,-0.12308924,0.06070308,-0.026091564,0.0798065,-0.13818146,-0.004950039,-0.0022343667,-0.07201458,-0.12562796,0.11040068,0.057729226,0.04658047,-0.13368963,0.028310018,0.10272885,-0.1148727,0.0025418948,0.067798,0.036339078,-0.100551836,-0.06483213,0.12883072,-0.07214069,-0.117068,-0.14032523,0.0076357536,0.1217012,-0.110974185,0.046453875,-0.11660471,0.047461677,0.08891986,0.06666847,0.072280444,0.08122306,0.033062726,0.062292203,0.11755135,0.10496804,-0.061893508,0.003803098,-0.15886395,-0.06835128,-0.089751475,0.08931438,-0.0033348561,0.06873283,0.16716348,0.031200778,0.07039359,0.037925992,0.10646066,-0.07315606,-0.08918281,-0.034425486,0.018106539,-0.097778775,0.061519988,0.039016828,0.04789288,-0.033737347,-0.07890107,0.097633705,-0.096627615,-0.09173758,-0.06180548,-0.11142379,-0.050512794,-0.021611188,0.0037959241,0.061208133,-0.0089455005,-0.11305436,-0.025827633,0.068516135,-0.042544775,-0.0923133,0.09051184,-0.023114648,0.07340476,-0.0064555174,-0.056835666,-0.11947304,-0.01940813}, {0.09525835,0.10003362,-0.051861744,-0.12187078,0.11336333,-0.04057467,-0.050839227,0.06288628,-0.110818796,0.004729863,0.08681804,-0.09560594,-0.037281495,0.051364206,-0.10125282,0.0075899544,0.113497674,0.020880692,0.0032821293,0.0051659686,-0.06421391,-0.13163395,0.09505554,0.023011317,-0.08396985,-0.08086001,0.036090784,-0.056432534,-0.07695694,-0.045276836,0.0054928414,-0.0880852,0.088335894,0.03327427,0.11492427,-0.059497047,0.069699734,0.046111032,-0.119847775,0.0052960794,-0.008547946,-0.033927917,-0.023979124,-0.066444695,-0.08513865,0.100537606,0.108036645,-0.07402876,0.023938796,-0.03027682,-0.060715154,0.09217579,-0.09465927,0.10666917,0.03849265,0.09975304,-0.07321162,0.052858323,0.08840081,0.051779136,-0.04671467,0.08987187,0.096319966,-0.022272334,0.008586363,0.12529115,-0.033639006,0.008038223,-0.046612784,-0.100201055,0.04420246,0.053442862,-0.040292624,-0.045668915,-0.023937447,0.053979564,0.049641393,-0.012749566,-0.005376835,0.055821035,-0.021084024,0.13320583,-0.03576853,0.075490244,-0.06760777,-0.060192477,-0.13115942,0.08046266,0.061595798,-0.06827534,-0.017133245,0.014011792,0.01435842,-0.02174823,-0.029152354,0.10337725,-0.09000329,0.042983755,0.036772236,0.06146132,0.036483765,-0.08068522,-0.06512184,0.11368918,-0.12131285,0.109154984,0.15059727,-0.08092208,-0.06353108,0.09120859,-0.12432171,0.14105886,-0.026220135,-0.038552,-0.013832681,0.08211743,0.065349475,0.036598805,-0.08556651,-0.025372457,0.03764047,0.05921456,-0.12126685,0.09668741,-0.02453613,0.06732218,-0.08399892,0.057859294}, {-0.07301122,0.018413182,0.011625877,0.06460739,0.10275923,0.06716566,-0.08059303,-0.062955625,-0.13497952,-0.124599054,0.078723304,0.041038323,-0.03382255,0.0063650813,0.04651363,-0.0426395,0.0012849252,-0.09492317,0.031314295,0.020563489,-0.03775691,-0.09665188,-0.012911605,0.0011736155,0.0030335286,-0.02229631,0.07102615,0.03260755,0.060626533,0.031624343,-0.03751953,-0.10846408,-0.0596682,0.06956514,-0.022170248,-0.11392468,-0.06569167,-0.06916266,-0.027408484,0.07632899,0.08792308,0.06295119,-0.053115338,0.1276815,-0.0141063705,-0.051235784,0.18325776,0.03128043,-0.024608938,-0.07462321,-0.07470423,0.0010152094,-0.10487423,-0.08531292,-0.07106278,0.035552934,0.012000464,0.008808358,-0.03475756,0.06829858,-0.058322158,0.03680535,-0.048059803,-0.047850173,0.049051795,-0.07194458,-0.096110135,0.005518487,-0.04084965,0.044663943,0.09961485,-0.0940613,0.053191144,-0.030634964,-0.09080369,0.0683444,0.07721929,-0.014399143,0.06282674,0.021691069,-0.08735954,-0.044951748,0.013216792,0.0035092004,-0.029234532,-0.12081674,-0.14167495,-0.028399616,-0.015686408,-0.1070301,0.07978337,-0.022052882,-0.14567779,-0.037029855,0.010967808,0.11388628,-0.09373238,-0.04930498,0.0766729,-0.082502395,-0.10277173,0.056407567,-0.030264707,0.058499,-0.055012938,0.079773635,-0.005776046,-0.12444293,-0.022975583,-0.06021551,0.018279027,0.09939568,-0.000905225,0.11306812,-0.043208946,-0.05626764,-0.0894495,0.05573966,0.102573395,-0.02736498,-0.10686107,-0.03703922,-0.1114157,-0.058405355,0.065027736,-0.10865359,-0.11150066,0.022442797}, {-0.0016304867,0.10907707,-0.00895204,0.035370264,0.023954283,-0.06124201,0.044404894,-0.036373615,-0.13578987,-0.15664686,-0.049950756,0.02392092,0.02568801,0.058331735,-0.11681036,-0.023650207,-0.04848245,-0.12997474,-0.115866624,0.018885296,0.020989962,-0.12862547,-0.026830161,-0.06453549,-0.03661749,-0.020169655,0.028109152,0.056267597,0.016827034,0.054415897,0.03171762,0.010105067,-0.06510371,0.06978937,0.10531955,0.06520102,-0.04880138,0.02878949,-0.03992227,0.04578508,-0.10372934,0.14072277,-0.023086436,0.12911296,-0.047952875,0.06599869,0.115902446,-0.060908202,-0.081141755,0.106163815,-0.10735026,0.10714375,-0.0037698678,0.08765291,0.060121566,-0.104392946,-0.06212977,0.0052584447,-0.01633215,-0.10250743,0.06377719,0.05269343,0.06774085,-0.07719142,0.11513975,0.0012807412,-0.09428359,-0.10462414,-0.100355394,0.0936398,-0.032818396,0.035079677,-0.08108437,0.040095646,0.04678011,0.02770755,0.05182302,0.10974394,-0.0636001,0.057570744,0.012404021,0.030758161,0.11454989,0.012186417,-0.046622206,-0.055206113,-0.13561323,-0.000870285,-0.08124611,-0.06960209,-0.025487,0.07709531,-0.14357808,-0.040976886,-0.06146265,0.123310246,0.05788541,0.065603696,0.020604104,-0.08870759,0.084976986,-0.0029109959,0.053166524,0.056612033,-0.07701279,0.014217804,0.07894821,0.014191958,0.05969882,0.07359924,-0.055427603,0.11801152,0.024040729,-0.0651476,-0.06531019,0.0045045875,0.06905926,0.12012545,-0.053096846,-0.08867109,-0.06361223,0.055139393,0.009148851,-0.07104304,-0.081761464,-0.044402156,0.028504815,0.04106192}}
#define W_LSTM_KERNEL_F_WIDTH 28
#define W_LSTM_KERNEL_F_HEIGHT 128