#pragma once
#define W_LSTM_RECURRENT_KERNEL_I {{0.064554945,0.08473891,0.1285829,-0.023488376,-0.021798091,-0.0001829846,0.1125641,-0.08791756,-0.15501347,0.017571341,-0.06751772,-0.10231998,-0.17640775,0.043843146,-0.017788693,-0.11619925,0.028596947,0.012973798,-0.1170691,0.007423786,0.059936803,-0.071897484,0.028389663,0.026641581,0.06411754,0.07406762,0.03220219,0.102410935,0.02322856,-0.080915384,-0.044974905,-0.038574338,-0.015196467,0.13862354,-0.144636,0.07934247,0.039214265,0.041557126,-0.031769257,-0.07042825,0.084111504,-0.07579989,0.13057251,0.09228203,-0.09281881,-0.032404136,-0.02586925,0.13223831,-0.10129023,-0.015031735,-0.102155715,-0.010871378,0.12724191,-0.04589874,-0.053844567,0.017579818,0.057203885,-0.13061303,-0.102274515,-0.017680865,-0.018456526,0.11659072,-0.012252143,-0.08387345,0.005320872,-0.037370436,0.13318613,-0.17568706,0.21302938,-0.030374905,0.06933524,-0.040113997,-0.01599679,0.06573631,0.011136103,-0.03146559,-0.019725494,-0.102416866,0.055319548,0.095094636,-0.12848602,0.015673311,-0.022750624,0.088858694,-0.0031351547,0.07688795,0.039569963,-0.005326684,0.06620966,0.072099425,-0.0008130773,-0.07323452,0.12946819,0.192494,0.0068208836,-0.080445215,-0.012239338,-0.10044931,0.04624167,-0.012390324,-0.060578838,0.06366699,0.048918128,-0.055479273,-0.0075801816,0.19480102,-0.08758487,0.060363423,-0.07994894,0.027899142,-0.013916581,0.08537633,0.008937199,-0.0244843,-0.058860485,0.062247496,0.05315871,0.033146515,-0.046349637,-0.010460366,-0.20551085,-0.032903,0.079170465,0.048554312,-0.031975556,0.108177625,0.080170676,0.030739654}, {0.13072746,-0.0047218166,0.12293318,-0.08339883,-0.17138715,0.018748708,-0.038770173,-0.043767452,-0.078045756,0.109616674,-0.06672957,-0.04638019,0.015243977,-0.104973815,-0.0048573054,0.087968856,0.10792914,-0.19215088,0.0605189,-0.09208083,-0.08051097,0.03893887,-0.12249959,-0.10563468,-0.05810491,-0.022929927,-0.03149627,-0.09098402,0.09791624,0.07529221,0.0015688378,0.039684575,0.08165418,-0.12802553,-0.08766817,-0.04978275,0.048003,-0.07032383,-0.10090461,0.07310051,0.01826143,0.064047046,-0.07052377,-0.005709109,-0.08972904,-0.009246473,-0.029652135,-0.0013973474,0.12544623,0.048134916,0.1877153,-0.037617594,-0.14904654,-0.02000571,0.080162235,0.026379801,-0.0062215384,-0.040783834,0.04403166,0.03736978,-0.0067689973,-0.04091939,-0.0021165065,0.081036344,-0.029186308,-0.0264129,-0.037675768,-0.045042973,0.0026526898,0.060592387,-0.10480088,0.1075163,0.09384211,0.06817736,0.011601534,0.03486245,0.07644653,-0.07053191,-0.15005338,-0.12735628,0.07660138,0.10174154,-0.01404989,0.14508803,0.020163773,-0.051763184,0.007436207,0.028890943,0.005495156,-0.016610565,0.0236843,-0.038470436,-0.03340952,-0.06780857,-0.022259112,0.1550036,0.06631942,0.18431887,-0.0025998466,-0.0025936514,-0.010877079,-0.14681216,0.035828035,0.0630353,0.08926504,-0.14424519,0.064655766,-0.05816852,0.063310705,-0.023565108,-0.004016874,-0.15110666,0.012783612,0.03788352,0.05454852,-0.11521262,-0.26266873,0.06346408,0.022250945,0.035061885,0.07244561,-0.02675705,-0.056997944,-0.1077147,0.058007345,0.056877058,0.017030735,0.03107334}, {-0.008924934,0.021403898,0.033572882,-0.0011172841,0.1824245,0.0021618947,0.062924094,0.058257952,-0.037219614,-0.21803387,0.15277447,0.14314273,0.036105707,-0.024750862,-0.029188901,0.084626436,0.042857815,-0.024665289,-0.09134953,-0.053035345,0.099306494,-0.074143305,0.0023054457,0.07596164,0.10602709,-0.020667622,0.047243122,-0.043968678,0.0022472613,-0.047122236,0.023320897,-0.053497877,-0.025055053,-0.012310187,0.085905045,0.10436833,-0.039961092,0.087411985,0.11965047,-0.059810698,0.022936521,-0.037108917,0.091004625,0.10720008,-0.03151646,-0.010967685,0.08901506,0.04894341,-0.0103902295,-0.0878218,-0.1199236,-0.14182924,0.07863,0.013809646,-0.05323803,-0.0766376,0.11482469,0.053505708,-0.0311287,-0.040372692,0.092304386,-0.08185766,-0.18918394,-0.06959194,0.02033011,-0.07572502,-0.06795808,0.17037413,0.124733806,0.06292281,0.046283036,-0.0036737686,-0.05326784,-0.00784651,-0.06908806,-0.04339303,0.06543486,-0.0720608,0.07754975,0.10524957,-0.13235226,-0.007418796,0.13871664,0.043121498,0.023233017,0.08803567,0.030649146,-0.059629627,-0.16113703,0.040649094,-0.015036294,0.008796088,-0.0064435652,-0.015842697,-0.004103553,0.025425186,-0.032706738,0.05261961,0.009062063,0.033270463,-0.043994237,0.15731682,0.06040059,-0.02126265,0.02691215,0.20228773,0.018370135,-0.020964859,-0.05991352,0.06552793,-0.0069262064,0.09840103,-0.10772446,-0.014882512,0.1037739,0.006673092,0.24297613,0.078780934,-0.099615864,-0.005477816,-0.0019942862,0.14484723,0.13858247,0.043576237,0.013033563,0.020015234,0.09120307,-0.011696547}, {-0.0039882557,-0.09653139,0.02540027,-0.078095146,0.06611655,-0.05183954,0.0057770517,-0.09445134,-0.075231746,-0.16229098,0.10675809,-0.026935266,-0.023887916,-0.037427325,-0.031665668,0.08916532,-0.050563086,-0.07520975,-0.04032666,-0.114561595,-0.0005309868,-0.0003673419,0.041525923,0.031581055,-0.039510407,-0.036032774,-0.1433826,-0.022938123,0.0056566456,-0.08716339,-0.07371598,-0.06454881,-0.08125217,-0.17050746,0.05486723,-0.0027710344,-0.0017480633,-0.055069502,-0.058941636,-0.10090362,-0.079964325,-0.09205186,0.033672817,-0.076017,-0.0043697897,0.0048093265,-0.036520008,-0.0294859,0.001790243,0.013702199,-0.057060234,-0.013231501,0.096595,0.093896754,0.0563008,0.15719165,-0.10854466,-0.04146718,-0.122404076,-0.14257641,0.04647539,0.06078728,0.013247517,0.021166904,-0.09698953,-0.08257072,0.116802126,-0.042103186,0.064028814,-0.0040687295,-0.038129367,-0.051998056,-0.077336274,-0.06479414,-0.017087134,0.04629598,-0.020825714,0.021566298,-0.052076545,-0.19189724,-0.0868126,-0.11308777,0.038308274,0.056659006,-0.04623631,-0.066465475,0.002478546,-0.0044999225,-0.10420575,-0.077980556,-0.15876126,-0.10640328,-0.06081647,-0.017797627,-0.09267082,-0.09106429,-0.012553444,-0.012698153,-0.000109154265,0.04609897,-0.05002377,0.007430846,-0.056121487,0.19856206,-0.102493666,0.05665412,-0.069994666,-0.10237968,-0.081696145,-0.014479571,-0.06949024,-0.13424604,0.027704868,-0.06151488,-0.059999913,-0.09330007,-0.06982185,0.10012715,-0.107278846,-0.09822078,0.020991933,0.013968035,-0.09452961,-0.0035633785,-0.14864287,-0.15801528,0.017388847,0.100336835}, {0.15680361,0.014433878,0.06809924,-0.14342959,0.013011223,0.00735361,0.14381193,-0.015874779,-0.029747495,-0.011739942,-0.10847753,0.21418121,-0.005835858,-0.10693974,-0.012378634,0.0075669196,0.09983221,0.09139649,-0.027928798,-0.10636764,0.05438886,-0.048855916,0.13930453,-0.0027220654,0.13001637,-0.028912375,0.0028107534,-0.0021544918,0.11272283,-0.022592418,0.03943165,0.056811873,-0.0840797,0.0055894684,-0.102865964,0.053735282,-0.046939254,-0.090566464,0.030215524,-0.0016382777,-0.07914529,-0.0030410623,0.011125904,0.10793928,-0.058899365,-0.14811964,0.057171192,0.13960607,0.04393675,0.12522328,-0.008521142,-0.028739924,-0.011250207,-0.0061762175,-0.06643977,-0.087850586,0.008584527,0.114492156,-0.039349798,-0.0031282871,-0.12623891,0.02864497,0.083383486,-0.06293663,-0.06903219,0.02245849,-0.10097163,0.022160677,0.09495363,0.017900914,-0.20797263,-0.09697292,0.09751398,-0.032856807,-0.015620681,0.026305523,-0.025438638,-0.023174295,0.09341731,0.03918898,-0.16918376,0.04715906,-0.1076039,-0.14535052,-0.043835763,0.10329017,0.12596841,-0.0134289,0.086430855,0.057535328,-0.09696263,-0.08544609,-0.0026281462,0.06286435,0.01047854,-0.029290725,-0.018370511,-0.0023012143,0.08986965,-0.005831222,-0.09610658,0.07136374,-0.021447437,-0.027021706,0.030668281,-0.122884035,0.13271573,-0.028023463,0.023540862,-0.0486676,-0.044725157,0.07252198,0.036641434,0.025218384,0.03463243,0.06261547,-0.052479357,0.18200794,-0.019885458,0.02290483,-0.104372814,0.045107894,0.016468287,-0.12831749,0.081512466,0.15680458,0.05400711,-0.04957156}, {0.0072646234,-0.041263793,-0.11169233,0.004632116,0.01243215,-0.064534895,-0.017894171,-0.04377171,0.023397772,0.022855857,0.021725047,0.1209936,-0.05777784,0.056808855,-0.016447484,0.063993074,0.053314295,-0.06362691,-0.043306418,-0.028979646,0.13597846,0.07084624,-0.06436643,-0.019946657,0.024260318,0.097833894,-0.031918623,-0.019530479,-0.09936823,0.013018692,-0.012051372,0.04244913,-0.07328947,-0.0911135,0.13469258,0.09309511,0.023498684,-0.0375637,-0.117171764,-0.023232106,0.09511241,-0.02166066,0.14945604,0.116979636,0.0035121222,-0.0028745937,0.10255997,-0.057221524,-0.0034087836,-0.011381073,0.008386611,0.13238196,0.038715214,-0.053033885,-0.022193398,-0.025883723,0.16362958,0.0025772944,0.055861242,-0.13694747,0.10798691,-0.06961451,-0.039577436,0.20659034,0.07847859,0.0713589,-0.00916143,0.05766226,0.115194336,0.020497538,-0.01161557,0.061248675,0.04050343,0.1578845,-0.051547244,0.05105307,0.18538831,0.04233727,0.055096064,0.047979232,-0.04213521,0.055136092,0.0017961215,-0.0446652,0.06305523,-0.118513495,0.06499782,0.012992835,-0.09217022,0.124920614,-0.10612087,-0.030450013,-0.02627789,-0.029016238,0.07502756,0.030678904,0.085897,-0.073724635,-0.011508959,-0.06825685,0.19819601,0.042661484,0.12540077,0.0015729959,0.10428629,0.19501607,0.12314295,0.028954456,-0.04933434,0.00444871,-0.10055953,-0.032673653,-0.024166238,-0.087956205,0.06386635,-0.11284567,-0.05917138,0.09781953,-0.04344834,-0.084856555,0.046262197,0.04549449,-0.0138030695,-0.038985476,-0.0440151,0.0337313,-0.051240545,0.035299487}, {0.09818966,0.07358589,0.21473806,-0.034049112,-0.16753481,0.067024626,-0.059668005,-0.052084077,0.05984832,0.040106814,-0.03783169,0.057732537,0.030737678,-0.027067903,0.014671037,0.10886581,0.10486915,-0.12485035,0.0973631,-0.022769714,-0.071740955,0.09732944,-0.0717693,0.0923695,0.21934739,-0.24912053,-0.09829944,0.14459461,0.059851367,0.00512225,0.08428359,0.05463711,0.051616967,-0.054214485,-0.05283453,0.10546065,-0.07947293,-0.098301575,0.07456812,0.14546433,0.032377794,0.02160435,0.034646276,0.033990085,-0.052881878,0.024089104,0.03205099,-0.052602444,0.07865492,-0.06156028,0.052908596,-0.0019148528,-0.015201434,0.06316738,-0.15782651,-0.14502808,0.019942256,-0.0279433,0.041703973,-0.06306988,-0.12420357,-0.11310118,-0.07362546,0.058717832,-0.02796934,-0.06372979,-0.14845315,0.10133249,0.00077702163,-0.043270476,-0.17257373,-0.02464913,0.1570603,0.06179475,-0.045281906,0.13960919,0.10247724,0.087215304,0.045881953,-0.035541162,-0.049286075,-0.08771569,0.08333342,0.036184676,-0.056866825,0.014698372,0.0921941,0.099749535,0.03731895,-0.08604207,-0.07344142,-0.018323258,0.025185427,-0.09386532,-0.016822321,0.06603961,0.22840835,0.14700712,-0.09594506,-0.06753998,0.021439817,0.08903067,0.06399505,0.009545572,0.05432863,0.01514933,0.13360232,0.12873092,0.2600155,-0.1065682,-0.12811695,-0.06963963,-0.026242873,0.012954347,0.04605037,-0.10878107,-0.1441728,0.14068374,0.0690027,0.11871263,0.060834724,-0.042899985,-0.14530073,-0.17932545,0.068956316,-0.012578564,-0.030162537,0.017397046}, {0.03334223,0.040312827,0.08281721,-0.0043762624,-0.009000237,0.075579084,0.12721318,0.02985435,-0.04784214,-0.1692038,-0.16349423,0.0962126,0.023198655,0.07757743,-0.007629888,-0.06344459,0.1322315,-0.026611997,0.0067960317,0.026919203,0.1296438,-0.057753906,0.06079671,-0.04844718,0.07292902,0.026489824,0.025324915,-0.03374137,0.03588606,0.009837905,-0.0027299698,-0.1146946,-0.012613681,0.010388883,-0.1411278,0.002208606,-0.06347107,-0.08839772,0.035780687,-0.030184595,0.10246481,-0.048559465,0.029799083,0.014762221,-0.12216956,-0.049554564,0.1217764,-0.14733166,-0.002327961,-0.0045935903,-0.22263394,0.05618749,0.11241375,0.0080400575,0.018151248,-0.17459339,0.07427137,0.07238827,-0.09125835,0.064540565,-0.021910628,-0.086523764,-0.0040664407,-0.047070537,-0.022357149,-0.039995477,0.061548807,-0.14163184,0.072828494,-0.10750192,0.100666456,-0.039822236,0.08926839,0.01287739,0.019626454,0.012603454,-0.064738624,0.022922654,0.013928514,0.02666996,0.1361529,0.045634408,0.10570136,-0.043870073,0.06811234,0.064931154,0.24542172,0.0011036268,0.03869402,0.054110363,0.098731995,0.0704352,0.037273582,-0.07240977,0.011927496,-0.0001617579,0.029533256,0.006999868,-0.0039069997,0.044762053,0.0020166854,0.039208084,0.03430005,-0.009979884,-0.06559343,0.117001064,-0.03657212,0.074511595,-0.080282666,0.18018956,0.062303532,0.10940915,-0.04292838,0.041914176,0.056946296,0.17196348,0.028767174,0.040387757,0.0070267073,-0.007724352,-0.05256579,0.011503063,0.0058826697,0.099332966,0.027717218,0.011596436,0.04331041,-0.10384622}, {0.05203599,0.012448579,0.08344247,0.011421379,0.07189259,0.040037654,-0.044968978,-0.0035062556,0.060754493,0.16110685,0.15218286,0.10435516,-0.028978935,0.090358235,0.023778537,0.0013712645,-0.08924328,-0.056795623,0.03658692,0.037062258,-0.09305828,0.12456041,-0.013295009,-0.094726846,0.096566066,0.06790308,-0.20003659,0.00036248862,-0.062821805,-0.0025147754,0.08400138,0.0922318,-0.058488622,-0.024672046,0.028911363,0.055074267,-0.08384556,0.042200565,-0.03367597,-0.08291608,-0.13869517,0.11209714,0.03726297,0.07192123,-0.037899125,0.09804622,-0.02694481,-0.05037662,0.09152116,-0.15253043,0.07156929,0.24127269,-0.10565141,-0.07525033,-0.034604646,0.077324755,0.008432032,0.10516615,-0.13862318,-0.058113508,-0.03019227,-0.011736574,0.045962106,0.012468667,0.085528046,0.007288592,0.009043793,-0.012414131,0.028999869,-0.05915373,-0.0012117771,-0.059074376,-0.010489248,0.07834967,-0.0762878,0.0385478,0.023093661,0.016469961,0.122012585,0.02189502,-0.012413763,0.013388791,0.10435234,0.11030649,0.06466711,-0.040753372,-0.13985898,0.05281389,0.057830863,0.013617367,-0.15829393,0.12713082,0.0027974963,-0.016736249,0.13171054,0.04802845,0.06590421,-0.0023466274,0.010453829,-0.06949963,-0.0297531,0.17879583,-0.00287608,-0.03571699,-0.04338565,0.123342596,0.017472282,-0.02438657,-0.06912634,-0.055630602,-0.1131042,0.066506915,-0.024439873,-0.017217262,-0.07948641,-0.15138589,-0.012236662,-0.020680483,0.11528842,-0.046518806,-0.07269472,0.15047023,-0.011299124,-0.020826714,-0.08001456,-0.04129718,0.07104946,0.07906193}, {-0.061371364,0.06157559,-0.012569803,-0.026089549,0.076879136,-0.053904887,-0.09592412,-0.006591895,-0.00016981782,0.08857816,-0.020996911,-0.04330451,-0.075415835,-0.03329097,-0.050049637,-0.041766133,-0.008047003,0.11073987,0.04896672,0.017520996,0.07251661,0.05100823,-0.14789657,-0.059334118,-0.07107109,0.1193952,-0.066745825,0.049570024,-0.11482863,0.055492338,-0.051725402,0.041030772,0.14711182,0.060057946,0.047516372,0.035816576,-0.0137632275,-0.04738549,-0.046489246,0.07796388,-0.004293106,0.05886785,0.024021909,0.008271451,0.052194722,0.107601784,0.01878055,-0.029255012,-0.08770985,-0.111272775,-0.03865564,0.029162569,0.081370644,-0.088034794,-0.113998644,0.0074509773,0.13820992,0.048826993,0.09425303,-0.08476412,-0.0067941863,0.06747632,-0.15969352,0.030999787,0.1119125,0.11180363,0.041150693,-0.019839775,-0.051198646,0.006392642,0.080090076,-0.04414185,0.06511979,0.09041199,0.095416084,0.03580701,0.07946357,-0.11850848,0.10448403,0.13569346,0.003492029,0.09384904,0.18985428,0.1469682,-0.05352843,-0.035847478,-0.106228925,0.066748984,-0.05232571,-0.07335578,-0.041971557,-0.051576585,0.047655977,-0.1212744,0.12562837,0.07744315,-0.033553816,-0.018760284,0.107253306,-0.0041587176,-0.018275332,-0.0053329165,0.06949205,0.015410402,-0.030157888,0.09773397,-0.040676787,0.20955957,-0.11749489,0.07444995,-0.074094445,-0.21006921,-0.023268798,-0.0036725758,-0.07517599,0.094620034,-0.091342576,0.060456343,0.022670293,-0.052856132,0.105295524,0.10082699,0.030519158,-0.022535963,-0.06403232,0.106291585,-0.050897766,-0.002866005}, {0.07157459,-0.0194997,0.022948017,0.006380565,0.12275529,0.08168975,0.079042725,-0.027618196,0.070298724,-0.16510993,-0.09836254,0.062538475,0.1398405,0.022696521,0.15234545,0.027470721,0.13287501,-0.030769097,0.05980443,-0.13939817,-0.027931513,0.05693188,0.06381583,0.13531674,0.16530481,-0.015035616,0.08369586,0.07348392,0.029800396,-0.03575955,-0.023995917,-0.07628957,0.03950754,-0.12611999,0.0539737,-0.056263186,0.12093464,0.03710497,0.16248003,-0.14298587,0.06932261,0.05697274,-0.03754915,-0.045284893,-0.11949531,-0.18486956,0.031982888,-0.0762743,-0.080943346,-0.038906854,-0.05280352,0.13510017,0.105671145,-0.057042707,-0.040514316,-0.010244628,-0.07075109,0.06278356,-0.06468877,-0.14991882,0.017144738,-0.0024997764,0.012601625,-0.04098712,0.043710977,0.031883202,0.02037661,0.021245625,0.0039591235,-0.00085526984,0.077819556,0.032566886,-0.121455945,-0.038017277,-0.04209538,0.24482596,-0.119587705,0.074133374,0.005611924,0.07455101,-0.15809596,-0.12928498,-0.09837107,0.06509333,0.09250747,0.063152105,0.1652826,0.04892901,-0.08993815,0.070768096,-0.2323782,0.10549946,-0.10808459,0.06227656,-0.044059318,-0.116479084,0.054869387,0.06513921,-0.12356695,-0.004167632,0.04501343,0.17492494,-0.030247126,-0.07709762,-0.08691119,0.19796449,-0.103073955,0.056555938,-0.052122947,0.018675111,-0.034413595,0.01605393,0.11801595,-0.06442207,0.056083083,0.14218333,0.012789249,-0.049297098,-0.0048961425,0.08702433,0.052961607,0.21286598,-0.035815787,0.013094374,0.00867288,-0.21091391,-0.09182626,-0.008956322}, {0.1325791,-0.03856595,0.2769652,-0.16100693,-0.112693034,-0.11307623,0.020516105,-0.07003814,-0.08555079,0.066550665,0.0011181617,-0.058314342,-0.16124415,0.0015604697,-0.0903478,0.09891864,-0.08316824,-0.0869607,-0.05879879,-0.033957716,-0.018195068,0.022421159,0.088308126,0.010416709,0.016695146,0.020941753,-0.0037064445,0.02911459,-0.037659694,-0.08659542,-0.11322679,0.0013985048,-0.010061046,0.042437527,-0.094900236,0.012183928,-0.20861697,-0.06694655,-0.15300164,0.08921466,-0.15590137,0.07773808,0.14694385,-0.03496175,-0.0061572804,0.14067927,-0.12478994,-0.08961138,0.11979271,0.06776481,0.11756677,0.0800901,-0.006047728,-0.099976756,-0.07741826,0.0138468295,-0.05548901,-0.13544366,-0.099559605,-0.047433946,-0.03807742,-0.096744515,-0.0949743,-0.107445516,-0.23687021,-0.11230617,0.17622006,0.05211294,0.12148827,0.007840476,0.14499657,-0.09425093,0.1083458,0.08960736,0.04445605,-0.06464713,-0.052921887,0.019551322,-0.05787191,-0.052543454,0.007881052,-0.012517256,0.06075691,0.10035412,-0.13344285,-0.004397762,0.024769606,-0.011357309,0.1697818,0.03068054,-0.09878504,-0.01681415,0.013877519,-0.045585077,-0.068980895,-0.02341266,0.008113231,-0.004134938,-0.032935847,-0.09380288,-0.08254534,0.14711998,-0.009699742,-0.02198099,-0.1550098,-0.0011926917,-0.000680337,-0.067056924,-0.093800634,-0.028483512,-0.20346674,-0.00822463,-0.031646185,-0.030902477,0.07466317,0.067660056,-0.02469534,0.009089509,0.057691958,-0.025165675,-0.1717562,-0.10748728,0.053712208,-0.08469856,0.05206746,0.0447714,-0.052933652,-0.018888058}, {0.10544838,0.06707828,0.04705194,0.05682089,0.14299172,0.07960998,-0.020821009,0.01967043,-0.027567444,-0.070712455,-0.013987719,-0.029492423,0.04256165,-0.10005821,0.024412386,0.022165382,-0.032657377,-0.013900295,0.03769337,0.0733163,-0.011604935,-0.10823372,-0.005464993,-0.102324635,0.058777902,0.045825567,0.0055910293,0.053730726,-0.06361316,-0.073796235,0.10562879,0.044475332,0.029299978,0.08521577,-0.097585,0.091867484,0.022324486,-0.11516343,-0.02626855,0.006944367,-0.05996268,0.115743905,-0.06337018,0.07145034,-0.021017129,0.030169021,-0.109810896,0.22396354,0.072578624,0.011757922,0.042209662,0.098978445,0.06570814,0.06471164,0.04158961,0.01982692,0.080456965,0.035569366,0.010867682,0.10408935,0.107466355,-0.044840146,-0.032402065,-0.10852949,0.020063706,-0.015567342,0.070472755,0.040191565,-0.020715479,-0.0579696,-0.06480525,0.007792576,-0.014094018,0.02191406,0.009133742,0.09295032,0.0028219197,0.14014246,-0.023202077,0.0056249676,0.051178448,-0.03152598,-0.046013795,0.09794338,0.16828682,0.14835255,0.035060875,-0.03937166,0.019297665,0.17059453,0.11352717,0.056808665,0.071607836,-0.0098854415,0.04637537,0.032176252,-0.0639767,0.00081076636,-0.04294019,0.05955015,-0.1126162,-0.104399286,-0.0050032246,-0.12595779,0.020259619,-0.045531135,-0.02323964,0.18019173,-0.06719403,0.13954131,-0.046844166,-0.057035923,-0.013639503,-0.05754427,0.04224792,0.07868445,-0.0046669254,-0.092987284,0.108176716,-0.1865468,-0.089892134,-0.07603104,0.09859682,0.06222094,-0.061482064,0.1367612,0.04434764,0.045209236}, {-0.03630892,0.02576242,-0.18809126,-0.12799717,-0.10801869,-0.046283256,-0.004099129,0.054472126,-0.045195505,-0.039439846,-0.04186108,-0.03189877,-0.121620245,0.1610869,0.07437925,-0.0012983148,-0.11793153,0.005474751,-0.038842596,-0.0067775836,0.024601217,-0.05598263,0.13887309,0.017031992,0.015919538,0.020413348,0.0027821301,0.09573614,-0.0063727526,-0.04261194,0.048085626,0.044104703,-0.09171839,-0.07779081,-0.099282905,-0.12467258,-0.030349817,0.040240888,-0.16211577,-0.11990401,-0.08903165,-0.055808313,0.100571424,-0.03753372,-0.11626988,-0.013687011,-0.053405114,0.049651343,-0.23742759,-0.03132978,0.047267318,-0.03490423,-0.11396832,-0.026288664,0.033575427,-0.07293734,-0.05349213,-0.25231338,-0.26662007,-0.12261921,-0.074456684,-0.024463926,0.15158859,-0.11597487,-0.038569447,-0.015877532,0.09695234,-0.118272536,-0.06111641,-0.05144698,0.13337433,-0.0063143303,0.007546404,-0.015986804,0.024126358,0.057372447,-0.09902301,0.114120774,-0.108950846,0.085416205,-0.013788031,0.026319755,0.040019155,-0.09139725,-0.08653946,0.025258072,0.019504707,-0.14778566,0.019186942,0.07495925,0.05697787,0.1017399,-0.076328374,-0.089093894,-0.05472846,-0.15967497,-0.20698896,-0.21163104,-0.0513366,0.02018745,0.118991055,0.049040403,-0.10758569,0.02553941,-0.066866815,0.05282031,0.014682488,-0.11643685,-0.108200654,-0.035065975,-0.03556604,0.021722741,-0.029945048,-0.11342342,-0.07788766,-0.0059191356,0.08896364,-0.015681118,0.007381752,-0.04116471,-0.11413712,-0.19152416,0.035534702,0.17700803,-0.070255876,0.023799011,-0.12372411,-0.16329797}, {0.048449416,-0.02296569,-0.07324404,-0.11764869,0.06732967,-0.018412596,0.07532243,-0.0070759533,-0.07583848,-0.03892613,-0.20070061,0.05856772,0.08988934,-0.11034367,0.109802805,-0.16657495,0.0813033,-0.10908384,-0.13051096,-0.08280911,0.087958194,-0.0534055,-0.0952715,-0.022229949,0.13256133,-0.026654085,-0.0907279,0.01184033,-0.10633609,-0.05055501,0.04885928,0.034584496,0.011917127,0.1750585,-0.008559058,-0.08775167,-0.08303975,-0.079769164,-0.087481305,-0.103502594,-0.13792937,0.027177863,0.11807937,-0.03622106,-0.13925985,-0.19125895,-0.052365858,-0.023854941,-0.19607994,-0.08990555,0.017946646,-0.0020213553,0.075320065,0.05879469,0.12355612,0.0589475,-0.025371939,-0.19859739,-0.06320524,0.04056916,-0.06655976,-0.011413234,0.06645471,-0.011909853,-0.007982792,0.07636414,-0.0040320703,-0.056360606,-0.0017349962,-0.08105408,-0.07224153,0.053305276,0.035649817,-0.008103959,-0.028184384,0.012537169,-0.11157342,-0.14723365,0.03664954,0.091064796,-0.020555552,-0.14285772,0.020276556,0.023117116,0.104540266,0.07358642,0.019056344,-0.11092256,0.00049836235,0.05247314,-0.031030651,0.0024483502,0.027695492,-0.029103372,0.0047242674,-0.013335812,0.014639009,-0.06929759,0.054245565,0.0523881,0.008546332,-0.029155627,-0.076143995,0.0100978855,-0.039194968,0.10797427,0.039742954,-0.011270691,0.020079145,-0.06556406,0.0067814486,0.06943185,-0.028532777,0.059027,-0.042018555,0.099478826,-0.0320653,0.09975142,0.102584444,-0.14229098,-0.13380638,-0.1947144,-0.054523416,-0.06786007,-0.013619909,0.06261614,-0.22014762,-0.07792248}, {0.11692634,-0.014269077,0.050821256,0.037690803,-0.21326332,-0.14433913,-0.029385047,-0.006219465,-0.12626208,0.047438834,-0.015274853,-0.106776305,0.0055149104,-0.074029356,-0.067361526,0.004304003,-0.06585004,-0.1179929,0.03568343,0.03242792,-0.011480033,-0.015704712,-0.06760684,-0.1859644,-0.08075249,0.056882087,-0.025027119,0.03583882,-0.0114350915,-0.009943663,-0.050040774,0.12027227,0.21064727,-0.046515662,-0.126874,0.027221987,0.017069547,-0.1661001,-0.16965406,0.09916338,-0.08597453,0.06215798,0.06169698,0.0121712,0.07017197,-0.028760657,-0.15974547,0.035602372,-0.09209292,-0.0018214684,0.1032914,-0.08766263,-0.060159136,-0.064215444,-0.061097346,-0.08286163,0.03787375,-0.11245614,-0.016360251,0.074264675,-0.0333741,-0.01232553,-0.12519321,0.038366362,-0.040347658,-0.08200343,0.05198143,-0.08669939,0.018327005,-0.04651818,-0.22944872,-0.088265926,0.012631613,0.045760516,0.09984551,-0.016925422,0.032279916,-0.11453679,-0.09102133,0.20028242,0.062417556,0.021408018,-0.10106218,-0.17607027,-0.055097748,0.03447268,-0.069755,-0.08360568,0.13744183,-0.2322419,0.07919212,-0.030150183,0.12385581,-0.020990824,-0.058402523,0.0280952,-0.015394611,-0.052843515,0.104806796,0.09771043,-0.049751073,-0.23342097,-0.07176575,0.04647275,0.0454286,-0.27250993,-0.0026983684,-0.039003626,0.02576567,-0.05978497,0.033715248,-0.025554243,-2.2114022e-05,-0.008448663,-0.08152776,-0.07838572,-0.18367991,0.015684463,-0.12987794,-0.11892598,-0.017157534,-0.11859072,-0.12866005,-0.095316514,-0.082396425,0.033808976,-0.036096662,-0.08747887}, {-0.04741792,0.010053229,-0.12979107,-0.05248786,0.12908246,0.099772416,-0.16471109,0.09829811,-0.014502868,0.050429787,0.020340048,-0.006127432,-0.07110191,0.035787784,-0.066480875,-0.0130259385,-0.06662158,0.11508819,-0.13509998,-0.038648248,-0.00016651524,0.017909974,0.0706216,0.060464747,-0.19809683,-0.08628959,0.07838708,-0.04326804,-0.05064805,-0.01691538,-0.021529801,-0.12566696,-0.09556418,-0.013639035,0.19659992,0.0033768704,-0.087139554,-0.010785724,0.1668797,-0.051009826,0.07873941,-0.03506483,0.0075518335,-0.15310141,0.04030115,0.05255977,0.07938345,-0.13295355,-0.0698414,-0.053353533,-0.14483999,-0.0656102,-0.09479873,0.041557923,-0.024633173,-0.032313365,-0.098280996,-0.04115852,-0.042823073,0.0075151413,-0.021483501,-0.013573632,0.0155235855,0.0064043724,0.00960106,0.0670691,-0.2034332,-0.08023581,-0.10041518,0.076269954,-0.010673712,0.054703385,-0.17752166,-0.07808341,0.06557656,-0.09188481,-0.044869196,-0.004956999,0.07397992,0.021757642,-0.12799853,0.08586084,0.030316278,-0.071628645,-0.13077374,-0.025056895,-0.03517351,-0.02504363,0.030857807,0.06826707,0.08199835,-0.020118013,-0.09734668,-0.12988572,-0.05823112,0.0063595613,0.054915126,0.018681224,-0.06227627,-0.033173684,0.040012687,0.07719185,0.045095205,-0.046988524,0.15584904,-0.009913385,-0.09474562,-0.060853735,0.03904783,-0.12075685,0.10793349,0.057209596,0.02520413,0.076645926,-0.04530154,0.067301735,0.20255287,-0.20508412,-0.0007591419,0.1319399,0.14057872,0.12300971,-0.03400307,0.007992915,-0.045154218,-0.011561738,0.017684711,-0.034062773}, {0.045364857,0.07181897,-0.03874981,0.09754814,0.0009473995,-0.0015502888,-0.019682217,0.0420663,0.09664757,-0.07490635,0.0016658251,-0.02357014,0.09360492,0.00092802424,0.049029786,-0.039138604,-0.05035644,-0.023900038,-0.011230291,-0.061001174,0.13577196,-0.0024913447,0.00601789,0.011928405,0.03969916,-0.040990688,-0.05405455,0.12993799,-0.056353584,-0.050575685,0.03140205,-0.11594005,0.07566364,0.059204202,0.051762763,0.082224205,0.09094865,0.020293528,0.059866194,-0.049864724,-0.049845967,0.062385738,0.101659596,-0.05887615,-0.019106777,0.027021281,0.12352773,-0.061330833,-0.18317668,-0.119689226,-0.10123385,0.114601925,-0.04774397,0.023729937,0.11311916,-0.08195031,-0.044585567,-0.020907616,0.03931677,0.079980776,0.036001503,-0.025269281,-0.008545109,-0.09152662,0.0098668365,-0.022916459,-0.06999164,-0.17920172,0.036938637,-0.0075072125,0.093225636,-0.0149967335,0.035783492,-0.08665794,0.14095578,0.008856581,0.1017084,0.09688735,0.015349037,-0.0053007337,0.061123926,-0.23020785,0.37618092,-0.12146642,-0.0509264,-0.08717333,-0.0036845254,-0.011500372,0.060404167,-0.11527289,0.048111007,-0.0055486592,-0.016942428,-0.045631915,-0.074830756,-0.025385272,0.02942508,0.009429177,0.117052175,-0.050279222,0.013726764,-0.0012079992,-0.027651008,-0.097540006,-0.027319392,0.15357286,-0.024220575,0.04307994,-0.015981052,0.06761629,0.04747431,-0.09190632,0.032304052,-0.0027120532,0.015639039,0.05277263,-0.036038544,0.051709436,-0.07346606,-0.09036388,0.063057914,0.08474529,-0.045112915,0.053933095,0.007294134,-0.13867375,-0.14198457,-0.076490544}, {0.0173606,-0.053743374,-0.030225046,0.003546569,-0.0046807006,-0.03982201,-0.033467755,0.06151235,0.06275845,-0.021032454,-0.0048487014,0.033370443,-0.02832495,0.023243185,0.020718282,-0.05571562,0.018201483,0.029417777,-0.041373402,0.050230727,-0.013508031,-0.112532414,-0.16501288,-0.072497964,-0.0052239606,-0.01442414,-0.035991836,0.12013173,-0.1084854,0.023580983,0.050992228,0.029738769,-0.011379432,-0.02250022,0.09423296,0.04620214,0.016911,0.079623654,0.12389487,-0.025304193,-0.0068739722,0.094631985,0.0642851,-0.0830711,0.060084295,0.036211353,0.017033871,-0.056871817,-0.006624437,-0.06689931,-0.21271116,-0.008232811,-0.0041354992,0.099707074,0.028879542,-0.010679333,0.037986524,0.029787956,-0.09534652,-0.068549626,0.023350768,-0.048911773,-0.14045562,0.13865905,0.010689615,0.02711156,-0.14111768,0.042992312,-0.08833069,-0.012532705,0.033388067,0.07870478,-0.13798058,-0.1050722,0.02340747,-0.08878917,0.07600198,0.059734873,0.16064765,0.0022532549,-0.12201867,-0.18802197,0.10404976,0.06014882,-0.009541705,0.085890375,-0.07853463,-0.061358448,-0.13840166,-0.062240645,0.06316505,0.053555213,-0.017007614,0.023113986,-0.021349093,-0.03379996,0.050826244,0.0066608987,-0.13222466,-0.014579597,0.004508333,0.029918294,-0.041953642,-0.0059756325,-0.07750033,0.10162538,0.03363608,0.18444118,-0.122449696,-0.13250403,0.0043270355,0.113553755,-0.016427856,0.015333686,0.03803109,0.027152453,0.20730308,-0.03898524,0.01112112,-0.020783754,0.04223258,0.079128474,-0.033115674,0.1390772,0.02552322,-0.13683094,-0.006489443,-0.01564799}, {0.11519636,0.046913553,0.039757993,0.023491502,0.02825615,-0.00011675723,-0.17479232,0.0021712554,0.06863161,-0.05285891,0.12716733,-0.037103105,-0.044326007,-0.048786752,0.052486684,0.055033423,-0.05948115,-0.09894664,0.0356687,0.00844051,-0.07425254,0.09444116,0.07730285,0.07810334,0.014930529,-0.01078001,-0.06045335,0.2754171,-0.0037164923,0.070202634,0.030776473,0.0054868176,0.0136115635,-0.021159265,-0.0617998,0.047892965,-0.12611301,0.1355179,0.08737055,0.021215076,-0.044207733,-0.02784966,-0.015626375,-0.11619615,-0.0031756193,-0.012970115,0.039631616,-0.110297866,0.08427623,0.050034843,-0.03687772,0.015093665,-0.102559805,-0.090234056,-0.026564857,-0.030777419,-0.0635594,-0.015308296,0.036167037,-0.05244779,-0.06809181,-0.09274978,0.018440876,0.030724185,0.083947815,0.11127701,0.010174173,0.04212141,-0.08490167,0.048775464,0.038646884,-0.010464816,-0.07500325,0.016379671,0.04771535,0.02964227,0.03256045,0.037659653,0.098650105,-0.10718246,-0.024918417,-0.15527524,0.13021876,-0.1095914,-0.12864934,-0.045576088,-0.028079621,-0.013436911,0.10940592,0.029061293,0.09755997,0.1435689,0.115289636,0.01127491,-0.14225248,-0.10024518,0.16620141,-0.0033578698,-0.10270883,-0.07978669,-0.0062654247,-0.03490015,-0.13395926,-0.033794466,-0.05282716,-0.06498778,0.1263199,0.000913208,0.043979216,-0.070516154,0.030686352,0.0755317,0.085632846,-0.06095356,0.0056679836,0.0062231207,0.020193674,-0.08514017,-0.05816503,0.17216499,-0.006760763,-0.07335092,-0.17372715,-0.017138774,0.019941624,-0.046277005,-0.1644474,-0.03744696}, {0.050242197,-0.0063207387,-0.030097231,-0.1601618,-0.1253047,-0.10465426,-0.10108864,-0.07565062,-0.07997013,0.08332469,-0.08611689,-0.17800537,-0.11417964,0.08253936,-0.09293573,-0.05585078,-0.13889907,0.06280746,0.026789716,-0.005730182,-0.049896482,0.0765117,0.12405063,0.093729176,-0.088166445,-0.0527447,0.07678232,0.004867182,0.048246887,0.014778986,-0.04203538,-0.007097027,0.036576625,-0.04230903,-0.002982964,0.012054819,-0.16419344,0.09132386,-0.04006583,0.022894656,-0.15844874,-0.10264368,0.10723323,-0.10379059,-0.029021837,-0.02174864,0.034541335,-0.071634196,-0.01796426,0.09508112,0.1037646,-0.027786925,-0.12433268,0.04362211,-0.028244374,-0.025012134,-0.11751506,-0.13564704,0.018505296,-0.13714483,0.0465944,-0.014286897,0.08652186,-0.06537062,-0.16889878,-0.0427932,0.07789886,-0.0025356135,-0.031943094,0.017275367,-0.022099819,-0.032066155,0.037310228,-0.12736532,-0.01584036,-0.08596961,0.020799467,0.028927494,-0.10854156,0.016460381,-0.034428235,-0.025240375,-0.0688823,-0.195482,-0.07652548,-0.03600009,0.05133098,-0.038267303,0.028163783,-0.1245102,-0.022278022,0.07429149,0.03616358,-0.045264404,-0.15296075,-0.027032208,0.084064595,-0.057849847,0.1259695,-0.0008215773,0.0116814505,-0.03228458,-0.05170778,-0.10807656,-0.061959974,-0.0939364,0.04941423,-0.053994242,0.039939784,-0.09973481,-0.029807791,-0.083636604,0.050517876,-0.10146715,-0.07040924,-0.14113271,0.004231873,0.022673434,0.031241516,0.14326042,-0.055467106,-0.061931383,-0.07626225,-0.00137369,-0.10756275,-0.08776485,-0.034125227,-0.09901022}, {0.062446315,0.016426513,-0.03946372,-0.054667316,-0.098877735,-0.08875533,0.07534123,0.021452907,-0.08939407,-0.030502055,-0.064179376,-0.006172922,-0.074084714,0.06232439,-0.09961277,-0.0930408,-0.10930307,0.1758963,-0.07918562,0.026015181,0.23851764,-0.019405833,-0.021009706,0.0008678349,-0.033801172,-0.008835952,-0.098878056,0.06436175,-0.03736051,-0.081755586,-0.056814082,-0.07619797,-0.017776363,0.15452176,-0.05825452,0.04860543,0.00847874,0.07154704,-0.00010728804,-0.059656728,-0.06473014,-0.1896455,0.025126813,-0.0116904,-0.07549527,-0.05664405,0.043916274,-0.11660356,-0.23927651,-0.07351277,-0.1577353,0.053139247,0.0943616,-0.058172513,-0.07253921,-0.1326239,0.09325947,-0.053471565,-0.12097773,-0.083254166,-0.004324301,-0.007680771,-0.0049480144,-0.11779281,0.05724659,0.05958957,0.039204262,-0.1409064,0.14615409,0.052235648,-0.017997107,-0.08485621,0.020991134,-0.11336253,-0.05541401,-0.114068896,0.06293468,-0.05807451,0.1427462,0.12452014,-0.079602465,-0.053709663,-0.04454011,-0.06257036,-0.049013585,-0.045762107,0.028195513,0.026904214,-0.016531989,0.010387664,0.09149316,-0.021597754,0.14659043,0.080465674,0.08333415,-0.080523185,-0.028076522,-0.12859304,0.041593544,0.12739196,0.013558596,0.015117135,0.021841416,0.009643,-0.120371915,-0.034537334,-0.064132184,-0.08549216,-0.01703073,-0.0318664,0.008841801,-0.07133366,0.0017633026,0.151442,-0.074540526,0.16797523,0.010199718,0.036618635,-0.14814554,-0.022773558,-0.06032741,0.074346565,-0.0038587179,-0.011285852,-0.05238003,0.012057994,-0.06878319,-0.18539326}, {0.14788298,-0.07531463,0.09213045,-0.03153982,-0.13503991,0.019610215,0.04873143,0.08819311,0.106958054,-0.12781388,0.08649681,-0.026615217,0.050830465,0.10957045,0.024826925,0.1287229,0.013282018,-0.07585688,0.18692791,-0.021268403,-0.08939484,-0.08635547,-0.061113566,0.060991973,0.12591946,-0.023669865,-0.17217326,0.047367614,0.037027538,-0.019581791,0.05441881,-0.004427942,0.030812316,-0.05361361,0.016682658,0.010263041,-0.056569923,-0.05318603,-0.066507846,0.09372817,-0.09815468,0.05544691,0.11535094,0.0017931991,-0.027011525,-0.051017545,0.17433552,-0.08017577,-0.026206166,-0.05915642,0.052137747,0.07935963,0.027024549,0.019055922,0.0012285091,0.0071132923,0.010936451,0.010145447,-0.03500967,0.038345877,0.0054916274,-0.122813776,-0.07012222,0.021821288,-0.07855239,-0.01477443,0.0044051795,0.025106892,-0.05354439,0.016059576,0.09012139,0.015118175,-0.11255183,0.13154632,-0.08894537,-0.004577254,0.08052443,0.056491323,0.017061066,-0.11351482,-0.04556023,-0.21162796,0.06013694,0.07860337,0.0013376577,-0.05569055,0.10696136,0.10928323,0.070995726,-0.05574339,-0.0648168,-0.041873228,0.058625113,-0.045734156,0.036313698,-0.008622302,0.15952705,0.23111738,-0.018656831,-0.09430095,0.08100076,0.07292519,-0.04252605,0.01186214,0.04663806,0.04903561,0.029863352,0.08384022,-0.06835642,-0.0681138,-0.058244724,-0.11480417,-0.10209375,-0.038316052,-0.014912166,-0.014255748,-0.06425268,0.14755902,-0.008551156,0.025727373,0.027351376,-0.057624906,-0.037476353,-0.12328403,0.003591819,-0.107016005,0.014258088,0.18813536}, {0.06368063,-0.15395696,-0.101761974,-0.056235302,0.001410193,0.13314699,0.09790674,-0.069865294,-0.04501689,-0.0966163,0.06193243,-0.053771183,0.05275167,-0.081323706,0.06760704,-0.1424062,-0.062351603,0.038062237,-0.042038463,0.01806568,0.03156043,-0.036763377,0.016213052,0.06359967,0.004163115,0.072108924,0.0939849,-0.026963817,-0.1446203,-0.10242928,0.013462587,-0.029395124,-0.123233385,0.07759059,-0.07476121,-0.08739781,0.027170725,-0.080634646,-0.08906676,0.011486705,0.02270763,0.050132234,0.06593212,-0.032744523,-0.05654502,-0.020044897,-0.090937994,-0.016058322,-0.028523155,-0.059538428,-0.0044810907,0.008575185,0.030617198,0.031603053,-0.029769165,0.08076459,0.039174978,0.06194439,0.057530414,-0.1380318,0.034049872,0.1143104,0.21899782,-0.14293548,0.10456281,0.06849902,0.16631201,-0.045039967,0.024519382,-0.023117881,0.0011056284,-0.073636964,-0.095973924,0.0045982692,0.04801494,0.09734458,-0.10717231,-0.11231286,-0.052601032,0.05782771,-0.06956481,-0.03452769,-0.07778371,-0.045629285,-0.029914467,0.0072249915,-0.037531428,-0.13987824,-0.13629703,0.0632657,0.04885442,-0.017511487,0.048185248,0.039806325,-0.018871969,-0.023834458,-0.14681461,-0.15952024,0.036410652,-0.06207308,-0.047432583,0.07735881,-0.008936008,-0.0021995297,-0.17535846,-0.035398245,-0.07581104,0.04098074,-0.17263424,0.057374462,0.030330773,0.13005766,0.07337919,-0.0851812,-0.06797737,0.048256326,0.09566607,-0.16970281,-0.04417882,-0.19778985,0.028047396,-0.008900575,0.06708461,0.05927053,-0.044276506,0.023912517,0.02220686,0.019240864}, {0.0014849914,0.019058438,0.11347844,0.05913323,0.0033057788,0.12116464,-0.08482512,0.06320171,0.054778926,0.08986783,0.05126628,0.12398224,0.051026773,-0.004677199,0.04182377,0.14458622,0.010910953,-0.01628202,0.015060222,0.050509594,0.06256903,0.051301796,-0.09094161,0.08518396,0.0016360782,-0.0664041,0.0693636,0.0018519461,0.0023735901,0.03766112,0.029446218,0.027268669,-0.020381505,-0.026632315,-0.08063794,0.007375188,-0.11993262,0.014043925,0.0020719192,0.09691111,0.00832629,0.115286835,-0.012774975,0.031021172,-0.015250193,-0.00091222796,0.034316786,-0.10161422,0.29663637,0.014695859,0.04305497,0.002667258,-0.116596594,0.07562829,-0.036727287,-0.07270113,-0.0019928643,0.045112908,0.19715786,0.013136325,0.0020414712,0.0023169476,-0.15467137,0.11915436,-0.12555207,-0.0061740214,-0.13248098,0.12473598,0.065123364,0.12251066,-0.10788327,0.094299376,-0.051612,-0.06011585,0.039638422,0.0939263,0.1477638,-0.054206647,0.0079901535,-0.09340858,0.10532425,0.0224484,-0.011527894,0.029235205,-0.01558759,-0.17971447,-0.053326394,0.08900011,0.034381125,-0.10914249,0.13035351,-0.09974338,0.08093497,0.012812405,0.015117663,0.07835867,0.09147922,0.17529766,-0.031260252,0.08871099,0.14452618,-0.015542583,0.061218373,-0.004093567,0.066935435,-0.055318877,0.054544706,0.057880152,0.1765091,-0.06940707,0.09298749,-0.049027745,0.030193228,-0.082946,0.10202928,-0.052851558,-0.08448678,0.16199745,-0.09483729,0.087381035,0.1277664,0.067324236,-0.06633863,-0.06257265,-0.012056824,-0.07596968,0.0115445815,0.03969096}, {-0.10839175,0.110151105,-0.12801132,0.02070303,0.07138908,-0.074904606,-0.1619474,-0.016989278,0.095654756,-0.057681452,0.029461315,-0.06549482,-0.080263495,0.038305167,-0.047353927,-0.095269576,-0.32318753,0.12237037,-0.06741271,0.044099305,0.06606884,-0.11742389,-0.12534195,-0.08845948,-0.21694621,-0.007719773,0.02272688,-0.1206208,-0.09667441,0.12913957,0.1295684,-0.045818962,0.017919151,0.20008408,-0.13114159,-0.08542763,-0.10493555,0.004332901,-0.22746477,0.04151796,-0.095636666,-0.11717291,-0.16535941,-0.043500256,0.111948274,-0.029617446,-0.10622723,-0.14308868,0.071859054,-0.0092103,0.051089622,-0.1049569,-0.1052544,-0.015657812,0.016210966,0.010382239,-0.017996322,-0.018754007,0.12267694,-0.021029381,-0.035626728,0.066958055,-0.09619997,-0.07114498,0.014355606,-0.02248839,0.10609114,0.023678048,0.07085975,-0.0047646724,-0.06784424,-0.027138826,-0.052689955,-0.039085083,0.020515958,-0.10692241,0.056591142,-0.07746134,0.00782238,0.074950226,0.07849501,0.0051080678,0.096892044,0.042317513,-0.010581571,-0.1203553,0.009667847,0.06736361,0.049367405,-0.20346808,0.035678986,-0.060325366,-0.008103841,0.020084526,0.0035865481,-0.013874738,-0.07027423,-0.028445495,-0.03511471,-0.06456915,0.05457517,-0.13366622,-0.041539926,0.04381591,-0.14606705,-0.17733862,-0.16758761,-0.05209792,-0.0750482,-0.11367117,0.06690576,-0.14260516,-0.03962305,-0.035834182,-0.049798645,-0.043964036,0.06871144,-0.14127104,0.014311639,-0.010574431,0.009473334,0.013188785,0.23626603,-0.025545564,-0.08089821,0.026972596,0.036267526,0.054595564}, {-0.028502684,0.058464497,-0.026705503,-0.105223194,-0.1368938,-0.22529161,0.041859034,-0.059393626,-0.07505765,-0.10796208,-0.044260085,0.011644573,-0.15916918,0.13952105,-0.007084077,0.062704265,-0.08842451,-0.077933945,0.02379322,-0.08024309,0.10402451,-0.15020205,-0.0016212328,-0.04854671,0.035127565,0.037853528,-0.1209743,-0.09956656,-0.007494809,-0.12182755,0.025753569,0.090639584,-0.011059235,0.21841522,-0.0015434742,0.059596535,-0.12339555,-0.021652913,-0.17788582,-0.012431808,-0.06159863,-0.14762202,0.058307953,0.015660034,-0.063525245,0.116254486,-0.030646957,-0.23112372,-0.07899599,-0.06300604,-0.1130438,0.031458806,-0.042447805,0.10334647,-0.039775766,-0.110998966,0.0019640818,-0.12913553,-0.06490502,0.050362494,0.083859,-0.07211056,0.06055199,-0.08285934,0.07710688,-0.0064304145,0.15911992,0.082436256,0.07235984,0.07811963,0.023430243,-0.05218134,-0.011162085,0.08617278,-0.06674387,-0.13964447,0.09039784,0.017482119,-0.014685192,0.105842456,0.12973501,0.013258435,0.17332782,-0.023542074,-0.0058470345,-0.07636686,-0.06502036,-0.002384406,0.10303014,-0.14836065,0.036344666,-0.019222634,0.16083828,-0.010838284,-0.10957917,0.0633396,-0.020478733,0.037647914,0.18414758,-0.004291452,-0.040460225,-0.032785024,-0.11742299,-0.02547812,-0.045182638,-0.007107717,-0.07144719,-0.09438994,-0.05065249,-0.06423222,0.015451778,-0.029150454,-0.049640756,0.05946824,-0.0319489,-0.038813934,-0.074210234,0.051062692,-0.01468794,-0.19900724,-0.012237161,-0.09823988,-0.016304828,0.011674221,-0.0657949,0.009249993,0.027459802,-0.08854245}, {0.030033836,-0.037082918,-0.07158849,0.0448802,0.049934406,-0.049747717,0.097496085,0.011299224,-0.11078594,0.07233644,-0.077817686,0.04060443,-0.149631,0.03179679,-0.022571849,-0.17325568,0.045043707,0.035946,0.0006449662,0.011154328,0.100544356,-0.15248251,0.015066617,-0.010021502,-0.03545221,0.0007714377,-0.0011539652,0.20090425,-0.054961015,-0.06641055,0.010586191,-0.028768424,0.048466068,0.095887914,-0.009605442,-0.085773565,0.000111614936,0.064690724,0.017656606,-0.12586874,0.051925186,0.06758556,-0.027742418,0.08133928,0.025462005,0.052215368,-0.034987744,0.04956154,-0.14430472,0.1525479,-0.09864143,-0.06555481,0.08525756,-0.022986235,0.050840802,0.029982671,-0.058369126,-0.15029696,-0.16132729,-0.113290265,-0.021752048,0.19113356,0.054555465,-0.066182464,0.010894733,-0.027990237,0.14274494,-0.10976189,-0.007369902,0.018387614,0.17183724,0.051000223,0.026292566,0.005106961,-0.054514896,-0.005391757,-0.11449415,-0.10843038,0.008094828,0.10040271,-0.05043419,0.06693107,-0.1104157,-0.09783316,0.027246708,-0.023478584,-0.00345794,-0.0098095015,0.008842972,0.053295232,0.018139616,-0.02674406,0.08882014,0.013119091,0.022989541,-0.05347209,-0.094418034,-0.072853975,-0.01779096,0.0029444955,-0.07360761,0.07475619,-0.02147071,0.042812005,-0.17547855,0.102179274,-0.13630666,-0.04396801,-0.06651105,0.0043521975,0.07503243,0.08289175,-0.08655382,0.10013193,-0.07296362,0.14373906,-0.037065867,-0.10496892,-0.04079647,-0.055755343,-0.18472742,-0.11659735,0.024178153,0.02457314,-0.2036054,0.0277235,-0.06523589,0.015478546}, {0.15784329,-0.11017553,0.014942222,0.005254015,0.00024695494,0.06953446,-0.07139155,-0.05710215,-0.07521201,0.1179562,-0.12065792,0.11120106,-0.0011871753,0.011558088,-0.030172717,-0.13252825,0.06191465,-0.14792964,-0.086986825,-0.05025502,-0.076235905,-0.1260136,0.043952256,-0.0010854736,0.043437034,0.05063377,-0.08342333,-0.061639436,0.053168304,0.03256128,0.0006616898,0.087893285,-0.07819736,0.041323323,-0.05345612,-0.10255819,-0.1795473,-0.122435026,-0.07374294,-0.047471255,-0.043202933,0.062330056,0.0056036077,0.045811936,0.10106399,-0.12745982,-0.07001525,0.052080546,-0.012842507,0.011623358,-0.0056388197,-0.011957782,-0.05943983,-0.10222881,-0.045495957,0.043168277,0.03512405,0.039455887,-0.06168834,-0.025764685,-0.12489444,0.037662074,0.10407084,-0.041328937,-0.033321995,-0.018599872,0.14719965,0.08514245,0.007889699,-0.04923112,-0.0950069,-0.032430008,0.079430774,0.09415673,0.007759167,0.01342395,-0.07082517,-0.044583417,-0.045304045,0.034760848,0.029774955,-0.055704124,-0.08617044,0.094059736,0.15148541,0.031995688,-0.079764985,-0.11968827,-0.0695983,0.07776932,-0.020455778,-0.058420833,-0.1590628,0.014651101,-0.0017447174,0.11191553,0.07897339,-0.024115626,0.04751375,0.07468497,-0.13380691,-0.09545933,-0.010036803,-0.031052593,-0.0016075119,-0.0184064,0.15094966,-0.053563416,-0.0649388,0.034991916,-0.080516696,-0.0031359585,-0.004143996,-0.06916024,0.030301714,-0.116429955,0.07510399,0.061207373,0.106229044,-0.08224658,-0.06718687,0.013884655,0.06445004,0.0793053,-0.013890002,0.047872126,-0.058245752,-0.039512068}, {0.072320655,-0.00045898923,0.045017727,-0.045452654,-0.11213629,-0.021409309,-0.0152889965,-0.02176549,-0.06877799,0.0038888648,-0.12480441,0.026585791,-0.023761395,-0.02789816,0.0016044625,-0.025581798,-0.007312688,-0.0037417908,-0.02047009,0.056236267,0.080998,-0.05120182,-0.009989628,0.08921304,-0.0823871,-0.057299566,0.030809881,0.041368376,-0.07479761,-0.04394947,0.017788298,-0.051037434,0.114903666,-0.048708685,-0.06349494,-0.07379308,0.015304635,0.019938651,-0.08086015,-0.029617088,-0.05746877,0.00679572,-0.03866765,0.021116937,-0.15811877,-0.024079684,0.14404392,-0.114441104,-0.11491882,0.061165716,0.11138096,-0.015733637,-0.073569834,0.051666483,-0.07829599,0.0049605607,-0.15764752,-0.0876819,-0.03994924,0.027685782,0.0008264908,0.1257112,0.10158633,-0.17285492,-0.011554549,-0.0030815867,0.15790974,-0.07963426,0.07314705,-0.025737654,0.017499832,0.038028017,-0.10264978,0.08852308,-0.001410831,0.06393952,0.015926758,-0.027253212,-0.08020882,0.058890752,0.12680078,-0.04552759,-0.11210192,-0.061985306,-0.15289049,-0.022115307,0.009519991,-0.0061678463,0.07664863,-0.059075862,0.08656122,0.100482285,0.060700078,0.0008648179,-0.01611738,-0.0441799,0.045736067,-0.025136108,0.0016070027,-0.011504371,-0.007195282,-0.08057609,-0.013842317,0.08705668,-0.12146855,0.06821953,0.061544493,-0.031001644,-0.050619178,-0.014958264,0.118726574,0.031495128,-0.0037509964,0.0073284176,-0.11418222,0.039315738,-0.12708059,0.09232588,-0.13620545,0.07369303,-0.039786033,-0.07627643,-0.10734958,0.028511826,-0.09183224,-0.007639052,-0.10683869,-0.092258535}, {-0.060071748,-0.11511076,-0.20338972,0.011649536,0.08607739,-0.0900233,-0.028164888,0.014948528,-0.20193997,0.0071028145,-0.053316895,-0.015778564,-0.0649811,0.07775643,0.00016513094,0.018390333,-0.09774868,-0.06546483,0.12855344,0.031816732,-0.04502718,-0.18351312,-0.16305357,-0.09191163,0.05627798,0.0026527997,0.027925624,0.072513945,-0.10002804,-0.048091818,-0.02693944,0.014591647,-0.0356704,-0.09803659,0.11657182,-0.18046749,-0.0249062,-0.050804053,-0.0069303154,-0.07910743,-0.019832417,-0.06374834,0.02951101,-0.09947616,-0.024915427,-0.0877767,0.07313858,-0.009616265,-0.05892046,-0.018035887,-0.117694154,0.06970939,-0.02635119,-0.023785768,-0.006595301,-0.015741652,0.05045825,-0.02690032,-0.21129362,0.013090376,-0.025011431,-0.016312214,0.011433898,-0.0057132845,0.13860162,-0.04621286,-0.03265906,-0.029579524,-0.20024712,-0.04330772,0.15303324,0.06555504,-0.07996297,0.06889618,-0.04364899,-0.026220473,-0.08847884,-0.047738604,-0.16054346,0.08942116,-0.083922796,-0.010484438,-0.100550294,-0.013532477,-0.039935436,0.12417633,-0.01458179,-0.008837096,-0.09505623,0.060511183,0.11454467,0.075032435,-0.065267086,0.07928373,-0.10663593,0.037674006,-0.08192619,-0.068861455,0.098727725,-0.016229143,-0.06302874,-0.10941668,-0.10509067,-0.13806203,-0.07320034,-0.041357413,-0.09123178,0.044616517,-0.12349365,0.072008915,0.013393008,0.00428974,0.0127310995,0.016175158,-0.076258704,0.007406815,-0.031593204,-0.07143541,-0.02579821,-0.06674119,-0.109543696,-0.0913811,0.030999277,0.08563594,0.030410174,0.069779195,0.06286673,0.038200382}, {0.034833908,0.005420017,0.044045836,-0.04799552,-0.063842535,0.028656898,0.08903557,0.047321465,-0.0637368,-0.07873252,0.044674113,-0.007054652,0.03001069,0.04892655,0.0053155217,-0.11168956,-0.046662107,-0.061836075,0.05059022,0.14221705,0.09237995,0.17546396,0.10048825,0.017321061,0.01239312,0.014001173,0.036717925,0.021379866,0.017474094,-0.029043188,-0.01608765,-0.03986279,0.052735258,-0.09642656,-0.04368516,-0.06272591,0.021872241,0.031812098,-0.015443625,0.044684034,0.12368223,-0.045488924,0.05953333,-0.060791768,-0.039161693,-0.059817865,0.074195705,0.041613363,-0.15003425,0.11509624,0.022877902,-0.06356876,-0.058639508,0.040981162,-0.10461256,0.033323504,0.06739361,-0.005957227,-0.06557579,0.029992493,0.10115075,0.093915746,0.027339395,-0.1457199,0.07632497,-0.006715535,0.094050154,-0.08337046,0.08138485,-0.0018733434,-0.01946304,-0.012444753,0.08757601,0.037909627,-0.05230991,0.008970644,-0.12670639,0.024139134,-0.1837228,-0.040061045,-0.04359666,-0.07165908,-0.08168951,-0.09762636,-0.0727268,0.027825221,0.06683287,0.06505229,0.042557787,-0.009557639,0.14599366,0.067659914,0.10395339,-0.050098937,-0.11172925,-0.009927892,0.08382209,0.010260342,-0.0076693,-0.09089457,0.023220487,-0.06446336,-0.07069104,-0.044516772,-0.020500455,0.11332313,-0.11163221,-0.034246925,-0.031875912,0.060754895,0.09193429,0.11510892,-0.037117004,0.035208583,-0.0882074,0.031604458,-0.0066868477,0.01482686,0.053309333,-0.004207104,-0.012971102,-0.009983889,0.023502508,0.0018049695,0.0101293735,-0.05098517,0.037399583,0.08664501}, {-0.17289765,0.010783628,0.047393627,0.12434289,-0.05003061,0.039029066,-0.14746793,-0.06296004,-0.07645479,-0.011174488,0.066088,0.034800358,-0.20382886,0.06154925,-0.1697166,0.037764616,-0.120413885,0.060975935,-0.09270907,0.028833805,0.03358535,-0.104651645,0.011515831,-0.09492276,-0.11046604,0.0428953,0.06753493,-0.12035619,-0.15290749,-0.056311604,-0.030545363,-0.0942934,-0.091194004,0.13723698,-0.10671459,0.05600548,0.04448605,0.011192067,-0.12688579,0.08576701,0.008191127,0.11510492,-0.030919187,0.10642661,-0.06289599,0.039132133,0.026731404,-0.050744843,-0.16156505,-0.087903485,-0.05901586,0.08834843,-0.09081344,-0.044390105,-0.10266245,0.02672162,0.0641871,-0.22843586,0.035430945,-0.066538125,0.0032182345,0.048444264,-0.024890184,-0.032200933,-0.008189086,-0.0033877557,0.06728433,-0.012450652,0.050329898,0.016525077,0.033959586,0.03069809,-0.006929584,0.070012264,-0.056536086,-0.052268066,0.18540464,0.023095474,0.07126971,0.07853965,0.035300866,0.041128326,0.014629925,-0.021834807,0.032036085,-0.040601827,-0.06415662,-0.14150816,-0.0061357627,0.013319437,0.011826869,0.037593376,0.10684022,0.1174471,0.04855505,0.045414045,0.08366999,0.01484258,0.053273354,-0.086944155,-0.044895995,-0.021109805,0.019759307,0.036694024,-0.18594272,0.07496825,-0.043389082,-0.071224414,-0.03397854,0.019602558,-0.07032953,-0.0052518975,-0.060488693,0.07446727,0.011358647,-0.0059542544,-0.06647397,-0.025939519,0.023813352,0.006251523,-0.054904018,0.010220279,0.0074430164,-0.11686613,-0.050275125,0.035044786,0.05845181,-0.015473828}, {-0.24498533,-0.074378975,-0.14170688,-0.0026370948,0.048500754,-0.043943223,-0.08044041,0.010276433,-0.0378956,-0.030773232,-0.040147513,0.09362983,-0.20946068,-0.10587721,-0.093308486,-0.117861055,-0.24267992,0.12817146,-0.07220587,-0.029879969,-0.073263995,-0.06317558,-0.091319144,-0.024495121,-0.0853113,-0.004611926,-0.031553652,-0.15611732,-0.144086,0.037148144,-0.042915586,-0.10571174,0.05259623,0.021600325,-0.055848107,-0.026842717,-0.07734906,-0.09437513,-0.12401711,-0.093620464,0.054792073,-0.04377245,-0.14304574,-0.07841924,-0.036924273,0.13548674,-0.07006219,-0.04705736,-0.022646558,-0.12388853,-0.06019558,-0.020946234,-0.0029838965,0.10883351,-0.02285988,0.06729407,0.11879518,0.09050647,0.17957245,-0.025234146,0.11567778,0.036940366,-0.06516048,-0.0839761,0.012853141,0.033099655,-0.0010330536,0.044092186,0.04586896,-0.013973333,-0.02196651,-0.011668291,-0.055035233,0.064727776,0.014215114,-0.048392035,-0.027160347,-0.09060633,-0.0033510772,0.021711538,0.044103272,0.064309776,0.02377629,0.010313058,-0.027021628,-0.046911206,0.015346512,-0.088746116,-0.060536254,-0.1394878,-0.014921314,-0.12900189,-0.008357853,-0.011381524,0.036055956,0.060422234,-0.060765103,-0.09192948,0.01675022,-0.02820804,0.011358714,-0.13468604,0.027496109,-0.10291551,-0.11474648,-0.105821095,0.005491535,-0.06434553,-0.061331835,0.049043387,0.08171274,-0.10223701,-0.13564034,-0.05642613,-0.054422528,0.029144812,0.021079486,-0.2122467,-0.13988051,-0.12431309,-0.069725595,0.040902864,0.083895795,-0.03835415,-0.15762419,0.073666476,0.044428818,0.024772272}, {-0.25891912,0.0206884,-0.18138571,-0.0327303,0.085261226,0.015728118,-0.22358675,0.01661984,0.042016223,-0.06132718,0.08375086,-0.24601263,-0.00037259515,-0.015045292,-0.12326199,0.03208307,-0.13676679,0.022412624,-0.040367104,-0.020475715,-0.11177724,-0.02262878,0.0612322,-0.009563455,-0.26282677,-0.026897369,-0.12584728,-0.14337039,-0.0043977825,0.097797185,-0.033016242,0.029146288,0.056483824,-0.21151292,0.13818045,-0.046575822,-0.06991744,0.100914195,-0.077340186,0.009032161,0.051309686,-0.07128571,-0.09234029,-0.10278406,-0.05572391,0.022769654,-0.032836486,-0.094052866,-0.07467164,0.04574773,-0.009371152,-0.00944076,-0.14688368,0.06416638,0.16462366,0.13884448,0.03842508,-0.10811262,0.09504441,-0.006930428,0.041958865,-0.011879336,0.0010876926,0.021792538,0.1140873,0.03257847,0.00892568,-0.024755314,0.019172871,0.0025399034,0.066919036,0.039233457,0.059466533,-0.066382445,0.14758188,-0.047740594,0.040644836,0.0704278,-0.14389107,0.030308854,0.14165871,0.08711874,-0.099184535,0.04731564,-0.07222039,-0.09942695,-0.03301396,0.07285828,-0.18128383,-0.029588325,-0.03562257,-0.028290216,-0.08672571,0.024444764,-0.06011367,-0.062363755,0.10365348,0.08871755,0.044852413,-0.040272854,0.030309808,-0.08346216,0.090817556,0.019961568,-0.07905962,-0.09334479,-0.074114785,-0.062724486,-0.009207062,0.003670381,0.22477455,-0.058537472,0.028653955,0.08916067,0.06739086,-0.02049559,-0.040928405,-0.04601196,-0.07537677,0.007828486,-0.035031643,0.00513052,0.029781358,0.12231834,-0.21148962,-0.026413826,-0.06424593,0.07577738}, {0.006803602,0.07801807,0.021517958,0.0055444352,-0.13735628,-0.076285444,-0.018176798,-0.08584851,-0.08201949,0.1538783,-0.010718017,-0.13635726,-0.059799787,0.07155571,-0.11866638,-0.055223957,-0.024632497,0.0073701935,0.04872147,0.03925424,0.05003102,0.03708592,0.06980483,-0.06828746,-0.028059766,0.172103,0.010741547,-0.061919823,-0.038397167,-0.05120762,-0.09523443,0.13818596,0.019700993,0.1599493,0.027658165,-0.033398356,-0.1433079,0.011495189,-0.030439394,0.07013625,-0.008001243,-0.05937354,0.08316655,0.12499182,-0.09211206,0.05898063,-0.061077446,0.014900309,-0.063005075,0.064915195,0.0830875,-0.044776835,-0.1777924,0.035087828,-0.106520794,-0.05266396,0.024422808,-0.1318646,-0.01658411,-0.14218523,-0.0064531276,0.12812153,-0.0044594966,0.0026723708,-0.064503774,-0.1368554,0.06274209,-0.038262635,0.07964281,0.03898426,-0.014958947,0.10322127,0.04682685,-0.0064097643,-0.00025448154,-0.064058565,-0.013820048,-0.1687063,0.054372545,0.07601815,0.015580357,0.06721483,-0.109314315,0.052899115,0.032331675,-0.092066325,-0.007879996,0.023680912,0.05570458,-0.030220065,0.043523647,-0.028320853,0.17402692,0.09456409,0.0074159885,0.07721558,-0.07468903,-0.11550291,0.10580582,0.07614317,-0.024510786,-0.041883335,-0.021174146,0.017252788,0.11622705,0.007936224,-0.08592563,0.01641782,0.1500404,-0.036862057,0.029091008,0.032307025,0.014509238,0.18127015,-0.039463136,-0.03260539,-0.08510891,-0.06677473,0.17582403,0.030460546,-0.12252606,-0.07690715,-0.12770385,-0.050549436,0.031731553,0.093063176,-0.05333409,-0.05838043}, {0.25836718,0.027442515,-0.10742517,-0.115294635,-0.06375505,-0.0038228864,-0.019257845,-0.014214861,-0.07891874,-0.0051366286,-0.17344315,0.028536096,0.040714145,-0.06839499,-0.0028795742,-0.026085272,-0.013706409,-0.07752021,0.0333236,-0.015820926,-0.04968771,-0.08688448,0.1041364,-0.0013197733,0.11544817,0.100326926,-0.026522908,0.104147896,-0.056016035,-0.0052164616,-0.03091773,0.0019358399,-0.09084283,0.001764756,-0.29289877,-0.112269044,0.053484827,-0.14628175,0.04396711,0.12354001,-0.16852508,0.08533639,0.003820281,0.04737781,-0.061442304,-0.080033556,-0.10764224,0.13361296,0.10292344,0.044573672,0.022197373,-0.054852925,0.06190394,0.022210518,0.012386484,0.050907876,0.039197985,-0.070951626,0.025606932,-0.026427994,-0.0210424,0.043033075,0.0034675538,-0.14496373,-0.06224257,-0.005595236,0.1340366,0.00420962,0.032053832,-0.11062104,-0.012405973,-0.120640375,0.009028457,0.012124389,-0.051310167,0.07331868,-0.16817042,0.04548009,-0.19505844,-0.0057180026,0.010040763,-0.024474097,-0.0025025294,-0.05545034,-0.02848437,0.0870448,0.030139288,-0.08599179,-0.015373141,-0.07953477,0.0051646475,-0.09519513,0.053861152,-0.017585672,-0.04260526,-0.09012362,-0.060203325,-0.107782364,-0.00937291,0.080534734,-0.10438553,-0.010055474,-0.10230837,-0.074180186,-0.10970938,-0.11113786,-0.057784624,-0.05616904,-0.1523793,0.14757034,-0.059812978,0.0027516156,0.038360596,0.030636555,-0.121815845,0.04090204,-0.062045917,-0.054829888,0.053060964,-0.15188585,-0.038285296,-0.12008204,0.08569298,-0.025115235,-0.0114037,0.038626306,0.016095355,-0.009142142}, {0.11435145,-0.13877401,0.015206591,-0.11975845,-0.02574465,0.019395297,0.09622596,-0.054570086,0.023216484,-0.10801506,0.076716915,0.025576007,-0.018803967,-0.027072104,0.12988824,0.047169883,0.0464537,0.011620269,0.037175123,-0.13397254,0.1465198,0.10501754,0.10925843,-0.114338994,-0.0061156806,0.0035812156,0.12977782,0.10976079,-0.026442448,0.031662017,-0.027250705,-0.04713914,-0.08119293,0.119905636,-0.047699787,-0.03140934,0.08124287,0.06780546,0.08806119,0.02280844,0.04055734,-0.030728538,0.11140823,-0.12930444,-0.09562154,-0.13397278,0.11801097,-0.07061848,-0.07007787,-0.017651856,-0.010147442,0.061868444,0.09593651,0.030989634,0.064208135,-0.07207594,-0.017088197,-0.08963891,-0.11146752,-0.008122484,-0.0082569355,-0.019148968,0.04790525,-0.028216304,-0.09673344,0.025866726,0.006285509,-0.086726524,0.07895833,0.084517464,0.12208199,0.08996309,-0.049474046,-0.09146646,0.03577705,0.14497341,-0.12291012,0.1449522,0.08573538,0.07851084,-0.040318962,-0.042229638,0.17158413,-0.07460787,-0.08255839,0.06869908,0.055748478,-0.0061722393,0.036037836,0.035716012,-0.0697008,0.08979032,-0.06269392,-0.11279632,-0.07270418,-0.048236184,0.06735898,-0.029468056,-0.031951565,0.05026822,0.118434556,0.14205633,-0.104253836,-0.036356788,-0.016574077,0.1743221,0.0745078,0.0069722533,0.019491011,-0.041997757,0.059253056,-0.040410988,0.14646424,-0.009538352,-0.020911697,0.042327374,0.074306875,-0.009203501,0.007254724,-0.034591943,-0.014672359,-0.024191419,-0.004458602,0.10865578,-0.051718675,-0.0527214,-0.05685239,-0.11242283}, {-0.14907788,-0.07277402,-0.21263021,-0.0022191422,-0.025658267,-0.14342764,-0.21366161,0.06833057,-0.051378347,0.077007644,-0.0013810117,-0.1437896,-0.07184196,0.093856,0.05346042,-0.007834095,-0.36898306,0.11733212,-0.12361344,-0.002152755,-0.08240954,-0.048955806,1.9559986e-05,-0.060535684,-0.19408643,0.051355455,0.060389057,0.030232083,-0.07175243,0.024132054,0.015896097,-0.019966366,-0.039670702,0.008787057,-0.025651384,-0.03439841,-0.04164811,0.04619185,-0.15378362,-0.10517861,-0.05962689,-0.05669914,-0.05915262,-0.14923415,-0.112682864,0.10384569,0.009231289,-0.023404239,-0.08824985,-0.0029329371,0.094538346,-0.09816237,-0.11224705,0.02218407,-0.002169903,0.18738593,-0.058487773,-0.096442565,-0.032020967,-0.19523376,0.017628668,0.045279145,0.06130873,-0.056824084,-0.03008926,-0.086313054,-0.016190656,-0.0035435797,-0.1354834,0.028321624,-0.00374579,0.038539294,-0.048315786,-0.08717202,-0.05001277,-0.19712071,-0.073118284,-0.08922672,-0.05313639,0.04847514,-0.06700408,0.13503373,-0.04086874,-0.035406556,-0.17797183,-0.076383926,-0.12802796,-0.038637158,-0.07428672,-0.08509121,-0.03732763,-0.07177577,0.08960078,0.06971505,-0.080062844,-0.110457405,-0.09384342,-0.09457215,-0.017323311,-0.060926814,0.07647134,0.047528837,0.08904505,0.014653496,-0.16327885,-0.15672019,-0.16356535,-0.12716493,-0.14340256,-0.015339032,0.032448832,-0.06949243,-0.07592483,-0.03317616,-0.11639941,-0.0297988,-0.007329721,-0.04525548,-0.112583965,0.055518832,0.06723131,-0.009973853,0.1992004,-0.09179543,-0.0855668,0.081948176,0.0618068,-0.00926581}, {-0.0843106,0.09571496,-0.04546161,-0.038914558,-0.04492883,-0.110742435,0.030646874,-0.14127354,-0.056333315,0.10792768,-0.06328527,0.035520002,-0.17612734,0.06859211,-0.05501715,-0.17731878,0.015443649,0.056301627,-0.046881165,-0.03231006,0.2038069,-0.050715934,-0.033127587,-0.09171555,0.015248442,0.02788554,-0.11615902,0.0055753347,-0.08762053,-0.07469239,0.0842013,0.059586525,-0.042100113,0.26138857,-0.066969514,-0.09636378,-0.016295103,0.013523448,-0.10899415,-0.006471589,-0.2156932,-0.076932095,0.12255488,0.09693189,0.035433255,-0.032456722,-0.0004066592,0.02311991,-0.0997817,0.02553518,-0.13438019,-0.027440079,-0.030205153,0.0542503,-0.039298046,-0.00056290254,-0.01853961,-0.055215254,0.04961758,0.03268579,-0.030645983,-0.121642254,-0.03434235,-0.037313603,-0.076318145,-0.14369842,0.020806316,-0.02450157,0.0766605,-0.07601781,-0.03388482,-0.17270985,0.07914979,0.0447159,0.006784038,0.006406204,0.13124262,0.059873987,0.18502699,0.20895074,-0.07981358,0.08329796,0.01932159,-0.04764956,-0.03352576,0.12277263,0.010119731,-0.09277618,0.008246792,0.018086834,0.098176785,0.01806022,0.08177338,0.067436345,0.08250727,-0.0029033064,-0.01877064,-0.006121469,-0.0005764109,0.06560669,0.02346513,0.041305415,-0.06745563,0.012617183,-0.09172866,0.15244731,0.039156787,0.0794477,-0.004201722,0.02811554,0.01648815,0.04551985,-0.10126652,0.15707725,0.0339033,0.035058595,0.10087612,0.0137704015,0.13296667,-0.08184045,-0.20278521,-0.052548606,0.11765182,0.06699189,0.0952734,0.14802428,0.093564354,-0.030047111}, {0.06164051,-0.052304246,0.12290166,-0.019139254,0.012659848,0.0153947575,0.02944689,0.005918728,0.12415588,-0.018732749,-0.08962388,0.07176285,0.1560996,-0.023665072,0.06623111,-0.021467926,0.20590232,-0.056183226,0.096966825,-0.13768522,0.020397618,0.07383271,0.0973657,-0.014660702,0.20091265,0.006351658,-0.0054492387,0.046338066,0.04859961,-0.16862978,-0.036806628,0.124896914,0.093067765,-0.13898851,-0.0562705,-0.025791137,0.015634444,-0.023822846,0.08777214,-0.0148347365,0.1256197,0.003603879,0.05856574,0.020047417,-0.010004189,-0.07995687,0.022575954,-0.034192916,0.08496545,0.023461586,-0.07148395,-0.0037880922,0.16010647,-0.055658504,0.063843265,-0.111168854,0.025081996,0.046171695,-0.07740064,0.050902892,0.023688922,-0.06751307,-0.0333586,0.017942464,0.08261668,-0.03461753,-0.06807875,-0.02713094,-0.16003922,-0.018547548,0.03415979,0.07614109,-0.025887597,0.012746651,-0.061859574,0.1918484,-0.09143437,0.10973122,-0.05878597,-0.05083612,-0.05490058,-0.09447769,-0.01415099,0.16039476,0.16516523,0.10083513,0.21754804,-0.025364798,-0.059423305,0.10741876,-0.035446126,0.08623227,-0.030290471,-0.036308873,-0.030981565,0.019762972,0.048387412,0.08520681,-0.045625042,-0.017247006,-0.042365745,0.019860823,0.012347432,-0.047021225,0.039401703,0.07236536,0.12063478,0.12752603,0.046973832,-0.037998587,-0.034854423,0.10382136,0.11620397,-0.077235386,-0.05102304,-0.048548367,-0.035258673,0.03888205,0.032815255,-0.04389546,-0.023754608,-0.014372788,-0.034487166,-0.022343963,0.054382402,-0.047494795,-0.0034438851,-0.03509787}, {-0.018970294,-0.059618607,-0.08921633,-0.06461432,0.03754782,0.17938867,0.0730474,0.0007283138,0.10517249,-0.0854228,0.11124349,0.12828195,0.20153208,0.065742664,-0.009134758,-0.05976142,0.12072839,-0.011280218,-0.025538936,0.05100243,0.056420166,-0.05776141,0.107644066,0.25223437,0.08787266,0.12753886,0.018153796,0.03565054,0.07610533,-0.09545095,0.12226787,-0.01044466,-0.035104927,-0.04698279,0.046124443,0.058677603,-0.025444122,0.057387147,-0.013008764,0.057290345,0.058543157,0.13251568,0.0007464602,0.124834605,0.013505464,0.11659975,0.062248394,0.007266117,0.033439808,-0.060700104,-0.046882782,0.07034441,0.120732285,0.044432297,0.09295823,-0.06961385,0.038759872,0.18867868,0.037748564,0.1368538,0.08858822,0.014869897,0.1635184,-0.03042262,0.0453055,0.056961175,0.1275591,-0.0150788175,0.026198879,0.029942539,0.11419433,0.04117579,-0.037337903,0.04454435,0.017653253,-0.03346545,0.0080245985,0.13080017,0.013418137,0.029102016,0.19674984,-0.05632493,-0.0075894548,-0.09350535,0.011835042,0.00042250895,0.019749006,0.031753164,-0.08168774,0.017816804,0.092692375,0.17223841,-0.048010238,0.074605234,0.019500686,-0.06523534,0.099514216,0.035883073,-0.018077502,0.0034576985,0.0025025196,0.022611925,-0.027642118,0.04105936,0.0030244358,0.29800525,-0.14057977,0.03249246,-0.111916564,0.17458814,0.064425185,0.066082455,0.038503405,-0.12910165,-0.06306929,0.039312683,-0.022115076,0.09048931,-0.026601903,0.057932906,0.07381179,0.10857727,0.06726587,0.015832078,-0.101495564,-0.119383186,0.088700056,-0.040981717}, {0.01579224,-0.02711765,-0.031300806,0.046575993,0.0134143885,-0.09091206,-0.038649138,-0.052907534,-0.032078125,0.07343462,0.027244996,-0.07629649,0.08143764,-0.0427884,0.10800345,0.010284928,-0.004797862,0.002771636,0.09145681,-0.025791522,-0.057147224,-0.1016492,-0.11255328,-0.050183456,-0.018610016,-0.068890356,-0.121483915,0.025803924,-0.011199351,0.04602492,-0.041368857,-0.02060676,0.11026798,-0.1323974,0.043269496,-0.04637105,0.0476466,-0.042800494,-0.02959166,0.047132,-0.015907614,0.003577364,0.02551672,-0.05664406,0.040798597,0.15981676,-0.0030714883,-0.045025524,0.09668587,-0.076156385,0.05370906,0.19329019,0.10733501,0.033831496,0.039600518,0.044378493,0.102387965,0.10533216,0.03994008,-0.0187139,0.072128154,-0.008662198,-0.0873242,0.1638033,-0.030173335,0.015750349,-0.044283327,0.15790512,-0.039703846,0.04233081,0.099877365,0.060162276,-0.09822664,0.0657449,-0.070907965,-0.023144318,0.25694504,0.07958093,-0.033224035,-0.015467028,-0.016724022,-0.030391455,0.09769529,0.020368354,0.07214983,-0.012658386,-0.06245097,0.0101773525,0.028127333,-0.048426725,-0.09488702,0.012484051,0.022802878,-0.0051710694,-0.032018457,0.061206695,0.07712642,0.08893328,0.04254874,-0.03936674,0.09746439,-0.04017668,0.0033221403,0.09951777,0.025090355,-0.15741397,0.06830447,-0.0076850723,-0.06317746,-0.042152073,0.14475417,0.008433442,-0.079862654,0.022955924,0.025582194,-0.08178944,0.1577501,0.060802747,-0.04810863,-0.053601433,0.119065545,0.18540986,-0.05170361,0.058367185,-0.0023655836,0.0067520123,0.028428117,0.058446478}, {-0.03132888,-0.08240301,0.19184028,0.06560829,-0.20874326,0.009985829,-0.16930734,-0.012470597,-0.044317037,0.19438453,-0.10814319,-0.09763477,-0.0504091,-0.031266138,-0.031227838,0.0173388,-0.06604598,-0.0154387355,0.03865295,0.0626285,-0.073738694,0.120654315,-0.0053619817,-0.11130692,0.011285533,0.029506937,-0.02604061,-0.06298937,0.10370698,-0.059207756,-0.022993095,0.05472589,0.08356901,0.14078245,-0.0017481968,-0.010520359,0.028611906,-0.028264316,-0.059042245,0.062297627,0.059862074,0.09921474,0.086808875,0.059833907,0.014092092,0.12840115,-0.1128928,0.061206643,-0.0037396897,0.12183879,0.06610283,0.021249777,-0.2310151,-0.12114278,-0.031017657,-0.01997228,0.016649779,-0.1292159,0.06514583,-0.061035313,-0.07452232,0.03652453,0.04387134,-0.027548844,-0.15651797,-0.024645017,0.028180894,-0.062079128,-0.12926477,0.061622716,-0.1451954,0.02639621,0.024725059,0.07202975,0.022247229,0.118153736,-0.022832692,0.117588244,-0.014730781,0.040568493,-0.09594933,0.090712644,-0.005470152,0.024058606,-0.1541919,0.015406727,-0.015598604,0.034695845,0.16430135,-0.015096349,-0.015776534,-0.044474382,0.16372906,0.10195061,0.0037309835,0.10946875,0.085186,0.032151286,0.03126253,0.02719784,0.057748202,0.059872035,0.025588276,-0.023968836,0.028599858,-0.12951477,-0.029756106,0.013117141,0.06054862,-0.054711644,-0.14123243,0.02612041,-0.026000155,-0.013547797,-0.002240785,-0.112073086,-0.13317011,-0.006310149,0.15067664,0.003554198,-0.1307906,-0.13731116,-0.009662952,-0.1965928,-0.020651458,0.08796496,0.041910566,0.018921817}, {-0.07841039,-0.09334439,-0.11106963,0.05867102,-0.08720299,-0.06298122,-0.101015,0.12078418,-0.10357241,0.07503663,0.017510496,-0.024939217,-0.27750015,-0.031213237,-0.04148367,0.16163489,-0.108977094,-0.09824858,0.018894726,0.048096515,-0.24126494,-0.010652696,-0.05879208,-0.048330948,-0.07184705,0.100644894,-0.10886624,0.096056245,-0.024799114,0.02456408,-0.16380969,0.00039958442,0.021586252,-0.15970829,0.113784924,0.0070811007,0.07679082,0.11827401,0.0030513098,-0.006744471,0.07911528,0.122111365,0.026653903,-0.114218935,-0.05260426,-0.03637513,-0.093737684,-0.048385877,-0.0683886,0.08950698,0.10569411,-0.034279454,-0.040335756,-0.041171145,0.08894113,-0.022516329,-0.015128686,-0.00041996082,-0.14219716,-0.067064896,0.07736093,-0.060780644,0.066943705,0.117999196,0.083135806,0.012056785,0.04754548,0.04201955,-0.1340067,0.065023534,0.08532558,0.07529494,-0.013285368,-0.029631155,-0.124377824,0.054229442,0.04643536,-0.0027217423,0.009376401,-0.056790944,-0.016590593,-0.040031735,0.056052987,0.07573473,-0.053915177,-0.1061888,-0.011678267,0.02993263,0.029153626,-0.027016671,-0.2364716,0.030186616,-0.11132224,-0.03395308,-0.009176309,-0.021851275,-0.04575838,0.024599185,-0.05934854,-0.11769242,0.048462946,0.021078516,0.015389721,0.011683125,0.104215845,-0.10141628,-0.006322168,0.09297571,0.09204007,-0.10039961,-0.1324229,-0.024041042,0.07217748,-0.02540451,-0.024692476,-0.08610603,0.007388594,-0.07814168,0.025231302,-0.057395354,-0.005248381,-0.065517806,-0.1567189,-0.012021294,0.1379981,-0.0025331387,0.03945142,0.008652338}, {-0.030592006,0.066008106,0.14757037,0.0089441985,-0.023537565,-0.109628126,-0.1556702,-0.037198264,-0.0437558,0.13766378,-0.00041247826,-0.07673543,-0.06705781,-0.13749748,0.03769588,0.052610133,0.11170817,-0.045871086,0.015899407,0.003832052,-0.08849366,0.1484804,-0.10660021,-0.08181298,-0.09963047,-0.07153353,0.016707717,0.055168957,0.057186283,0.027774094,-0.07945112,0.060505036,0.040381745,0.10463266,0.015607977,0.0891004,0.03495582,0.01062653,0.07820848,0.042845942,-0.00951799,0.005662927,-0.07367413,0.0037836414,0.055058338,0.06912009,-0.1094163,0.054314446,-0.029052895,0.007777988,0.028037863,-0.07031881,-0.010775729,-0.076408,0.0365167,-0.06847805,0.019663708,0.08709735,-0.050894976,0.017694155,-0.05532074,-0.071903504,-0.094091095,0.08906577,-0.084686354,0.06050727,-0.14425422,0.050716456,-0.09289587,-0.124905095,-0.15733711,0.07787295,-0.053171657,0.056792755,0.060007047,0.018456273,0.0572577,-0.077589735,0.04572899,-0.07915973,-0.034225278,-0.060292624,-0.09766672,0.045321785,-0.0032504112,0.041231554,-0.15175843,0.017686402,0.12314301,0.06267917,-0.0335911,-0.091755405,-0.006440996,-0.08108492,0.09926985,0.03169413,0.017130421,0.16713582,-0.045670357,-0.08359441,0.12077434,-0.04610822,0.046058636,0.10286131,0.0379855,-0.06804189,0.066466615,-0.06076959,0.15258504,-0.17290258,-0.07892411,0.005013467,-0.03599854,0.04444312,0.07850806,-0.08334162,-0.08520457,-0.0187307,0.03652884,0.11538244,0.01465901,0.009832327,0.0020073317,-0.16058953,0.10813188,0.11261776,0.03557294,0.063200064}, {0.05955569,-0.01197886,-0.0430841,-0.11894423,0.0056799315,0.06447695,-0.09207814,-0.118055694,-0.06256821,0.013226668,-0.04268712,-0.006861568,0.09135546,-0.15469977,-0.034907002,-0.063153945,0.12874955,0.0849342,-0.005961441,-0.12989518,0.0066369567,0.098436184,0.06482211,0.09754555,-0.09452058,-0.08708685,0.054258686,0.09350896,-0.00569629,-0.06538246,-0.047255818,-0.02241095,-0.05621224,0.047811575,-0.23386145,0.080376044,0.026566215,-0.0685098,0.06055962,-0.03134399,-0.13428074,0.05949156,-0.045256596,-0.060349837,-0.118814126,0.004786284,-0.033471446,-0.043267217,-0.022238461,0.06303528,-0.07738306,-0.053126965,-0.021962753,-0.01022293,-0.054423597,-0.022410624,-0.1763619,-0.00504551,-0.012358125,-0.04617674,0.062368095,0.07091989,0.050991673,0.06979577,-0.04302981,-0.066372536,-0.022927685,-0.033274695,0.01321833,-0.0065978607,-0.107332096,0.0034028601,0.036244415,-0.14393365,-0.021332465,-0.0077904803,-0.063079655,-0.07154807,0.09685203,-0.09522908,-0.092087924,-0.029957285,-0.059253056,-0.10064915,-0.037493322,-0.07305428,-0.09427988,-0.030635787,0.04680319,0.032768376,0.00044200316,-0.085434765,-0.07173643,-0.048802257,0.025390942,-0.06611098,0.12291293,-0.02006012,-0.0208593,0.03362999,-0.10955936,0.017547091,0.014699424,0.122680545,-0.110511966,-0.20643158,0.06247872,-0.09111619,-0.007397889,-0.04149665,-0.016085906,-0.06873032,0.07481131,-0.06285415,-0.025910212,0.070348926,-0.022621557,-0.08833407,-0.075238496,0.13648531,-0.09574992,0.049192548,-0.038971785,0.06356853,-0.11892015,-0.0003617852,-0.114970915,-0.08669381}, {0.10885496,0.03275069,0.17242421,-0.127133,-0.069086365,0.06060756,0.16745128,-0.0446837,0.056145757,0.037451994,0.033406287,-0.017044974,0.036629096,-0.08879637,0.1299122,-0.008837309,0.25099295,0.117220566,0.13369972,0.060893342,0.04599837,-0.078418516,0.021129914,0.15277863,0.09452704,-0.09884019,0.026528161,0.13048266,0.18978861,-0.07052239,0.012960375,-0.031622637,0.12010144,-0.008862179,-0.01779311,0.13544363,0.049203273,0.051227447,0.15272656,0.0134737,0.15190037,0.050052173,0.025807535,0.1501066,-0.04691617,-0.15884838,0.114468336,0.045464195,0.040508445,0.022034107,0.04131917,-0.035029415,0.17115031,-0.07457625,-0.07881422,-0.21722,0.041890454,-0.011739437,0.029491236,0.11940677,-0.0065999893,-0.022979524,-0.04428191,-0.07788667,-0.11260515,-0.016516967,0.003959972,-0.035730317,-0.028581385,0.16630149,0.09995299,0.007513511,0.026006382,0.010866343,0.015990136,0.085632436,-0.058591582,0.13282052,0.06782203,-0.18693762,-0.012629007,-0.117686816,-0.063649185,-0.1627568,0.07112612,0.06711665,0.17201713,0.054028083,-0.0024242918,-4.9629016e-06,0.048860297,0.025847446,0.05596345,-0.046562746,-0.072176926,-0.079050615,0.05729086,0.08846135,0.11895653,0.0070573417,-0.023327762,0.1463521,0.007911292,0.0838131,0.3019181,0.066755295,0.023936236,0.0103391865,0.011590497,-0.09181927,0.03306538,0.0928164,0.119975425,-0.049770284,-0.0063421284,0.11788436,-0.04390104,0.09874804,-0.0065628956,0.10478375,0.07493598,0.021539915,-0.06629582,-0.059587523,0.1038348,-0.050533723,-0.030529335,-0.0080796005}, {-0.11766144,0.03269143,-0.0971785,-0.05566761,-0.031963095,-0.09340588,-0.016875744,-0.06032507,0.09334907,-0.14241274,0.027726658,-0.01974373,-0.0978265,-0.047125686,-0.027080623,0.046718333,-0.11865233,0.028812053,0.015988467,-0.007991963,-0.1060171,0.033806432,-0.0017151511,0.064272314,-0.05319799,-0.019288497,0.040031914,-0.0017214995,0.1467983,-0.014568748,0.043209355,-0.05779006,-0.16415045,-0.15867792,-0.05581095,-0.052636333,-0.015239776,0.060089767,-0.11363734,0.08276945,-0.07710999,-0.040734887,-0.013712294,-0.12852855,-0.13077961,-0.005712424,-0.06834221,-0.19909029,-0.1064707,0.046782658,-0.035752315,0.063719526,-0.07493835,0.08205258,0.03934707,-0.049858324,-0.069988854,-0.23589654,-0.21162236,-0.0019394859,-0.060215775,-0.0786104,0.086496174,-0.058214188,-0.12899938,-0.08277089,-0.22091192,-0.059397284,-0.026888367,-0.075545296,-0.06916664,-0.09857829,0.056798816,-0.03184522,-0.012581127,-0.015623638,0.03139603,0.0066225147,-0.1123566,-0.01775118,0.04986005,-0.022946477,0.05879413,0.011574916,-0.14207332,-0.045447342,-0.03348141,0.0030656513,0.010684185,-0.20668979,-0.023760512,-0.04149153,-0.10367174,-0.14237726,-0.02777197,-0.09845982,-0.15517817,-0.04803368,-0.043146167,0.053558316,0.05702281,0.017501865,-0.056621302,0.06971785,-0.12764862,-0.11507549,-0.013363272,0.014687197,0.093706734,-0.06538977,-0.025623135,0.019913526,-0.07066826,-0.06148083,0.051653888,-0.03190014,-0.13919844,-0.014993393,-0.024400413,0.10999428,-0.03146087,-0.02057444,-0.08622474,-0.08721456,-0.09457481,-0.037594467,-0.0094741685,-0.050860487}, {-0.13068056,-0.069956355,0.079548985,0.045151383,0.14141361,0.107635796,-0.052615803,0.03693911,-0.06746059,-0.024201667,0.250417,0.14032738,0.019877166,0.10989324,-0.05949113,0.06989791,-0.033809543,-0.00054359564,-0.039318584,0.11431876,0.019548487,-0.060567517,-0.021616956,-0.09764793,0.12142734,0.09790495,-0.04405071,-0.036398157,-0.039471768,0.072932296,0.094402134,0.09112739,-0.08382852,0.014192863,0.013138299,0.14216232,-0.10417995,0.09230475,0.1070383,-0.11915015,-0.03965127,0.06216712,-0.086357914,0.017877702,0.012966405,0.06229102,0.024586326,0.005604271,0.097785674,-0.03010027,-0.058883198,0.06860612,0.043026924,0.065395385,0.08443882,-0.06023676,0.07004785,0.12739654,0.0065326146,-0.005802243,0.060426433,-0.08594749,-0.043051645,0.12527704,0.0643466,0.036840014,0.036180373,0.16652657,-0.024806993,0.023315636,0.10624599,-0.020682875,0.066528045,0.12278783,0.02092244,0.02456556,0.09460358,-0.00015153317,0.0677032,0.053117294,0.04349127,0.04624933,0.018805582,0.061372057,0.008072511,-0.0011714704,-0.030109825,0.040340967,-0.11381332,0.14920786,0.020374449,0.024451206,-0.0826325,0.16052492,-0.03375798,-0.014011117,0.0710668,-0.012743486,0.0153597575,-0.1174278,-0.038159724,0.0058061043,0.031568874,-0.06444075,0.026429089,0.14508288,-0.020538684,-0.0008471601,0.01823711,-0.0021402503,0.059907835,-0.049640607,-0.12015158,0.024142515,0.12738407,-0.02126449,0.109330155,-0.006975035,0.0359832,0.037193693,-0.039828964,0.03567057,0.13102305,-0.11499302,0.05451376,0.049208734,0.0043498576,0.06645099}, {-0.05901589,-0.08864144,-0.18165925,-0.103741564,-0.007022643,-0.114414565,0.15464963,-0.048194453,-0.00963709,-0.054439895,-0.1321807,0.12840046,-0.021197038,0.19426663,0.11890165,0.030792935,-0.2252493,-0.1550523,-0.04317038,0.009789091,0.05437843,0.00050504564,0.006785686,0.09577033,0.09094436,0.026816182,-0.066774584,-0.082999006,-0.055322304,0.008071538,-0.014796848,-0.12355808,-0.06212475,-0.10707031,0.11795449,-0.14075007,0.01547964,-0.015034684,-0.11549112,-0.04781393,-0.021196144,-0.060427822,0.069224454,-0.04779033,-0.1310386,0.06702551,-0.079011455,-0.17047888,-0.06297614,-0.14479825,0.05055813,-0.04606532,0.08587213,-0.040699977,-0.012934985,-0.02277937,0.038359296,-0.010749191,-0.0034499427,-0.17233334,0.11781945,0.018949302,0.057646863,-0.059827067,0.11955648,-0.114257514,-0.07285424,-0.13020073,0.14696534,-0.0032074081,0.05991067,-0.04141422,0.06138049,-0.069961354,-0.025261825,-0.2467113,0.0015358806,0.04247406,0.07137053,0.16123421,0.15410477,-0.031631816,-0.09468285,-0.022573384,-0.04466124,-0.049386222,-0.0012245054,0.0011158842,-0.10117493,-0.11812644,0.060770903,0.0019145197,-0.20023748,0.0561264,-0.0912684,-0.0055837613,-0.039456952,-0.02291121,0.04222043,0.05521396,0.04431082,-0.05396908,-0.09324271,0.008475109,0.003076415,0.11976561,-0.09033941,-0.09513174,0.040840276,0.06603321,0.18660402,-0.070239194,0.030537203,0.012355714,-0.1353196,-0.00830276,-0.003806206,-0.013205579,0.03752156,0.029981323,-0.0023287435,-0.058134153,0.045125492,0.1333818,-0.15689947,-0.073334545,-0.036550134,-0.104283534}, {-0.10147851,0.047202926,-0.048046082,-0.08157803,-0.014314668,0.024319189,-0.032454498,-0.060217697,0.018290402,-0.0108977435,-0.07469299,0.13289973,0.07332003,-0.0050284993,0.03367214,-0.1687887,0.008356268,0.029959863,-0.1356666,0.023653185,0.26211607,0.058928695,0.0979244,0.086281925,-0.011175877,-0.03409496,-0.044200756,0.10465616,-0.04850073,-0.0030058064,-0.12834135,-0.18728374,-0.018305257,-0.021204049,0.041208897,-5.6718593e-05,0.039198212,0.090806015,0.09468405,-0.12342357,0.013137399,-0.042045243,0.011395462,-0.025163991,-0.0036397702,0.035824537,0.2251743,-0.0678849,0.017799636,-0.12961726,-0.15584813,0.03338548,0.06538506,0.008436529,0.023176892,-0.036280822,-0.098937094,0.022819515,-0.07483602,-0.09032001,-0.012947837,0.0013309679,-0.05055129,-0.082586765,-0.011182564,0.0033841208,-0.113560565,0.03656563,0.10436591,0.022673735,0.0118348785,-0.035253964,-0.037356198,-0.06498111,0.055214614,-0.0418461,-0.031527244,-0.012022233,0.1811754,0.06890514,-0.07841703,-0.131215,0.09718475,-0.024644384,-0.0033407558,-0.03551163,-0.0382527,0.011296153,-0.06502318,0.04984593,-0.095213264,0.054380484,0.04538052,0.0018248558,0.021633975,-0.05421535,0.003434435,-0.023562599,-0.08526789,-0.07738359,-0.037892893,0.162768,-0.08626898,0.02030139,-0.04500007,0.09921936,0.10022429,-0.0740657,0.007955472,-0.087552726,0.03317393,0.07208252,0.07400464,-0.011698328,0.08743473,0.1273957,0.095786214,0.042345006,0.041625,-0.03688845,0.010933683,0.1260504,-0.01814077,0.036867134,-0.12100501,-0.09285546,-0.09175625,-0.10647714}, {0.15566428,0.024518048,-0.16698487,0.0027857453,-0.01117451,-0.0496629,0.067109235,-0.039657198,0.006189682,0.0010567508,-0.10404871,0.029061772,0.0849717,-0.1414608,-0.0021311191,-0.033143047,0.13287286,-0.025145916,-0.060489282,-0.12374566,-0.119967446,-0.08937315,0.12840997,-0.0028574981,0.071937755,-0.06576825,0.04718169,0.08598377,-2.2249296e-06,-0.07918483,-0.031630002,0.040988993,0.0350069,0.101156175,-0.0064253593,-0.120198205,0.0631634,0.039179876,0.07937287,0.022348152,-0.0397712,0.050242756,0.067122445,0.060381275,-0.051142972,-0.108444735,-0.058180958,0.16274118,0.029841162,0.04910251,0.0149131175,0.0027190216,0.05771464,-0.02727204,0.0057220217,-0.05626524,0.034332484,-0.045503773,-0.14943272,0.02416303,-0.028629625,0.062082715,0.067870125,-0.0057261875,-0.012052088,0.045506366,0.04204189,0.016290197,-0.027796715,-0.046609934,-0.11207798,-0.107164174,-0.01411304,0.023644919,-0.068851985,0.10546839,-0.1987549,0.010807705,-0.0009117658,0.10869756,-0.10803063,-0.08820727,-0.15924887,-0.11964095,0.021694567,0.040317073,-0.03100904,-0.026451379,0.07990381,-0.024807783,0.0071448144,0.027152061,-0.024197537,0.1041607,0.0069387904,0.050679613,-0.101387486,-0.042985376,0.04796852,-0.04832273,-0.16484796,0.011638686,-0.08733245,0.05296912,0.05775665,-0.03130789,0.06736856,0.017834676,-0.03182893,0.016798228,-0.26105827,0.2151676,0.1031559,0.01738623,-0.07941519,0.078845866,0.010512397,0.1171312,0.12716295,-0.06061973,-0.13767871,-0.044952985,-0.018432086,0.08330527,0.12201861,0.03869303,-0.047177672,-0.009979716}, {0.07899385,-0.13781498,-0.05403368,0.015516436,0.052227408,-0.09523908,-0.10576422,0.12949422,0.03066379,0.11466406,-0.05042107,0.033113133,0.033306938,-0.108613074,0.06011013,-0.061294157,-0.027429951,-0.12763932,0.069557704,-0.0065939417,-0.12316481,-0.010589809,-0.14369683,-0.06628031,0.08733851,0.016433522,-0.13216707,-0.035643116,-0.09188008,-0.02907213,-0.017759014,0.16520074,-0.06058411,-0.08449023,0.16592833,0.047697283,-0.055279132,-0.04674765,0.10128267,0.0037750693,0.034820583,0.08299434,-0.010722117,-0.044183712,-0.020827323,0.039015416,-0.1085392,0.15238225,-0.08811976,-0.06656265,-0.008371502,0.05420672,0.00061303057,0.09651155,0.012878167,0.012936632,0.14272848,0.14986861,-0.031879716,-0.022421664,-0.018153563,-0.06466769,-0.07525519,0.13654156,-0.012876588,0.06232929,-0.07688286,0.0842348,-0.17647086,0.023397703,0.030820947,0.06408224,0.10384291,0.03748208,-0.048163924,0.011824888,-0.20578,-0.047389433,-0.10608838,0.15830252,-0.14639306,-0.08232171,-0.007437527,-0.07421605,-0.11581108,-0.09429082,-0.04287679,-0.055932205,-0.10553315,0.05354485,-0.08335644,0.0037421875,-0.1128488,-0.109703824,-0.039919145,0.12234146,0.050517567,-0.10362432,-0.0054951124,-0.05866017,0.01846458,-0.06128996,-0.13822836,0.0422537,0.16528182,0.034894902,-0.028198527,0.040952485,0.009714607,-0.10792371,0.014182703,-0.019169949,-0.14248702,0.058995765,-0.023698602,-0.1530994,-0.00068958674,-0.023544407,-0.0900084,0.035923652,0.02865446,0.008716102,-0.06599199,-0.053070776,0.07733141,-0.039094064,-0.056056477,0.007939764}, {0.12561212,-0.06039872,-0.012246287,0.04793013,-0.016486049,0.011462548,0.18488142,0.09178342,0.036776245,-0.08347264,-0.023889188,0.015181718,0.031790715,0.21719225,0.09694288,0.021326348,0.09909524,0.025821554,0.12676051,0.014277337,-0.031061346,-0.027141614,0.050315134,0.113300905,-0.02566711,0.0016835416,-0.02286903,-0.03299682,-0.061225884,0.0038749282,0.07927392,-0.025006238,0.10873878,0.063982785,-0.06601492,0.06798586,0.038428236,0.020130029,-0.08967794,0.0068926094,-0.00012079821,-0.020552672,-0.016884755,-0.089976415,-0.0067244843,-0.11327742,0.018042304,-0.04053878,-0.08473575,0.14037564,-0.031599563,0.023633804,0.13028039,0.023081288,0.0035568187,-0.05816154,-0.019927949,-0.0736816,0.022416817,7.8309116e-05,0.09235039,-0.089369275,-0.026063062,-0.15226673,-0.16666172,-0.03322283,0.0056174314,-0.007821168,0.12459996,0.11890678,0.14957012,-0.043920595,-0.040714327,-0.013489538,0.008572096,0.0017306984,0.07473406,0.086319506,-0.097282186,-0.13174967,0.0046178903,-0.0011128152,0.020574553,-0.042148452,0.037708733,0.04978144,0.024150321,-0.0071295165,-0.012484444,-0.014900405,0.19518924,0.0036983117,0.064455554,0.03598725,-0.16981252,-0.06486977,0.043045197,-0.036919612,-0.034447692,0.004094802,-0.02103209,0.014049528,0.010340388,-0.104137145,0.052837886,0.07069037,0.081732824,0.03939731,-0.1038769,0.12388726,0.1666461,0.14652334,0.14304048,-0.0677755,0.0051098764,0.057135504,-0.013714731,0.08914004,-0.05339799,-0.043599818,0.044740517,-0.16951673,-0.024379056,0.14742771,0.12665786,0.07338929,0.050966848,-0.053141512}, {0.061013363,0.048945736,0.000901792,-0.007542447,-0.018701581,-0.020143207,-0.10867888,0.028428974,-0.08974182,0.024336044,0.06643056,0.0199052,0.016566519,-0.040374365,-0.04059079,-0.012237458,0.01092973,0.055503264,-0.028801825,0.15604709,0.09751472,-0.13564885,-0.012476623,-0.09028523,0.022693196,0.022395767,0.008494953,-0.06566742,0.038612235,-0.043317713,0.08779128,0.070062906,-0.057650357,0.13959792,-0.005593651,-0.02788329,-0.12320228,-0.0130083915,0.0040040943,-0.05239836,-0.05501862,0.061819978,-0.15030941,0.21297193,0.060718272,0.09896433,0.09030901,-0.07003331,0.017362308,-0.038180966,-0.07480075,0.11904274,-0.08127328,0.043442853,-0.12016634,-0.088241324,0.095387004,0.1022521,0.07582731,-0.06898823,-0.008572709,0.024181323,-0.10243757,-0.073967494,-0.086866565,0.08728481,-0.035881624,0.18098241,0.11923428,-0.077838354,-0.104920365,0.017607963,0.014505951,0.21041012,0.048560303,-0.03713446,0.093467064,0.12869816,0.13627341,0.15387705,-0.025115926,-0.1207531,0.04974029,-0.07097216,-0.032249894,-0.07704886,-0.10571856,0.024418022,0.055948336,-0.03494253,-0.07425639,-0.043279495,0.058903545,-0.031056006,0.15891127,0.077577405,0.0014751754,-0.042984385,-0.0029032773,-0.09934183,-0.09262551,-0.019430088,-0.05826204,0.003753184,0.064428955,0.08839158,-0.10151111,-0.058942903,-0.100851364,-0.06350217,-0.08415129,-0.059525266,-0.11462256,0.025330827,0.01930307,0.025626441,-0.06635894,-0.092863895,0.0029871506,-0.0070920787,-0.06272317,0.11754373,0.031884123,-0.2238491,-0.09854586,0.019676404,-0.08523965,0.06163027}, {-0.10725321,0.014917371,-0.087730385,-0.020960499,0.040650666,-0.065919936,0.15686165,0.07225399,-0.032317244,0.025811864,-0.05206236,-0.066237465,0.19823678,0.012680832,0.0106926495,0.020507624,0.20226887,0.054897666,-0.035142686,-0.052461818,-0.028773308,-0.14899877,0.03207356,-0.0072778165,-0.010819339,0.120543785,-0.032224216,-0.21584928,0.06714619,0.036135066,0.0877272,0.014318849,0.021215672,0.048876356,-0.0025413595,-0.09053708,0.023038393,-0.14103857,0.009429357,-0.015522774,-0.043623455,-0.08493761,-0.034020554,0.018773645,0.15223135,-0.062128462,-0.08696411,0.046880066,0.020394005,-0.018279934,0.012371025,-0.11932988,0.04899995,0.08317121,0.090034924,0.08763433,-0.16652884,0.13591555,0.0821599,0.2015576,-0.0672176,-0.028138814,0.1016828,-0.015685529,-0.10514768,0.10767459,-0.02640678,-0.17059949,0.0036579638,0.017030492,-0.0703749,-0.14860903,-0.007923958,-0.12137555,-0.13088903,0.047008272,-0.024930442,-0.024931444,-0.038689267,-0.08755522,0.091464564,0.051372834,-0.047781408,0.0056224675,0.08205896,0.08876017,-0.055586774,0.03497786,-0.14876778,0.09166167,0.0014169347,-0.115743436,-0.067002706,0.056473926,0.0784756,0.012430937,0.047847055,-0.03163534,0.12340082,0.0056615015,-0.13710478,0.08960945,0.053466212,0.071454115,0.1613222,0.03192724,0.021763112,-0.006771645,-0.073733605,0.104494765,-0.0033335178,-0.05328263,0.009673676,-0.00087775034,0.087797984,0.08553184,0.106295705,0.16801685,0.06428073,-0.051448107,0.04692986,0.12917909,0.098972425,0.09348973,0.08720217,-0.04966769,0.21635647,0.013159297}, {-0.0069584358,0.0888854,0.06560854,0.11616656,0.09808634,0.13210838,-0.0022223084,0.09773047,-0.036643762,0.028291881,-0.0865978,0.027022397,-0.055233836,-0.06417837,-0.017155457,0.06330183,0.0072240517,-0.12586485,0.08869961,-0.089814745,0.0333124,0.05058598,-0.07784504,0.0037004014,-0.059713796,0.09262669,-0.007859886,-0.1485265,-0.12907775,0.1526919,-0.10196892,0.053943723,0.026953537,0.079192236,0.014387259,-0.10085784,-0.043330237,-0.09132986,-0.11791494,0.05905275,0.055445652,0.110753894,-0.10970853,0.107390836,0.046739172,0.05381631,-0.13860331,-0.012493146,0.0053903605,-0.0046111625,0.12575233,0.11508575,-0.20116986,-0.020997655,0.0416002,0.08287796,0.090314806,0.23395963,0.104674466,0.049756896,-0.0033436918,0.040066924,0.10331017,0.0268329,0.14508426,-0.01787887,0.10606942,0.043160796,-0.04645963,-0.02431431,-0.028842093,0.067516625,0.02281309,0.08272416,0.04965542,0.097513124,0.16285448,-0.05972333,-0.15446664,0.024650892,0.096610636,-0.00593539,-0.08248154,0.12548038,0.18093343,0.0068953834,-0.080826335,0.055500764,-0.021768851,-0.013985406,0.0048730914,-0.000992433,0.016566481,-0.056038883,0.076032266,0.049552828,0.14930607,0.09794598,-0.009446293,0.018801672,0.007973779,-0.23100391,0.10041455,0.042627316,0.0050348258,-0.052087262,0.010657948,0.16639735,-0.059953682,0.08626598,-0.08527008,-0.0714567,-0.013377209,0.08946199,0.10405292,-0.02977057,-0.021011585,5.5483426e-05,0.1370666,-0.14686844,-0.0149886655,0.10157629,0.13758975,-0.10379047,-0.040241778,0.039042875,0.053046286,0.16990814}, {-0.13255171,0.003001622,-0.11458125,-0.11809298,-0.10551896,0.031322327,0.0142688155,-0.05933468,0.029307451,-0.08786411,0.01163255,-0.14577991,0.018985957,-0.02209776,-0.015968338,0.03677426,0.034392267,-0.0056189625,-0.044266548,-0.0581851,0.015351122,0.05821085,0.15656756,0.213212,-0.18786721,-0.112961836,0.06886647,0.0055494807,0.0739939,0.0005899924,0.014041187,0.006969335,-0.116634764,-0.0025191435,-0.030905444,0.025515268,-0.024192702,0.092148,-0.00610907,0.06304772,0.037794415,-0.1899099,0.021934314,0.0029707039,-0.020175586,-0.079280466,0.10557875,-0.0757757,-0.08712182,0.022271018,-0.05263116,-0.103637844,0.063805185,0.09363569,-0.038380254,-0.032120846,-0.124970846,-0.2133363,-0.023136983,0.028711587,0.0076396316,-0.0015489985,0.033248715,-0.14966024,-0.12091491,0.024596037,-0.03295819,0.049653407,0.029849013,0.13152891,-0.05505657,-0.03736724,0.021613972,-0.10124415,-0.020225838,-0.04515919,0.10533143,0.035904583,0.015507875,-0.0025275284,0.060262006,0.06787853,0.020790407,-0.09487329,-0.14664517,-0.057295594,0.048087757,-0.071180835,-0.048761837,-0.105482645,0.17867783,0.026531883,-0.016766284,-0.011847632,-0.067092314,-0.032850698,-0.061484646,-0.033600174,0.07870748,0.188332,-0.04710456,0.14998487,-0.03392113,0.10349053,-0.05056014,-0.1083418,0.025098585,-0.020824298,0.12972285,0.12302895,0.08551545,-0.09995526,0.067110434,0.023892142,0.0045437957,0.06340036,0.033783898,-0.0007133907,-0.16699818,-0.018183792,0.024591416,-0.10518188,-0.057959538,0.041513823,0.06151223,0.038987644,-0.0066122827,-0.26486355}, {-0.07419501,-0.0245934,0.05616839,0.040935677,0.014163786,0.055157427,-0.04426869,-0.027328802,0.22766005,-0.0031660404,0.11553998,-0.14038058,-0.106474936,-0.05223518,-0.05033876,0.07568539,-0.077579364,0.07902745,0.02841354,0.007655248,-0.05069657,-0.036453582,0.09689122,0.016662758,0.023948299,0.0060554817,0.020692702,0.06305346,-0.054705277,-0.12150944,0.062006947,-0.12800497,0.09229178,-0.062580846,-0.06397368,0.0059709707,-0.071806364,-0.031484164,0.041027047,0.012034346,-0.07544209,0.05837999,0.014214359,-0.021980112,0.090280674,0.00013624714,-0.06363614,0.105261534,0.018506363,0.055849455,-0.012816834,-0.026285967,-0.045678604,0.007991664,-0.035135668,0.06401522,-0.07929013,-0.048547607,0.027498364,0.04192459,-0.03541182,0.006237106,-0.05529557,-0.07253399,-0.09766519,0.0022020065,0.0667866,0.072803,-0.03174475,-0.06784546,0.16619942,-0.006340081,-0.010894227,-0.102691814,0.007688972,0.04704562,0.045263395,0.025663195,-0.031664252,-0.028545633,0.0055521596,0.02874268,0.11977719,-0.0956191,-0.12116793,0.12047092,0.005152883,0.10018178,0.11043321,-0.11399285,0.050010573,-0.018524127,0.041039642,0.07503271,-0.08203327,-0.026792614,0.0479426,-0.062283557,0.07940035,-0.0328513,-0.01812825,0.06931291,0.020359382,-0.02895411,-0.13636173,-0.08905193,0.105135486,-0.014540516,-0.133696,-0.02988545,-0.061223563,0.053118054,0.10559852,-0.075854234,-0.0010755006,0.027625486,-0.070851475,-0.091485426,0.04623167,-0.009268451,-0.0835625,0.06587595,-0.14362375,0.012276186,-0.04886153,-0.08027255,-0.030330565,0.0068647666}, {-0.027716001,-0.15059803,0.050548416,0.01386766,-0.152154,0.04504928,-0.01932266,-0.08123397,0.10427288,0.11709378,0.1206585,-0.000952936,-0.111824274,0.0755703,-0.120503224,0.057729032,-0.12688449,-0.050688613,-0.12514745,-0.07382664,0.0012005413,0.06540581,0.17652193,0.12614664,-0.06129025,0.016500043,0.04581383,0.14872225,-0.1484153,-0.0014718757,-0.04722333,-0.017673876,-0.084924236,0.028521048,-0.15486526,0.07568479,-0.049508497,0.15439501,-0.12797998,-0.027249241,-0.05271355,-0.08427837,0.0687349,-0.025751673,-0.076521344,0.019796431,0.13343662,-0.08563332,-0.14543293,-0.035563227,-0.0074228165,-0.10036801,-0.10992567,0.032780085,0.046772514,0.024087327,0.038631503,-0.29528442,-0.23155123,-0.043516923,0.028602447,0.026918892,-0.007791795,-0.024416905,0.11584976,-0.110159166,0.057977647,-0.06080973,0.06552275,0.009901015,0.12694971,0.0065080547,0.07184737,-0.051413465,0.021777118,0.049625944,0.061796263,-0.03465328,0.30084872,0.024093384,0.008987109,0.13123152,0.06863261,-0.043583952,-0.07309509,-0.111620635,0.10188009,-0.100606,-0.0005237014,-0.06858224,0.033318274,0.030231794,-0.026036665,0.0119694015,0.08389025,0.009372574,0.03127439,-0.047403377,0.07648325,0.003497276,0.02667621,0.20445855,0.07547617,-0.086483926,-0.1264606,0.16562286,0.028509395,-0.116913065,0.07647665,0.08533968,-0.053606767,0.016438847,0.06812833,-0.12638977,-0.12281541,0.0374022,-0.020815529,0.011901097,-0.022971403,-0.004478636,-0.20250903,-0.12956929,-0.1361578,0.16417216,-0.063727826,0.12669685,-0.030826136,-0.061430506}, {-0.0008468487,-0.09691219,-0.14634375,0.054912716,0.1056369,-0.11015924,0.043382898,0.009882204,0.009093538,-0.04082618,0.038851276,0.09525706,0.08839715,0.025441632,0.010536949,0.087377064,0.12010625,-0.05472085,0.01373985,-0.101115406,0.121567205,0.07089898,-0.11425388,0.021995686,0.18344833,-0.042633142,0.0036468324,0.003657078,0.08571781,0.019606685,0.09937611,0.1636015,-0.098255515,0.0066734967,0.14093503,0.040660474,0.056362584,0.028998874,0.001799463,-0.014281308,0.057131935,0.004490587,0.1809683,0.08007794,0.011519263,-0.08554753,0.04655088,-0.11095664,-0.034654018,-0.16644613,0.00528046,-0.00012915232,0.09985285,0.13288437,-0.052297965,-0.10930157,0.09739359,0.07533562,-0.1192262,0.042655665,-0.08036996,-0.044083994,0.020130446,0.051616337,0.14143746,0.0052916906,-0.19080111,-0.051281694,0.032623123,0.020886661,0.048838433,0.026110189,-0.00580585,0.06733116,-0.14727427,-0.007631094,0.08131244,0.07450971,0.21642518,-0.03834867,0.03239069,-0.075355984,0.09206887,0.1495723,-0.10299748,0.09871264,0.050181855,-0.005347468,0.0450735,-0.04954286,0.0008193194,0.05013157,-0.13342959,0.0206665,0.010933492,0.026710862,-0.049962986,0.015428413,-0.050622102,0.040585946,0.12117442,0.20379084,0.008898097,-0.027102305,0.16394408,0.12978444,0.08138745,-0.019870128,0.09070355,-0.04785606,0.0037018498,0.12883577,-0.11264296,-0.059236385,-0.0595995,-0.043281436,0.17036211,0.06650856,-0.033669114,-0.045947567,0.06634555,-0.062947035,0.06812619,0.04067494,0.01751438,0.047443524,-0.12610126,-0.1203959}, {0.13975947,0.15749557,0.16791523,0.10272226,0.0023949668,0.1327831,-0.014696233,0.18092613,0.0439068,-0.015538382,0.096119694,-0.04399921,0.049420636,-0.04124509,-0.0200036,0.16935816,0.108158365,-0.08101294,0.11626101,-0.077385835,-0.068679705,-0.0032514252,-0.020432841,-0.042367138,0.030364601,0.15597712,0.12473527,-0.053920347,-0.01082856,-0.11508277,0.017852644,0.062216356,0.11909707,0.041855298,-0.00040839508,0.10234411,0.012850484,0.006678001,-0.031915322,0.053181406,0.049794853,0.059102874,0.052953396,0.06425258,0.07097933,0.06448134,0.062564306,-0.12261107,0.04887891,0.15472825,0.19930565,0.030798841,0.02110386,0.102847576,-0.0011487763,-0.123602554,0.077884205,-0.0048703253,0.039934743,0.08805282,-0.08767902,-0.09479097,0.042374283,-0.021491418,-0.094964266,0.07965983,-0.016359106,0.1940697,-0.029795203,0.183113,-0.041411113,0.022799173,0.15730692,-0.016027285,-0.01611421,0.061735038,0.04633368,0.085238285,0.0249595,0.00013107163,0.052688494,0.08552604,0.04215791,0.10324169,0.1731926,0.089812085,-0.026161283,0.073148,0.11946305,-0.11523174,-0.03758845,0.042508103,0.07902823,-0.0053180773,0.013853634,0.09955014,0.023567688,0.112977594,-0.08293643,-0.0617506,0.12112893,0.09352412,0.17427441,-0.070367336,0.078892164,-0.004692778,0.07328698,-0.06257176,0.09350668,-0.010861196,-0.034617454,-0.11055163,-0.1170416,0.004715791,0.30596358,-0.12202201,-0.09799729,0.040706143,0.02530325,-0.011746009,0.006562845,-0.09005116,-0.017105572,-0.037320074,-0.0051839477,0.06729035,-0.030096138,0.036790118}, {-0.01619852,0.03713698,0.0309038,0.0009870186,0.05415967,0.23968013,0.013871169,0.023009371,0.097876504,0.0022413135,-0.017810732,0.08973804,0.037018966,-0.08825103,0.057800993,0.1417908,0.10081495,0.0120453965,0.046198852,-0.15479389,-0.044908673,0.032828204,0.15915026,0.07775928,0.051913753,0.0831949,-0.058875885,-0.15616404,0.046099175,-0.005069232,0.031603698,-0.0041242717,0.04619053,-0.18128595,-0.04598542,0.003921994,-0.0076048225,0.008135612,0.01879392,0.1499966,0.0147848865,0.08258214,-0.08926165,-0.08494318,0.015604099,-0.03432011,-0.061374962,-0.031078482,0.18701692,0.021970443,0.011623194,-0.07503002,0.08873998,0.018867213,0.02126507,0.13225718,-0.044734128,0.104594946,-0.024628278,-0.0054709264,0.022022925,0.04340059,0.06456984,0.09933331,-0.11735067,-0.0070979875,-0.111506276,0.1290056,0.10940866,0.09162471,-0.02162403,-0.007853913,0.0131814685,-0.09580274,0.039630793,0.08730393,0.0006519631,0.012349392,-0.03056511,-0.1511036,0.08884061,0.08289264,-0.08939031,0.11763119,0.051587578,-0.034016684,0.07679839,0.0438308,-0.07687324,0.09050951,0.14318001,-0.06373574,-0.08393316,-0.054206844,0.01777493,-0.0113542965,0.12471708,0.08709443,-0.0454263,-0.05722544,-0.07498477,0.071148105,0.08996292,-0.0025270248,-0.049225345,-0.07215886,0.049325466,-0.07531158,0.13123901,0.030404598,0.023939878,-0.07253705,0.028696412,-0.060247302,0.009843163,-0.024346627,-0.07410354,0.06001265,-0.018191548,0.09222472,0.034326725,0.09385366,-0.03583187,-0.05235004,-0.008553002,0.008108655,0.16573572,0.2013521}, {0.14883082,-0.11581572,-0.0789377,-0.016017186,0.020879265,0.04556519,0.012414592,0.11159016,0.18184131,-0.12473288,-0.008668853,-0.011125065,0.11825787,0.035829067,-0.035258316,0.067041665,0.10837774,-0.0077739498,-0.013653906,-0.09985275,0.12314085,-0.0137185985,0.038950395,0.058204442,-0.037348453,-0.08108355,-0.008264805,0.014620941,0.015068606,-0.09895747,0.146877,-0.020226415,0.08957602,-0.035047673,-0.02669501,0.08760679,0.039662596,-0.05097631,-0.092520446,0.0072199716,-0.062219612,-0.097251736,-0.024225684,-0.10002428,0.0620539,-0.076423794,0.014135234,-0.10956468,0.06411444,0.00472391,-0.08683455,-0.040810164,0.09928877,0.059423473,0.043967992,0.10274588,-0.15454738,0.08076464,0.1524079,0.11724563,0.009046456,-0.06926672,-0.044878468,0.04603533,-0.043338094,0.12426507,0.093001105,-0.008747002,0.002240384,-0.0065746936,0.13019611,-0.07329626,-0.07869115,0.0023337584,0.026634146,0.03876142,-0.099419504,-0.018669738,-0.021755476,-0.04806795,0.016535116,-0.122133896,0.03422828,-0.036750037,0.07209611,-0.014171917,0.11472971,0.09635246,0.007584357,0.09306317,-0.062252022,0.02198186,0.07610562,0.0036588341,0.04074313,-0.04628857,0.008357482,0.006984398,-0.0472254,-0.06367675,-0.006005503,0.06801599,-0.040027086,0.025768425,-0.033185538,