#pragma once
#define W_LSTM_KERNEL_C {{0.02347741,0.007999433,0.06801372,0.019487461,-0.054876775,-0.053321287,-0.00693334,-0.07859355,-0.07510464,0.041072834,0.08540076,0.04825799,-0.13674562,0.09771414,-0.078241155,0.018616762,0.0216462,-0.065559514,-0.01797511,-0.00042106723,0.02082836,-0.07355612,0.010993763,-0.06908956,-0.049548954,0.0006898461,0.025027027,0.09187067,-0.1326152,-0.013786614,0.049516916,0.029632075,-0.10190395,0.0278895,0.041266743,-0.009641934,-0.04445339,0.0055990685,0.007733936,-0.03926402,-0.06263229,0.0824446,-0.087416224,0.08715444,-0.06250945,0.04722264,0.10376197,-0.08276255,0.05689197,-0.03758111,0.0091759,0.05733819,-0.08953587,-0.019075269,-0.041538768,-0.052965738,0.04012123,0.11134045,0.0699059,0.071837015,-0.0075231073,0.09239451,-0.0072804736,0.02677995,-0.027267419,-0.025126101,-0.09417928,0.09152691,-0.035109915,0.060800053,0.0013903035,0.05214689,-0.036165267,-0.057622533,0.07288682,0.05588417,0.055523224,-0.063234486,-0.0021425476,0.116029635,-0.069852315,0.12271982,-0.099608,-0.027908623,0.0571556,0.049731348,0.010249335,-0.0512369,0.005179084,-0.007395129,-0.008581111,-0.067568004,-0.09258911,0.0077004465,-0.054681893,0.01540744,0.0609354,-0.046442006,-0.04877814,-0.026165327,-0.055828027,0.039748687,0.016089894,0.0588937,0.046601538,-0.081640296,-0.026055865,-0.015424866,-0.09924288,-0.0033596037,-0.005284619,0.06485192,0.075420484,-0.07518756,-0.071067356,-0.027958974,0.029052684,-0.1257355,-0.060042754,0.07113649,-0.06444784,0.079503864,-0.012485249,-0.10668379,-0.06751848,0.039874543,-0.0030846035,0.06693053}, {0.0022511734,-4.8754737e-06,0.010768546,-0.011343047,0.018839948,-0.08803864,-0.037488926,-0.011550384,-0.022562193,-0.03828208,0.007013111,-0.0103089865,-0.113665685,-0.042195115,-0.023010332,-0.12531254,-0.004560161,-0.08296004,-0.099642105,0.05006287,0.030185876,0.086681366,-0.11657577,0.0033862577,0.083553836,-0.08641824,-0.08835436,-0.034981363,0.062622376,-0.018629203,-0.112964794,-0.053465612,-0.08114081,-0.016645141,0.07716963,0.023936631,0.034368116,-0.043969627,0.01035918,0.07586273,-0.07228855,-0.038666807,-0.082070075,-0.0675402,-0.037413765,0.0827578,0.05980214,-0.004750844,0.08897162,-0.03616481,-0.031166997,-0.07995073,-0.02974163,0.054270037,-0.032319102,-0.0868917,-0.041661438,0.10078312,0.024444586,0.07949767,0.114093326,-0.0732398,0.06955358,0.089576654,0.0720703,-0.0014333397,-0.040950596,0.04114566,0.07895383,-0.027416874,0.023591908,-0.041504093,0.012960564,-0.035690345,0.1036844,0.025690526,0.0168064,0.049587913,-0.09275658,0.13291395,-0.09633986,0.040015027,-0.07518442,-0.10322076,-0.048732333,0.022145376,0.12010896,0.13125819,-0.032593273,0.035663743,0.037623867,0.032847535,0.08963548,0.00013890013,0.047241867,0.022615531,0.084496,0.09475785,0.036820788,-0.109673746,0.006888096,-0.06961666,-0.01740138,0.052087802,-0.037618622,0.10026558,0.0074596684,-0.028384952,-0.12235076,0.059557367,0.054779638,0.06368068,0.024680514,0.022913229,-0.030563595,0.015926216,0.10210664,-0.07421277,0.11176224,-0.060416978,-0.11476062,-0.0792918,-0.04103919,0.036776125,0.035925563,-0.076546066,0.115850426,0.060640723}, {0.10001114,0.06119467,-0.111535706,-0.116062015,-0.10962697,-0.0037512141,-0.004805684,0.0024935189,-0.019925214,0.031633336,-0.068474986,0.014622944,0.05620345,-0.09445185,-0.026702577,-0.1019594,0.09119939,-0.08686693,-0.07957948,0.0018901795,0.021371052,0.08542614,-0.11612437,0.03520999,0.09993156,0.040236384,0.048994757,-0.011900152,-0.11262175,-0.024198039,-0.068760216,0.0728228,-0.006070598,-0.040048607,0.019884638,0.013157062,0.014744218,-0.004687708,0.112136,-0.106580645,0.010607882,-0.056933068,-0.024950016,0.087216,0.01649397,0.0025974344,0.06667684,-0.054960784,-0.11255707,-0.048734955,-0.012097755,-0.064446785,0.068457104,0.03721184,0.09363939,-0.042477615,-0.036112625,-0.013908524,0.070234194,-0.02246264,0.11127116,0.108572826,0.042750783,0.027761105,0.032795064,0.047040492,0.010353693,0.1291143,-0.061208855,-0.072860606,0.06977043,0.10120966,-0.003429146,-0.023001125,-0.089788355,-0.061530136,-0.00060108607,0.10736628,0.106174104,0.06661461,0.011914775,-0.040254116,-0.046177752,0.05363972,-0.08769811,0.032971166,0.09856881,-0.04127921,0.034181904,-0.11214779,0.05011939,-0.013992746,-0.10740985,0.06452001,-0.09902862,0.036941014,0.007202463,0.038187336,-0.010516381,-0.010020216,-0.012401732,-0.06941383,0.08111726,0.039407145,0.11320083,0.017367493,0.0037155831,-0.009933991,-0.031665422,0.04962271,-0.02834701,-0.0711546,0.06476607,0.030302975,-0.060201827,0.073854215,0.044917937,-0.017649142,-0.061199315,-0.029229509,-0.016387973,0.016029071,0.029915793,-0.12060188,-0.09144063,-0.021879653,-0.07061208,0.042316083}, {0.050948206,0.1009842,-0.09694371,-0.029676206,0.062873006,0.02838064,-0.08023893,-0.0269738,-0.08984946,0.058816344,-0.032190405,-0.07073214,-0.12933825,0.0494376,-0.063526906,0.030946653,0.09120577,-0.09768848,-0.0944302,0.0776489,0.05618183,-0.08081385,-0.08800947,0.0047325986,-0.022564655,-0.023381459,-0.0035328763,0.016158586,0.0429192,0.0048370343,-0.009514225,-0.07166179,0.08212523,0.020245861,0.020169757,-0.0586169,-0.039526,0.03001495,0.07695286,0.049972605,-0.028210467,-0.054560255,-0.052505087,0.055023074,0.03717896,0.029209742,0.019268578,-0.08202947,0.028142836,-0.06942435,0.027255991,-0.024240207,-0.0904625,0.039363213,-0.04901005,-0.08829823,0.040518295,-0.06424499,0.047368694,-0.09137059,0.03887718,-0.06734938,0.020793952,-0.034047768,-0.0011252156,-0.034068175,0.06296132,-0.044821437,-0.036911607,0.07904425,-0.06601665,0.021980999,0.004486139,0.06708072,-0.04964055,0.0019306564,0.061457545,-0.02130345,-0.040820807,0.06061056,-0.0439025,0.06406104,-0.03646183,0.01370789,-0.019787507,-0.016091831,0.08172004,0.08653834,0.017637124,0.038392164,-0.05717333,0.0010324533,-0.009765828,0.0033030356,-0.062396847,0.047409385,0.021001827,-0.07463607,-0.057915993,0.025439437,0.029685177,-0.11559755,-0.017708294,-0.03092915,-0.0036532423,-0.007414744,-0.017087553,-0.018930735,-0.108804025,0.04340861,0.09198999,-0.028922215,-0.025747117,-0.031047916,-0.11399758,0.05972189,0.1332401,-0.12018023,-0.023958392,-0.072113365,0.07432563,-0.078945294,0.005339579,-0.10507927,0.0011369303,0.031083046,-0.06515171,-0.08186473}, {-0.019808078,0.09740119,-0.080961466,0.055902965,0.046280656,0.002510019,-0.027931903,-0.0476726,0.067002125,0.082716115,0.11796147,0.0065556467,-0.035216313,0.027327586,-0.021862186,-0.08405207,0.013281702,-0.049235824,-0.03320511,-0.07136174,-0.073215686,0.08935733,0.058395248,0.051668786,0.0053334236,-0.13453513,0.07438496,0.053765927,0.012537989,0.06474346,0.017189087,-0.03592238,-0.03615329,0.0065190336,-0.019811822,-0.03230333,0.08648654,-0.042168852,-0.036718883,0.018598685,0.044999518,0.05351203,0.09323053,-0.08488367,0.065303825,-0.007969697,-0.0293849,0.06316893,-0.11616488,-0.10306091,0.048355382,-0.08957054,0.069962956,-0.10910813,0.016622964,0.071566075,-0.09541121,-0.08075332,0.0722659,-0.06742926,-0.00682114,-0.029538209,0.09096403,-0.03951607,-0.11553459,0.03913594,0.08730231,-0.048691966,-0.029705556,0.055393834,-0.09280547,-0.004406757,0.11060982,0.013925539,-0.016091099,0.06118299,-0.012230465,-0.08547507,-0.07266944,-0.01184711,-0.058776382,-0.06368839,-0.023031631,0.07004975,0.08424483,-0.11321458,0.015187201,-0.034686588,-0.0029818458,0.01338756,-0.063587695,-0.0063603073,-0.033896487,0.03255786,-0.09041917,0.01367599,-0.01638959,0.06295879,-0.04803437,0.01808293,-0.06220877,-0.108629495,0.00092037854,-0.046762027,0.022022635,0.017646471,0.045403946,-0.050719004,-0.039834287,0.018137446,-0.023316529,-0.08416354,0.008805693,0.1167119,0.07912171,-0.026512267,0.100006826,0.002043515,0.074310556,-0.0028289326,-0.100826986,0.033615522,0.04467627,0.002653797,-0.04299339,-0.06681802,-0.058518615,-0.06981683}, {0.074696265,0.0056819394,-0.10442054,-0.0841246,-0.06419945,-0.005511366,-0.059786517,0.00823812,-0.0652577,0.044543527,0.081135705,0.053075984,-0.027825853,0.027808802,-0.010036209,0.010719043,-0.111289024,0.00828572,0.035109874,-0.09246383,-0.107915774,0.032919835,0.055572372,0.010859139,0.007333348,0.027919332,0.09454515,-0.0024952388,-0.079927966,0.06654989,0.035124857,-0.11141514,0.09032856,0.030655207,-0.031062935,-0.0775106,0.131666,0.08997768,-0.13363948,0.06537682,0.18587755,-0.053175636,-0.037185322,0.101800166,0.0949314,-0.112738386,-0.024064597,-0.0015138227,0.090893716,-0.08920407,-0.03493233,-0.019388976,0.13026634,-0.10296353,0.12141237,-0.084948376,0.07942532,0.043651946,-0.09799659,-0.008000243,-0.027405271,0.09739663,-0.04905133,0.0065308027,0.059153132,0.049380668,-0.0303404,0.121378034,0.05937978,0.018734464,0.06550124,0.013824427,-0.057956617,-0.028634354,0.047484294,-0.10076179,-0.043923523,0.0858799,0.09071426,-0.055171557,-0.063018404,-0.036132343,0.08091917,-0.03540967,-0.015996587,-0.15842572,0.032947056,0.09003904,0.010387231,-0.03112699,-0.041299243,-0.004852347,-0.048587076,0.0019177337,-0.0066392487,-0.09731187,0.059198413,0.08207457,-0.008930329,-0.04047035,0.010239975,0.07541188,-0.08530909,0.059567656,-0.1044733,0.06689476,0.11306299,0.024431102,0.093762405,-0.053475823,-0.11446538,0.007907682,-0.04518644,-0.011220751,-0.0048325006,0.023131063,0.01644731,0.05508928,0.041136943,0.048070494,0.108520396,0.01312521,-0.05300335,0.060469806,-0.098063946,0.018265175,-0.08348676,0.04507089}, {-0.06598141,-0.011202267,-0.06976132,0.017785456,-0.082115635,-0.0521041,0.03298406,-0.013126031,0.007097533,0.049223144,-0.0038655992,0.12050351,0.09542145,0.10118665,0.08044453,-0.098407,-0.10112316,0.019742448,0.094549745,-0.11139083,0.01077391,0.016060341,-0.025257487,0.09330775,-0.106159315,-0.041316792,-0.04529036,-0.084524564,0.026070768,0.0053740353,0.08473933,0.07346752,0.06930392,-0.11141162,-0.06987993,0.052571468,0.061524276,0.027966172,-0.09242431,0.029451732,0.1562726,0.12191426,0.037759643,0.038916226,0.06159825,0.053720675,-0.015690994,0.06922451,0.061997034,-0.080451414,0.004510312,-0.044682506,0.08261952,0.07231781,-0.04070341,0.004171286,0.029324034,0.08121955,-0.06030097,-0.058699396,-0.15912022,0.14123243,0.007493444,0.0019390758,-0.020545226,0.03434905,-0.10126026,-0.001129537,-0.100359485,0.012440489,0.08440775,-0.011185235,0.055904314,0.075471036,0.04359669,0.011305368,-0.12053338,0.09562165,-0.05255127,-0.09185503,-0.06486224,-0.001045683,-0.030040585,-0.09392296,0.04680835,-0.13672636,-0.02857649,-0.042963903,-0.092759974,-0.07361844,0.057112467,0.090732776,0.036448758,-0.012475817,0.08593012,-0.011448635,-0.018658176,0.06172835,0.117271595,-0.005170633,0.08931692,0.09654284,0.11782082,-0.07179137,-0.17384784,-0.108125694,-0.036270797,-0.05323565,-0.06490438,-0.12140715,-0.12653014,0.015278503,-0.06629325,-0.019448744,-0.01830624,-0.053951103,-0.070825115,0.08969074,0.07911947,-0.0024730524,0.040813748,0.10817197,-0.00059850985,-0.004991779,0.040299807,0.025039034,-0.07651654,-0.071462475}, {-0.049384397,0.038798604,-0.015091689,-0.046263218,0.01289391,-0.048886966,-0.020641472,0.051794328,-0.021622267,-0.08058345,0.032886043,0.05849456,0.07682029,0.083785065,0.09616511,0.108921595,-0.124381945,0.08584957,0.05436703,-0.04534923,-0.085140385,-0.06589133,0.08269342,0.09724132,-0.09032487,-0.12002595,0.048543587,-0.06282353,0.05044856,-0.07122523,-0.017848223,0.008368782,-0.10417228,-0.045993507,-0.100346945,0.07729106,0.1573537,-0.054941233,-0.19301866,-0.10371708,0.071116365,-0.01325974,0.05660929,-0.011627565,-0.06709193,-0.11546904,-0.11607483,0.03670587,-0.10825054,-0.081543416,-0.06413245,-0.06922346,0.14209725,0.10291213,0.13198662,0.072908334,0.07893631,0.069225945,-0.04047451,-0.080011636,-0.10019376,0.13167067,0.11068808,-0.013371216,-0.013062955,0.070668705,-0.006910596,0.036174968,-0.045677252,0.009677246,0.05002177,-0.1352665,-0.07673845,-0.029669393,-0.013980708,0.036216196,-0.08895006,0.0658375,0.12311081,-0.049968082,0.049838323,0.14815824,0.053345304,-0.0001255261,0.00013135542,-0.049863167,0.082995005,0.048482284,0.08816903,0.12119657,0.09706571,-0.042298526,-0.0104506835,0.059162535,0.118086696,-0.004766694,-0.10757659,-0.054596256,0.083393976,0.104237616,-0.009669034,0.0016199402,0.009303575,0.07978009,-0.15524998,-0.051566284,0.045835894,0.066623814,0.046370976,-0.12625672,0.036128737,0.09103526,0.092775226,0.08187868,0.042121947,0.08409559,-0.04162567,-0.03195493,-0.012562393,-0.08406245,0.06017841,0.095606364,0.023243181,0.10005926,-0.023825455,-0.049573302,0.012755713,-0.067385525}, {-0.070456326,0.001532528,0.06909823,-0.085807726,0.07463507,-0.009843129,-0.041131485,0.111714914,-0.006492614,-0.043035462,-0.03858634,-0.006767631,0.110742405,-0.042814124,0.16728859,0.11832174,0.039077424,-0.09728361,-0.028706437,-0.08515379,-0.046617478,-0.1456888,0.040006265,-0.04251719,-0.05796401,-0.04125009,0.15664038,0.0654133,-0.05514442,0.039974157,0.07038545,-0.060222078,-0.095002756,0.072364725,-0.100608915,0.00607203,0.10714144,0.04410502,-0.09175788,0.039861992,0.10705812,-0.06609194,0.06487681,0.12349682,-0.046300154,-0.06962626,-0.06339529,0.046097763,-0.06631376,-0.048580933,0.08910812,-0.048770357,0.16494377,0.09312703,0.08083995,-0.010625308,-0.027801579,-0.0806628,-0.07347676,-0.03918948,-0.07790158,0.0103997765,0.118975,0.0063102194,-0.006858178,-0.0004882873,0.03304921,0.016783798,0.011971703,-0.049289014,-0.037097108,0.054665826,0.01482498,0.002200599,-0.08612916,-0.118427254,0.043942977,-0.057874862,0.012942514,-0.17983851,0.0046424204,-0.018603303,-0.030612271,-0.14103813,-0.0084760655,-0.103072755,-0.048011348,-0.018397832,0.01482515,0.123063006,0.04268007,0.039141633,0.06916299,0.15946715,-0.015169593,-0.15699612,-0.016298959,0.04943387,0.0100342985,0.06558757,0.030979844,-0.110087894,0.020004654,-0.089395516,-0.17496502,-0.013412797,0.12606473,0.0021904972,0.12095779,-0.040195532,0.016068704,0.08745026,-0.034895882,0.11944592,-0.055768557,0.04701535,-0.12683459,0.17161761,0.08193302,0.10143965,0.13199593,0.084254175,-0.11752844,-0.019349772,-0.09613204,0.091730826,0.11532099,-0.084694386}, {0.05569994,-0.08014694,-0.09189653,0.02995569,0.07093003,0.12368147,0.016723815,-0.07466115,-0.08518705,0.111868136,-0.18068133,0.06671846,-0.020937612,0.1264227,0.12913504,0.012967272,-0.0790484,0.012458481,0.0011240044,0.081338696,-0.0376137,-0.026112989,0.0018683873,-0.032751832,-0.08170932,-0.06391281,0.13226618,-0.08601819,0.101127505,0.1256629,0.10932491,-0.18185888,-0.11974676,-0.017195608,-0.046961404,0.07761604,0.14714833,-0.038179427,-0.20526093,-0.06102314,0.15273786,-0.06133885,-0.038253225,-0.024576016,0.0661039,0.008121772,-0.033064347,0.08184955,-0.020365058,-0.079158075,0.020752626,-0.027247142,0.17624745,0.050208632,0.075248346,-0.09549259,0.13813324,-0.04254851,0.097649254,0.09385108,-0.115330234,0.10644984,-0.009883138,0.06551988,0.007111775,-0.07781912,0.07416662,0.14822088,0.12340062,-0.06085802,-0.022252105,-0.11141092,0.14431557,-0.0054859193,0.09218446,-0.08449693,0.15010236,0.1023209,0.09895785,-0.12072937,0.120347135,0.07270287,0.08488032,-0.09710726,-0.0091189025,-0.026913028,0.0038580617,0.044472374,0.0021859424,-0.042534713,0.08246973,0.06048497,0.084490374,-0.015221805,-0.08202346,-0.15639341,0.049196173,-0.12193281,0.07975399,0.077086404,0.012837,-0.04574676,-0.047286414,-0.17370313,-0.22410469,0.008213341,0.16438097,0.0024643955,0.20532893,-0.112239406,-0.104613625,0.023080526,-0.009236731,0.016288292,0.11806831,0.053687863,-0.03774948,0.18832542,0.0655166,0.13886328,-0.06608498,0.053486645,0.062115557,0.12193992,0.009970147,0.019450745,-0.034559853,-0.18372753}, {0.04239028,0.07328727,-0.07338846,0.07731228,0.19036996,0.12614357,0.07222312,-0.026378062,0.062020984,-0.015893497,-0.13258496,0.12708001,0.020324297,0.05983272,0.06954362,-0.005797017,-0.15784943,0.11724579,0.046500202,0.067891486,0.04613931,0.061879903,0.055016987,-0.0780854,0.007132452,0.04195279,0.05644853,-0.06312871,0.20224862,-0.086900026,-0.09777258,-0.1381553,-0.0769009,-0.120196134,-0.042161856,0.06476522,0.05474336,0.0024004127,-0.23525411,0.13626167,0.03549116,-0.037320405,0.05785415,-0.025166992,-0.056592144,0.0016537381,-0.074432015,-0.014416688,0.008245358,0.06309402,-0.07206038,-0.07798845,0.077777795,0.022778396,0.024021707,0.030612558,0.06928528,-0.112331904,-0.010773487,-0.033338632,-0.053534478,-0.024953572,0.11031126,-0.08011768,0.10219733,0.06267105,-0.084561594,0.012823114,0.07033788,-0.020129398,0.09834054,0.03979482,-0.007859414,0.06476901,-0.025270417,-0.00083961757,0.12625475,0.114975564,0.09442136,-0.14853905,0.034725014,0.10263967,0.121333435,0.021372268,-0.15947537,-0.0024946958,-0.10987633,-0.005653137,0.06289772,0.101808086,0.048548948,0.068534054,0.0052766996,0.10398961,-0.05170246,-0.08842125,0.09799611,-0.05418967,-0.05921931,-0.022434501,0.09284234,0.0013942256,-0.06258535,-0.06993688,-0.17117071,-0.17835234,0.20969766,-0.09762993,0.12198204,-0.014430256,-0.16563898,0.116315395,0.09758515,0.13355927,0.10097647,-0.08886457,0.013810513,0.15459548,-0.030899854,0.10175077,-0.00068157155,-0.08032828,0.08927477,0.11527062,0.10499817,0.019579582,-0.043020267,0.013184082}, {0.04347071,0.08674279,-0.10633053,-0.04971985,0.059862316,0.15186028,0.12514265,-0.038158268,0.10471753,-0.10726749,-0.2105961,0.1434378,-0.011008048,0.04088633,-0.06302849,0.0996847,-0.16063589,-0.015690712,-0.08890242,-0.0050003547,0.04705602,-0.08601175,0.0951004,-0.1061496,0.13526946,-0.020828232,0.13028812,-0.05442129,0.18756448,-0.12764527,-0.109742515,-0.059482265,0.1189934,-0.09143344,-0.112175405,0.021356996,-0.013500744,-0.027013613,-0.009876392,0.122803986,0.0045096967,-0.10146295,0.10817034,0.16718045,-0.059212398,-0.09913094,-0.070244804,-0.020240847,0.07693394,-0.09334918,0.064222194,-0.124174096,-0.019552588,0.0024576308,0.014152742,0.03028954,0.15207034,-0.038670108,0.09615793,-0.081403464,0.04936155,0.040490612,0.0838892,0.010853887,0.038999498,0.052614603,0.05414073,0.10801806,0.054100398,0.04643959,0.1570327,-0.033055723,-0.12909256,0.18892798,0.120422415,0.077764384,0.15035187,0.0823888,0.19441208,-0.22405045,0.09401533,0.010515211,0.11837871,-0.03264802,-0.09854776,0.02964051,-0.12271258,-0.07899541,0.099726774,0.21653232,-0.116558224,0.16316147,-0.00070967845,0.08139813,0.0092334645,-0.09103095,-0.031855512,-0.09244664,0.00026109535,-0.007590558,-0.10338939,-0.102450036,0.025778009,-0.15695007,-0.0499046,-0.16613567,0.08331173,-0.12765582,0.18061438,0.13293405,-0.14388579,0.16993858,0.0970965,0.099506065,-0.12652332,0.0706352,-0.18280631,0.17805342,-0.04049661,0.025282584,-0.07741005,-0.20780267,0.006186565,0.22054467,0.039204307,0.13682,-0.031189946,0.06013449}, {-0.08444993,0.09107454,0.04532917,0.030929904,-0.014051949,0.040333748,-3.801653e-05,-0.19810192,0.07868049,0.07166768,-0.098792456,0.20800152,0.017412437,-0.099357516,-0.0065982854,0.12010195,-0.15184729,-0.04821776,-0.02663747,-0.022768477,0.045133274,-0.0023799355,0.1229662,-0.02720794,0.1877851,0.1204208,0.018912967,-0.11136103,-0.0545946,0.06368907,-0.079159394,-0.065689765,0.019317681,-0.043163277,0.068595305,0.17436059,-0.032881532,-0.07420196,-0.044626564,0.011576146,-0.1467608,-0.0016089266,0.099197514,0.09725459,-0.03222207,0.08363662,0.02643483,-0.023846652,0.06943786,0.013944064,0.06232658,-0.029305933,-0.09756212,-0.0823687,0.056766983,0.05673308,-0.09066003,0.06382931,-0.09177585,-0.09217313,-0.037018776,-0.040017273,0.037363093,0.05799381,-0.09493098,-0.05059216,-0.030574588,-0.019249214,0.17551948,0.15669982,0.024286129,0.0096031455,-0.16114643,0.14872058,0.0827193,0.20380197,0.20085792,0.059942342,0.062281273,-0.2740816,0.017567048,-0.09608031,0.1549617,-0.11851782,0.020087529,-0.020441758,-0.08943015,-0.1302269,-0.017415244,0.1524592,0.010257064,0.21287851,-0.06622587,-0.101735815,0.1517937,0.10643046,-0.023666048,-0.07164009,0.008446498,0.03308435,-0.043528225,-0.028284628,0.08937389,-0.11461866,-0.048521183,0.0742721,0.013820524,-0.055571117,0.23044544,-0.029836219,-0.08184362,0.17020771,-0.012308654,0.24027811,-0.066059805,-0.06542737,-0.15439117,-0.03517687,-0.018471893,0.22326446,-0.011287198,-0.15410581,0.14410031,0.22625554,0.24570218,0.12718737,0.16742478,0.15892242}, {-0.11075195,0.114569366,-0.097137645,0.06266363,-0.19373487,-0.058379773,0.07235604,-0.10649926,0.03814842,-0.055084895,-0.081434324,0.073626846,0.07455941,-0.089238994,-0.15629388,0.23753855,-0.1756794,0.07572538,-0.08384506,-0.10012201,0.062296323,-0.104057014,0.18163665,-0.079073116,0.22595075,0.1282661,0.10303353,-0.07676404,-0.08858897,0.10953367,-0.1412494,-0.049876772,-0.07328152,0.046080388,0.04182639,0.030087797,0.06141599,-0.06451968,-0.0006579649,-0.14653148,-0.12942037,0.003337285,0.18183608,-0.050921135,-0.010366071,-0.015594623,-0.16664776,-0.053623192,0.08873139,0.014852767,0.025597291,-0.112278074,-0.16660295,0.08561949,0.024135616,0.21164125,-0.20563632,0.17417179,0.006115943,-0.019738644,-0.08451899,-0.17821987,0.18225342,0.056674656,0.06622592,-0.21130103,0.013352997,-0.0272468,0.20354402,0.111615814,0.1793088,0.13516897,-0.1607394,0.01855006,-0.049862906,-0.018701753,-0.020888818,0.1334989,-0.08816412,-0.07526855,0.074461594,-0.17740224,-0.064190656,-0.08966307,0.057212178,0.06382056,-0.07258447,0.12734066,-0.08128024,0.12377892,0.11370967,0.05742597,0.06418393,-0.19478276,0.088019624,-0.017312592,-0.03484537,-0.08132137,-0.14136635,-0.028918315,-0.08614221,0.119220935,0.22339372,0.08634016,0.03389243,0.11165578,0.04478098,-0.002324676,0.095591746,-0.11474643,-0.17147018,0.10097514,0.027891114,0.18147378,-0.10040166,-0.10258511,-0.20851274,-0.09815588,0.0042622616,0.07766872,-0.11355761,-0.11062863,0.11636354,0.24330272,0.17996429,0.07573023,0.110114455,0.3151712}, {-0.16657826,0.07901113,-0.09957099,0.049345233,-0.15702881,-0.09560549,0.090619124,-0.054443613,-0.08575668,0.040086057,0.0084289145,-0.014917225,-0.04391832,-0.1194608,-0.01823925,0.12657623,0.039744172,-0.0034576948,0.06308913,0.1488584,0.008575439,-0.1682377,0.17118132,0.087374955,0.04227122,0.19681615,-0.063144684,-0.13897258,-0.0010212383,0.05661875,0.11277762,-0.015332541,-0.037574306,-0.016967436,0.23849991,-0.123737685,-0.12987414,-0.15664817,-0.024986973,-0.15759262,0.01905368,0.09217728,0.16634673,-0.15366659,0.1363024,0.004733092,-0.010368194,0.00848145,0.16735192,0.01746189,-0.088313214,-0.09754466,-0.0238511,0.0750778,-0.09131989,0.11253774,0.04532317,0.13069023,-0.11491934,0.018243328,-0.20667964,-0.11394757,0.12816998,0.059160754,0.016068054,-0.22323519,0.21207468,-0.078746445,0.14203931,-0.097162805,0.1232754,0.17681472,-0.19006939,-0.069175415,-0.14476034,-0.11734131,0.0019274901,0.05771493,-0.22290432,-0.032762837,-0.07810109,-0.19021632,0.042314507,-0.10612055,-0.08455776,0.0338707,0.018120917,0.22757187,0.018765911,-0.14308675,0.12718646,0.011058728,0.1534253,-0.074204184,-0.013679083,0.047599178,-0.0021156475,0.08772301,-0.11649932,0.057250433,-0.1654838,0.24545301,0.19174618,0.11096861,0.06048705,0.23000945,0.013314192,0.16107433,0.026184982,-0.16180897,-0.07324429,-0.07502633,0.1590244,0.03195711,-0.078081414,-0.1972923,-0.037940495,-0.11719741,-0.08528992,-0.04561685,-0.2038751,-0.01712919,-0.103168055,0.084317,0.1302247,-0.023489267,-0.049529064,0.2220588}, {-0.1497228,-0.07509168,0.03245521,-0.0044405134,-0.09371769,0.066988274,0.0031410605,-0.14119089,0.083293214,-0.16906705,-0.027563937,-0.050704826,0.09255504,-0.060349874,-0.06976232,-0.15309577,0.070266455,0.025301242,0.1382387,0.13045959,0.027866488,-0.2185565,0.1930802,-0.060507406,0.04840695,0.06427045,-0.064479016,-0.20159325,0.09182145,-0.10683972,0.10426398,-0.18958326,-0.13442847,0.12827697,0.09932178,-0.17801294,-0.118179485,-0.12637106,0.09230486,-0.03294892,-0.06965396,0.12117978,0.22976129,-0.11766198,0.013650125,-0.019487936,-0.14593704,-0.13308777,0.035237357,0.03999614,0.070325375,-0.04869293,-0.10578206,0.1127401,-0.026741281,-0.09258607,0.11795027,0.015489288,-0.06557316,-0.061132886,-0.16725716,0.13382737,-0.047133006,0.122627266,0.1043764,-0.073823825,0.20080024,-0.080298185,0.045040097,-0.18609941,-0.0047840215,0.057359137,-0.12079639,0.03463585,-0.06657399,0.060448844,-0.028181793,0.11791021,-0.039595507,-0.09421071,0.013882773,-0.05123092,0.1238949,0.0200106,0.04642713,0.026227638,-0.043412175,0.14851378,-0.06827381,-0.10493064,0.042002372,0.09776356,0.14139752,0.12772283,-0.067278065,-0.07899446,0.118410915,0.09477177,0.045679554,0.14280184,-0.117055975,0.18965136,-0.02084102,-0.08821608,0.018851954,0.14927027,0.050250646,0.19002968,-0.03839687,-0.17256089,-0.1041584,-0.08618262,0.22276841,-0.16569477,-0.056274127,-0.1337771,0.05310936,-0.07784343,-0.07181261,-0.083002016,-0.11060865,-0.015094453,-0.13891296,0.053811785,-0.16689281,-0.03270289,-0.15354152,0.10598056}, {-0.11346959,-0.016349494,0.1290728,-0.0039092973,-0.09496712,0.110746905,-0.05251067,-0.08522896,0.07670732,0.016864061,0.06442254,-0.13103947,-0.09820217,0.008367427,-0.11761525,-0.077707626,0.038483933,-0.054015566,0.043915592,-0.09536041,-0.109921165,-0.18425603,0.007971227,-0.09623338,-0.017504169,0.028031783,-0.10903491,-0.18441565,0.030115295,0.017455507,0.03440576,-0.20357805,-0.07771097,0.0030064527,0.2022032,0.0579936,-0.10660162,-0.08775988,0.02707704,0.030557932,0.0772961,0.10777791,0.00044490374,-0.023964625,0.12815922,-0.07246816,-0.13220784,-0.17601044,0.07320318,0.18665066,0.10911297,-0.028148966,-0.09981071,0.11325797,-0.06297748,-0.104477204,0.11915251,0.11265683,-0.082937665,-0.04043879,0.056723323,0.1365048,-0.031476934,0.15130267,0.049156975,-0.04525112,0.06605254,0.0002463554,-0.23663239,-0.13116108,0.016628992,0.106754854,-0.014561174,0.06313419,-0.11986903,0.106500216,-0.12971288,-0.027003378,-0.14707187,0.038187675,-0.11595053,0.15276358,0.042564552,-0.13196416,0.09154849,-0.023678763,-0.11741681,-0.09865241,0.014585324,-0.05924189,0.07547811,0.07572752,0.022722708,0.15100439,-0.13131271,-0.07377563,0.109152816,-0.15731893,0.037169244,0.17266083,-0.024200825,0.15939042,-0.114536926,-0.015213508,0.019079154,0.12659797,-0.07564716,0.16959704,-0.057280812,0.002609413,0.0182203,0.121787734,0.21445812,-0.02536824,0.060727675,-0.095044866,0.07020794,0.07560416,0.016845336,0.09652623,-0.02764907,-0.054820057,-0.18731295,0.10521459,-0.014509974,0.14060129,-0.13198094,-0.07569064}, {-0.081699,-0.120290205,0.20438577,0.06557671,-0.05747155,0.093709216,-0.13214576,0.0027423715,0.11146056,0.00438318,-0.0014400287,-0.025465542,-0.032654814,0.06475724,-0.11199039,-0.119271725,0.11504085,-0.018936906,-0.027250636,-0.14259662,-0.15404421,-0.0745004,-0.0462912,-0.14724776,0.060047623,0.028535726,0.06637677,-0.20935549,-0.086170554,-0.059510253,0.14824799,-0.09097395,0.1056415,0.1465138,0.04136946,-0.0894956,-0.13612537,-0.1806321,-0.010966028,-0.07190257,0.0038484286,0.010307796,0.0120326225,-0.06463566,0.12085889,-0.10072509,-0.11624786,-0.10396626,-0.057375368,0.1412207,-0.051709622,-0.051511373,-0.14983861,0.02798906,0.070955135,0.09880092,0.16646296,-0.04430504,0.0009593648,0.038530346,-0.043831635,0.04855913,0.13872623,0.08685385,-0.08675767,0.09535139,-0.17550601,0.09506325,-0.05567211,-0.038097583,-0.0032477132,-0.099344954,-0.11763065,0.13045357,-0.009805172,0.08762144,-0.11337537,0.067763075,-0.092533424,0.07469338,0.15464915,0.02998137,0.121783584,0.05939696,-0.016837765,-0.07188648,-0.022359893,-0.0868287,0.0077875415,-0.024765654,-0.06375773,0.06545582,0.03419485,0.074635886,-0.1003562,-0.08748752,0.08929565,-0.16528329,0.039688915,0.0867248,-0.034063824,0.0841152,-0.16705328,-0.009709243,-0.0044024955,0.01110293,-0.06233124,0.011839626,-0.064516686,0.09622348,-0.028722048,0.09927264,0.25889868,-0.0921508,0.103355564,-0.046507422,-0.08085615,-0.027868673,0.007893648,-0.03884225,0.09712134,0.019677117,-0.010489432,0.044518575,-0.13762438,0.15939376,-0.026560942,0.049796864}, {-0.02761902,-0.036211528,0.19267687,-0.08747687,-0.05335772,0.069380924,-0.08207927,0.07664365,0.05784222,0.12043829,0.053591087,-0.045445357,0.014684356,-0.08092404,-0.082298584,-0.07037931,-0.032911945,0.031735495,0.03621524,-0.08495192,-0.12438337,-0.03466945,0.097371876,0.015577316,0.032526694,-0.030688386,-0.07659783,0.041078217,-0.03215151,-0.036216944,-0.015256219,-0.13964468,0.13727012,0.02367219,-0.017498625,-0.11576076,-0.01674439,0.012259283,0.05236668,0.055090066,-0.10543456,0.07838118,-0.040071215,-0.04884308,-0.022638736,-0.027726099,-0.079949185,-0.070627585,-0.019218368,0.16047911,-0.07763581,-0.0009373347,0.015851501,-0.062556684,-0.022780178,0.036378246,0.0033267774,0.053769216,-0.08392538,0.07843055,0.049252816,0.031006666,0.08058088,-0.08058868,-0.014951338,0.004832505,-0.05703164,0.06800119,-0.13203359,-0.061682276,-0.11774789,-0.09688188,-0.10570742,0.046347175,-0.11041143,-0.015831964,-0.1337263,-0.06082479,-0.10599086,0.016801663,0.08684907,0.047555357,-0.09030687,0.13488232,0.11207437,0.041925874,-0.12961914,-0.086766526,0.102881715,0.006451702,0.070250146,-0.057252117,-0.10240859,0.026574599,-0.077062406,-0.09919635,-0.018873066,-0.09750184,-0.03585371,0.11864324,0.034432177,0.044297554,-0.1481354,0.037484787,0.033532757,0.078412555,-0.14375336,0.030364444,0.03491095,0.034269564,-0.0063532605,0.08760149,0.1588772,-0.07859852,0.13720831,-0.087632075,-0.063895345,0.0091865705,-0.015029888,0.11554699,0.08992915,-0.044312045,-0.00086164556,0.1467129,0.07221551,0.08607008,0.052762378,0.06637958}, {-0.010350957,-0.07157163,0.13451354,-0.020909486,0.0043175183,-0.07706045,-0.030912176,-0.042621832,0.08053367,0.043125357,-0.02385654,-0.037032943,0.076455966,-0.02169409,0.047257103,-0.093443,0.047855943,-0.053861097,0.08361512,0.05134359,-0.111914754,0.052199595,-0.019464867,0.05049654,-0.037016824,0.08524987,2.7961156e-05,-0.04034648,0.09573998,0.058151565,0.043815345,0.017816704,0.15330814,0.024572004,0.012910136,-0.122003004,-0.03881814,0.023638178,0.048240412,0.043262556,0.023284484,0.08911154,-0.05595229,-0.043044142,-0.031697392,-0.048613816,-0.11499493,-0.06190028,-0.03679314,0.15855853,-0.081177935,0.007833293,-0.14230391,-0.048388243,-0.07326291,0.16465984,-0.024021842,-0.0029200793,-0.039871745,0.031214407,0.069328696,-0.07618011,0.016019698,0.10125018,0.0049015963,0.028124498,-0.10555376,0.04142579,-0.06203719,-0.12333967,-0.10946692,-0.05192003,-0.14144251,-0.010264763,0.059576776,-0.09792997,-0.04472798,0.014489133,-0.118248306,0.013455174,0.04102682,-0.089485504,0.009635922,0.13761489,0.11428395,0.031800784,0.055818167,-0.15885851,-0.039327852,0.0062953415,0.0031750216,-0.025446393,-0.034624886,-0.04088026,-0.12554377,-0.099086404,-0.086101,-0.11835494,-0.010000433,0.10204849,-0.117748305,-0.021797117,0.060179688,-0.16005617,-0.032296825,-0.010510623,-0.11710581,-0.030349825,-0.027472936,-0.05160775,-0.030808536,-0.06327523,0.06377315,0.0702777,0.031712454,-0.10309704,-0.10304959,0.080618866,-0.057048205,0.053509135,0.075610176,-0.048139777,0.055498,0.041568115,0.051172324,-0.05157865,-0.0052312645,0.028633801}, {-0.06701315,-0.14451537,0.083277896,-0.10473812,-0.08922778,-0.022865638,0.061311115,0.004066748,-0.008961614,0.048869338,-0.12966697,0.062260374,0.08818087,-0.018782271,0.025561754,-0.052879617,0.1261746,0.018148541,0.07641231,-0.09122155,0.0020549214,0.009492906,0.07057674,0.081640996,0.05693152,-0.07831159,-0.05685232,0.08646155,-0.05691808,-0.08323732,0.06116014,-0.06618202,0.10831006,0.085037515,-0.0684975,-0.10158229,-0.035801783,-0.037473414,0.030462923,-0.046965547,-0.018171867,-0.026412895,0.074490294,-0.14320484,-0.0049092444,-0.05781972,0.022088781,-0.022593748,-0.11689553,0.15446399,-0.10584207,0.0790277,-0.02250573,0.018499147,-0.039428856,0.14917867,0.025956875,-0.05401235,-0.01515791,0.13434581,0.07735111,0.0011614808,-0.04061759,-0.041105725,-0.04258146,-0.030889694,-0.015986858,-0.0154248085,-0.108720124,-0.07469038,-0.12353999,0.040813103,-0.12952687,0.09400563,0.0724387,-0.14051777,0.0063097673,-0.116394915,0.0062175165,-0.039780516,0.14419745,-0.0781397,-0.030035619,0.110668704,0.028615644,-0.01221308,-0.023319237,-0.14465845,0.050281264,0.034030378,0.024683211,-0.080434114,-0.086351775,-0.019736923,0.031827137,-0.05941409,-0.07526653,-0.061035093,-0.08777597,0.080071546,0.07379297,0.0032641243,-0.058932647,-0.14183553,0.022587387,0.061528135,-0.028752318,0.114180505,0.10469223,0.0392178,-0.121939264,0.041795447,-0.0046400316,0.009056234,0.101711914,-0.12622647,-0.11833428,0.04930453,0.045615938,0.039485663,0.08092948,0.02414765,0.079288006,0.0916727,0.09435062,0.029932981,-0.08934891,-0.0062353536}, {0.012831968,-0.11917407,0.122374594,-0.002759931,0.03685214,-0.023844894,-0.045944314,-0.060417444,0.05655209,-0.09977134,-0.04335409,-0.07356534,0.13426617,0.077537365,0.02389658,0.08148885,0.115658574,0.013690649,0.11016073,0.07171093,-0.09661153,-0.016305143,-0.04282833,-0.057494864,0.071900085,0.13290973,-0.01861268,0.11726876,0.07410033,0.03800409,-0.054868206,0.06786481,0.10466598,0.04516026,-0.0732161,-0.108323485,0.025111478,-0.020879323,-0.0019304825,-0.06971645,0.0025297673,0.08382308,-0.029595919,-0.14932862,-0.037861273,0.035535064,0.061982635,0.067314364,-0.09354258,0.13341333,-0.123544544,0.09542917,-0.06242024,0.05560207,-0.08730509,0.07136399,-0.08657604,-0.046671066,-0.09947511,-0.027806962,-0.14043315,0.011197201,-0.060714293,-0.04867245,0.034083806,-0.11037178,-0.09487363,-0.06581494,-0.002874023,-0.017736062,-0.093971536,-0.112276845,0.0575259,0.027836692,-0.03497713,0.024809929,0.07315073,-0.09649877,-0.05657493,-0.01455704,-0.013917691,-0.051349625,-0.032857575,0.13973936,-0.061177216,0.08349699,-0.0351654,0.05629448,0.07468888,-0.10243114,-0.042008474,0.052566625,-0.020063575,-0.1058111,0.110405944,-0.005445374,-0.06903491,-0.122253574,-0.12478137,-0.042115204,0.07203312,0.11734231,-0.050557375,0.04801259,-0.05970586,0.027302805,-0.11958816,0.023993507,0.06688801,-0.015937462,-0.08203973,-0.13311844,-0.015811052,-0.010883785,-0.019464761,-0.10680092,-0.0827824,0.08765157,-0.041701343,0.052784376,0.07296868,-0.010899565,-0.11319277,-0.028826743,0.14757498,0.08021679,-0.011790176,0.048635647}, {-0.0453703,-0.017677782,0.04340687,0.07916923,-0.05332648,-0.009558959,-0.032477275,-0.07102588,0.09455629,-0.027449425,0.08144146,0.0147248255,-0.007379847,-0.08707216,-0.09426372,0.024738252,-0.07206595,0.06512829,0.03313842,0.068527274,0.051953897,-0.07366421,-0.057776295,-0.038073186,0.0211656,0.05741815,0.017492218,6.141759e-05,-0.081086285,0.016474385,-0.041958924,0.027125768,0.0109943515,-0.10208859,0.0146028055,0.038194396,0.0597239,-0.010644604,0.027492069,0.10080608,-0.12146926,0.14813253,-0.047750514,0.020141477,0.057116434,0.09717201,-0.0269215,-0.07297082,-0.0458307,0.11485813,-0.10547281,-0.02875451,-0.0056014094,-0.013562542,-0.040319014,0.12590638,-0.06401384,-0.083119765,-0.09457411,0.10073537,-0.09019286,-0.065319546,-0.035626046,-0.02413004,0.08250804,0.053046223,-0.1094546,-0.029346887,-0.11114886,0.11025492,-0.06967417,-0.09770619,-0.11850933,0.06317424,0.117366254,-0.043861717,-0.10453247,-0.06048654,0.09051062,-0.05705555,0.11853431,-0.095799595,0.0085363155,0.10489942,0.0011909304,-0.0053375266,-0.047917224,-0.069085,-0.05427014,-0.123530656,0.07632106,-0.12553886,0.08735934,0.050662342,-0.04415343,0.018200658,-0.077822104,-0.124991976,-0.049842495,-0.037912056,0.04598287,0.02367339,-0.03523812,-0.07075851,-0.043756805,0.11706831,-0.07825939,-0.035241175,-0.07027387,0.08137612,-0.0017817698,-0.14000313,0.00079088,-0.024509655,-0.089733854,-0.11222934,0.0048359605,0.087354265,-0.075910024,-0.00020147965,0.059528418,0.11280525,-0.04112099,-0.038762946,-0.028777596,-0.03792494,0.048292488,-0.00877042}, {0.09198181,-0.11220851,-0.00906164,0.041500926,0.013296851,0.06504663,-0.08062162,-0.08396916,0.030796165,-0.11846968,-0.031913184,-0.076957926,0.063939005,0.028793657,0.08802019,-0.111426674,-0.053494465,0.023972383,0.07133087,0.13961786,0.09303721,0.040284704,-0.10576017,0.025103545,0.10529847,0.06636945,-0.08367586,-0.008095664,0.021797052,-0.083899334,-0.026781667,0.024146065,-0.07690304,0.007516716,0.055032898,0.06512887,-0.10664447,0.04058141,0.036015823,-0.010321825,-0.010618835,0.0024982165,0.071086,-0.10553178,-0.07766609,0.086748905,-0.010690536,-0.045470864,-0.118069574,0.08064169,0.03415959,0.03466983,-0.02877131,0.045117997,-0.1073566,0.04310119,-0.098256975,-0.068900585,-0.00407877,-0.008015796,-0.049408726,-0.05225004,-0.14382605,-0.072459854,-0.052965406,0.013693343,-0.09476995,-0.060817,-0.08149755,-0.05691855,0.0156131,-0.06652702,0.093180016,0.093144186,-0.051540326,-0.05491444,0.013646202,0.049124304,-0.060777776,0.012854522,-0.09089726,-0.053855386,-0.08888568,0.013489335,0.057999205,-0.082184434,0.098869555,0.0035861994,0.09343646,-0.11307667,0.0059009986,0.057874832,0.06313224,-0.010789726,0.06998679,-0.09654051,0.030389007,0.010180943,-0.088149816,-0.07588445,-0.024590103,0.054135308,0.14382893,-0.068833716,-0.039581105,0.028979259,-0.05958973,0.023639256,0.055237066,0.094916925,0.06881977,-0.058719892,-0.031920135,-0.053951755,0.066488355,0.031424653,-0.009485292,0.050742194,0.12652297,0.05446228,0.0017528157,-0.045804765,0.063711576,-0.05237167,0.018292453,0.03452748,0.09549214,0.06770428}, {-0.05167823,-0.010226015,-0.08281108,0.067534745,0.024299603,-0.021863122,0.0122508705,-0.009688237,-0.008774301,-0.017663782,-0.02639616,-0.09424054,-0.124880984,-0.00062293326,0.06065425,-0.032428723,-0.062662244,-0.015336103,0.10128353,0.015895426,0.09073482,0.108143315,0.00072753825,0.09573459,-0.08672536,0.06415112,0.05927428,0.09555891,-0.0063562803,-0.083980866,-0.004883558,-0.061543915,-0.09522677,-0.12661065,0.0051943357,0.13414691,-0.07226263,0.09006044,0.066032514,0.077607,0.024169844,-0.058306698,-0.038306627,0.08081423,-0.057624027,0.00874256,0.11786594,-0.051304236,0.077980496,0.10156363,0.0093036285,0.05884635,0.01996412,-0.03140475,-0.0458862,0.09636522,-0.005649616,0.057338085,0.0064440924,-0.04630089,0.056117553,-0.0898787,-0.08389227,-0.044097222,0.05207468,-0.047032464,-0.024831945,0.02013241,0.012955128,0.024607092,-0.11909249,-0.092284836,-0.011310827,0.06473721,-0.0792015,0.044701535,0.04122423,-0.023504432,0.03275427,-0.048039325,0.022359647,-0.0036944575,0.055033647,-0.02695777,0.00054716266,-0.025947459,0.10203452,0.041474644,-0.010724678,-0.019098086,0.092396446,-0.057128504,0.07942665,0.005210912,0.07622805,0.013661641,-0.035164498,0.10014031,0.08293575,-0.018037979,0.059482668,-0.054248586,-0.017798956,0.11700118,-0.06113904,-0.068938315,0.081541725,-0.008537375,0.07063915,0.078509085,0.007787809,-0.057313096,-0.091928765,-0.05762095,0.049515262,0.04072317,-0.02071612,0.05263903,-0.014565698,-0.031219548,0.06700579,-0.04017879,0.0719379,-0.119272344,-0.022189626,-0.1152171,-0.045138728,0.07538873}, {-0.06412317,0.10481597,0.009866724,0.06963754,-0.088785626,-0.09753043,0.01328645,-0.06264191,0.023847274,-0.07927894,0.053738747,-0.100525185,0.030089231,-0.0628203,-0.124661304,0.07172596,-0.07777901,0.07004245,-0.11351262,0.043245085,0.053635478,0.0766293,-0.025571315,-0.019095333,0.016360745,0.07692334,-0.09834315,-0.020485459,0.07305799,-0.023153527,-0.07971805,-0.031200781,0.026619775,0.017960249,-0.06185596,0.080072135,-0.114163674,0.021005332,0.070254155,-0.079773724,-0.02283085,-0.08224559,-0.013627335,0.07482013,-0.021397408,0.03710222,0.09739546,-0.05354808,-0.09967412,-0.0035015189,-0.0042770756,0.03117705,0.0061836136,-0.07752445,0.044968322,0.066866964,0.08608097,-0.061759166,0.09540961,0.04579485,0.109883554,-0.0691062,-0.081766956,-0.044901572,-0.070464924,0.017228741,0.015827471,0.07013296,-0.0043826303,0.07116335,-0.059868265,0.10852506,-0.025166918,0.11468183,-0.042878978,0.041372623,-0.049093317,0.019978309,-0.07511172,-0.0713649,0.08240639,-0.041217323,0.028085621,-0.069217324,0.09025315,0.06490528,-0.041422166,0.010337967,-0.03861194,-0.0028688838,-0.042317014,0.09537046,0.06277465,-0.10254695,0.09186586,-0.026072863,-0.064049155,0.020311171,0.031266015,-0.012939227,-0.038031224,0.005400518,0.11871305,0.04238885,0.12754641,-0.073184244,0.106308565,0.015375141,0.0027384288,0.023668775,-0.05430682,0.014339007,-0.09690304,-0.07475821,-0.015859239,0.047024436,0.06366941,-0.08655978,0.004886229,-0.04108463,-0.1136376,-0.08256079,0.028517744,-0.055349607,0.029437985,-0.04288735,-0.054933894,0.021625374}, {0.06719444,-0.026928391,-0.09445271,-0.02107854,-0.023080597,0.09206314,-0.10399605,0.10073783,0.013027398,0.012013819,0.05969331,0.015175199,0.026088582,-0.050732426,0.07367427,0.06353057,-0.030653317,0.021957329,0.054159824,-0.042725805,-0.08941857,-0.012665821,-0.021860221,0.057834163,0.07984576,-0.024559245,0.073632814,-0.08291638,-0.020467818,-0.045926172,0.06966289,-0.050054807,-0.042625092,0.039425313,0.05907255,0.03126684,0.040575128,0.14384645,-0.024355417,0.065020606,-0.09239207,-0.021869998,-0.0036711683,-0.08710521,-0.0679521,0.050321233,0.064716965,-0.024307778,-0.07495781,0.0021698372,0.079762846,0.042560667,-0.0028560178,0.016677149,-0.027088972,-0.092796564,-0.040263638,0.06345247,0.06845432,-0.059338875,0.11843127,-0.06435956,-0.00018010056,-0.0044223694,-0.0584911,0.07971931,-0.040189955,-0.003095249,0.01882879,0.013636211,-0.037118476,0.089529805,0.0069913543,-0.008457135,-0.05400613,-0.049359333,0.010893858,0.111791514,0.07227313,0.07314817,-0.10226749,0.06320201,0.012471474,-0.05005462,-0.030024627,-0.0013684198,0.09150349,-0.0554256,-0.038506024,0.007940752,-0.12870577,-0.07927576,-0.029440397,0.012538678,-0.0005868039,0.028996889,-0.092901826,0.021315094,-0.06514258,-0.016415225,-0.06996297,-0.03426284,-0.05292579,-0.009190901,0.13331786,-0.066287406,-0.08610568,-0.051272027,0.064092755,-0.086216964,0.10411727,0.068818614,-0.017366253,0.026022013,0.018441875,0.037766453,0.13271202,-0.09525259,-0.0009356013,-0.005927479,-0.02012998,0.052745007,-0.11523904,-0.07253078,0.080095224,-0.049315948,-0.026136527,0.037449002}, {0.0965647,0.049803894,-0.03997978,0.04279935,-0.008185419,-0.0060442924,-0.03510885,-0.031592257,0.03542467,-0.00065658207,-0.020569317,-0.10969362,0.052241713,0.08347029,0.030499445,0.04310089,0.11114999,-0.09711414,-0.10624684,-0.027196784,-0.05054647,0.07427355,-0.048236184,0.06232916,-0.018145923,0.0070688464,-0.10699153,0.10626008,-0.018112307,0.11616594,-0.043020926,0.0026524584,0.09150123,0.040441226,0.049991284,-0.032109942,0.031285178,0.05858698,0.08657743,-0.09352382,-0.050168652,-0.02928197,0.003811847,0.098940246,0.096038684,0.03691001,-0.04767059,-0.040507805,-0.0037192544,-0.072470576,0.06771539,0.0060638627,0.06245051,-0.074720845,-0.06268015,-0.09553745,-0.06805454,0.10762817,-0.017161855,-0.0065300274,0.06991265,-0.09308864,0.1343324,0.12974374,-0.10427675,-0.010213821,0.0628003,0.007743501,-0.020325074,-0.05009795,-0.038797855,0.1045967,0.11633653,0.050922044,-0.040441025,-0.028124278,0.09992321,-0.053860806,0.059325106,0.02994277,0.055954605,0.00039559207,0.0814408,0.0075499476,-0.063105926,0.041641094,-0.04614482,0.0908795,0.08974838,-0.021809608,0.012357644,0.050497126,0.06335969,-0.0030072802,-0.09708569,-0.11509389,-0.048165362,0.012910264,0.06722719,0.019473314,-0.028628815,-0.018080374,-0.06174321,0.10569742,0.07930519,0.09327949,-0.046074722,-0.009739027,-0.06246315,-0.03940274,-0.08120448,0.034744553,-0.12243155,-0.066360794,-0.14186238,0.016944438,0.092077546,-0.050789203,-0.05456794,-0.06153641,-0.066922165,0.050456483,0.07916062,0.013519571,-0.09183416,-0.0068258094,-0.07219716,-0.062472194}}
#define W_LSTM_KERNEL_C_WIDTH 28
#define W_LSTM_KERNEL_C_HEIGHT 128