#define LSTM_BIAS_O {0.024053045,-0.0032457067,0.025758702,-0.0025796785,0.014935503,-0.0055844574,0.022111632,0.09018447,0.06119503,0.0832423,0.16645736,0.035366595,0.099205606,0.11868089,-0.029267052,0.039944302,0.09495282,0.006075433,-0.020705584,0.013614826,0.047597636,0.030615674,0.052391775,0.09506981,0.16754001,0.07747821,0.018106049,0.06660266,-0.016445436,-0.038298853,0.047391664,0.025884794,0.0034352841,0.0644133,0.003378105,0.07273563,-0.018073943,0.020634972,0.07420379,-0.006234328,0.061526217,0.0032510236,0.12260824,0.0103806155,-0.03299833,0.01624036,0.00097383047,-0.0042194175,0.040949997,0.052144848,0.03606018,0.16617887,0.049249247,0.020824581,0.011150198,0.05992136,0.041774973,0.055258885,0.03638165,0.002312092,0.09756133,-0.018560095,0.03703329,0.03121595,0.025608959,-0.026208801,0.03085277,0.0056022517,0.05042871,0.029116146,0.11051849,-0.008609524,0.11715718,0.056024436,-0.013149821,-0.018327188,0.041452166,0.10795059,0.023635915,0.102123484,0.13668102,0.0011415333,0.118365884,0.05352162,-0.015243758,0.01448531,-0.044021122,0.037981782,-0.004710495,0.04221814,0.05217707,0.066814475,0.034976315,0.01845311,-0.06939091,-0.045932688,0.00058218715,0.07283172,0.02063445,-0.002839791,0.013319851,-0.005683732,0.07122427,-0.04063212,0.07838922,0.072652236,0.062019408,-0.014204523,0.065996654,0.050321758,0.17476526,0.08355095,0.09366275,-0.005058559,-0.02021177,0.027927142,0.069680825,0.10438052,0.030350782,0.01342652,-0.0036114582,0.12809403,0.082885645,0.10280393,0.033130467,0.026690032,-0.05292889,0.04882649}