#pragma once
#define W_LSTM_KERNEL_I {{-0.085053176,0.08006373,-0.041638695,0.009619172,0.082753666,0.021278482,0.09088956,0.04691727,0.11172952,0.01430787,-0.09743903,0.1442877,-0.011640811,-0.14801195,0.08714552,0.009502006,-0.041323632,0.11658198,0.017677158,0.06959238,0.06297002,0.10850538,0.037460722,-0.034114525,3.351833e-05,-0.029648308,0.016616058,0.07311527,-0.03714471,-0.009586844,0.0234693,-0.09683739,0.13583663,0.06298522,-0.04655105,-0.11846698,0.08462076,0.0014516641,0.06673779,-0.03099281,0.012645816,0.047970746,-0.08162228,0.14582628,0.08182386,0.051335625,0.05769816,0.0077415323,0.10608009,-0.07637944,-0.053553622,0.030185461,0.10699983,0.10553667,-0.010729806,0.02209767,0.05783639,0.15550937,0.070250936,0.061602943,-0.077926464,0.10901787,-0.017648108,0.078079276,0.09930504,0.07074208,0.013262657,0.006213516,0.0063894144,-0.023750238,-0.050284024,0.064722456,0.08922776,0.05108978,0.000655966,0.14070638,0.15661463,-0.12215451,0.16087006,-0.07656027,-0.06751166,0.11713815,0.026020344,-0.040748313,0.061602965,0.109188184,0.117904894,-0.07772417,0.00021516118,0.064082034,-0.062190045,0.08496236,0.06779402,-0.011160279,0.21534577,0.034581624,0.011391155,-0.07202949,0.025512248,0.043877646,-0.0492931,-0.0017415602,0.054255944,0.11532524,-0.019441083,-0.047584385,0.077263616,0.0028731343,-0.03603371,0.05079713,0.042074643,-0.028840614,0.10469503,0.14055279,0.14598176,0.014562183,0.054868773,0.020892631,0.11748201,-0.07329651,-0.055655733,0.13355379,0.06402984,-0.033336107,0.016338984,0.039062917,0.062567055,0.030526044}, {-0.11340132,0.13558407,0.0017239006,-0.058111187,0.12281412,0.003977244,-0.029769843,-0.07274051,0.060607936,0.07697092,-0.10043571,0.10646713,-0.0893078,-0.019101424,0.0096370615,-0.08388494,0.03822284,0.087851614,-0.047399566,0.03141272,0.11010182,-0.05463614,0.15416457,0.117747895,0.05478361,-0.0025126361,0.13890606,-0.026783654,-0.010205189,0.10808382,0.08279348,-0.026952587,0.023835085,-0.07701061,-0.021139117,-0.05971926,0.07850309,-0.01051577,0.064307585,0.031856406,-0.15046677,0.108862184,0.10167031,-0.042012125,0.15694915,0.05448648,-0.041317523,-0.0012409377,0.011107632,0.011126945,0.066265084,0.1167593,-0.036887895,0.018256562,-0.008762898,0.056842968,0.037140228,-0.034166526,-0.035765357,-0.034970675,-0.007575971,0.062059652,-0.030175399,-0.052766226,-0.014208957,0.054135807,0.14947033,-0.007542191,-0.034849413,-0.03037154,-0.124238305,-0.10882473,-0.016875647,-0.059466403,0.1380325,0.02223979,0.1274054,-0.09776598,0.089630246,-0.007847021,-0.09961929,-0.00014346081,0.08825457,-0.08653821,0.124991976,0.09086292,0.057067923,-0.0006409971,0.059757825,0.09101798,0.12386741,-0.0072003216,-0.013067069,-0.043079697,0.089166254,0.1342882,-0.10748925,-0.04280503,-0.024983007,-0.06757267,0.031083915,0.002936617,-0.06704229,0.053918645,-0.080284216,0.09002694,0.018148243,0.0020389464,0.10825048,-0.096412696,-0.045557786,-0.014385749,-0.050790593,0.10416751,0.064261794,-0.08603715,-0.035720073,0.03819741,0.09278267,-0.036423974,0.10603674,0.1256592,0.087314725,-0.04465152,-0.01301871,0.0638385,0.09888922,-0.007685303}, {0.07087368,0.060168646,0.050785087,0.05538559,-0.014835318,0.089366645,0.04315241,-0.027396211,-0.0051143738,0.15172553,-0.12281277,0.087678686,0.012857535,-0.12111499,0.1476419,0.10025844,-0.067396455,0.020901846,0.06741095,0.0294925,-0.046070825,0.05392051,0.01753415,0.11559715,0.021744732,-0.06867419,0.0044939676,0.045128353,-0.05284518,0.116806224,0.0038677584,-0.0814039,0.042791177,0.08189413,-0.0036879887,0.015823599,-0.024458904,0.031709485,-0.0043233247,-0.045243558,-0.015284503,0.09368589,-0.07030747,0.042085808,0.033938784,-0.11025971,-0.10607748,0.0012803825,0.09404325,0.0005192342,-0.034435686,-0.09253034,-0.038766436,0.020904824,-0.036691386,-0.050594993,0.11219373,0.10663037,0.0686947,0.15013021,0.047464456,0.11473838,-0.046765372,-0.05349815,0.037040673,-0.04467113,0.035553038,0.1084563,0.090431035,-0.013677604,-0.0401212,-0.08019436,0.0932507,0.03127131,-0.034992937,0.11750454,0.06284556,-0.0651165,0.0846272,0.069472015,0.01180114,-0.03781076,0.08028702,0.02718058,0.10275296,0.04896845,-0.04371026,-0.10642882,-0.012643649,0.104500055,0.11050756,0.03376375,-0.021010373,-0.07580375,0.020040253,-0.0026852007,0.08526294,0.10598792,-0.06959772,0.1123221,0.044686023,0.1569673,0.093516864,0.12076869,0.059442345,0.1117215,0.123102374,-0.00070298184,0.093695395,0.0014809425,-0.017917901,0.018116027,0.013553228,0.051590063,0.020319011,-0.037236873,0.013987676,-0.008918994,-0.0052518225,-0.0997162,-0.03075184,0.13635671,-0.007586801,0.004936161,-0.05861407,-0.025095528,0.075147,0.008833739}, {0.055235997,0.066476785,-0.045339447,0.04145258,-0.051853564,-0.043162357,-0.06850294,0.03519486,0.13076514,-0.0032641692,-0.054773442,0.01907086,0.12483065,-0.098094344,-0.03776828,0.08760217,0.120582245,0.050775185,0.018074783,0.06147244,0.08854961,0.09962393,-0.036501434,0.10483481,-0.09417328,0.0084820045,-0.024377597,0.0047231778,0.04300253,0.053480297,0.0337673,-0.04225909,-0.0395241,0.00042072881,-0.004242871,-0.029975941,0.13883354,0.034257706,-0.023194747,-0.031798236,-0.056468528,0.064636804,-0.036152765,-0.04900951,0.13788623,0.04994106,0.048195124,-0.0106722815,-0.00271255,-0.060563143,-0.08403538,0.061470002,-0.09099592,-0.005805401,-0.025378833,-0.016636418,-0.0254437,0.0061565507,-0.046497528,0.11802714,0.060019694,-0.03478609,-0.023058517,0.12981239,0.023789048,0.039718997,0.027009683,0.049662016,-0.022837996,0.044313293,0.0108245,-0.08320423,0.0025342193,0.08009836,-0.00061710924,0.076426074,0.0012708717,0.028685242,0.053407006,0.056895077,-0.015477985,-0.024547532,-0.0441198,0.10410445,0.020672692,0.035171047,0.08061929,-0.122109026,0.0075028013,-0.020944275,0.100126825,-0.09367303,-0.070590965,-0.059985757,0.18369976,0.021243246,-0.043904908,0.014561695,0.013239805,0.0309962,-0.060195938,0.07361134,-0.058113225,0.07768454,-0.08305683,-0.066511326,-0.037528828,0.003563053,0.060264036,0.020234697,-0.019113015,-0.043951437,-0.06349439,0.07150664,0.12029955,-0.028408147,0.103121236,-0.013572725,0.044031534,-0.0470318,0.077522546,0.12308284,0.13368565,-0.062171206,-0.060456276,-0.061134778,0.13205309,0.11467887}, {-0.03799463,-0.021729972,-0.099026375,0.04522133,0.04473735,0.017211892,-0.05771087,0.14055215,0.15414073,-0.020310441,0.074610025,0.13962115,0.0915849,0.036910307,0.080666274,0.11895241,0.0048618284,0.08098176,-0.036180813,0.07013548,0.13331132,0.022538707,0.068670854,0.033256523,0.12856369,-0.06164247,0.12726717,-0.011252886,0.007908036,-0.054263774,0.058861125,-0.01859149,0.06730242,-0.029085267,-0.16502139,-0.13514799,0.052742586,-0.030472776,0.036434107,0.08337349,-0.038497623,0.09335861,0.06458362,0.11908511,0.15004231,-0.04572856,-0.01466499,-0.0099998815,0.14866163,-0.103365496,0.04472026,0.00016470836,0.057558697,0.10759259,0.14553545,-0.024897221,0.072641075,-0.012870365,0.07736607,0.047481775,-0.07972683,-0.020417746,0.13554367,-0.0554171,0.14791623,0.10984948,0.10555642,0.05522573,-0.031422544,-0.051082056,-0.039570652,-0.1475902,0.09755791,-0.03616309,0.17359439,0.07468878,0.066839464,0.09147021,-0.019680452,0.065433085,0.069528066,0.027333828,-0.08085351,0.023599576,0.024440499,0.15181485,-0.0750467,-0.035368595,0.041970883,-0.036499515,0.016976442,0.08307431,-0.09340023,0.060563393,0.011365848,-0.01069591,-0.04249299,-0.093474545,-0.060712814,-0.079734355,0.025224067,0.09256705,-0.084361,-0.050918605,-0.14129922,-0.034046367,-0.01606804,0.025981024,-0.019589607,-0.041585784,0.11782849,0.056812387,-0.059722126,0.023933163,0.096196406,-0.03318047,0.07888972,-0.075848095,0.13218202,0.022642089,0.047353428,0.117712475,0.056199078,-0.062255286,0.068549395,0.13931668,-0.038832497,-0.060292996}, {0.018233646,0.08463544,-0.14416583,0.03774278,0.07727747,0.104176976,0.049477182,0.11405728,0.048541486,0.14438067,-0.06845451,0.05220304,0.12811998,0.04015777,-0.017794045,0.045735076,-0.036964346,0.04110564,0.09002784,-0.0036150003,0.10131608,-0.0943686,0.04096794,0.00049908186,0.012017697,-0.19469133,0.14977913,0.086515166,-0.0936444,-0.06614226,0.051776864,0.06894276,-0.03185363,0.061117336,-0.14993644,-0.04616544,-0.020859098,-0.008894497,-0.07054229,0.023476172,-0.004088753,0.06861821,0.1134951,0.023670971,0.01713759,0.06766164,-0.0013443124,-0.03276434,-0.01610466,-0.043038305,0.0670983,-0.018642507,-0.057902344,0.031033548,0.09744788,-0.012221718,0.029279988,0.047101453,-0.06735076,0.15710829,0.062467046,-0.028099876,0.13544728,-0.002358245,0.14347869,0.03695728,0.0042276816,0.049651157,-0.04531157,-0.055323955,-0.18157646,-0.1019173,0.033734247,-0.10151063,0.07257678,-0.019911414,0.06660508,0.00498927,0.087856896,0.17451118,0.0068767057,0.00982727,-0.060056485,0.1125725,0.08168449,0.08783393,0.04423806,0.063898176,0.048252556,-0.026239462,0.09526007,-0.058698718,0.007984937,0.09915595,0.024766851,0.18539488,-0.04295933,-0.16629684,-0.100028396,0.09460953,0.08920875,-0.07530458,0.019711042,0.003568761,-0.18020225,-0.0062173954,-0.06561184,0.0732397,0.015855212,0.08467892,0.104707606,0.02764152,0.038340364,-0.03441108,0.036127325,0.07127217,-0.06300775,-0.11461475,0.056888774,-0.007449208,-0.053840704,-0.046466246,0.032486707,0.09872297,0.049362548,0.14926776,-0.05431254,-0.027955618}, {0.010147305,0.0299184,0.02587779,0.11002267,-0.097713806,0.02510257,0.07527014,0.22280441,0.11995488,0.15676829,-0.004334407,0.025929056,0.10532232,0.02369248,0.06912936,0.0056787273,0.045688566,0.030667065,0.15123719,0.13805346,0.07973099,0.04173724,0.1076784,-0.048421238,0.2325887,-0.09793648,0.020806413,-0.08602443,-0.03034093,0.024740456,0.039502703,0.048465542,-0.10071646,0.09759371,-0.052456267,-0.08166911,0.11260432,0.12780418,-0.058718827,-0.0006905306,-0.17370854,0.10974416,0.12488048,0.08551676,0.025010347,0.018070813,-0.13643965,0.03944509,0.09218298,-0.0383147,-0.072645195,-0.009250908,0.06209036,0.121361576,0.15445139,0.075779326,-0.006113923,0.071487576,0.13735753,0.07958682,0.022521572,0.036830377,0.039681748,0.12061834,0.033195842,0.09198542,0.042371504,0.13782658,-0.14941947,-0.032933593,-0.0027376146,-0.035140596,0.19231667,-0.044824313,0.15216668,0.11093733,-0.068495266,0.20779024,0.03768101,0.17186694,0.05815976,-0.09556993,-0.10786454,0.10581774,-0.019786347,0.025415935,0.08080214,-0.10398242,-0.016628202,-0.003155307,0.056599792,0.08437731,0.081327595,-0.05213047,0.015779044,0.023250144,0.0694335,-0.15192895,-0.117975116,0.009192868,0.05383205,-0.0051955925,-0.09829358,0.04881738,-0.12189312,-0.041932933,-0.07227884,0.20124951,-0.18746115,0.12312048,0.108100265,0.006190492,0.020003492,0.03842043,-0.08970912,0.077679224,0.047723867,-0.122248076,0.0184093,-0.106013834,0.087761186,0.0100481305,0.035893958,0.080208905,-0.00832378,0.07359524,0.024984201,-0.08276435}, {-0.090560734,-0.14053513,-0.08784871,0.04571433,-0.08998953,-0.1503425,-0.0008712626,0.26565984,0.11264921,0.06308566,-0.0632677,-0.009480907,0.009960203,0.17335777,0.07881728,0.04390615,-0.036801882,-0.013678771,0.18280418,-0.0611035,0.10101223,0.023284893,-0.03262289,-0.020932306,0.09264666,-0.063630186,0.09785294,-0.088338345,-0.19240096,0.0026288545,0.035238244,0.027398882,0.012462456,0.091262005,-0.043652825,0.050493054,0.029546492,-0.07025207,-0.15642825,-0.1239996,-0.1578644,0.1612465,0.21287586,-0.008571068,0.027991936,0.11869227,-0.15761618,-0.010310013,0.0818537,-0.024449326,-0.050748486,0.011962818,0.052270945,0.06307654,0.036024977,0.123365626,-0.016505342,-0.0987294,0.14127499,0.03718591,0.051928796,0.07833536,0.10837899,0.20868048,0.1463298,-0.018230107,0.0962422,0.1156068,-0.123010404,-0.13746141,0.037205715,0.052789398,0.04483375,-0.034729738,-0.0002621304,0.056168523,-0.15550682,0.05909965,-0.003880006,0.056620605,-0.044100948,0.06325727,-0.037987925,-0.034301467,0.14177243,0.09397225,0.11087156,-0.060380425,0.119253926,-0.12916705,0.038309854,0.11110184,0.095904626,-0.018477589,0.17178646,0.10585638,0.12108858,-0.02008534,-0.010768963,0.01895539,0.08612046,0.07040239,-0.060435824,-0.05052705,-0.07728157,-0.08241847,-0.18833745,0.117864124,-0.22987713,0.042268153,0.27422628,0.0657018,0.12694424,-0.1112495,-0.020031728,-0.10002752,0.014415519,-0.3320756,0.05703908,-0.07773511,0.07982116,-0.17736037,-0.0244089,0.17957012,-0.040098157,0.16598356,0.043332435,-0.1245486}, {0.047068827,-0.104924016,0.0032893966,0.08060547,-0.013653535,-0.15129896,-0.16832615,0.33057678,0.0815525,0.15175669,-0.21662796,-0.19098666,0.018145159,0.1888603,-0.01627998,-0.0044151423,-0.07210729,-0.037427563,0.10180966,-0.06324492,0.009715814,-0.15799306,-0.038360044,-0.08543444,0.005453747,-0.028464274,0.077741794,-0.062084932,-0.25005323,0.123186156,0.09050056,0.12404976,0.053018857,0.07917312,-0.087670706,-0.036187384,-0.03450025,-0.066944234,-0.21628176,0.033973593,-0.19171448,0.04549082,0.2651217,-0.024694692,0.059999056,-0.028582202,-0.00648758,-0.026916876,0.00255709,-0.047508862,0.062462103,-0.011009098,-0.05340877,0.02739231,0.1481313,0.19563112,-0.033817004,-0.09304175,-0.030065667,0.04189339,0.114310876,-0.00045370718,0.18255968,0.070103966,0.012014163,-0.021668382,0.21327956,0.15686041,-0.07822286,-0.02791484,-0.11188207,-0.02333355,0.198259,-0.020294048,0.17403679,0.03684393,-0.2976494,0.12746274,0.01634888,0.17065448,0.07975099,0.05932422,-0.1288745,0.1549776,0.033982694,-0.018226314,0.1495959,0.013173979,0.12098877,-0.04142158,0.06857093,0.15101106,0.015664613,0.034292687,0.11733622,0.1999122,0.04393847,-0.16572472,-0.17044051,-0.034268837,0.11975347,-0.080784075,-0.089425445,0.008259445,-0.094438955,-0.023593333,-0.18412195,0.10411569,-0.31955394,0.1588941,0.20708962,0.024688032,-0.07884215,-0.23027374,-0.009997225,-0.117101274,0.060584426,-0.35436606,0.21563184,-0.036924273,-0.023688195,-0.15090352,-0.031473268,0.19971028,-0.107075706,0.10985261,-0.0020602979,-0.07756479}, {0.094676174,-0.11575563,0.034311604,0.11133476,-0.06409396,-0.08013215,-0.17238973,0.20388803,0.095374554,-0.0064528114,-0.20759918,-0.108476266,0.058392514,0.096259125,-0.041179728,-0.16466466,-0.20781198,-0.024249531,-0.0033709896,-0.03449688,0.12679684,-0.20799465,0.15635757,-0.03311814,0.10818771,-0.20551993,0.11743211,-0.11498629,-0.15076642,-0.0335088,0.13172002,0.040728867,0.0882865,0.13704467,-0.11870967,0.09333553,-0.0004156457,-0.01850874,-0.14142808,-0.052165635,-0.20250693,0.06919052,0.20886652,-6.247149e-05,0.09419876,-0.01454027,0.00098536,-0.011044196,-0.066196054,-0.07704308,0.09004115,0.018776871,0.047630012,0.03081817,0.023364246,0.14004275,-0.018731521,-0.032838237,0.029666612,0.08756449,0.0069851493,-0.121386915,0.109181195,0.07305985,0.028786685,0.006432744,0.20268102,-0.00023218675,-0.113527045,0.030855812,0.038063277,-0.13966951,0.13908684,-0.0141147105,0.13136525,0.086814225,-0.06377585,0.10277149,0.114078745,0.2582969,0.1754128,-0.026289117,-0.11493076,0.009350472,0.046591282,0.14139232,0.031924386,-0.023947207,0.103262246,-0.19095023,0.01685331,0.16485506,0.14583807,-0.08143289,0.00434046,-0.010471038,-0.08266022,-0.1901648,-0.1569817,0.075970724,-0.03157477,0.090447515,0.030512344,-0.07356445,-0.033153445,-0.18165854,0.05016419,0.21382901,-0.20107424,0.17168774,0.20031205,-0.011338487,0.040561456,-0.11298024,-0.045871828,-0.007270875,-0.028463377,-0.20451897,0.22249001,0.042287122,0.0028633166,-0.2761039,-0.08575549,0.23231669,-0.12683518,0.1852407,0.123814136,-0.14869851}, {0.16866125,0.01958741,-0.08695684,0.08140617,-0.0076746913,-0.007883808,-0.05043885,0.23985712,0.007714835,0.086246446,-0.1253569,-0.07519571,0.025777418,0.10392681,-0.04349676,-0.1102571,0.011531694,0.056413732,0.02181416,0.04600505,0.0108861495,-0.088398665,0.1738772,-0.051613636,-0.1040957,-0.08200437,0.14318857,0.0743562,-0.018563896,0.0019006729,-0.032171205,0.057315495,-0.05994587,-0.021127556,-0.100278236,-0.029412804,-0.041856814,-0.0030294214,-0.07256556,0.10433387,-0.07166935,-0.039949946,0.12909038,-0.109509334,0.110765174,0.12176522,-0.090003334,-0.10000315,0.0068992865,-0.04311953,-0.07024587,0.07168819,-0.11445134,0.09478871,0.06566079,0.14876693,0.15081157,-0.16992618,0.104428284,0.063256055,0.17095676,-0.08164597,0.023526678,0.048674125,-0.0936523,-0.18470138,0.17409693,0.099299625,-0.025809746,0.07293575,0.14605539,-0.09364185,-0.031159744,0.04961984,-0.016046857,-0.061030228,-0.11634603,0.18317436,0.047531743,0.18965179,0.21866824,0.15081908,-0.10748225,0.059113495,0.06412313,0.015599215,0.018905764,0.017294232,0.11611071,-0.15276772,0.20626518,0.12189983,0.1811561,0.14283362,-0.015535625,0.057262722,-0.108055025,-0.18673457,-0.091511175,0.039663166,-0.08033985,0.11264898,0.056356616,0.065634936,-0.12877631,-0.01075796,-0.12295544,0.044868898,-0.23136434,0.10942372,0.16601522,-0.06216083,-0.061147567,-0.27865353,-0.105142996,0.013081439,-0.05903279,-0.079016834,0.22486825,0.005537524,0.002400733,-0.054285962,0.084725365,0.11407788,0.012796521,-0.010392996,0.09286792,-0.1734169}, {0.08604101,0.09060484,-0.033275317,0.10593337,-0.09291192,0.06656738,-0.106367014,0.056143142,0.08844529,0.12548386,-0.04875041,-0.2500896,0.037882816,0.08540089,-0.011374325,-0.16539527,-0.15627195,0.018121144,0.15363915,-0.024347024,-0.033479974,-0.25701368,0.0624474,0.022439184,-0.017926624,-0.06721477,-0.04370096,0.03009546,0.049094245,0.06653126,0.07572311,0.16224802,0.099215865,0.14373013,-0.03356643,-0.11299444,-0.00623451,-0.015950339,-0.20247222,0.18511996,0.007904527,0.0950914,0.021951081,-0.025784383,0.19794793,0.1432668,-0.008747421,-0.065119274,-0.022969713,-0.1616916,-0.0070151733,0.22379038,0.013988126,0.013795426,0.1677305,0.1906026,0.14204575,-0.13124244,0.13462685,0.21165864,0.2936705,0.051753376,0.15447004,0.047612682,-0.03655337,-0.19456987,0.3130271,0.01753661,-0.15564308,0.12793462,0.16326407,0.009019485,-0.05193333,0.16992956,0.041615877,-0.13345072,-0.081099376,0.10792184,0.120479695,0.05238126,0.15057178,0.1792183,0.10195656,0.052401748,0.17005399,0.063865215,0.2460371,0.067803286,0.17906699,0.12292717,0.13282947,0.0846874,-0.009008495,0.11767536,-0.09301738,0.035982132,-0.04735614,-0.12581193,0.037663933,0.11075299,-0.12968223,0.20545965,0.31952807,0.15004638,-0.21984926,0.022596236,-0.28706035,0.02985359,-0.2134357,0.15975069,0.21059217,0.15064827,0.0010958326,-0.14917673,0.098956294,0.013871243,-0.055299897,-0.09134905,0.07889711,-0.06250734,0.032058496,-0.022428224,-0.07325531,0.22883017,-0.015659416,0.005893666,0.056839287,-0.22544101}, {0.062026024,-0.032569956,0.004127159,0.11568295,0.048865527,-0.04920442,-0.038337715,0.20358394,0.01711489,-0.04314781,-0.2388842,-0.24520735,-0.028084135,0.089814775,0.07819263,-0.16312222,-0.11970565,-0.048905592,0.098125495,0.013539437,-0.099034704,-0.20631438,0.19497237,0.09089956,0.0010019927,0.18343966,0.002633352,0.14150748,-0.112970695,-0.060318906,0.048424438,0.17739052,0.27692068,-0.0059421835,-0.014926412,-0.028849555,-0.08551628,-0.111695044,-0.26011774,0.058926407,-0.12956236,0.02531012,-0.006042429,0.08197527,-0.023431508,0.05617729,0.057142973,-0.10612403,0.1160083,-0.1642238,-0.037827924,0.1841927,-0.07783936,0.02624555,0.169722,0.0074610733,0.09274732,0.0028504673,0.1153349,0.031599414,0.3578629,0.1435302,0.07256162,0.034058537,0.15504238,-0.057259534,0.18490152,0.06419489,0.03670003,0.11505512,0.11726962,-0.06040051,-0.070547424,0.16749826,0.07428736,0.055115785,0.009218257,0.07719806,-0.11232072,0.11077836,0.26950982,0.03073194,-0.0012603702,0.13354056,-0.060166135,0.049695194,0.11907706,0.10375773,0.037277497,0.08493164,0.26918122,0.24567528,0.16888936,0.14048113,-0.059820116,0.06398494,0.05634149,-0.110540934,-0.11033549,0.12938565,-0.053448766,0.14194031,0.12342206,0.1441427,-0.09123725,-0.03387893,-0.48210108,0.10950941,-0.10650585,0.27706102,0.26628512,0.1451538,0.20405963,-0.071920216,0.12551203,-0.103383474,0.12403392,-0.11513461,0.20573297,0.010081001,-0.058022045,0.105078,0.09408824,0.06613441,0.013274289,-0.003534589,-0.04630008,-0.082628906}, {0.08028133,0.066975966,-0.041989505,0.12232598,0.087625995,-0.06573696,0.032792445,0.062083043,-0.038260624,-0.059835825,-0.0980302,-0.15021649,-0.07621884,0.029520279,0.086446226,-0.039393336,-0.07492956,-0.135309,-0.01106296,-0.010018008,-0.15694973,-0.12241833,0.099545665,0.07189919,0.105282515,0.054297127,0.039928332,0.3125663,-0.1333414,-0.0140259825,0.1261436,0.132684,0.26311305,-0.098428644,0.023544407,0.040501565,0.0053364397,-0.02845198,0.00857456,0.09717661,-0.08396596,0.0006683021,0.07190638,0.15555519,-0.010109474,0.009724655,-0.089203715,0.08242917,-0.025077144,-0.1528435,0.09473903,0.16335925,0.03683054,0.12226241,0.10166422,0.12948938,0.24700078,0.09386289,-0.058262486,0.06127226,0.192933,0.03386542,0.12943849,0.19421634,0.20707098,-0.020004466,0.1538017,0.23366186,-0.059322167,0.11961337,0.1771074,0.0196997,-0.03824787,0.18683417,0.1430304,-0.06781062,-0.11981049,0.13387908,-0.16595933,0.126924,0.27655262,0.11455526,-0.27480173,0.038230143,0.08764334,0.020652637,0.14764686,0.18637253,0.04621223,-0.13876024,0.23396479,0.21022458,0.113564275,0.13920717,0.10340731,0.19605868,0.162275,-0.011019061,-0.07494545,0.0051499484,0.03395546,0.065388724,0.0077718277,0.08113055,0.05029682,-0.011554532,-0.32831928,0.011904699,-0.12581772,0.12747201,0.32366598,0.057421774,0.27686983,-0.08728994,0.058828674,0.037707828,0.1149229,-0.08875041,0.20539576,-0.027683323,0.07561889,-0.03550569,0.13982962,0.21282838,0.042482216,-0.14565276,-0.01951343,0.0047380757}, {0.15710136,-0.026124923,-0.2062943,0.015982168,0.15454301,-0.15335707,0.020768624,0.04323551,0.15154736,0.0902924,-0.070712686,-0.05150995,-0.13161787,0.0038189813,-0.019665487,-0.20921089,-0.06839227,-0.031337734,0.04444561,0.089186415,-0.15900786,0.0026369304,0.08527843,-0.035146497,0.15793277,0.043856952,0.09161107,0.1589874,-0.010481179,-0.06361386,0.025585117,0.2100984,0.16486435,0.023824152,-0.043928605,0.095745906,0.07220394,0.117822506,-0.064486675,0.15986404,0.041578118,0.07042513,0.13711233,0.14628713,0.031899363,-0.031276338,0.07779699,-0.060553573,0.06677851,-0.06770488,-0.012784757,-0.020989701,-0.109604284,0.14644879,0.16765635,0.15739433,0.09380458,-0.018812416,0.09357057,-0.010326221,0.18116158,0.08467111,0.18654859,0.17546548,0.18925673,0.13075757,0.15413047,0.11172034,-0.02629837,0.19596204,0.0136654815,-0.03849938,0.16263011,0.23933963,0.104989335,-0.0057352325,-0.08922077,0.14931817,0.021185812,0.11249461,0.22960477,-0.006357677,-0.30249825,0.06391225,0.12869409,-0.016368585,0.24357368,0.12829186,0.10514504,-0.07536442,0.20833398,0.21884304,-0.048157725,0.18041882,0.06639669,0.15081003,0.03804074,-0.11067249,-0.12944196,0.036492366,0.008879883,0.12480285,0.101415314,0.00774638,0.050974935,0.07247909,-0.18808572,0.0330586,-0.107054606,0.0013709962,0.20120445,-0.07006705,0.1713331,-0.14613594,0.05571784,0.11703105,0.21923985,0.004488158,0.13069645,0.15455566,-0.07387249,0.08840154,0.035648145,0.32918674,-0.047006298,-0.018259462,-0.16369984,0.08876492}, {0.090057604,-0.03224803,-0.352513,-0.018372497,0.09379938,0.005824074,-0.024004096,0.07781205,0.121820785,0.15092923,0.21839166,0.08624179,0.033432864,-0.046171892,-0.19676243,-0.0531534,0.05567777,-0.018806076,-0.0006054896,-0.08903357,-0.042436663,0.066501856,0.011677167,0.12661721,0.20268957,0.2731426,-0.071274,0.21335848,0.12327907,0.055815455,0.006626748,0.18786722,-0.07456803,-0.010729257,0.021672426,-0.054912437,-0.123330936,0.16427192,0.03190219,0.012414646,0.07777608,0.115395434,0.006460143,0.08225226,0.07620564,0.0614776,0.12167175,0.056819864,-0.027464576,-0.12537475,0.03230508,-0.11282299,-0.117626995,0.09804595,0.12411636,0.13297714,0.031583633,0.05172913,0.109031,-0.014125319,-0.028623644,0.05125904,0.08203017,-0.029102303,0.09605003,-0.06580058,-0.024217645,0.15143162,-0.082041435,0.18801506,0.022152392,-0.07065102,0.2596644,0.32179728,0.08998586,0.06746592,0.08802111,-0.037638023,-0.13786457,0.14686137,0.19360492,0.14090295,-0.16637497,-0.05364733,0.19909239,0.010600422,0.022704825,-0.10339309,-0.027187798,-0.03614321,0.14970446,0.17004238,-0.13860035,0.105961464,-0.05544602,0.05119545,0.046647143,-0.26291937,-0.02467499,0.20002683,0.09401666,0.11562613,0.11809081,0.052076843,0.15142915,0.1135072,0.03869106,0.0021627073,-0.047994424,0.076055706,0.10465263,0.04520956,0.14149408,-0.09757993,0.08284919,0.19106293,0.15490408,0.19125997,0.123683244,0.14527735,-0.03203328,0.056465235,0.18443738,0.2675199,0.23042724,-0.15368314,0.046409767,0.05867602}, {-0.044247102,0.012788307,-0.17126282,0.01041786,0.103686444,0.0033089397,-0.016511742,0.11875474,0.14932513,0.05052517,0.23196554,0.07874796,-0.03642332,0.115891404,-0.165027,0.013548788,-0.07473339,0.11078708,0.06191289,0.02843007,-0.1537175,0.011246507,0.008547251,-0.023726001,0.111684315,0.28590026,-0.09031733,0.053318176,0.0034727491,0.014198478,0.14109132,0.08055584,0.018901462,-0.05554412,0.104313165,0.058348138,-0.09270033,0.13256663,-0.033622406,0.12480893,0.05629083,-0.009063521,0.1074272,0.05805242,0.06828842,-0.029258862,-0.0280215,0.113191456,0.21724063,-0.08735428,0.13838941,-0.11250207,0.017391333,0.10568766,0.08574954,-0.021793364,0.10981103,0.10456491,-0.0015802549,0.13164523,0.036663413,0.0866995,-0.07403906,0.12603731,-0.0038751015,-0.15504211,0.04308534,0.07078808,-0.012933331,0.11303839,0.07220956,0.0432272,0.25360164,0.13131115,-0.030558754,0.1646966,-0.0030580573,-0.06340004,-0.07933298,0.08131856,0.2039992,0.17019062,-0.1268791,0.0059477454,0.2090216,-0.0024084188,-0.020570043,-0.053152718,-0.10660428,0.058178764,-0.023095263,0.10715254,-0.10675872,0.049470555,-0.02875026,0.14582092,0.005544481,-0.042731255,-0.028217323,0.071360126,0.22268632,0.09370066,0.14922844,0.059224136,0.17521697,0.07029371,-0.106451906,0.03212808,0.076963365,0.198103,0.182221,-0.022219323,0.2570237,-0.058137916,-0.012036058,0.13748167,0.10767856,0.110365234,-0.015071715,-0.0292017,0.14197904,0.1577093,0.03639184,0.13418664,0.16054772,-0.11884234,-0.036510587,0.2421917}, {0.075847134,-0.08973902,0.051544257,0.07598575,0.039146256,-0.022702504,-0.011828283,0.07308303,0.16119221,0.08966094,0.2133583,0.08817777,0.054920234,-0.025914792,-0.01932644,0.14708756,-0.024247177,0.069684766,0.10990044,0.1463311,-0.06433153,0.03714938,0.11519511,-0.06862735,0.16112752,0.20258579,-0.05770864,-0.05410678,0.17393301,0.043869007,0.042698923,-0.062267374,-0.039424725,-0.063850164,-0.09410292,0.036408152,0.0325114,0.07508334,-0.07228243,0.062258445,0.098929934,0.035617787,0.10400759,0.06589559,0.08072518,-0.047204357,0.014468271,0.094568916,0.2263584,-0.10006533,0.06077681,0.07760786,-0.09493378,0.16635737,0.046818316,-0.13498852,0.11392379,0.024189379,0.13447319,0.14816748,-0.08897919,0.003754003,0.09676875,0.07007043,0.061058693,-0.14026396,0.095100306,0.11684883,0.036707554,0.113575794,-0.03324924,-0.1141026,0.064288415,0.23247045,-0.05384017,0.13169792,0.14956826,0.012246604,-0.0045618946,0.16583627,0.1620963,0.07743543,-0.14214633,-0.042080805,0.08798881,0.066394016,-0.08638259,-0.016185004,0.007992142,-0.0615911,0.039600994,0.029403657,0.039697573,0.15156439,0.023366537,-0.037394963,0.005768313,-0.063056216,-0.01974614,0.021061318,0.09393658,0.16806689,0.21949579,-0.09164001,-0.01898593,0.04263276,-0.04187047,-0.10906209,0.048962448,0.1186862,0.06693204,-0.047475386,0.18991691,-0.13420548,0.02349518,0.18719634,0.11561953,0.10715702,0.067816235,0.034242593,0.13611859,0.00263206,0.011928355,0.12644295,0.09496994,0.06069848,0.09710822,0.24299183}, {0.14283277,0.059843402,0.06618813,0.09814555,0.069187194,0.08355645,-0.045362465,0.013809937,0.09592266,0.022737544,0.01994405,0.09662929,0.116857,0.084705964,-0.13561279,-0.0156036485,0.06923555,0.18114375,0.1361519,0.081640825,-0.10341027,-0.07116629,0.086263396,0.061349034,-0.0061582197,0.029400641,0.017902745,0.13360555,0.014068076,-0.11328395,0.13694797,0.066880316,-0.069596246,0.13681097,-0.019433398,-0.07584612,0.040533856,0.15391868,-0.08710398,0.020275446,-0.05935605,0.12962353,0.13163406,-0.001099973,-0.05801074,-0.069410175,-0.061102018,0.031375013,0.2162499,0.0038728178,0.061153866,-0.036848675,-0.124941096,0.0410486,0.021559576,0.033621583,0.12471267,0.04366939,0.021725118,-0.04552276,0.076834396,-0.034072813,0.10281018,0.021361884,-0.026718955,0.0009150897,0.14833274,0.02121758,0.00037214998,0.0356165,-0.021290772,-0.022002408,0.09885507,0.06752144,-0.10993308,-0.05240917,0.07643018,-0.14459488,-0.1112747,0.13233598,0.06649042,0.08740815,-0.011818259,-0.016500095,0.042470045,0.10057447,-0.04454303,-0.008432056,0.024482666,-0.02904178,0.20956104,-0.07357546,-0.0043994673,0.067436285,0.05409475,0.11347486,0.16137698,-0.0196727,0.12328513,0.026768398,0.09455177,0.042714603,-0.044683237,-0.15084906,-0.002388576,-0.06852057,-0.1194713,0.052438665,0.0048522362,0.090438165,0.12569089,-0.053953797,0.25155085,-0.13733919,-0.020948011,0.06415161,-0.05152641,-0.013616056,0.0038596361,0.041935805,0.04926364,-0.041873533,-0.040750828,0.08592686,-0.01816649,-0.010465881,-0.0030012939,0.05295316}, {-0.015515134,-0.007906143,-0.003220548,0.041294303,0.07357789,0.11309825,0.056930576,0.13137405,0.027455924,0.23121047,0.13107581,0.020935366,0.0044626775,-0.05847389,-0.11555702,-0.101548366,-0.10180505,0.005528084,0.07043085,0.22841166,-0.016889066,-0.0028906679,0.113571845,0.07361738,-0.01627245,-0.003441342,0.16223107,-0.0088838395,0.017158026,-0.09893859,0.08463234,-0.046891127,0.044304937,0.17378467,-0.097045034,-0.010970877,-0.063978374,0.13382713,-0.0008970956,0.19451559,-0.011863241,0.03838979,0.10689305,-0.06508546,0.011968387,0.009310268,-0.067721695,0.10008625,0.036922187,-0.11662395,0.14965524,-0.011044289,-0.26495394,0.06676165,0.10054068,0.107629664,0.032552466,0.0036512604,-0.032994203,-0.0055524604,-0.05104144,-0.07584,-0.10347025,0.007998334,0.0005864438,-0.0065245875,0.013989189,-0.066520534,-0.07829726,0.02476186,-0.064270884,-0.027392473,0.26231432,0.10118384,0.07692152,-0.013243396,-0.038484577,-0.08123153,-0.0052442653,0.14131159,-0.068257175,0.05931626,0.044991504,-0.07064762,0.022989402,0.0805502,-2.7403188e-05,-0.06507716,0.17701407,0.06469476,0.106352836,-0.123072915,-0.027503446,-0.01318197,0.061409637,0.1290192,0.15368438,-0.00809451,0.066112585,0.0559978,-0.013244268,-0.22707793,-0.16562611,0.059194338,0.035777092,-0.10652106,0.06550914,0.1289652,0.09723219,0.060842898,-0.0136553515,0.0049673263,0.1872379,-0.10985447,-0.020372912,-0.046627805,0.006028368,-0.044439428,0.073745705,0.08110806,0.061364066,-0.12605949,0.008807403,0.11854911,-0.07761122,0.07383543,0.12615679,0.1078744}, {-0.025823098,0.09043719,0.017456174,0.18292642,-0.032109745,0.06589153,-0.104666926,0.15199906,0.07565196,0.107067205,0.0006124048,-0.0148333,0.15391654,-0.014739182,0.07458427,-0.13773295,0.03826799,-0.08190206,0.023156626,0.12373003,-0.0831159,0.042107306,6.736384e-05,-0.08779626,0.020356074,0.042793654,0.12843199,0.15879546,0.1498062,0.009185514,0.027890353,0.11387464,-0.07117523,0.05633361,0.03006353,-0.13463087,-0.12484601,0.17611061,0.08019221,0.14597116,0.11291909,-0.047695465,0.008818837,-0.002659759,0.002865872,-0.01752939,-0.09883396,0.061984908,-0.025744358,0.022709215,-0.04128741,-0.1272439,-0.08145355,0.050946794,0.10191084,0.1277393,0.15180767,0.017340621,0.12981239,0.003970433,-0.11275833,0.0547112,0.010612214,0.15172544,-0.06678638,-0.034680963,0.025222033,0.035151936,-0.075467676,-0.076292455,0.0017491633,-0.06745817,0.18037435,0.009296309,0.16282734,0.10090385,0.00558646,0.03204503,-0.23131023,0.14342158,-0.058143556,0.0110213095,-0.080549195,-0.16791534,-0.004032171,0.09054505,0.009263982,-0.10384018,0.08778322,-0.004999157,0.2240393,0.026204042,0.08216635,-0.05739645,0.0598749,0.05913481,0.13400707,-0.118792325,0.009578097,0.06282726,-0.01884553,-0.12945132,-0.09608581,-0.014982631,0.09602738,-0.064949796,-0.04797167,0.15378232,0.008720719,0.023348385,0.085733145,0.045398004,0.1055411,-0.1196348,-0.16539928,0.037054174,0.16997334,-0.013326649,0.06376739,0.051185824,-0.050043862,-0.092036985,0.034611832,0.033617236,0.006549429,0.2386492,0.11039059,-0.013869312}, {0.11358318,-0.033530906,0.021867061,0.079491995,-0.04191928,0.0060803373,-0.13073693,0.05625092,0.19878297,0.185595,0.0067364736,-0.070919126,0.08516475,-0.011540365,0.08485272,-0.21257544,-0.11836591,0.0652069,0.1281045,0.037209902,-0.06643669,0.071088396,-0.030853638,-0.05278451,0.06496427,0.004992595,0.13305493,-0.032218676,0.036006738,-0.004214032,-0.05167499,0.11324161,-0.04688298,0.07341685,0.055307023,-0.17617387,0.010622197,0.09449726,-0.01599676,0.01558922,-0.00318212,1.5695812e-05,-0.021364003,-0.075582094,0.101744756,-0.069586575,-0.09650441,0.22023904,0.12304187,-0.10795581,0.085024215,-0.03530599,-0.27981517,0.16989073,0.17121957,0.15703258,0.08282647,0.07116248,0.16389133,0.010220956,0.07126449,-0.054354195,-0.0664076,0.15780905,0.115455404,0.06391891,0.05682444,0.09132835,-0.09914177,-0.013085347,-0.023630483,0.055227038,0.081439525,0.012942312,0.23987539,0.16507253,-0.016982436,-0.099139564,-0.18671596,0.19915096,0.015917113,0.018299105,-0.12778965,0.015143786,0.0063993954,0.10556492,0.096276164,-0.15681317,0.11281435,0.07618582,0.14742893,-0.009051563,0.055244345,-0.07273537,0.040399972,0.12598822,0.06771623,-0.11855318,0.09854634,0.1837444,0.042164527,-0.16897297,-0.05108978,-0.07144224,0.08639467,-0.18187815,0.07835374,0.026368946,0.14688948,0.05709163,0.063390054,0.028958894,0.008663521,0.018615678,-0.030665953,0.1304175,0.052456852,-0.027806645,0.12809554,0.03185813,-0.005253428,-0.0145969605,-0.02365813,0.021068512,-0.10846947,0.1178038,0.058478333,0.06235457}, {9.392933e-05,0.018656803,-0.09228248,0.037339967,-0.018086767,-0.029560443,-0.04372088,0.04972905,0.10708034,0.18883158,0.06200616,0.048734933,0.0621585,-0.07522982,0.09163994,-0.06309003,0.035029948,0.12557556,0.025126383,0.04436471,-0.11050983,-0.030105298,0.07652049,-0.099559985,0.04327928,0.008838721,0.119969554,0.1438953,0.048311923,-0.056182425,-0.016358696,0.11514859,-0.024362277,0.021501765,0.08106804,-0.10414149,-0.08591343,-0.0052305018,0.13123609,0.015957927,-0.035728406,0.032865826,0.13038358,0.021355221,0.1065153,-0.024471693,-0.1657383,0.103850394,0.09208264,-0.06894721,0.095959455,-0.039168622,-0.17611629,0.16794251,0.06255196,0.1350644,0.043385066,0.09017006,0.11487412,0.023194527,0.051473983,-0.041932836,0.08764444,0.19385976,0.077989615,0.06634799,-0.036373887,0.1373868,-0.06025617,-0.020462133,-0.010174742,-0.052045137,0.06552294,0.1201259,0.24858932,0.18033399,-0.038522996,0.003077587,-0.13367507,0.0031006823,-0.16184598,0.10149538,-0.0763912,-0.051973693,0.12373441,0.121999025,0.057281177,-0.015250693,-0.037396684,0.0765644,0.040593565,0.052465517,-0.13910368,-0.0044799107,0.004073083,0.14604473,-0.038851358,0.08336676,-0.012411162,0.049539965,0.09325937,-0.16707544,-0.09168423,-0.08816167,0.12817293,-0.024567531,0.07983176,0.043660726,0.014453376,0.07191245,0.14109977,-0.0061549535,0.14334166,0.023082258,-0.098382495,0.13180947,0.17843993,0.06603312,0.022708006,0.05681774,-0.060398646,-0.030662471,-0.05391293,-0.069519915,-0.01944141,0.13435566,0.044852167,-0.026095876}, {-0.06676691,0.07914143,-0.015243675,0.00086374744,-0.028271314,0.13631569,-0.109897986,-0.031779308,0.16632465,0.019928424,0.048261154,0.06827853,-0.0016180247,0.031623337,0.07896872,0.06181355,0.015193352,0.16103421,0.085183054,-0.07849915,-0.027123302,-0.020833889,0.14655368,0.026218146,-0.05187185,0.005784726,0.0088795945,0.034633156,0.052239027,0.022580871,-0.034873094,0.07602185,-0.018055845,0.03138884,0.056261413,-0.13111575,0.07749262,0.0434262,0.116590984,0.108990595,0.008478367,0.039071664,0.15508004,0.025838748,0.13796788,0.04827429,-0.15350033,0.019127285,0.13746937,-0.10011231,0.080855526,-0.07652405,-0.019624908,0.037972834,0.20534535,0.019198291,-0.087055504,0.14765094,0.12337317,0.007676461,0.087541275,0.074539274,0.14572093,0.16320601,0.0004517096,-0.032821357,-0.0009584705,-0.08190034,-0.09018545,-0.13324064,-0.10370362,-0.030467492,0.11668532,0.053258322,0.15614538,0.072509535,0.06339292,0.022096103,0.006581216,0.09041931,-0.0052068154,-0.0031520342,-0.049370985,-0.07539153,0.15543419,0.105335854,0.06477366,-0.10043471,-0.06064105,0.015311694,0.066652544,0.0024838084,-0.1554344,0.050969377,0.17046432,0.13740231,-0.073805936,0.049684938,-0.044669844,0.10654777,0.064228706,-0.034259155,-0.04455728,-0.010476056,0.0557756,0.013899127,-0.072638474,0.116716675,0.16874553,0.10920248,0.03814433,-0.04525963,0.019352805,-0.004318244,0.037580658,-0.006901803,0.033336993,0.12412502,0.004396026,0.11999593,-0.029574117,-0.02405743,-0.118073404,-0.05808813,0.04098272,0.102414176,0.04781902,-0.065591976}, {-0.02584298,-0.05068409,-0.05404739,-0.06793033,0.12315182,-0.0053596688,0.09433604,-0.060190298,0.06706021,0.13199343,-0.09069277,-0.042116582,-0.037386917,-0.1542217,0.08451881,0.10640174,-0.017755654,0.07757792,0.053066134,0.021372337,0.04112067,0.045990914,0.12781613,-0.10203247,0.088215925,-0.09674096,0.0589395,0.051253445,0.1651811,-0.055248953,0.029192762,-0.03303194,-0.0008301501,-0.024787828,0.08017055,-0.01723606,-0.034305107,-0.09471342,0.094365336,0.0024401369,-0.041814756,-0.06931072,-0.011693492,0.07776791,0.04312101,-0.10455109,-0.1142462,0.043882653,0.0057796757,-0.02892057,0.015431454,0.024126414,-0.10883823,0.099764176,0.052731756,0.105575114,-0.066742375,0.100656725,0.028734101,0.0059242947,-0.026447695,0.030879684,0.16168025,0.014171405,-0.048786644,0.16473141,0.13053127,0.020642856,-0.01657653,-0.03887279,0.016350254,-0.0015867278,-0.02672485,-0.043617975,0.13459547,0.075800054,0.03719688,0.037158586,0.097877115,0.11972598,-0.13144912,-0.06108454,-0.008341761,-0.13417986,0.073216125,0.038305275,0.04737129,-0.074568845,-0.0004930961,0.001015212,0.11071933,-0.01189193,-0.023500029,-0.08386196,0.13961777,0.16259879,0.11187849,-0.13578531,-0.047680266,0.058819342,0.09246659,0.10704817,0.006503837,-0.014471092,0.14534879,-0.11719858,0.034985352,-0.041410238,0.006858762,-0.048139784,0.020682642,0.0837909,0.044190366,0.03971754,-0.059908282,0.027589254,0.10281524,-0.0039322893,-0.053456917,0.094774656,0.027973868,0.06363089,-0.08985318,0.012462318,0.042822383,0.08769038,0.12003799,-0.044512313}, {0.081513725,-0.052763287,-0.009608138,-0.056569405,-0.029178804,-0.043581657,0.06579265,-0.0916278,0.11431612,0.048056543,-0.022287643,0.05293039,0.036825728,-0.11154703,0.13523433,0.13119547,0.049030844,0.12698296,0.049182337,-0.065766774,-0.013470409,0.07852175,0.16939585,0.12143519,-0.10287276,-0.025142824,0.13988344,0.09417286,0.11780682,0.14191076,-0.10129329,-0.01759282,0.010098934,0.11414777,0.07963519,-0.06543748,-0.02423637,-0.13259453,-0.03095331,0.0010674994,-0.00093492086,-0.0017144047,0.11949796,0.030818041,0.036118,0.066582285,0.0070722816,0.10203659,0.012643551,0.005874308,0.029647782,-0.0014578413,-0.062094394,0.08320163,0.010559169,0.12002322,-0.038223386,-0.020973073,-0.08512929,0.17182447,0.054975912,-0.03034642,0.1350655,0.009445063,0.013478507,0.012111346,0.12348763,-0.07948275,-0.059340563,0.078781754,-0.12171542,-0.016113456,0.13237178,-0.10296882,0.15124615,0.1682953,0.13825372,0.011025527,0.09045378,-0.041120995,-0.10327033,0.029834753,-0.02818222,-0.011925179,0.087560944,0.034522135,-0.0697118,-0.021837812,0.086409,0.12710506,-0.027453773,-0.0054937685,0.0092148455,-0.09110146,0.11870206,0.1510581,-0.06002809,0.060003363,-0.10416607,0.0531184,0.024227172,0.042259775,0.10333169,0.11444013,0.03376912,0.013777302,0.0970779,0.022365907,-0.042599477,0.0068363966,-0.05082234,-0.09277578,0.072650164,-0.02130163,0.08642435,0.07019216,0.08313923,-0.019522838,-0.05254815,-0.07658798,-0.07784456,0.08716289,0.07283405,0.033913355,-0.059411846,-0.0585657,-0.07409492,0.01589255}, {0.038270157,-0.05569203,0.044106163,0.010693194,-0.031204844,0.12570876,-0.060096662,0.06919,-0.060163874,0.07220363,-0.06176595,-0.040628884,0.015729599,-0.07856196,0.15552203,0.1118709,0.069640346,0.11154278,0.10790813,0.0773681,0.093980394,0.07395918,0.10474335,0.03080421,0.009879092,-0.100356035,0.066305056,0.037403814,-0.07991715,0.02278371,-0.11417899,0.082422435,0.07419983,0.05021848,0.02258497,-0.04581733,0.0793438,-0.07595538,0.028323216,0.04318515,-0.091164686,-0.0743431,0.08101612,-0.043816824,0.07427413,0.024502253,-0.06501585,0.08530745,0.059867263,-0.050329085,-0.042874295,-0.08143942,0.06418611,-0.046498902,-0.011033061,-0.017334178,-0.017862925,-0.030155418,0.040078323,0.1118679,0.00811621,-0.07909956,0.09507587,0.11203034,-0.031338517,0.12145511,0.010666134,-0.029707115,-0.0049734637,-0.088799216,0.0018713429,-0.14532897,-0.0133682145,-0.045506224,-0.0030825343,0.16524825,0.048413966,-0.00669053,0.1443771,-0.014429749,0.014780008,0.0810081,0.088376574,0.0026776134,0.089337416,0.1161462,-0.04157251,-0.03606894,-0.022582192,0.117006615,-0.074919455,0.032214455,-0.074557886,-0.0016271026,0.11398308,0.10898654,0.06615259,0.036925487,-0.015500569,-0.0344369,0.05555739,-0.03627819,0.047035888,0.09344748,0.025325138,0.07429069,0.049474843,0.09194047,0.0701747,0.05836426,0.05443954,0.058938798,-0.03056665,-0.046689887,0.07929011,-0.07121949,0.10525603,0.008938432,0.09049732,-0.014177785,0.09456574,0.10363863,0.008739416,0.045565613,0.048647486,0.12215052,0.11370029,0.09701534}, {-0.011887721,0.063426785,0.04803708,0.005294113,-0.04015859,-0.019995876,-0.027599255,0.035217527,-0.052648187,0.1484854,-0.14494275,0.003486337,0.015614591,-0.19315708,0.110020146,-0.05398068,-0.040443413,0.0020448035,0.13686332,-0.062296756,0.02737156,0.09634647,0.025236707,-0.06045006,-0.045115404,-0.010369739,0.020655349,0.09964871,0.07741298,0.07624952,0.028362172,0.09675409,0.012285276,0.09581853,0.018857967,0.0068749506,0.00030856676,-0.13723136,-0.0068460493,0.06489573,0.020799214,-0.0035390062,-0.08433907,-0.022200061,0.11300772,-0.03201385,0.0026627185,0.10483267,0.049541146,-0.045916595,-0.002775262,0.07566489,0.026670376,-0.06309858,0.12023759,0.0059360303,0.047946043,0.10514972,-0.07391569,0.14577687,0.0073532024,0.0049170363,0.124086745,0.07022141,0.0029632747,-0.011596709,0.14022607,0.098566815,-0.06989879,-0.092726514,-0.05811608,-0.036404923,-0.04031592,-0.0981651,0.12846549,0.1043579,0.15832202,0.0630188,0.07695517,0.12935641,-0.04897405,0.11850849,0.08442782,-0.049827322,0.102947146,0.011013117,0.07381972,-0.118439674,0.08227442,0.00646978,-0.041722517,0.04356153,0.07848151,0.021055525,0.049449753,-0.021769486,0.079457015,-0.030878944,-0.031076279,-0.056701593,-0.07812362,0.10848926,-0.07904538,0.0838237,-0.006801654,-0.06963465,0.05038068,0.1403305,0.046820194,-0.10185226,-0.005893678,-0.05502013,-0.021941444,0.016412139,0.019428864,0.037479315,0.040358894,-0.036331926,0.0974396,0.07766569,0.10455005,0.024308117,-0.01084668,0.113648824,0.07790624,0.02231083,0.031096399,-0.087246366}}
#define W_LSTM_KERNEL_I_WIDTH 28
#define W_LSTM_KERNEL_I_HEIGHT 128