#define LSTM_BIAS_I {0.010451591,-0.05248501,-0.02338536,-0.021854512,-0.044115875,-0.040526737,-0.001865753,0.006815944,-0.024282815,-0.0797399,0.04988988,-0.061766483,-0.012123015,0.099359505,-0.055200394,-0.020636192,-0.030111883,-0.06893042,-0.037405685,-0.004784893,-0.0394973,-0.0405338,-0.06333535,-0.03125508,0.01870033,0.07301198,-0.054938912,-0.04214503,-0.02136055,-0.058268957,0.008890309,-0.0028953576,-0.03729083,-0.02099115,0.021443691,0.049634907,-0.056705706,0.05828784,0.0055197743,-0.04674588,0.05347022,-0.004645097,-0.0084871845,-0.047390185,-0.053950857,0.014429605,0.023237787,-0.014022553,-0.08221361,0.023800438,-0.01021675,-0.013434406,-0.0052551455,-0.03554134,-0.03904618,-0.02557242,-0.004902778,-0.06415222,-0.02549052,-0.06945773,0.0033492448,-0.012362332,-0.033745714,-0.028922006,-0.02464312,-0.04469072,-0.08253995,-0.0045569045,-0.021125704,0.009856013,0.060802884,0.038781878,-0.023207743,0.0073933415,-0.067999735,-0.06882019,-0.079491705,0.040995426,-0.080916904,-0.027888276,0.00046632616,-0.0148746995,0.009417954,-0.0020045154,-0.12561767,-0.03948383,-0.017324284,0.023284752,-0.05435021,-0.08018213,-0.021537952,-0.005812052,0.009671516,0.026946088,-0.117440596,-0.064823866,0.007403219,-0.012398099,0.020982504,-0.015095439,-0.004041736,-0.054634526,-0.014099329,-0.042040523,0.00022589776,-0.014233118,-0.06120404,-0.045189314,-0.027978403,0.003348523,-0.013677242,-0.0055859517,-0.04525805,-0.054375574,-0.043262187,-0.0038960439,-0.017301194,-0.007055753,-0.034568053,0.0010977876,-0.026250793,-0.038001213,-0.044647116,-0.050536275,0.026140204,-0.018616494,-0.02646536,-0.016884454}