#define LSTM_BIAS_C {-0.02717033,-0.032783072,0.03171772,0.012575462,0.028305707,0.006947504,0.0042212354,-0.016410014,-0.0041181673,-0.013273541,-0.028694399,0.012552982,0.03615086,0.006971119,0.029105252,0.03037834,-0.027570639,-0.0063648922,0.018068785,0.00839253,0.010922485,-0.016254012,0.022038087,0.009526038,-0.00054502697,0.017576985,0.00461716,-0.010098754,0.02991594,-0.015083384,0.028242195,-0.012585256,0.002476731,0.0084846495,-0.017125938,-0.0063413726,0.019500632,-0.046208538,-0.039270625,0.02618315,-0.011781203,-0.013499089,-0.0029911753,-0.012342808,-0.010423361,0.014185525,-0.022936933,-0.016363831,0.014084982,0.007311566,-0.0021086847,0.005099185,-0.0006315037,0.04307641,-0.024662359,0.024456054,0.0009496576,-0.010427678,-0.013281588,-0.018495318,-0.015930627,-0.005185623,-0.046265848,-0.02513592,0.018914446,0.005536027,-0.008535456,-0.02743916,0.013865703,-0.009219091,0.0067702895,-0.012537395,-0.031863924,-0.01339259,-0.0058612344,-0.00619886,-0.005544606,-0.015487152,-0.010840736,-0.040530942,0.010256384,-0.022433463,0.022366859,0.011943838,0.008947333,0.008064958,-0.015182992,-0.03172924,0.012956582,0.02193977,0.028102923,0.0072287805,0.010865355,0.03563223,-0.0061032637,0.025455888,0.0072461814,-0.020811617,-0.0072447397,0.0050448235,0.062379006,0.014467463,-0.027652422,-0.017424937,-0.048815172,-0.018452628,-0.0027255202,-0.020285591,0.03364666,-0.017544774,-0.017811293,0.027325723,0.018174335,-0.013142015,0.04471987,0.014830179,-0.041210186,0.056072064,-0.037018992,0.013016787,0.036209103,0.0106848115,0.016546337,0.017505659,-0.0004947304,0.006980845,-0.012329079,0.032098647}