#pragma once
#define W_LSTM_RECURRENT_KERNEL_F {{-0.043122746,0.07105311,0.07866269,0.030342793,-0.14476931,-0.13788159,-0.10311408,-0.02485034,0.0872399,-0.13136664,-0.027540905,-0.051855173,-0.069856405,0.0065480107,0.046041355,0.031883884,0.12073449,0.0005063503,-0.133461,0.087603375,0.093185216,-0.07176627,0.09232034,0.073091015,-0.08887156,0.01066204,-0.041575275,0.028626524,-0.102732494,-0.0862686,0.04607208,-0.12980705,0.0142733,0.042759463,-0.0007609804,0.08250972,0.058457926,0.023684107,-0.059513178,-0.03584766,-0.038852036,0.0120143425,-0.14126931,0.06140647,-0.020592356,0.042237103,-0.02394677,-0.013032231,-0.031386554,-0.06521949,-0.052175615,0.04062266,-0.04130221,-0.11278974,0.04525967,-0.0027000248,-0.06089158,-0.12477698,0.04858521,-0.060373366,0.057872918,-0.012733458,0.05827798,0.0025316305,-0.076537035,0.029731601,-0.08667508,0.09063518,0.09409025,-0.06602308,-0.03015258,0.015547106,-0.097107016,-0.02266469,-0.10986043,-0.058172267,0.07396041,0.03018616,0.045260035,-0.016661456,-0.07038102,-0.13813654,0.054074187,-0.09848813,-0.023068592,-0.0202895,-0.074217424,0.00506295,0.03603177,0.03638636,-0.119191565,0.04157928,0.06180127,0.003928723,-0.02193707,-0.13824996,-0.037154138,0.018472452,0.033828203,-0.08193969,0.0022531596,0.10035085,0.0114892665,0.065928936,-0.050013676,-0.012739509,0.0059637222,0.06471668,0.0559839,-0.059508473,-0.01579558,0.056824658,0.07276123,0.10608171,-0.0538804,-0.06928053,-0.011731882,-0.031804703,-0.076889195,-0.08378787,-0.10366439,-0.030501895,-0.08241659,0.13463196,-0.025834166,0.014226115,-0.051092148,-0.14106445}, {-0.20453626,0.06720018,0.08778151,-0.020801034,0.031394333,0.0050217826,-0.060502756,-0.077798985,-0.1591883,-0.026197184,-0.070547126,-0.039620966,-0.010181193,-0.081665106,-0.089053005,0.04978568,0.04010473,-0.0100491205,0.019105082,0.072873265,-0.1391087,0.032859217,-0.09811866,-0.035595905,0.027276877,-0.08027303,0.07535962,-0.0914616,-0.0956052,0.14437208,-0.013453156,0.0355306,0.07213021,-0.06530471,-0.09806295,0.038902197,-0.023833275,-0.11018312,-0.126385,0.07164736,0.026707131,0.041228157,0.023153875,-0.052576218,0.020842755,0.016211163,-0.002871339,-0.014077773,-0.008008809,0.03361552,0.15582392,0.14010668,0.012430907,-0.023421729,0.0072064484,0.0934835,0.003734149,0.041615132,-0.18596712,0.028425585,0.0030428385,0.044943526,0.012955328,0.00947342,0.12139128,0.062710285,0.10957517,-0.03353252,-0.12254799,0.085571654,0.08770151,0.06655769,-0.06935744,0.027817627,-0.006840194,-0.006480892,0.10440245,-0.0042368216,0.015712984,-0.12258656,-0.02122315,0.0049518123,-0.048576046,0.023863053,-0.04929284,-0.07232831,-0.058435496,0.007579658,0.0034314257,-0.03377941,0.026806248,0.13782583,-0.05440846,-0.02769037,0.0680427,0.039035156,-0.007185899,0.04064112,-0.1082484,-0.050511252,0.014551861,-0.18641251,0.028909352,-0.123707406,-0.06011016,-0.08072625,-0.04809384,-0.06520258,-0.0053043207,0.07625494,-0.07059138,-0.1272715,0.06959086,0.07932229,0.052235972,-0.07710292,-0.086591296,-0.04063006,-0.04218723,-0.13341986,-0.10345751,0.04919214,-0.034837317,0.08798311,-0.015934657,-0.07161168,-0.13560109,0.018940171}, {0.016399033,-0.113539346,0.036051393,0.0218389,-0.08584595,-0.05548596,-0.044285174,0.040123045,-0.02382114,0.07282981,-0.11080707,0.0006843464,-0.031897422,0.083246715,-0.056085046,-0.06851042,0.06368224,-0.021010892,0.0076828343,0.098769195,0.06615493,-0.03248453,0.13376917,-0.04258016,0.0052233525,-0.027865166,-0.17081852,0.03820028,0.015028303,-0.040669918,-0.02338953,0.09876735,-0.11443348,0.09242564,-0.010178874,0.030356374,0.045020074,0.099718206,0.04044378,-0.012869235,-0.05562593,-0.0026953418,-0.042406593,-0.0508572,-0.005411629,-0.012414271,-0.025627859,0.09187767,0.086915694,0.09738757,-0.12871063,-0.15083654,-0.046463396,-0.0395604,-0.1377242,-0.11742846,0.018345445,-0.06312959,-0.026658688,-0.035171572,-0.16061103,-0.23111242,-0.0049092937,0.033878498,-0.08683121,-0.10077914,0.07259247,0.12295385,0.048130523,-0.041159913,-0.014216077,-0.046067305,0.02141884,0.024606941,-0.01953457,-0.02607768,-0.08447572,-0.09341505,0.012247959,0.06423995,-0.029205747,0.007285138,0.041317824,0.013173275,0.0378718,0.022932293,0.086981565,0.06742114,-0.13794956,0.045998108,0.052128665,0.012873615,0.01720588,-0.046502575,0.028262774,0.047043264,0.062340252,0.016005747,-0.081752695,0.0016622404,-0.019262103,0.0690315,0.03553206,-0.11554911,0.09659014,0.007883092,-0.019126112,0.08238065,0.035693504,-0.09584665,0.10350024,-0.02427386,0.0722785,0.03249518,-0.033107407,0.028985877,0.029960502,-0.044820957,0.022712713,0.11253407,0.031764757,-0.14160095,-0.05542355,0.01193685,0.045895092,0.006428093,0.11331926,0.0015101981}, {0.027495561,-0.011916062,0.07834118,-0.035257984,-0.055228308,0.019804703,-0.02223265,-0.08005246,0.01641074,-0.0659947,-0.052676473,-0.00074967975,0.06036444,0.018561773,-0.080779985,0.022049982,0.09309452,-0.05540316,0.011044792,-0.045872867,0.012000083,-0.03672704,0.005788535,-0.018684134,0.049842063,-0.01873799,-0.06302304,0.025661737,-0.037865255,0.050465107,0.0582631,-0.009657854,-0.106278025,-0.029363869,-0.0004308152,-0.08660609,0.04394856,-0.040990993,-0.042314883,0.10026699,0.01890395,0.036809422,0.03061341,-0.028912852,0.10521541,0.016373303,-0.11802718,-0.1512259,0.07372962,-0.02808135,0.0036855605,-0.0049255057,0.05521658,-0.07027579,-0.018223535,0.077502824,-0.11369538,-0.09806023,-0.040925458,0.07737897,0.015553258,-0.030640654,0.22915888,-0.05260519,-0.2098521,-0.036119554,-0.1587941,-0.15088226,-0.09857797,-0.06357296,0.06789853,-0.08507916,-0.0013555514,0.040922884,-0.020428902,0.062409934,-0.18234788,0.017237386,0.033129964,-0.03039958,0.13990021,-0.16104084,-0.037706506,0.05516645,0.0015511755,-0.16522697,-0.064479716,-0.040001977,0.020882327,0.048903152,-0.032091174,0.09654389,-0.0011012394,0.14199425,-0.010721144,-0.20700195,0.006076281,0.027520593,-0.059300438,0.015012144,-0.07788988,0.10978942,-0.07753144,-0.00093617,-0.068405636,0.05169722,-0.08406164,0.032571543,0.05762786,-0.051286023,0.07120195,-0.018487519,0.013681209,0.0558909,0.05644164,-0.096074484,0.024276316,0.046645388,0.03301975,-0.0138781555,0.08267529,-0.10613563,-0.022899391,0.043960255,-0.019511003,-0.12945873,-0.070667036,-0.11370842}, {0.060791187,0.0028269596,0.030968664,-0.033559233,0.020862203,-0.019095095,0.00014493213,-0.038931698,0.0048003257,-0.008741057,-0.04074052,-0.015305452,-0.11502072,-0.015763203,2.5540561e-05,0.07253711,-0.0059029846,-0.09602131,0.022577958,0.050478928,-0.061018217,-0.08910468,-0.012857285,0.03418002,-0.019967813,-0.052706342,-0.08841691,-0.0049170014,-0.014927529,-0.095770694,-0.014993507,-0.09767877,0.049412157,0.10044927,-0.052089475,-0.071869865,0.048337474,-0.036220636,-0.035388328,-0.05396184,-0.12618656,-0.011289137,0.039752655,0.03325042,-0.03326328,0.006796469,0.048425294,0.011013284,-0.0565637,0.058090717,-0.06806354,-0.11401757,0.06684536,-0.12601402,-0.114732355,-0.031604007,-0.03684427,-0.01856039,-0.09131958,0.0637894,0.0012872331,0.117010646,-0.015678102,-0.045274235,-0.008658538,0.072436735,-0.058971874,-0.005298079,-0.06235346,-0.0065377215,0.0719885,-0.11862914,-0.017748956,0.05262466,-0.019913696,-0.073082134,0.026232889,-0.03943606,-0.09475158,0.031018123,0.049710717,0.06798495,0.058572,0.075344,-0.05763956,-0.058368493,-0.059426647,-0.0586533,0.16638693,0.0012637208,0.09287191,0.024691107,-0.1022213,-0.084167436,-0.01921006,-0.08389458,-0.15057464,0.00018253387,0.013801089,-0.032961,-0.02038141,0.14340311,0.09920638,-0.05215015,0.029975759,0.0533823,0.072774164,0.09368159,0.007255042,0.035277918,0.0076685394,0.005553063,-0.039820317,-0.06503078,-0.066196606,0.0032401802,0.0051804334,0.061365522,-0.064716905,-0.093165524,-0.113306664,-0.06452984,0.02108379,0.18755098,-0.0049366043,0.18664293,-0.0025858828,-0.025009133}, {0.110796,-0.017929718,-0.013138237,0.014070014,0.090610616,-0.0036694,0.06473766,-0.027983434,0.028527744,-0.0014277112,0.049150594,0.08224135,-0.08333027,-0.02842533,-0.021245938,-0.10663896,0.043172043,0.117205374,-0.001784892,-0.065924786,0.03681909,-0.039745092,0.016942756,-0.0651989,0.047318507,0.055922676,-0.062396627,0.0059272405,0.13319778,-0.07854712,-0.05731004,0.051262505,-0.07373695,0.0026496183,0.04336346,0.033584066,0.061897647,0.058294557,-0.03445339,-0.11039896,0.0895482,-0.08483045,0.07498806,0.0710594,-0.045522567,0.03703483,0.062655985,-0.04669538,0.041155983,-0.04915736,-0.048195682,-0.0015259333,0.009692956,-0.0064514526,-0.04647199,-0.10257011,0.020548133,-0.004325747,-0.03446374,0.0756128,-0.05728789,-0.03620984,-0.1439062,0.021134991,0.061123095,-0.12770304,0.027775954,0.07790179,-0.013664351,-0.009557923,-0.09962845,-0.015523085,0.03530441,0.07936629,-0.08905877,0.01316683,-0.14014639,0.12091869,0.08949237,0.031337276,0.03843793,-0.046134874,0.054281216,-0.000983976,0.029964317,-0.039592523,-0.028911581,-0.11368812,-0.00057932234,0.050155573,-0.09352466,-0.019123903,0.06197027,0.022036126,0.19861305,0.04156944,0.05482185,0.00077693106,0.021714654,-0.122894794,-0.08831682,0.014875841,-0.023046674,-0.03896617,-0.02407979,0.08056794,0.103035234,0.013464566,0.0057787476,0.102238834,-0.06589052,-0.017010514,-0.05944607,-0.054943465,0.030384764,-0.012923264,-0.0076377485,0.01640286,-0.07597135,0.019374106,-0.09560935,-0.052838083,0.0184379,-0.09708533,-0.060904272,0.017630061,0.13837789,-0.02806671}, {-0.086899236,-0.029171053,0.19965823,0.18999685,0.0016293626,0.07494553,0.029962458,0.045835387,-0.038778424,0.0081257755,-0.0068516233,0.010681316,0.028687343,-0.011294416,0.088287055,0.07415525,-0.01195196,-0.17204511,0.16409351,-0.053553253,-0.15364084,0.024095286,-0.20918755,0.031859,0.027382085,0.073518224,0.05156255,0.08761063,0.032334134,0.09741106,-0.05087793,0.17642613,0.053753074,0.116788864,0.022109024,-0.044473786,-0.0032285438,0.09583073,-0.064144745,0.10582575,-0.0044736904,-0.0062379595,0.16681512,0.07928158,-0.010617173,0.021435928,-0.114533775,-0.04820265,0.07436145,0.0056808772,0.10649016,-0.024618614,0.041797627,-0.026906928,-0.12312926,0.04671156,0.04794613,-0.0016281107,0.031492166,0.029225744,0.024113731,0.018993802,-0.027592454,0.03148502,0.11252102,-0.020256937,0.05272999,0.07644463,-0.006530594,0.026878463,0.049860664,0.0396393,0.13024388,0.07415761,0.08574072,-0.0073232995,0.102120474,0.046676937,0.05916472,-0.0015900785,0.10714149,-0.08518383,0.053446185,0.048406485,-0.0039951233,-0.0517118,0.09370004,0.06790489,0.055577215,0.050524767,0.035665296,0.07130839,-0.02990468,0.12523872,0.11491161,0.13183843,0.025354244,-0.040899817,0.0020457078,-0.08648452,0.057992037,0.053957615,-0.011912015,-0.07491179,0.021244079,0.11213817,-0.0035785025,0.090218306,-0.01355821,0.0770661,0.046634715,0.06556928,-0.019621432,0.105164506,0.05203253,0.09697258,-0.079839,0.08099251,-0.05490988,-0.04649496,-0.0123996325,-0.00039761135,0.13956946,0.033994406,0.21820112,0.043756146,0.19136578,-0.05409927}, {0.08504488,0.017315006,0.1808396,-0.014849849,0.087033734,0.11291074,0.056015562,-0.004494934,-0.04268944,0.0032336817,0.0020389461,0.055420544,-0.012186661,0.16559765,0.054191813,-0.0049744705,-0.06417504,0.089346886,0.03693931,0.009450035,0.13300124,0.10116015,-0.008327344,-0.063301,0.023782134,0.014548262,0.07691181,0.13747117,0.07440079,0.01577854,-0.06892003,-0.05598246,0.028713915,0.11549851,0.019178074,0.17346165,-0.092559494,0.09277526,0.029177977,0.045288306,0.027553115,0.06356269,0.05590213,0.06154242,0.06165583,-0.058357242,0.057740252,0.015499833,-0.020034801,-0.015069662,-0.07218848,0.07913108,0.03205538,-0.021906523,-0.0057594497,-0.026109248,0.16388915,0.0402187,-0.10190531,0.1869147,0.028096816,-0.017837342,-0.004997002,0.0017746506,0.045281608,0.0053078593,0.124243684,0.04654011,0.13601868,0.05227891,0.11217329,-0.03625699,0.07215517,0.11334645,0.14430852,0.058308702,0.025114533,0.03128373,0.0921618,0.09191539,0.019730097,0.064649574,-0.019605592,0.027020557,-0.01747176,0.014492964,0.07423572,0.07142822,0.064210646,0.071809664,0.045598764,0.124215156,0.096398294,-0.052187625,0.009820409,0.022696234,0.13199486,0.100379884,-0.040340554,0.1251927,0.024198566,0.12349589,-0.033102937,-0.026814323,0.13715336,0.06475632,-0.0388738,0.11188099,0.1125334,-0.21684314,0.08089866,0.06291261,0.11135631,-0.04394064,-0.030473286,0.05675191,0.024274914,0.022491058,0.07625692,0.07842873,-0.08279853,0.100786954,-0.0231492,0.0097814845,-0.04840808,-0.017159663,0.009044951,-0.025524497}, {0.11047884,0.017435815,-0.07203418,-0.00017232326,-0.012630476,-0.052258585,0.021839192,0.019396115,0.07244823,-0.0832913,0.017214676,0.0001308131,-0.109540805,-0.041728318,-0.12861721,0.025882699,0.00031739706,0.038459048,-0.087937646,0.053589366,0.011418888,-0.07405361,0.09794901,0.1294811,0.0095185805,0.1303532,-0.08564467,-0.032320358,-0.027201375,-0.03793956,0.018471634,0.10094178,0.009954403,0.12354596,-0.024313545,0.058904927,0.06574552,0.08991744,-0.06385293,0.07333775,-0.03813833,0.1270548,0.046808776,0.13647236,-0.028851574,0.0856816,0.02751184,0.023649778,0.052676834,-0.040183015,0.035910394,-0.019374004,-0.027015036,-0.06908261,0.020380786,0.087476134,-0.046877038,-0.1312044,-0.04935619,-0.11973217,-0.09599429,-0.06649454,-0.121002905,0.08571126,0.10481491,0.007059202,-0.074868426,0.1136937,-0.030050328,-0.07595569,-0.04643273,0.06664491,0.016882723,0.010719871,-0.08897079,-0.14842533,-0.012094019,0.008401796,0.027899392,0.16696754,0.001296815,-0.093961395,0.06259229,0.08192317,0.05119797,-0.089071505,-0.01699088,-0.06640036,0.09773096,0.06424078,0.040575784,-0.03754462,0.12771785,0.040855628,0.020286921,-0.03703611,0.023796886,-0.020130709,0.05044573,-0.089580335,0.09343959,-0.03464446,0.104842305,-0.018463096,0.030022377,-0.07183956,0.03724726,-0.16059458,-0.0006139069,0.09741674,-0.023195125,0.06165007,-0.0007194192,-0.04858351,-0.056873918,-0.02587908,-0.095011994,-0.049167294,-0.056371406,0.0009861996,-0.06679409,-0.07394089,0.007074003,-0.040503483,0.117413476,-0.04355971,0.07076987,-0.07518887}, {-0.01842464,0.09874282,-0.14933106,0.010474886,0.155755,0.018719628,0.11708085,0.010580526,0.12065679,-0.06896424,0.008688493,0.023329968,0.013143264,0.03587221,-0.009781267,0.025970452,0.05941813,-0.0071953395,-0.14167479,-0.1270207,-0.026656443,-0.053905282,0.095696,0.10556496,-0.06821846,0.022275586,-0.027520953,-0.0016742889,0.028857328,0.013116134,-0.022423288,0.009613127,0.0811802,-0.024823254,0.07199278,-0.019961212,-0.022076942,0.054353587,-0.02180468,0.11258296,0.03397155,-0.12575254,-0.047559287,-0.037376616,-0.054074794,0.02536115,0.087664746,-0.033384856,0.09197014,0.08479459,0.0026750758,-0.113273464,0.030854829,-0.07754255,-0.022415357,-0.0795838,0.019012846,0.029722419,0.08333786,0.18981826,-0.036623903,0.09982066,-0.067836575,-0.20983939,-0.00051149516,-0.03562556,0.071058616,0.20758632,0.009054865,-0.020909645,-0.08154457,-0.03589252,-0.05234322,-0.07289415,-0.015967293,-0.0022619674,-0.024559367,-0.03935261,0.043201167,0.036376435,0.06531965,0.024796734,-0.028834773,-0.02053525,0.018607203,-0.04644128,-0.031139687,0.006259401,0.00078852754,0.05651361,-0.015433447,-0.047318876,0.04052618,-0.034161963,0.07221473,0.0799513,0.057852495,-0.09780934,0.05354846,-0.01032721,-0.054337114,0.06094752,-0.14581905,-0.0021744536,0.03868316,0.06135808,-0.118425146,-0.1087535,0.0010160509,0.07028481,-0.022573262,0.030430429,0.013726488,0.037045766,0.03421225,-0.008130582,0.031890966,0.0023465524,-0.11310969,0.014462726,0.04239701,0.04801324,0.13068491,-0.0086645475,-0.02232738,-0.052926663,0.07197771,0.07158273}, {-0.024232157,0.04892357,0.05505893,0.036829956,-0.038105268,0.063011095,-0.06263138,0.041373216,0.037830282,0.11194153,-0.0142691,0.03612344,-0.0150997285,0.12804742,0.107214026,-0.057319235,0.08512577,0.0033517363,-0.048212428,-0.10157753,-0.05713804,0.06624888,-0.05780432,-0.053619534,0.056598254,-0.08248875,0.034890044,-0.014039738,0.024539677,0.017887788,0.08929329,0.1459469,0.06300685,-0.12489195,0.114359185,0.053183105,-0.004479223,0.005164669,0.034072224,0.048353173,-0.03337663,0.1649138,0.11112353,0.16283563,-0.1040639,0.008399831,0.07381831,-0.06916354,-0.016324915,0.077922605,0.16954745,0.18542285,-0.037275467,-0.080951355,-0.03523418,0.069008425,-0.013673669,-0.09242643,-0.03420955,0.049057767,-0.008710471,-0.07022382,0.05291697,0.03749503,0.018690862,0.023828167,0.02252077,0.010002065,-0.09896369,-0.045414597,-0.026881946,0.0739524,0.04391846,-0.07289379,0.056971624,0.08625981,0.023155626,0.008433746,0.11555417,-0.005701873,0.0052502984,-0.068168566,-0.04779923,-0.015125932,0.04403454,0.08285403,-0.010999091,0.023173485,0.04495972,-0.08212058,-0.011727266,0.0034022757,0.06579313,0.05224161,0.038662255,-0.107218325,0.12199841,0.0039332663,-0.091574505,-0.08257525,0.089349,0.10930663,-0.09401179,-0.048850037,0.27400893,0.121232614,0.076479614,0.14656463,0.050126586,-0.1328003,-0.16435851,0.04405885,-0.07429436,-0.014239101,0.037875343,-0.13917546,0.025067767,0.0842832,0.08688562,0.03479558,-0.044191904,0.0015160252,0.047893006,-0.09490929,0.02353048,0.0105761215,0.00829521,0.11961783}, {-0.103742376,-0.008336601,-0.0061941515,-0.08153275,-0.112129346,-0.07779519,-0.12690555,-0.1399494,-0.037176773,-0.11099654,-0.07977355,-0.013456265,-0.042660356,0.004684613,-0.15257137,0.075263925,-0.026186485,0.04272436,-0.028102027,-0.0014711407,0.07757377,0.037009466,-0.09131704,0.118323006,-0.10158547,-0.03347851,0.13090535,0.14698663,-0.15395664,-0.032841966,0.024453418,-0.13893041,0.022684129,0.09314257,-0.13797396,-0.0026438115,-0.103267156,0.0342927,0.046175726,0.06733711,-0.14502567,0.06300501,-0.11486062,0.009806693,-0.042916004,0.03137579,-0.04051077,-0.089007795,0.014310653,0.06578219,0.08872036,0.080896795,-0.1131106,-0.18825512,-0.1183001,-0.0035356171,-0.03400838,-0.0116232615,-0.051684257,-0.031520717,0.002645097,-0.012634345,0.016037935,-0.060643252,-0.07946678,-0.050721582,0.03672807,-0.09766138,-0.018557046,0.06378161,0.116697505,0.0123102125,-0.1155679,0.052894343,0.06202805,-0.014927161,0.08074314,0.008241266,0.042124975,-0.10993104,0.15035851,-0.02629427,0.005742161,-0.062231738,-0.16349837,-0.15144978,0.0614707,0.08811705,0.014284206,-0.0019800132,0.047311667,0.14120951,0.00039654563,0.08052258,-0.11505307,-0.10913744,-0.074020825,0.01847777,-0.1354274,-0.08240163,-0.02656339,0.022921508,0.029463964,-0.014233053,-0.10362821,-0.06549284,0.009553291,-0.03271612,-0.13443999,-0.07420609,0.07672483,-0.03216124,0.047447715,0.072000116,-0.0024971121,-0.1186268,0.097749814,-0.030604811,-0.014660962,-0.060420066,0.007514578,-0.017245688,0.02195882,0.14351854,-0.0016498658,-0.0884789,-0.028710797,-0.06024268}, {-0.0105424905,-0.08579386,-0.007578211,0.012821405,-0.15400228,-0.0869652,-0.12381881,0.004042883,0.00063426857,0.027351951,-0.024168914,-0.01672945,0.08259498,0.16545002,0.08680262,-0.124918096,0.022679748,-0.03656383,0.04346786,0.03453819,0.054601,0.114718795,0.020131607,-0.06963034,0.010745094,0.052202784,0.11458699,0.24950027,0.03633859,-0.09333555,-0.084966466,-0.06742497,0.03872795,0.13282777,-0.08368844,0.015242345,-0.03913487,-0.026566634,-0.0980406,0.00019245187,-0.0006704151,0.16805364,0.009965229,-0.024080828,-0.06974634,-0.101348855,-0.14860432,0.10041857,-0.031814158,-0.1653844,0.0018347083,-0.123528145,0.0004833866,-0.15675843,-0.03738376,-0.026781965,-0.15061438,-0.08447619,-0.17255485,0.008316746,0.018836,-0.11808002,-0.18975608,0.06863345,0.056701206,0.015330413,0.089211605,-0.014604839,0.004919666,0.07550924,-0.07113517,-0.09175438,-0.02948274,0.062697716,0.07721061,-0.03942796,0.10621298,-0.058018785,0.017232675,0.0012971305,-0.009392004,-0.02779573,0.011093734,-0.024515947,-0.123009674,0.045785896,0.073905624,-0.040196277,0.1924456,-0.1279303,0.107789665,-0.06773333,0.034409836,-0.19759487,-0.14552473,-0.009043762,-0.047545876,-0.025924133,-0.11658571,0.0841889,-0.14885035,-0.040190168,0.017419072,-0.19798142,0.13471244,0.0831674,0.03632739,0.003510706,-0.04540914,0.0026336522,-0.121914215,0.0101945205,0.061991703,0.00871411,-0.076748885,-0.015735202,-0.052933767,-0.032715704,-0.016867511,-0.03554426,-0.17678057,-0.046901595,-0.10819715,-0.079631,-0.053968396,0.13306975,-0.0025080813,-0.008607464}, {0.13282444,0.06455854,-0.027639274,-0.089662805,-0.015608897,0.06635217,0.093889825,0.00028992485,-0.0020026949,-0.04990223,0.08166654,-0.10362535,-0.0022167377,0.0494173,0.002081769,-0.044742856,0.072405405,0.060292866,-0.0028484105,-0.07729322,0.016763708,-0.02287674,0.0431111,0.11744428,0.09720144,0.055919286,0.067213655,0.01825576,0.053742286,-0.023483463,0.14100271,-0.0143873505,-0.06360345,0.04612734,0.08729967,-0.0314212,0.013032884,0.04435052,0.10756727,-0.0021491288,0.11343526,0.036971282,-0.10734828,-0.049278226,0.0038949987,-0.09102599,0.05851659,0.06868923,0.030175332,-0.074546956,-0.15639907,0.1697306,-0.048676457,0.10663314,0.058608443,0.05959345,-0.012405882,0.016340211,0.05214391,0.020408303,0.121039554,0.002449078,0.108768344,0.09077801,-0.025911987,0.07572614,-0.029247032,-0.13862653,0.06366955,0.17800276,0.09026175,0.0583264,0.118122,0.10982937,0.05553974,0.093821995,0.13871838,0.012539705,0.17559376,0.0013286507,0.10077456,0.1105206,0.044476137,-0.012832216,0.06281271,-0.065250434,0.0052500316,-0.018054254,0.1372613,0.0028911699,-0.04237732,0.06614071,-0.05154036,-0.038183287,0.04411728,-0.09190132,0.04531697,0.023559758,0.05848349,0.05567573,0.16569552,0.09575564,0.026394265,0.06618379,0.06523669,0.065514855,0.16220309,0.07076481,0.019507576,-0.04858794,0.119621165,0.07786258,-0.0690056,-0.01782594,0.03419312,0.04296427,0.03718991,0.077946365,-0.0108325025,0.07265839,0.08393572,0.0830333,0.022310965,-0.019395828,-0.10017062,0.08959397,-0.06165317,0.03476117}, {0.07215717,0.04097898,-0.06902994,-0.07994393,0.05974627,-0.168823,0.052715447,0.039061364,0.04620845,0.03623805,-0.09140277,0.0001685791,0.07718462,0.071124256,0.047875725,-0.05775441,-0.023385497,0.04185214,0.06276093,-0.076579385,-0.0019773308,0.06801061,0.023571596,-0.13540496,-0.009968113,0.11993943,-0.0066627585,0.056401346,-0.059680264,-0.17022419,-0.013657673,-0.077395685,0.12509231,0.0152971465,0.09018396,0.010994653,-0.08350325,0.22431551,-0.04540607,-0.0133479955,0.046915025,0.027904289,0.111744985,0.011738914,-0.08263304,-0.12459771,0.03149217,0.060430553,0.012497461,-0.012017981,-0.12082298,-0.018889114,0.1045379,0.032483738,-0.033034865,0.0074031404,0.022529673,-0.13111645,0.012568787,-0.032126937,0.03434233,-0.045132674,0.02418461,0.11451404,0.026464412,-0.03392254,0.1157869,-0.013267139,-0.011512713,0.09622011,-0.009920932,-0.0054363958,-0.030892255,0.0052630017,0.13139516,0.023906363,0.032004893,0.028127857,0.039993428,0.12217278,-0.10392425,-0.09528644,-0.01511377,0.093519665,-0.03298652,0.052611154,-0.019539734,-0.034768376,0.062100794,-0.0026275166,0.057399545,0.004432482,-0.064142115,-0.0654721,-0.059124365,-0.08442983,0.061326806,-0.08806302,-0.0024105844,0.0054919096,-0.030847942,0.022383302,0.049501702,0.020296808,-0.01931173,0.10264229,0.04544935,0.031784073,-0.037827782,-0.04494162,0.052822903,0.047168344,0.06195178,0.014956181,-0.13106227,0.03178755,0.07350616,-0.0068318704,0.0940226,-0.11003121,-0.06137776,-0.032980114,-0.10018569,-0.031009646,-0.060615186,0.088214815,-0.052931547,-0.04572176}, {-0.06791978,-0.018674195,-0.038273245,0.05882411,-0.13118945,0.032153137,-0.0019292874,-0.045102738,-0.0022333872,-0.098231345,-0.024106521,-0.12527539,0.017826475,-0.051339533,0.08207522,-0.05053913,-0.052472036,-0.05674518,0.038474675,0.08186127,-0.029051475,-0.06481197,-0.040053405,0.08705827,0.00990338,0.010328016,0.051893145,-0.013682522,-0.088895075,-0.0599458,-0.03830068,-0.1402742,0.039982084,0.018751496,-0.12416923,-0.006050921,-0.04013226,-0.15643875,-0.0133171175,-0.06738525,-0.022137724,-0.032525204,-0.050047904,-0.03502289,0.1162868,0.008211359,-0.11213429,-0.050852098,0.011893892,0.00478523,-0.071384355,-0.037704065,-0.042129315,0.13882205,0.10305595,-0.023784474,0.07270646,0.05986714,0.032884855,-0.07991317,0.044379093,-0.005844171,-0.04610791,-0.029315803,0.023790034,0.044519186,0.03851046,-0.09112883,0.048309986,-0.06225604,-0.02748376,-0.0049481597,-0.082082435,-0.14603584,0.04525039,-0.08532546,0.03159267,0.052953046,-0.1882634,0.028234603,-0.1462085,-0.06663718,-0.03427944,-0.056780748,0.062160283,0.008293258,0.062315475,-0.010723734,-0.049161106,-0.09192825,-0.0098687075,0.10119075,0.044281315,0.0045064464,0.02164119,0.0968112,-0.024059258,0.024071828,-0.005500005,0.045280233,-0.09007148,-0.12625028,-0.056476757,0.105487026,-0.028982181,-0.15057643,-0.1151181,-0.051433615,-0.110029966,0.049204603,0.14030573,-0.08909959,0.114870034,-0.02028907,-0.05627538,-0.05555747,0.03793604,-0.093344115,0.014476882,-0.24736354,-0.020174561,-0.024969447,0.0633504,-0.006917843,-0.0070477715,-0.05693804,-0.12090103,0.041129652}, {0.03084918,-0.06987297,-0.07473674,-0.11276784,0.12003113,0.09285968,0.018558182,-0.054424915,0.07811505,0.085216574,0.014930173,0.06491732,0.06335208,0.053533137,-0.036589153,0.015045967,0.023967726,-0.018294718,-0.07056625,0.017638365,-0.032394547,0.0009885889,0.040010408,0.07369645,0.034211606,-0.019314047,-0.0018196463,0.013839059,0.08975633,0.10218106,0.06973084,0.0423855,0.010286638,-0.104640126,0.10393108,0.061012927,0.0057421317,0.025048146,0.06478072,0.016446726,0.0357442,0.0058571636,-0.05999424,-0.007856008,0.03803074,-0.048492234,0.094041824,-0.07669081,0.103706986,0.09936654,0.05276433,0.030322896,0.046797767,0.027619457,0.05747534,-0.031084768,0.117546715,-0.05325224,0.016713522,0.050977528,-0.104141176,0.09346163,-0.03881766,-0.06507466,-0.050813753,0.077689014,0.06387928,-0.1201115,0.02290558,0.025115678,-0.05314558,-0.007912791,0.008895654,-0.03092654,-0.04500427,0.20670982,-0.019636644,-0.04535247,-0.010131599,-0.041403707,0.084703214,-0.011487739,-0.007179618,-0.006426723,0.13772221,-0.022939773,-0.07495912,0.05087179,-0.08192494,0.030705057,0.04975583,-0.12686764,-0.10442099,0.007715459,-0.0349602,-0.04685826,-0.051790267,0.12827754,0.04973892,0.017549966,0.117263384,0.06661688,-0.001125752,0.007911572,-0.019007737,0.0035913473,0.03877236,0.043901253,0.053476058,-0.125937,0.09058009,0.07814043,-0.045480724,-0.08662322,-0.0032987993,0.09825411,-0.01140124,0.030606039,0.06329128,0.1570878,0.19579999,0.019763831,0.056162663,0.00977707,-0.018032856,0.007655814,-0.011032751,0.086236276}, {0.08233566,0.091784894,-0.025154058,0.11092252,0.105228394,0.14319073,0.092023276,0.057349257,0.20054024,0.122931585,0.05735327,0.11928448,0.0133016845,0.09731909,0.018530779,0.049093943,-0.008913627,0.026679877,-0.025607103,-0.05657243,-0.08514843,-0.02546355,0.04755278,0.09617178,-0.049641818,-0.001361266,-0.126093,0.130723,0.14855292,-0.03696479,-0.005357311,-0.02282322,0.055092767,0.079581834,0.019733502,0.15629224,0.10053616,0.072438814,0.060228836,0.14416228,0.07726951,0.025990056,-0.04447341,0.004511293,0.04536551,0.07598332,-0.039243322,-0.11496677,0.21387585,-0.03973166,-0.030980363,0.06068268,0.12995242,0.02005292,0.069423236,0.009669417,0.08947806,0.055311024,0.19771484,-0.018780394,-0.042281196,0.04917487,0.06496762,0.16631907,0.028307602,0.12186114,-0.05495345,0.08765571,-0.009536152,0.09501913,0.049032286,0.030897552,0.0066869594,-0.08272286,0.12495807,0.18431671,0.05854683,-0.0073999316,0.07405108,-0.0025899298,-0.087416835,-0.09682779,0.12792754,0.07003445,0.23328698,0.07424308,-0.043804675,0.053131767,-0.09055533,0.12386396,0.035034407,-0.026340228,0.03419,-0.018255373,0.14836685,0.0758099,0.15933353,-0.008745718,-0.03140072,0.028349023,0.015091281,0.11515648,0.06102953,0.01042498,0.18050645,0.05499315,-0.00068496534,-0.011127831,0.05895771,0.061688855,0.00858662,0.08541547,-0.010165025,0.017249908,0.07125864,0.024321811,0.053954504,0.12510519,0.014952325,0.039963268,0.061454657,0.08659723,0.10525507,-0.010848273,0.054903477,-0.117660545,0.055684537,0.06895324}, {0.02030324,-0.09056017,-0.06263885,0.023875337,0.0017426575,-0.047853954,-0.009693826,0.17912012,0.17126478,0.14043222,0.031158276,-9.95771e-05,0.04781616,0.08993905,0.10562723,-0.08319491,-0.013063498,0.11108722,0.1113191,0.055486158,-0.030204114,0.024767231,0.033544123,-0.007815313,0.04331981,0.1193994,-0.015741417,0.08561183,0.055963647,-0.016221965,0.1008603,0.04406238,-0.039382912,-0.02162309,0.13282216,0.20506038,0.091018535,0.16167775,0.09407075,-0.08034633,0.0786699,0.021253452,0.011047006,-0.119391166,0.024872772,0.00019445992,0.012449209,0.111776404,0.059803154,0.030859357,-0.099358015,-0.09348401,-0.007785639,-0.011191687,0.12800951,-0.09243966,0.06132365,0.01854711,0.0017793423,-0.04888213,0.113295786,-0.09494276,-0.027457273,0.016418325,0.06701941,0.07296688,-0.12331553,0.080954425,-0.029679695,0.06755616,-0.0784962,-0.01864645,0.034205645,0.003907715,0.08877213,-0.020091545,-0.039032027,0.0010260579,-0.021879595,0.036658946,-0.046295486,-0.06758517,0.011096495,0.046202883,0.044190206,0.060445774,-0.009323347,0.114451915,-0.13251203,0.07117283,0.0104891695,-0.079694994,0.019053817,0.07474565,-0.044784624,0.010118671,0.09781507,-0.018202424,-0.12855074,0.05764795,0.053910673,-0.012805367,0.057471495,-0.01763645,0.011934673,-0.062022876,-0.084249124,0.09388322,-0.006231858,0.0827877,0.02727023,-0.07891744,-0.090821,-0.116715334,-0.050218984,0.062258035,0.0731942,-0.0041068313,-0.031064102,0.26420653,0.15080759,-0.009248435,0.08472603,-0.08342031,-0.009509764,-0.14213404,0.065815926,0.086293034}, {-0.023004882,0.04447821,0.054702006,0.020560358,0.0047596954,0.12265472,0.0162101,0.01659527,0.028488101,0.03164379,-0.017014343,0.111633405,-0.042409208,-0.092270575,0.040178288,0.025375603,0.010560943,0.0812092,-0.02510303,-0.004472911,-0.1065207,0.1308363,-0.021961695,0.11947353,-0.059297733,-0.004022799,0.10481308,0.1670057,0.12527287,0.14667863,0.098161906,0.08656238,-0.016809756,0.042848423,0.17944492,0.0214527,0.10791091,0.08311558,0.10679488,-0.0062361425,0.048586,0.074018,-0.020304598,-0.05154843,0.116294794,0.12460379,0.08925713,-0.02525005,0.10177417,0.017939826,0.091407984,-0.047268987,0.040500436,-0.005205718,0.019425599,0.05759157,0.085015886,0.13992354,0.07327425,-0.03688556,0.016753905,0.0048551955,0.1248177,0.17136544,-0.015165938,0.10163964,-0.086949,0.09021146,-0.04853852,0.083143584,0.08698246,0.09778114,0.049618136,0.082577415,-0.0043962584,0.15158166,-0.05462254,0.025427349,0.007616199,-0.1333256,-0.040506043,-0.057654988,-0.008002008,0.12770846,0.013822994,-0.06784803,0.109866835,0.041747306,0.0441882,0.102902986,0.07866024,0.037711345,0.020122148,0.1461574,0.10869226,-0.026011312,0.10657334,0.12794185,0.0039456594,0.045575876,0.049341142,-0.0019141419,-0.00162815,0.075863935,0.046240978,-0.029309953,0.12562448,0.06815956,0.2094891,-0.011726038,-0.03748793,0.07509729,0.037575077,0.1668148,0.0038636825,0.013250621,0.10679657,0.10262026,-0.023517435,0.122934654,0.16013093,-0.022115825,0.14256927,0.059180405,0.0028774606,-0.085825294,0.08369327,0.14034608}, {0.05811341,0.1024326,-0.11903634,-0.062146798,-0.04535945,-0.0564955,-0.047003813,-0.011658143,-0.07846751,-0.025333714,-0.06492894,-0.05026218,-0.031000607,-0.15820298,0.008147777,-0.016184798,0.024526056,-0.062226016,-0.035096206,0.08094504,-0.04444576,0.029218327,-0.11559279,0.07283939,-0.04469941,0.0039858385,0.07897096,-0.03335128,-0.040568836,0.035236545,-0.031631485,-0.020998178,-0.05798142,-0.093285404,0.10025717,-0.17769308,-0.07120465,0.05301158,0.022582915,0.030510984,-0.015880657,0.0096640885,-0.098959066,-0.03554171,-0.025193457,0.03942214,-0.03181571,-0.09525675,0.10740605,-0.10863164,0.067076996,-0.049357448,-0.11537177,0.16297771,0.04206598,0.1362127,-0.13651161,-0.040367886,0.11178286,-0.075436816,-0.024660274,0.08845241,0.13281958,3.686431e-05,-0.030337697,-0.031425186,-0.11510896,-0.08321594,-0.04630083,-0.08986589,-0.09749806,0.1646679,-0.012338643,0.016249534,0.0616971,-0.00749968,-0.014720771,-0.096417926,0.017704552,-0.052197773,-0.048425812,-0.06420091,-0.1788769,-0.12043232,0.023129174,-0.05527157,-0.09716239,-0.00084454496,0.04801942,-0.015524382,0.035309143,0.04049415,-0.08647732,0.081864804,-0.01950596,-0.048613187,-0.091086544,0.03006026,0.11656111,0.0748391,0.0051408103,-0.02916586,-0.043313492,-0.028565217,-0.1675655,-0.16925187,-0.057552073,0.015374788,0.09594252,0.054290667,-0.02049062,-0.05299746,0.03526438,0.05966065,-0.016765254,-0.06089939,0.13515022,0.13318843,0.02123784,-0.073029205,0.123324305,0.055342,0.07212787,0.06098803,0.019306328,-0.24571711,-0.029743202,-0.037142046}, {-0.08574901,0.004051053,-0.1376209,0.022151902,0.0037835434,0.017697146,-0.0020540867,0.028649682,0.060867496,-0.058191545,0.08995699,-0.016223673,0.032056414,-0.058995184,0.0954762,0.05209828,0.08221506,-0.12310858,0.060440656,-0.023805264,0.116731286,-0.08618318,0.04845169,0.06390259,0.012842568,-0.043407816,-0.023557188,0.0046003903,0.015655138,-0.042199414,0.123391494,-0.0918302,0.063378155,0.051079225,0.16173333,-0.015767816,0.038163587,0.06483667,0.051477958,-0.086684674,0.08413031,-0.19966216,-0.042275887,-0.06832282,-0.05515217,-0.01478043,0.03207427,0.016824648,0.00043073477,0.025382303,-0.11504007,-0.02814408,0.028630747,0.113546096,0.038971514,-0.15419427,0.009265341,-0.023138283,0.1424359,0.04511702,-0.08319844,-0.046699397,0.019396724,-0.00858309,-0.003098936,0.038322836,0.07107901,0.13255744,0.10503706,0.007935064,0.03619792,-0.03715364,0.01514807,-0.12813401,-0.10224294,-0.043817703,0.051288802,-0.1284876,0.07530602,0.04221145,-0.021740718,0.030578122,-0.08836005,0.00515535,0.10122978,0.031173773,-0.030337296,0.038205452,-0.08504641,0.103379756,-0.057802323,0.06323326,0.05877504,0.020587115,-0.0828826,0.01109671,0.09506307,-0.026185315,0.070544474,0.10829289,0.03042816,-0.000528716,0.082931876,0.121072136,-0.06436329,0.0629146,-0.14141026,0.04517164,0.006648704,-0.046577267,0.078912884,0.011931471,-0.056185577,0.021471158,0.05124556,0.05402654,0.015214476,0.048868936,0.024973296,0.06135212,0.13191286,0.061024845,-0.078444816,-0.034983777,-0.105447315,0.03091751,0.045233753,0.00078303437}, {0.029026175,-0.0838957,0.09905156,-0.053482797,-0.060472503,-0.039630935,0.006273692,0.08429742,-0.03283111,0.04695065,0.01953354,-0.0008434872,0.007414801,0.17162497,0.083416656,0.11049753,0.06954563,-0.03142794,0.14378452,0.0406322,-0.02614408,0.05581945,0.04218992,-0.005473063,-0.07091405,0.055910714,-0.01738963,0.18342154,-0.03741505,0.051635746,-0.060754076,0.0762859,-0.018177444,-0.070308685,-0.056197617,0.06927959,0.07879911,0.15377477,-0.053146992,0.073730245,-0.0014794471,0.050032973,0.07453437,0.06416778,0.115520954,-0.014300407,0.035732612,-0.003517078,0.06550855,0.013267772,0.109931,-0.0073826457,0.037134312,-0.0697623,-0.08588754,0.16349621,-0.026606448,-0.040371194,-0.011702922,0.02558473,-0.07528637,-0.043176297,-0.07885381,-0.04953742,-0.04814488,0.09190736,0.051090896,0.036659785,-0.046723142,0.14058535,0.059366733,0.10268008,0.034463216,0.16583951,-0.044028446,0.01548125,-0.051435065,0.09319385,0.1046283,-0.033046283,0.046651993,-0.13975093,0.07088479,0.007384271,-0.0022991016,-0.0028696042,0.11159131,-0.057421993,0.121831164,0.065841556,-0.0041331365,0.08687283,0.12554199,0.059556603,0.1379281,0.062410098,-0.02600511,-0.06630096,-0.067176744,-0.15458487,0.09399047,0.09411016,0.098964855,-0.089140005,0.026369018,-0.026704516,-0.0025293285,-0.051164083,0.022218468,0.10439464,0.082565874,0.024774235,0.030762801,0.004604852,0.04934311,-0.10098991,0.06551487,0.05197149,-0.033350892,0.047653332,0.044851895,-0.036517702,0.063527495,-0.06201397,0.10082692,0.04165734,0.129078,0.09790569}, {-0.09246106,0.0049842237,-0.060216438,-0.07680756,-0.079861276,0.0328129,-0.11771623,-0.093719974,0.032204896,-0.066660956,0.014089258,0.040530685,-0.076778874,0.006519687,-0.0049722744,-0.09708912,0.030937055,-0.015540919,-0.038571414,0.012151004,0.07213975,-0.0042114197,-0.1084823,-0.015151557,-0.09916108,-0.07100797,0.076347105,-0.0145747,-0.1385321,-0.08852994,-0.034143247,-0.10579592,0.046910807,-0.0045170514,-0.014915865,-0.113215275,0.011616109,-0.053281993,0.040815655,-0.0036493347,0.034874372,0.06008364,0.0175366,0.062754795,-0.14562224,-0.008389059,-0.01944576,0.03842344,-0.13167259,-0.029468857,0.0061992276,-0.072045825,0.024183307,-0.0441556,0.048150823,0.0398515,-0.19871336,-0.10964544,0.0053415224,-0.023311034,-0.016317591,0.005068318,0.04656272,-0.079678886,-4.233315e-05,-0.025317041,-0.12694891,-0.25895414,-0.061496865,-0.084968925,0.021938356,0.10015606,-0.021493979,0.013789891,-0.10563123,-0.009581012,-0.033250958,0.034852315,-0.08174922,0.04100519,-0.045913335,-0.17526518,-0.0842913,-0.03942623,-0.056504346,-0.06635738,-0.06661699,-0.063835256,-0.015847582,-0.012722327,-0.06806297,0.12555578,0.08259275,-0.067107424,-0.051999774,-0.06153216,0.0144430185,0.04855761,0.07491651,-0.061272103,0.008368839,-0.071239814,-0.022137027,0.028803742,-0.03401438,-0.026061615,-0.025283141,-0.06859734,-0.049731374,-0.09377076,0.0132061085,-0.039923858,-0.03634845,-0.07284635,-0.09318014,-0.1310157,0.027948314,-0.062220037,-0.06506583,-0.034659304,-0.04911316,-0.049087603,-0.048410013,0.02192348,-0.02938309,-0.115714036,-0.13937858,0.053707507}, {-0.0502986,0.011641645,0.111509375,0.028708037,0.06239598,0.027757192,0.10470228,0.04498851,-0.05028352,0.10088268,0.05319813,-0.018598828,0.08148853,-0.15389976,-0.058391403,0.02514713,0.107434265,-0.10774644,0.11338564,0.05743511,0.0435881,0.045081854,-0.05118212,0.059258446,0.09312079,-0.0012618452,0.12924695,0.0013998852,0.072506905,0.1472564,0.028790824,0.08053839,-0.072390765,-0.022150321,0.0458786,0.11219491,-0.051064704,-0.11546921,-0.062347695,0.09258582,0.0411732,0.15339872,0.007004197,0.050919022,-0.0027933281,0.073810205,-0.095066115,0.0245069,0.113244876,-0.03940914,0.0743839,-0.0733421,0.065025344,0.09783402,0.02887898,-0.09586171,0.06591292,0.1374345,0.082414925,0.05217605,-0.16212346,-0.047933374,0.016326347,0.05021957,0.13594872,-0.041248742,0.035903975,0.06049102,-0.056690782,-0.044509847,-0.034987118,-0.05156761,-0.045427974,0.112190105,0.08003563,0.067509174,0.022922503,-0.024977867,-0.12008402,-0.058618676,0.043891963,0.10314337,-0.0066195023,-0.020299785,0.069441676,0.018139767,0.10874425,0.018925417,-0.007962281,0.21301515,0.12317843,-0.06287826,-0.1002897,0.10773636,0.03561919,0.07659977,-0.046125475,0.015375655,0.03837887,0.03817342,0.01883064,-0.0025356244,0.0795555,-0.007507099,-0.17000383,0.02434066,-0.020809026,0.039328232,0.059867434,0.087090656,0.08652786,0.014727326,0.024404263,0.07783825,0.062759474,0.12152198,-0.08048357,0.08623354,0.005703394,-0.007037007,-2.0426407e-05,-0.083169095,0.045443535,-0.0640304,-0.008719057,0.07943911,-0.0003686397,-0.052193604}, {0.051394336,0.038283225,-0.020439444,-0.021304429,-0.05539207,0.11756934,0.08428136,-0.00056021556,0.12127431,-0.1888651,-0.07843532,0.028417677,-0.12255191,0.0033371623,0.06395375,0.015231052,0.10846077,-0.14740813,0.16397972,-0.026954964,-0.008218107,0.0068049887,0.01665017,0.019271407,-0.051769283,0.071684614,-0.112494364,0.11185824,0.10925494,0.025053512,0.056500487,-0.16383018,-0.054927118,-0.05521442,0.029206714,-0.04304305,0.17022492,-0.012520684,0.034036957,-0.055448905,-0.05306881,-0.030785792,-0.14282739,-0.029844373,0.0026356175,-0.11327683,-0.04807756,0.024151364,0.016767178,0.00023809564,-0.015677432,-0.059890326,-0.043633655,0.0055607744,-0.03643245,0.03335965,-0.15740697,0.0068876357,0.039329156,0.09188167,-0.12372494,0.05243223,-0.058133055,-0.10807222,-0.05659814,0.09784921,-0.033109672,-0.10643747,-0.03245617,0.018225709,-0.050269403,-0.08096292,-0.06277764,-0.026388599,-0.004145455,-0.032972753,-0.09458597,-0.11087001,-0.17115794,0.054320138,0.06840345,0.016985096,0.01441763,-0.076291546,0.076284945,-0.07831432,-0.06893703,0.03378736,-0.07819748,0.0008704383,0.056822225,0.09099718,-0.031663444,-0.06160925,-0.10584989,0.016418714,-0.10690068,-0.04099624,-0.00765446,0.10907813,-0.107499465,-0.04378894,-0.010519987,0.020256609,-0.20490958,-0.09370346,-0.06135501,0.007208573,-0.034538418,0.11471771,0.115045294,-0.07313378,0.059882913,-0.07995561,0.013466171,-0.01449323,0.06616652,0.030398235,-0.008814394,-0.109174296,0.011380813,-0.117137246,0.01034567,0.08159647,0.025017414,-0.027693905,-0.06560326,0.054702852}, {-0.0056037987,0.0050043017,-0.13350546,-0.09706689,-0.065284915,0.054972224,0.09964574,-0.051130682,-0.029210273,-0.123482175,0.0332088,-0.108715616,-0.047606383,0.07606004,0.060846914,-0.057920728,0.010166463,-0.02745031,0.05072323,-0.10028737,0.12100377,-0.063407525,0.030544942,-0.08750003,0.07166211,-0.033869594,-0.13144277,0.0769627,-0.18000858,-0.09091519,0.052980304,-0.11843228,0.056176357,0.06961372,0.0152662955,-0.0035906648,-0.10487208,-0.016565401,0.036111828,-0.070699595,-0.06752415,-0.11225459,-0.014177116,-0.05944554,-0.0048568924,-0.02159452,-0.04487228,-0.23369503,0.037232544,-0.044949662,-0.20547703,-0.07232302,-0.018802421,0.048910685,0.072190575,-0.056109007,0.028830893,0.01593286,0.16460155,-0.084110476,0.029131593,-0.044032305,0.030090304,-0.03342117,0.010437358,0.0011917144,0.016825534,-0.03776589,0.007979723,0.08581072,-0.12584245,-0.008957897,0.12794214,0.0110278055,0.04489836,-0.06383409,0.0044731824,0.00070664217,0.08681692,0.07261113,-0.0113886185,-0.12404603,0.0001263608,-0.06232062,0.09510145,0.040750045,-0.016320424,-0.046455294,-0.05272582,0.06307691,-0.0069021676,-0.07654345,-0.0026518472,-0.0019350711,0.014622879,-0.044411734,0.03261539,-0.07461819,0.032972254,-0.043003336,0.07403751,-0.02477074,-0.043849614,-0.0022601828,-0.034409985,0.107973434,-0.10460937,0.022433639,-0.08068195,0.07113068,0.073185444,0.032128967,-0.040841583,-0.04011893,0.03616164,-0.0063525336,0.020445887,-0.15078224,0.11639905,-0.091826275,-0.012245448,0.019227779,-0.056571122,-0.06562234,-0.21123885,0.10925177,-0.0053625093,0.06511025}, {0.080582805,0.055904068,0.015775813,0.14782985,-0.062778905,0.016021093,-0.09008679,0.047824807,0.06191829,-0.03489132,0.04859647,0.064127766,0.022947466,-0.044001307,0.0803027,0.007917881,0.12253983,0.1206557,0.007419415,-0.01071862,0.10004148,0.03532912,0.013503638,0.025339385,-0.09068129,-0.008556353,0.014736144,0.13808906,-0.029382495,-0.050983462,0.0073101884,-0.10487164,-0.060056493,0.13849123,0.07099167,0.052089922,-0.040491812,0.1396139,0.052619983,-0.039043978,0.07925653,-0.013746655,-0.05624715,-0.081063904,0.052371025,0.046843614,0.0033588947,0.04228637,0.0206752,0.06901441,-0.0285539,0.12727371,-0.03416104,-0.0079777995,0.048625477,0.039486296,0.053841047,-0.011773783,0.04728891,0.05439996,-0.00895657,0.077425376,-0.043900117,0.012327965,-0.028574938,0.14629802,-0.035334114,-0.07852987,0.02645971,-0.049754936,-0.016812831,0.09628311,0.034060434,-0.04398459,-0.035809644,-0.007979229,-0.03915761,-0.00066355185,-0.0030213995,0.010577934,-0.054170214,-0.004187885,0.05897601,-0.024286587,0.04801717,0.06821429,0.041030146,-0.072577596,0.023669805,0.0327902,-0.085021086,0.008867291,0.13548955,-0.046013083,-0.1080387,-0.05453876,0.13149913,0.065052316,0.03138027,0.0011169985,-0.11000771,0.00796593,-0.14032131,0.10717881,0.051360913,0.03946791,-0.05028896,-0.070556074,0.054705564,-0.0054403353,0.008442353,0.005005269,-0.00048210728,0.07196386,-0.026078867,0.015274731,0.107568875,-0.08720587,-0.020083336,-0.098836936,-0.015948774,0.014707923,-0.025640564,0.03525611,-0.16072097,0.02289378,-0.028011113,0.021914257}, {0.07880058,-0.10483925,0.0014416609,0.0012276006,-0.025657585,-0.056581117,-0.0869313,0.0016426618,-0.03441021,0.05168367,-0.060156778,-0.08027282,-0.029477928,0.09577453,-0.122102685,-0.04622113,0.033585507,-0.121745825,-0.05913029,-0.021387512,0.09306041,0.03453871,-0.10407348,-0.07078004,-0.093416035,0.012817413,-0.10642867,-0.07184159,-0.09908329,-0.005169247,-0.08772541,0.04315353,-0.097477764,0.0067093717,-0.009822083,-0.094406806,-0.09486314,-0.014187846,-0.079354554,-0.12270811,-0.030523319,0.023094112,-0.08695855,-0.10622395,-0.015909119,-0.105118275,-0.07087097,0.14594927,-0.16582118,-0.017136944,-0.065441035,-0.04055961,0.04218322,0.009693295,-0.06599763,0.08489054,-0.058495376,-0.129007,-0.10996035,-0.02900572,0.05552827,-0.07730252,-0.02867964,-0.015582344,-0.04265666,-0.11377111,-0.14977668,-0.12893602,-0.048754573,0.026380235,0.021378031,0.010633107,-0.1124479,-0.075903945,0.015955955,-0.16296561,-0.061409783,0.019332252,0.11192002,0.08342824,0.044347286,0.026889842,0.07266091,0.06682182,-0.03250967,0.0425833,-0.009770091,-0.104331605,0.051475268,-0.110660434,0.06698788,0.043506622,0.032490432,0.0056228903,-0.058914397,-0.048913788,-0.05126463,-0.08100353,0.0007526439,-0.018589618,-0.06650252,-0.07207721,-0.120400205,-0.034839127,-0.04084324,-0.023640465,0.05581374,-0.028358722,-0.17945795,-0.05203648,-0.01667614,0.019062739,0.04299409,0.075305596,-0.053070035,-0.08050769,-0.001622873,-0.062585205,-0.0851019,-0.021988107,-0.19328055,-0.19790052,-0.070203856,0.02832756,-0.060076352,0.042383686,-0.052667197,-0.13734469}, {-0.15085618,-0.032531533,0.08751594,0.09603934,-0.052310906,0.022792378,0.0064725727,-0.018472536,0.022846004,0.040020198,0.024986077,-0.12529047,0.109099716,-0.124068156,0.053733747,-0.08577404,0.0035802242,0.115296304,-0.07963515,-0.056157015,-0.014708145,0.11525869,-0.03480535,-0.04459339,0.11696962,-0.12980472,0.07979741,-0.072926246,-0.10173502,-0.001815425,-0.09788539,-0.09468617,0.067388564,-0.15336528,-0.05607335,0.037271015,-0.054157224,-0.018709928,0.054534614,-0.030243803,-0.042038575,-0.03714117,0.03965976,0.107202664,-0.029109007,-0.027151993,0.04662778,-0.036063064,0.09122973,-0.013218286,-0.018830234,0.072867915,0.080636375,0.17132261,0.0074430895,-0.02628904,0.08096984,0.019415231,-0.032411177,-0.020374972,0.14266784,0.13314258,0.031259764,0.077468574,0.06471175,-0.012826783,0.052572068,-0.12728386,-0.026051642,-0.05885869,-0.04939925,0.09564978,-0.021024358,0.044980425,0.057786133,0.035604216,0.05872125,-0.0077048773,0.01213288,0.008911987,0.024941359,-0.13829096,-0.0088205775,-0.03872159,-0.0131591,0.034792215,-0.012167378,-0.04505368,-0.03686268,-0.117809914,-0.02957645,0.07608168,-0.023099402,0.06677727,-0.05263803,0.029141484,0.030920098,0.09936311,0.05317189,0.056955896,0.057401095,-0.06249063,-0.19320878,0.06951879,-0.026621953,0.05698095,0.048300248,-0.050961114,0.064178035,-0.03751249,0.044867314,0.034196787,-0.0035667606,0.088122465,0.027539201,-0.015032046,-0.020903064,-0.10074253,0.13623959,-0.06805451,-0.05208766,0.14954029,-0.014245373,0.0031687496,-0.09807153,-0.04292576,-0.12909324,-0.029926518}, {-0.009679064,-0.020976238,-0.104225144,0.13294367,-0.10280622,-0.003483506,0.052726354,0.0075226305,0.028833719,-0.040313546,0.13587104,0.0574072,-0.041937828,0.122300394,-0.015610137,0.02602463,-0.06270811,0.063053355,-0.05339182,-0.06164893,-0.053824455,0.044541217,0.05413357,0.003624031,0.028419133,0.046486206,0.058054667,-0.02565013,0.047929052,-0.046998978,-0.059946794,-0.10543924,0.022680929,-0.05078205,0.044630643,0.02943439,0.06271909,0.012399582,0.038544293,0.010844577,0.024110269,-0.11478397,0.10632959,0.0042143925,-0.09478272,-0.060293507,-0.055589236,0.053512283,-0.05848967,-0.009613686,-0.039751846,0.06433165,-0.029518312,0.02053134,-0.028428169,0.037926544,0.17731965,-0.023270167,-0.024236182,-0.023974556,-0.04445062,-0.0034828975,0.01171062,-0.1548513,0.012826879,-0.002102501,0.06743043,-0.023769075,0.01940376,0.016042558,0.09344951,0.007217128,-0.060783736,-0.075935796,-7.03641e-05,0.024167921,0.04478114,0.045679353,-0.010231987,0.13766053,0.027614046,-0.022570208,0.039722163,-0.14301297,-0.016443392,0.16910109,-0.010312418,-0.07069527,-0.009876652,-0.044098355,0.02329775,0.035953503,0.112442754,-0.12555446,0.05399409,-0.07328461,0.12696946,-0.012220608,-0.03221251,0.02648162,0.059226442,-0.0033944645,-0.18392281,-0.055665795,0.008970188,0.018622778,-0.009052181,0.019579306,-0.015779672,-0.037702147,0.017777896,0.08626995,0.05407524,0.014128095,-0.014407758,-0.07725218,0.067326814,0.017041977,-0.04843153,-0.03884898,0.050495677,0.022928538,0.012434809,0.09332535,-0.04898775,-0.13319835,-0.023114616,0.0816703}, {-0.016166506,0.01912143,0.10594083,0.041899946,-0.1107242,0.14471257,-0.04950142,0.053150147,0.0274468,-0.078508295,0.13226978,-0.061881375,0.021818247,0.018209664,0.07089511,0.035909932,-0.035746906,0.045190062,0.07784637,-0.028446825,-0.101830654,0.02524927,-0.03755854,0.059785154,-0.03143666,0.017662372,0.14631553,0.06373905,0.042090237,-0.016360616,0.09312211,-0.003972952,0.06909418,-0.015900394,-0.033519596,-0.049966343,0.03792599,-0.027314393,-0.028353537,0.05049315,-0.06564836,-0.03852651,0.09269432,0.048644736,-0.0066317157,0.0340357,0.02612517,-0.006605427,0.0040694494,0.042520415,0.121675864,0.08285529,-0.0023217523,0.03436493,-0.018514639,0.06936734,-0.06915552,-0.098868035,-0.005073507,-0.008097431,-0.008374091,0.047469888,-0.051184054,0.034546334,-0.054885086,0.06786745,0.085254125,-0.017788336,0.0174092,0.010902717,-0.010067933,-0.073371366,0.017445227,-0.040501684,0.09081134,0.17285916,0.030334737,0.105727054,-0.14313996,0.046189327,-0.05040563,-0.17971428,-0.09680959,0.069859885,0.067633435,0.15310368,0.18556872,-0.013794493,0.06733853,-0.040071383,-0.0875501,-0.008813125,0.06403183,-0.05159635,0.055252142,-0.03250671,0.091855474,0.027940778,-0.033027627,0.08979912,-0.01091328,-0.031590477,-0.11479468,-0.04689019,0.042690873,0.0481975,0.024582935,0.040619403,-0.12466189,-0.025767501,-0.03704946,-0.008535754,0.09750482,-0.014168393,-0.023461487,0.025793059,0.034673244,-0.03401622,0.10099784,0.060709428,-0.013409708,-0.13057916,0.016553147,0.05773658,-0.025672428,-0.10009193,0.059119347,-0.09757914}, {-0.09821052,-0.03178321,0.02529302,0.0037432974,-0.0778694,-0.08833793,0.02193208,-0.09860535,-0.10081002,0.050534245,-0.0007642329,-0.003739975,-0.109422706,0.059921175,-0.17897536,0.0074830796,0.13693066,0.10148824,-0.00538341,0.029674852,0.08386763,0.06786962,0.05559465,-0.05873257,-0.026284222,0.016590137,0.08725224,-0.022858137,-0.04717642,0.027041035,-0.053294025,-0.081539504,-0.05428772,0.07502476,-0.11573047,0.09125296,-0.022841765,0.1227435,-0.076202504,0.033833236,0.061708756,-0.14213964,-0.13789693,-0.07863851,-0.027064078,-0.03363546,-0.063352376,-0.04318586,-0.041732613,0.018137338,0.02962156,0.016054716,-0.12618443,0.026949078,0.117341354,0.00046866387,0.032539085,-0.09198529,0.012717759,0.07283881,-0.05694068,-0.050677374,-0.077608824,0.041725714,-0.13433838,-0.06574777,-0.05529976,-0.04081058,0.0802248,0.02625072,-0.09255657,-0.0073439935,0.07652533,-0.0023945246,-0.030993277,0.017901216,-0.019767871,-0.040257286,-0.021102512,0.029599486,-0.041057535,-0.028228924,-0.06395262,-0.10454578,0.022656314,0.028850425,0.0644375,-0.09584238,-0.035012666,-0.047113948,-0.015459453,0.044090178,0.059393547,-0.05262627,-0.0054684356,0.0077412985,-0.077490814,-0.013653774,-0.035509367,-0.042115763,-0.0757031,-0.07604811,-0.12379917,-0.06430825,-0.09474341,-0.052527294,-0.05807867,-0.110999145,0.073471084,-0.043662284,-0.049730178,0.053078778,0.037941657,0.18939383,0.043349594,-0.13640352,-0.08407182,-0.2261744,0.011177812,-0.020176703,-0.12958877,-0.0848589,-0.224471,-0.05312196,-0.047987152,0.12802747,0.02929098,-0.1515205}, {-0.07023575,-0.058802303,-0.032230135,-0.06524666,-0.005093468,0.12642053,0.0874574,0.13375811,0.02774451,-0.097701505,0.061569303,0.027484765,-0.021087106,-0.0028325743,-0.062817216,-0.038072158,0.016334012,0.022661725,0.0241997,-0.09376321,0.1560357,-0.09669856,0.088264294,-0.0085943565,0.009780837,0.032980956,-0.035658278,-0.02779338,-0.15174586,0.06486628,0.078004375,-0.083980165,-0.12968719,-0.039509088,-0.059894253,0.024398744,-0.047347832,0.06454997,0.16010523,-0.009562378,0.04642255,-0.016922615,0.015223795,-0.013701514,-0.10752388,0.00019427785,-0.020480944,0.047726076,0.06585234,-0.06123224,0.0040693725,-0.09691716,-0.048774518,0.015593003,-0.027298605,-0.04111447,-0.04698665,0.1359598,-0.008683035,0.13776465,-0.120234676,0.07629822,-0.08654571,-0.06386331,0.06915237,0.027802398,-0.10319628,-0.055205893,0.0051306463,-0.037259396,-0.1275144,-0.04407158,-0.003760506,-0.048373733,-0.09278171,-0.03971072,0.030773314,0.01680692,-0.17695647,-0.00046742102,0.07741771,0.08629918,-0.042554453,-0.04237823,0.068145216,0.0447409,-0.039993852,-0.03705681,-0.13368014,0.069833085,0.092202194,0.03858546,0.0016853302,0.03153558,0.043836124,0.029900717,0.01406048,-0.022133319,0.09164067,0.12976915,-0.030905101,-0.03404098,-0.06817923,-0.07604986,-0.07222075,-0.031742215,-0.11918765,0.023460252,-0.035357438,0.117824115,0.07296459,0.10509778,0.07250873,-0.09531937,0.063244045,-0.0011314448,-0.07194985,-0.005116679,-0.080819115,0.085892,0.16500214,-0.088838235,0.023962272,0.066110715,-0.03643923,0.0019222402,-0.06592862,0.06146673}, {0.03509158,-0.01617528,-0.08779284,-0.054405395,0.055219878,0.0033155056,0.06313214,-0.056974463,-0.0791747,-0.010879053,-0.0148606,-0.041149966,-0.052771717,-0.05515304,-0.19061963,-0.07314036,0.018757612,0.18605794,-0.034490164,-0.0856864,-0.032266293,-0.07051795,0.02727701,-0.033742897,0.029422916,-0.091464005,-0.12404387,-0.08275713,-0.017862123,-0.04981363,-0.0058696805,-0.0066166134,-0.0837861,-0.18542245,0.06737095,-0.1315496,-0.018407663,-0.041426107,-0.13683851,-0.021454135,0.07837047,-0.09640625,-0.011790561,-0.04458192,0.05303174,-0.13846186,0.051176857,-0.07920386,0.031435687,-0.039661556,-0.052627917,0.095827356,0.0014637487,0.06023677,0.15367715,0.050729126,0.012087278,0.057762064,-0.014319308,0.08085366,-0.13442935,-0.00010565441,-0.007235594,0.030668775,-0.07259363,4.830945e-07,0.0039909473,-0.034406036,0.0074921027,-0.17076094,0.010041184,0.06532959,-0.051732242,-0.067373976,-0.06798785,0.097116314,0.037920196,0.061824676,-0.014760239,0.11937178,0.04330685,0.09165012,0.0930945,-0.031613085,0.0409533,-0.09425559,0.068285,0.034827344,-0.09030802,0.024915248,-0.07333483,-0.05057684,-0.06485872,0.19242169,0.07030952,0.012318449,-0.09311253,-0.038352612,0.123700336,0.102060504,-0.09774628,-0.07362277,-0.035796873,0.08279181,-0.1389482,-0.20877555,0.014666651,-0.07223942,0.026680632,-0.056240145,-0.074995056,0.05623479,-0.08521884,0.0843479,0.061018243,0.16152865,0.025427857,0.07193873,-0.105533674,0.026535619,0.04118907,-0.10817193,0.04477055,0.008857664,-0.1384953,-0.09656884,0.02006316,0.16848062}, {0.01929379,0.019268492,-0.14134556,0.0024260418,-0.042978276,-0.04440672,0.069858156,-0.109254345,-0.026565539,-0.25039175,0.019676792,-0.09497968,-0.05503703,-0.12281776,-0.016048344,0.0118167605,-0.069591835,0.025141355,-0.032116853,-0.042832058,0.0012265253,-0.13209093,-0.060754392,-0.028966047,-0.016062478,0.08709279,-0.014687114,-0.06375685,-0.17220095,-0.034204297,-0.15682286,-0.06408345,-0.059513614,0.20061076,-0.07304808,-0.0024173807,-0.07305913,-0.009729878,-0.075159304,-0.13096254,0.025683308,-0.07044681,-0.016564287,-0.06955052,-0.12430154,0.018914025,0.07589442,0.0439427,0.02236004,0.04907078,-0.07907117,-0.030614426,0.052059725,0.08203753,0.046290997,0.042230435,-0.101229355,-0.022783764,0.15955716,-0.16514127,0.027891774,0.10151139,-0.0729885,0.013786261,-0.05881214,-0.08841082,0.11388161,0.010193559,-0.100056246,-0.07696199,-0.031348642,0.15371566,-0.02946017,-0.11782604,-0.03065161,-0.13194357,0.07870045,-0.043532833,-0.035686824,-0.02801638,-0.026995532,0.013222207,0.00036884012,-0.11539193,-0.02157148,-0.11209947,-0.09614809,0.017137896,-0.04226102,0.021016246,-0.01151247,0.07947508,0.021802962,-0.010826424,0.042337455,-0.018008787,-0.07822939,-0.07905393,0.09377283,-0.019217165,-0.1487635,-0.14007804,-0.007816936,0.07695705,-0.13385968,-0.00017317344,0.0032519072,-0.085374095,-0.092094146,0.07020079,0.060356513,0.07306188,-0.00013860683,0.06995512,0.08586624,-0.09992724,0.0066324524,-0.15521172,-0.023895986,-0.07271798,-0.0720941,0.036947757,-0.12019752,0.05621097,-0.16375183,-0.06010804,-0.026286535,-0.018702231}, {-0.040408723,0.0928267,-0.029120997,-0.070002794,0.008248341,-0.05486396,-0.12970743,0.07100244,-0.024301639,-0.013918914,0.0006051832,-0.07984646,-0.005323509,0.102196634,0.017765708,-0.022388335,-0.09469069,-0.054863185,-0.026415212,-0.02745114,0.0017417171,-0.033528216,-0.01343618,-0.014819948,-0.01929053,-0.0038151375,0.010456465,0.10893229,-0.029263947,-0.073859975,0.074218914,-0.07023342,0.17029627,0.051681202,-0.07726494,-0.039238576,-0.046840686,-0.0009156535,-0.008275595,0.0051478324,-0.05618355,0.134247,0.04681623,0.031949583,-0.086347885,0.00326628,-0.04061897,0.064744174,-0.103922695,-0.07634638,-0.027850756,0.02742901,-0.07066091,-0.10462536,0.02021145,-0.004774588,-0.1614626,-0.03420122,-0.102433205,-0.023067603,0.106087565,0.060223892,0.19885276,-0.035485443,0.07564021,-0.077800624,-0.02341282,-0.028138993,-0.014157906,0.040343005,0.07264356,-0.0072136954,-0.11125742,0.009716283,-0.051417783,-0.009654493,0.0012652803,0.117971115,-0.11177355,-0.06465865,0.033217873,-0.15026963,0.05459561,-0.060404878,-0.0295126,0.040829048,0.032155473,-0.02795477,-0.06668825,-0.082108356,-0.03844755,0.098846406,0.021955369,-0.043798465,-0.025215207,-0.035594843,0.033424534,-0.013647981,-0.017925227,0.06882809,0.019250935,-0.15657562,-0.078073576,0.102401875,0.026534116,0.049907457,-0.030678023,-0.014196815,-0.082599185,-0.05992199,0.043015677,-0.068735845,0.034712393,-0.04747473,-0.13135938,-0.10889826,-0.04368403,-0.03539847,0.0011488326,-0.07315852,-0.07556914,0.023483336,-0.0075379927,0.06386614,0.03193782,-0.04998588,-0.14583865,-0.05836348}, {0.11190275,0.12663352,0.18646386,-0.065562725,0.0011962401,0.13619414,0.06830372,-0.084427476,0.026345434,0.090919994,0.09638989,0.04099442,0.043099627,0.04373545,-0.023999915,0.08209449,0.021978727,0.030783866,-0.14358468,-0.04986161,0.045505095,0.1524136,0.15635641,0.10139736,0.12257448,-0.042761244,0.07199368,0.09605487,0.06938477,-0.0076291226,0.13650416,0.04551443,-0.026716463,0.033066597,0.19653694,-0.043778826,-0.04113936,0.082739204,0.16255614,-0.0042460235,0.039427876,0.013840254,0.07017466,0.11078076,0.08990251,0.06477376,0.061221577,-0.10189934,0.013705151,-0.0043102587,0.05566953,0.016441695,-0.045565978,0.07769061,-0.089566275,-0.090441614,0.06028101,0.15528747,0.08868002,0.08960486,0.08392035,0.03286008,0.19194606,0.106695466,-0.016673615,0.09373023,-0.010482512,-0.019170137,0.10009539,0.10512675,0.14591253,0.20946006,0.02903348,0.064190716,0.12251272,0.12070269,-0.036994334,0.06046297,0.07493433,0.08908007,0.051739972,-0.13522223,0.007618831,0.098460205,-0.002080308,-0.015020786,0.09119907,0.04406942,0.04634292,0.09238782,-0.08300982,0.09188443,-0.05565268,0.07726591,0.15529878,-0.024047729,0.16302109,0.16258217,-0.0034696416,0.05888523,0.14183116,0.09383095,0.028874952,-0.014628119,0.07502218,0.03485304,0.08425221,0.0792805,0.02020023,0.051287897,0.06918474,0.06915805,0.0017734927,-0.07183214,0.09691292,0.039908674,0.2020013,0.12382879,0.0725847,0.14616472,0.07219464,0.15389098,-0.026918901,0.03695979,-0.02195965,-0.042911083,-0.075274415,-0.014817903}, {-0.0138535015,0.01182279,-0.105224796,0.07015388,-0.02765202,-0.009534245,0.011949106,-0.2013265,0.030163487,-0.13347164,-0.004736648,-0.051749036,0.014725545,-0.094022475,-0.049904693,0.015470285,-0.07227959,0.022210872,-0.100472085,-0.052934244,0.042451374,-0.029855821,0.03828349,-0.021582767,-0.12712917,0.015253396,-0.008657716,-0.05421877,-0.050072722,-0.060122166,0.025302885,-0.026193405,0.010638202,-0.07231486,0.06531049,-0.07942467,0.019541238,0.077422455,0.062800564,-0.038454607,0.06874366,0.008599917,-0.19010901,-0.16593206,-0.10859751,-0.044792123,-0.03131145,-0.022595141,-0.054171678,-0.0001692886,0.044300284,-0.022174308,-0.011016114,0.03677573,0.060740124,0.0922794,-0.050591372,-0.045478344,0.07878543,-0.08448125,0.038931508,-0.040632665,0.023530886,-0.1139691,-0.20390376,0.051420692,-0.051152036,-0.050047364,0.016848385,-0.040493894,-0.07723442,0.03282451,0.0108312955,-0.10263308,-0.1407289,-0.02210458,-0.102236316,-0.142067,-0.056178346,-0.052223913,0.07013924,-0.042356096,-0.121792115,-0.19041905,-0.04079474,0.021191431,-0.039449047,-0.030813185,-0.21303214,0.067895964,0.01060587,-0.073635906,-0.07204119,0.03399431,-0.030030392,-0.12482459,0.0028952437,-0.014819093,0.0790494,-0.0030091517,-0.04378587,-0.09775681,-0.1449818,0.12499232,-0.10544764,-0.1838956,0.0389917,-0.11440793,0.04173979,0.05226095,-0.014549384,-0.08685714,-0.037702996,-0.015614921,-0.011331613,0.055808082,-0.06251096,-0.037937764,-0.026706317,0.08643901,0.18525377,-0.06661146,-0.09946387,-0.06529785,-0.08178208,0.017319744,0.00431678,0.027425064}, {-0.07816259,0.005077785,-0.034978162,-0.03815986,0.0046482165,-0.019788167,0.005663238,-0.0001658558,0.0051312447,-0.07812443,-0.028718757,0.047023762,-0.055789933,0.09746874,-0.039060537,-0.06742723,0.032117784,-0.088043496,0.002831335,-0.029649466,0.040326692,-0.05263913,0.074608445,0.0037411689,-0.10569736,-0.025308445,-0.110477984,0.010094985,-0.046404514,-0.12816444,-0.07757734,-0.26017913,-0.118773356,0.011389852,-0.08180431,-0.040014163,-0.010785683,0.0813146,-0.004952664,0.011312931,-0.08947747,-0.13017464,-0.06532924,0.04091785,-0.08947053,0.11300685,0.091761,0.014317442,-0.013276898,-0.015134579,-0.08194039,-0.047489926,-0.08315327,0.033945955,0.07963489,-0.06318096,-0.028485255,-0.10668207,0.0962493,0.060003955,-0.06489851,-0.03510846,-0.05865223,-0.055568058,-0.050755266,-0.08525183,0.08419479,-0.06458714,0.0058231186,0.013408117,-0.11467928,-0.070090055,-0.02081459,-0.14129288,-0.02431505,-0.06446864,0.031755175,-0.09432201,0.06927837,0.019869918,-0.11044414,0.0143426405,0.06536025,-0.15223682,0.10473634,0.065195076,-0.1005564,-0.08569149,0.08938629,-0.028245425,0.02724279,-0.037432246,0.0013689848,-0.077519014,-0.11854333,-0.0630326,0.017118696,-0.14247346,0.12695512,0.11524631,-0.016704408,-0.012740593,-0.05731745,-0.016207255,-0.1641112,0.07046468,-0.058031783,-0.03608984,-0.109600924,-0.07206423,-0.045469616,0.07630562,-0.004838974,0.07169714,-0.05472047,0.0051204446,-0.1366318,-0.030182904,-0.025089344,0.048200857,-0.078100875,-0.054621536,-0.08571834,0.0323142,-0.05371935,0.02774817,0.1280202,-0.086844645}, {0.09268432,0.03935267,0.10747588,-0.052328818,0.02491463,0.008077709,-0.18312137,0.12271596,0.021804674,0.12174093,0.054066543,-0.05886044,0.006214315,0.17359515,-0.0059604105,0.003306575,-0.073679276,0.12214068,-0.04190987,0.034325942,0.00187954,0.055959456,0.03534803,-0.09044715,0.048405733,-0.03733819,0.092195086,-0.092204735,0.045019884,-0.03945933,0.0013644726,0.12961705,0.034282155,0.0617162,-0.10060203,-0.007912956,0.073442064,0.11242909,0.09252057,0.065217234,0.0089678755,0.08993203,0.10983534,0.09469295,0.13238294,0.03941458,-0.012130225,0.040599544,-0.051870465,0.01847188,-0.024221575,0.06910702,0.09661141,-0.05759134,-0.11697033,0.016479418,0.123295546,-0.13794446,-0.08270876,0.03450703,0.06341275,-0.14685158,-0.17560154,0.119397365,0.15166773,-0.059710696,0.12633537,0.08317561,0.007280622,0.092137866,0.060151763,0.015982628,-0.07373878,0.05494894,0.031684082,0.1516928,0.09552212,0.018288514,0.12222102,0.0146122845,-0.029161721,-0.021314315,0.079103,0.11424597,0.009731729,0.09893368,0.1592955,0.061387185,0.116476595,-0.053877473,0.03704374,0.13222401,0.030582298,0.05346969,-0.043373372,0.04897816,0.093389526,0.08007477,-0.07377859,-0.08676932,0.16471349,0.06384871,0.090429075,-0.026101451,0.06141302,0.057130177,-0.013099697,0.15256327,0.015670106,0.018446231,-0.09936813,0.053755246,0.03591041,-0.036185347,0.034909472,-0.1080503,0.00013096933,0.039540697,0.033794727,0.06577915,-0.12560357,0.08288389,-0.03078975,-0.043658156,0.034406293,0.13567862,0.034530982,0.079944536}, {-0.011029699,-0.013067986,0.106184185,-0.02235781,-0.06993803,0.09535154,-0.0935417,-0.022407442,-0.12618089,0.16976172,-0.02492458,0.0560364,0.030741127,0.03166077,0.07724985,-0.037473537,0.07151562,0.11486161,0.009699923,0.20070034,0.09837354,0.116774626,0.005593299,-0.03136671,0.04847417,0.06955346,0.008174252,0.15107864,0.057504687,0.04858918,-0.06115896,0.121917225,0.020612875,-0.050637532,-0.03038844,0.02552994,-0.09408377,-0.0787729,0.07031135,-0.043910366,-0.0070231343,0.012943388,0.0348526,0.02048086,0.01919583,-0.06450592,-0.00055369874,0.09901805,0.04671133,-0.050519787,-0.03106099,0.09963947,-0.024695346,0.017433925,-0.036269676,-0.06436637,-0.010366246,0.0017994406,-0.12539,0.09397478,-0.053178955,-0.08151775,0.029780453,0.07512717,-0.075064585,0.046741266,-0.10028777,0.1379877,-0.023190768,-0.03285398,-0.012372323,-0.08487162,0.0005352037,-0.017957741,0.16734193,0.12235509,-0.0061101946,-0.022086965,0.06580267,-0.008775762,0.059859544,0.043425605,-0.021570789,-0.0291723,-0.0019495208,0.08011403,0.02444283,-0.0036919164,-0.07691688,0.033255264,0.046658974,0.08870718,0.08615887,-0.019710151,-0.0054964838,-0.010596665,0.10168327,0.02733521,0.012542311,-0.056470007,-0.037521,0.08955635,0.009115003,-0.010360576,0.09805167,0.04837971,0.08933926,0.09798797,-0.03991377,0.047985073,0.00023071375,-0.060099017,0.104356185,0.026222207,-0.035222504,0.047177155,-0.022993539,0.05271923,0.058226425,0.09987627,-0.056602284,-0.05764323,0.009953246,-0.03739918,0.02351626,-0.02875821,-0.034796003,-0.006984831}, {-0.018618342,-0.122372866,-0.035856184,0.01930106,0.14727116,-0.03287032,0.011636661,0.031078922,0.096306786,0.037110012,0.10952368,0.095903866,0.08631273,0.043564737,0.04253558,-0.014870099,-0.017448047,0.007865978,0.068078004,-0.06349333,0.022259826,0.007078902,0.04925676,0.051354595,0.14804709,0.1393027,0.058383573,-0.053541277,-0.13930008,0.06488517,0.06301864,0.03141954,-0.03209463,-0.058944754,0.06629078,0.106869295,0.107898876,-0.015212273,-0.06577925,-0.03157674,-0.005688169,0.01787922,0.057517767,0.06276304,0.10418949,0.07200934,-0.0021711108,0.009306091,0.05086735,0.024141556,0.050267037,0.1619322,-0.03439715,0.004882554,0.053852335,-0.08893714,0.082314156,0.06567449,0.052703857,0.050845806,-0.024686065,0.040665396,-0.07813282,0.044453133,0.07273351,-0.03033974,-0.09536892,0.019720461,-0.027246106,0.04484321,0.07016955,0.04430887,0.016104344,0.02170134,-0.020219076,0.02465378,-0.069676995,0.15009569,0.08195442,-0.034438863,-0.009499357,0.024170939,0.15691333,-0.071617916,0.021413818,0.042953074,0.12645847,-0.10934371,-0.097094946,0.0095962295,0.09599065,0.06769524,0.010353369,0.115797594,0.14141351,0.14400955,0.035466798,-0.030219778,0.18352997,0.07593877,-0.032049082,-0.03488413,0.043991104,0.023737017,0.03984992,0.0072331377,-0.06754949,-0.055468112,-0.033516534,0.22052862,0.05419143,0.06524071,-0.036221284,-0.05761987,0.0033133733,0.034321617,0.035284128,-0.044905685,-0.010635755,-0.04871823,0.07766335,-0.11613576,0.26151517,-0.04385374,0.05987023,-0.015367428,0.09572571,0.03281021}, {0.052433856,0.032467756,0.032173194,-0.123778425,-0.108918235,-0.05191517,-0.015730198,-0.060623135,-0.035431042,-0.19765778,-0.03390187,-0.0135838315,-0.034138143,-0.05990327,-0.07200823,0.043744847,-0.0042190095,-0.03845106,-0.047313556,-0.0140778795,-0.09610081,0.014303029,-0.03841076,-0.048918314,-0.15765741,0.035443224,0.12216735,-0.044982906,-0.07408529,0.01038947,0.043552674,-0.12241881,0.048539303,0.11070757,-0.0061438414,-0.05751959,-0.06233665,-0.055521548,-0.0027585544,0.07311341,-0.04886615,-0.012770985,-0.11464525,-0.018820364,-0.0038084139,0.013673806,0.07318629,-0.056597404,-0.01329882,0.03913103,0.14381605,0.03150042,-0.083269,0.019785194,-0.060780738,0.0646814,-0.020033361,-0.02477376,0.07877739,-0.07490074,0.038057175,0.080652446,0.016583951,-0.0810739,0.05745747,-0.09014854,0.035861906,-0.11754374,-0.03016217,0.028642712,0.07141815,0.017775211,0.017233059,-0.005181091,-0.08225193,0.008445077,0.06530133,0.08141615,-0.06988549,-0.06611557,0.050526816,-0.018158829,0.11086245,-0.066968665,-0.035015784,-0.08381067,-0.06148549,-0.012391912,0.15273039,-0.074147895,-0.14101838,-0.063660644,0.019948347,-0.1040235,0.10172712,0.08100594,-0.07543569,0.086973116,-0.033668865,-0.047294237,-0.021212336,-0.029126614,0.063325234,-0.016172986,-0.026044939,-0.047452904,-0.0065213703,-0.11432459,0.048491392,0.017037533,-0.07010022,0.024680246,-0.012114997,0.11569736,0.007325216,0.018677598,0.09477805,-0.009434708,-0.07084271,-0.035569414,-0.06799283,0.121049576,-0.007936169,-0.05397439,-0.08893495,0.026986761,-0.037249774,0.0050101923}, {-0.0084895585,0.012784103,-0.011419711,0.08819777,-0.0060225357,-0.06592556,-0.026920937,-0.010850334,-0.02526849,0.060589768,-0.0118292095,0.040750634,-0.06045423,-0.0034832004,-0.18775572,-0.028145052,0.017528147,0.12776452,0.007989983,0.10464722,0.0015808218,-0.020245086,0.14433543,-0.01725907,-0.09429976,-0.037281897,0.08666419,-0.042793237,-0.02053714,0.08898053,-0.045334846,0.010486938,-0.08534675,-0.002017079,-0.02589404,0.03094122,0.08480059,0.14675032,-0.04306165,0.053935744,0.124041915,0.09086393,-0.058520548,0.05008177,0.05044367,0.035266012,-0.0037387135,0.035619657,0.05539027,-0.0069407015,-0.00023086031,0.01906801,-0.06590115,-0.030994272,-0.0030792905,0.029927338,0.07254044,0.108681686,0.0054703313,-0.034706715,-0.06396441,-0.01959674,-0.045514196,0.11040289,-0.0017128586,0.0019661065,0.0047019324,0.15070169,-0.011367797,-0.0008155209,0.057732098,0.12431899,-0.010232372,0.06823455,-0.039272077,0.013875122,-0.014905863,0.10571273,0.04901898,0.018811455,0.07419146,0.052167583,-0.04272803,-0.08565833,0.0063233864,-0.056258284,0.013700878,0.08423504,-0.011791522,0.01792577,-0.117113836,-0.011307371,0.14054285,0.0044175237,0.013366444,0.062784515,0.039165277,0.11449046,-0.054811493,-0.015660752,-0.052257787,0.0256918,-0.023447461,0.08902973,0.045021076,-0.09893677,0.010737454,-0.12073794,0.122148685,0.038051523,-0.059285477,0.0010421665,-0.060024843,0.022139363,-0.030851655,-0.038586374,0.037807506,-0.0801266,-0.018158557,0.18276794,-0.0053233276,0.008821608,0.014663225,-0.0023352096,0.029905668,-0.00022808032,0.080141634,0.10642524}, {0.029745983,0.004109957,-0.03960814,0.04527054,-0.037333842,-0.14392053,-0.044026084,-0.06272872,0.027731907,-0.057567153,0.007959392,0.041402448,0.0068036504,-0.06053166,0.020153085,0.11679912,0.0490432,-0.02232636,0.040247224,0.058695797,-0.04906398,-0.04877351,0.032927807,0.0442944,-0.041714255,-0.119096585,0.007173675,0.099296235,0.060331766,0.058404535,-0.03671038,0.042561293,-0.1332236,0.051370203,-0.050745904,0.004550481,0.051958166,0.008124549,-0.08034988,-0.0234217,0.063682765,-0.03275053,-0.14624467,0.08388287,0.13830799,0.054376844,-0.067634575,-0.057118885,-0.019319033,0.015107227,0.1714277,0.044740215,-0.007259246,0.0044223377,0.09628277,0.09879536,0.009855262,0.021720663,-0.025752502,0.044807523,0.07878458,0.07187375,-0.042419586,-0.080562584,0.038145885,0.016265823,-0.12277278,0.008281741,-0.13540998,-0.043288704,-0.07416643,0.082195155,-0.0757156,-0.0043895845,-0.055795502,-0.06336317,-0.15826896,0.051433112,0.0343216,-0.121786505,-0.019291736,0.031431317,0.11111691,0.01174666,-0.06426579,-0.087753855,-0.08650024,0.060837183,0.2206539,-0.1059294,0.03435538,0.051203888,-0.06283395,-0.021055218,0.003841545,0.008771467,-0.06245264,0.0125551475,-0.118841246,0.025146719,-0.07824772,-0.019145252,-0.02755148,-0.027124163,-0.00086602196,-0.105598465,0.028125258,-0.13422382,0.0492849,0.047603942,-0.060299315,0.008441343,-0.0904043,0.104928695,0.061428323,0.080693305,-0.0046141315,-0.0009373841,-0.07974584,0.07040943,0.009790221,-0.087937534,-0.03916819,0.05968168,-0.009697148,-0.0080013815,-0.022337386,-0.068170376}, {-0.04603321,-0.048745766,0.07969998,-0.057257257,-0.0023387219,0.0826652,-0.0021203242,0.08680892,0.031577446,-0.05382767,0.053931464,0.04346563,0.061681677,-0.124808125,-0.03387884,0.097871125,-0.030988209,-0.12513782,-0.029650116,-0.011903658,-0.015277608,-0.034449663,-0.15510294,-0.014714067,0.012128187,0.009281016,0.010700435,-0.06332164,-0.041722015,0.09171388,0.0055599213,0.09701115,-0.018649723,0.020050723,0.010533292,-0.024839476,-0.039844036,-0.0072578546,0.077486336,-0.12767424,0.020840947,0.047706172,-0.104672395,0.045821227,0.04793404,0.09862918,0.031942297,0.005047929,-0.04354417,0.07989827,0.047484573,-0.083365574,-0.007237911,0.08557428,-0.07462707,0.003499706,-0.002082035,-0.041839592,0.03134692,0.008126299,0.118201435,0.00095417624,0.09447096,0.021739664,-0.092285335,0.039544675,-0.03656193,-0.09489955,-0.024626795,-0.04287241,-0.015955772,0.09553872,0.031118236,-0.043480176,-0.020937352,0.04120165,0.042004045,0.052771024,-0.05817089,-0.024925921,0.025230352,0.0015876242,-0.08499222,0.014157586,-0.14122999,-0.09382794,-0.09830052,0.122632794,0.068836346,-0.025381884,0.023870222,-0.016812304,-0.12115706,0.06846535,-0.011142577,-0.075275466,-0.0453185,-0.10069613,-0.11275805,-0.035130616,0.08789147,-0.0308227,-0.0710001,0.077755466,-0.007960552,-0.07685359,0.0919188,0.02906998,-0.005654985,-0.08331373,0.04655404,-0.038335547,-0.031743225,-0.13908745,-0.09066159,-0.06859466,0.044576228,0.04773576,0.104789294,-0.080916576,-0.01352021,-0.06013757,0.09567531,-0.04634905,-0.038653098,0.050774444,-0.07999092,-0.07925201}, {-0.0557881,0.05019524,0.09427812,0.020441366,0.030094799,0.13043195,0.08234482,0.07742428,-0.08327097,0.1028976,-0.03835186,0.04535545,-0.050413214,0.07291642,0.024717418,-0.048445497,-0.025960844,0.06315571,0.08813092,0.06852006,-0.14349267,-0.022518583,-0.25510442,0.09983778,0.07939748,0.06448739,0.07022886,0.017952178,0.10489786,-0.05536991,-0.08715884,0.003161349,0.020498207,0.09095434,-0.067384556,0.017785622,0.051410932,-0.02424653,0.032641836,-0.043280985,0.015856372,-0.0024482422,0.18820219,0.04597681,-0.055035632,-0.029930482,-0.10542788,-0.015320454,0.027327184,0.05598516,-0.0077685015,-0.08104102,0.17329836,-0.00717426,-0.14527646,-0.13337637,0.14123227,-0.035944253,-0.052020602,0.07949918,-0.020779554,0.002457907,-0.03927882,0.033222698,0.020875348,-0.035176758,0.09019886,0.011603135,-0.023111856,0.012555625,0.04785879,0.11786997,-0.008968407,0.094939746,0.14750573,0.019644553,-0.037030138,-0.05581044,0.1092278,0.087491095,-0.06330398,-0.025314966,-0.0765231,0.08629089,0.100730546,0.17850593,0.07594701,0.02486937,0.12422855,-6.592809e-05,-0.008087051,-0.02310078,-0.0076160543,-0.08183129,-0.0009214133,-0.00017810508,0.060639378,0.00070397975,-0.060728148,0.0056639244,0.08265746,0.088205844,0.08917485,-0.018080229,0.24891555,0.15613729,-0.06330701,0.030844145,0.11804228,-0.0019484718,-0.08527721,0.026773678,0.118580595,0.010559469,-0.09783196,0.046888817,0.035581514,0.11900033,0.06359205,0.025852779,-0.060167417,0.072185226,0.09995796,0.003506763,0.06559219,0.020823035,0.04729788,0.06556778}, {-0.004349399,-0.026597722,-0.029572722,-0.14595988,0.06512788,0.008094625,0.07393022,-0.026888467,0.032878485,-0.052685026,0.0840615,-0.04497434,0.08288581,-0.03925402,0.046060782,0.080894984,0.008026798,-0.065743044,0.09699956,0.10027332,0.06863884,0.09998843,-0.061533067,0.10604123,0.18429598,0.011281561,-0.02136479,0.06952577,0.16260917,0.06004115,0.057427436,0.23195569,0.051400863,-0.026595559,0.044141043,-0.048888933,0.09656869,-0.02538223,0.14176928,0.09284597,0.049324106,0.032055423,-0.0007157774,0.07870233,-0.0042037703,-0.08492878,-0.04466296,-0.1982284,0.1682235,-0.043964833,-0.06161446,0.007210171,0.0128941825,0.12391828,-0.022336941,-0.0065903156,0.039645314,0.114429645,-0.09259087,0.090851635,0.0028433793,0.033956703,0.12887737,0.035473872,0.05988216,0.0045823823,0.06109923,0.03591677,0.030427407,0.064949855,0.06634174,0.07374517,0.0414651,0.06681542,0.080908254,0.06744137,-0.04617267,0.016956126,0.037002943,0.044384476,0.11557387,-0.062467173,0.025699252,0.11254053,0.14930949,-0.12907362,-0.015359408,0.051657643,-0.009101304,0.07163636,0.07343989,0.02041872,0.030431911,0.098033905,0.10346195,-0.07809202,0.05592575,0.018541744,0.14279798,0.062466737,0.11045914,0.08209323,-0.0034019498,0.071158126,-0.07397377,-0.04271089,0.047665466,0.08933496,0.056871865,0.03150022,0.056452896,0.06661209,-0.008962337,-0.0025548497,0.023803309,-0.050890636,-0.020814024,0.11933225,0.07138427,0.02981987,0.18487926,-0.015400189,0.085748695,0.052434396,0.040251985,-0.01966177,0.057772867,0.045293365}, {0.15707633,-0.014896649,-0.019371007,0.035070114,-0.026878817,0.017858453,-0.082599066,-0.043600883,0.054336503,0.10845502,0.017289877,0.05726032,0.07922552,-0.01869439,0.021755667,0.024741672,0.09206804,0.12731722,-0.07953792,0.16462786,-0.021607509,0.04591211,0.08269934,0.0087044975,-0.007340113,0.056144476,0.080355786,0.03607789,0.02811168,-0.12458256,-0.13141717,0.103024915,-0.086547956,-0.058430284,0.0055175177,-0.07163193,0.059802223,0.08276287,0.11386034,-0.03084641,-0.03328018,0.023548277,-0.0535378,-0.054218672,-0.083271645,-0.080344364,-0.094970524,0.083915286,-0.013807077,0.011542642,-0.015085822,0.010343402,-0.11582945,-0.03111175,0.05329716,-0.02307468,0.03052138,0.016417451,-0.011571108,0.045381416,-0.13967617,-0.02357175,-0.1559641,0.13738737,-0.019567957,-0.096888535,-0.020349981,0.080808096,0.027557751,-0.05760378,-0.03907022,-0.013196132,0.029718582,0.10220079,0.002075566,0.051212896,-0.098483674,-0.02373522,0.059886377,-0.067644894,0.060809914,0.027732577,-0.10203168,-0.14218673,0.17884362,0.015325576,0.26468682,-0.07058334,0.07476304,0.08413475,0.026879279,-0.12588899,0.0056909267,0.021517012,-0.040971875,-0.01680578,0.09295952,0.048569527,-0.029075634,-0.05832676,0.058358915,0.009352331,-0.10343392,-0.14621432,0.058628317,-0.060974106,0.06162885,-0.022897646,0.08677809,-0.07700199,0.029225836,-0.027261995,-0.01036956,0.056494478,0.042876188,0.10087434,0.049975473,0.031695757,0.010621832,0.16508962,0.033799186,-0.20859134,-0.016158974,-0.086243786,-0.01846086,0.00798369,0.15520489,-0.0062642256}, {0.09273869,0.03251191,-0.06624051,-0.013659608,-0.048293754,-0.06895598,-0.04857701,-0.12509857,-0.13310131,-0.11340691,0.00083949685,-0.10315379,-0.11890487,-0.05821314,-0.0059753107,-0.012570872,-0.08429165,0.011820818,-0.003245185,-0.10402525,0.1385537,-0.045604143,0.046434045,-0.095133826,0.113819815,-0.01819438,-0.046301417,-0.025329411,-0.063908115,-0.00517697,0.034991357,-0.03667266,-0.12182331,0.0061676623,-0.056242913,-0.0067954757,-0.035894655,-0.11036074,-0.013800355,-0.06957752,-0.05509838,-0.10552262,0.09912655,0.16499825,-0.060841404,-0.15237239,0.048338495,-0.10486833,0.06956575,-0.04191861,-0.10681068,-0.027917251,-0.008241264,-0.05285582,-0.052541398,-0.07712588,0.06245744,-0.018848522,-0.10046546,-0.03876887,-0.0105995145,-0.031822037,0.11318889,0.0348322,0.18446955,-0.0464518,0.11558126,-0.021079622,0.12733112,-0.012412175,-0.12710251,-0.055931885,0.03441811,0.0021337916,0.01407487,-0.05954571,-0.044067077,0.043282073,0.09552913,0.094207734,-0.0059472616,0.0566055,-0.08754335,0.0039291894,0.036830388,0.07359238,-0.017183825,-0.027944857,-0.08713392,0.06636164,-0.04522503,-0.082063146,-0.102117784,0.16757813,0.052335586,-0.05124879,-0.052381758,-0.06582401,0.008672869,0.027888728,-0.093880825,0.007104626,-0.08430174,0.049491923,0.006409727,0.17878026,0.029391443,0.11090891,0.088270634,0.023485713,-0.08835021,-0.059318718,-0.014401243,-0.0052400283,0.006694158,-0.09297937,0.031039631,-0.08107979,0.17096183,-0.052192453,-0.0739044,-0.051454015,-0.06494313,0.01782956,-0.104133874,0.053758,-0.08010032,-0.110197365}, {0.05574891,0.024544217,0.037184034,-0.042951494,-0.038803283,-0.04868078,-0.054202516,0.07332679,0.07007899,0.08174692,-0.035735436,0.033266805,0.09933849,-0.05559449,-0.01093546,0.10110032,0.0058741244,-0.037031624,-0.0753351,0.07145083,0.005407366,-0.02793254,-0.13401942,-0.069711946,0.104172334,-0.09083398,-0.14301051,0.031855658,0.035601582,0.054456536,-0.06392612,0.12561196,-0.09871375,-0.05135623,-0.0010767877,0.040208224,-0.040985767,0.17568424,-0.010192682,-0.14368099,-0.014255004,0.12169026,-0.08118476,0.04899779,0.059001274,0.006801917,0.0335083,0.015555612,0.073291995,-0.023327641,-0.129258,-0.06879858,0.021523029,0.01119077,0.034571525,0.012583532,0.009124765,0.093536064,0.064577766,0.061877385,-0.07180126,-0.09629523,-0.006130522,0.031104539,-0.05307054,-0.07567831,-0.13209343,-0.072672926,-0.11099619,-0.15119664,-0.030907022,-0.040975004,0.070094325,-0.005857534,0.10851193,-0.09164173,-0.051067676,0.0005774505,0.06087817,0.083663985,-0.04761468,0.0052706804,-0.018671498,0.0076462054,0.07777893,0.03646395,-0.042745642,-0.057243407,-0.046224397,0.08452107,0.0007981865,-0.12001321,-0.051365323,0.13392037,-0.09905839,0.026986592,0.03802922,-0.034364592,-0.011727871,-0.09329478,0.054324467,0.06459696,-0.015360575,0.06331487,0.11247186,-0.029902976,-0.0074720695,0.08162187,-0.01863276,0.026938459,0.036742534,0.06733993,-0.18877073,0.009455765,-0.01220691,0.07821797,0.043188997,0.1197938,0.07492707,0.028631413,0.036979962,-0.120996825,-0.05609494,-0.120248266,0.10292628,-0.0054738633,-0.09446863,-0.059862968}, {-0.07274873,0.039454546,-0.00062696985,-0.001259322,-0.0002777873,-0.17112146,0.046990544,0.099228755,-0.024507899,0.05331895,-0.04056558,0.027475772,0.010760698,0.13390557,0.041244563,-0.099711426,-0.053901374,-0.05134027,-0.07480394,0.00095908926,0.040144786,-0.11102294,0.009117201,0.0016547458,-0.06463575,-0.011420992,-0.040939286,-0.050899744,0.003304426,-0.09038479,-0.1393237,0.040493242,0.04503018,0.013882731,-0.011901685,-0.04318923,-0.093146145,0.051100392,-0.13622545,-0.043541174,-0.0024679718,0.14095517,0.09753443,0.02901152,0.008686385,-0.0067526875,-0.042912416,0.10046436,-0.043011196,0.089492016,-0.06785391,0.10176688,0.010655664,-0.055397015,-0.043668788,-0.035212312,-0.002443925,-0.08065055,-0.07961596,-0.037319805,0.11043425,-0.04097149,0.052160457,0.025286302,0.02985636,0.05731561,0.052728307,-0.06609262,0.091897234,0.052325476,0.26349285,-0.020474542,-0.06444355,0.10864487,0.011880494,-0.027789956,0.07692342,0.09401101,0.050653122,0.083605394,0.00478765,-0.019544324,0.1481622,0.057331823,-0.17640354,-0.018371789,-0.008854373,-0.12665881,0.118874,-0.111623704,0.052592844,0.17237341,-0.067871414,-0.037907433,-0.08960482,0.0026593835,0.010415111,-0.02591243,-0.03322131,-0.06369887,0.040487994,0.14978863,0.09487525,0.15476695,0.05780005,0.04427477,0.021426976,-0.027578777,-0.13326229,-0.01846153,0.079389736,-0.0009269153,-0.10445739,-0.01801307,-0.121228404,-0.0008330777,-0.026130022,0.042658217,0.09949289,-0.110173315,-0.09407728,0.039728153,-0.13095874,-0.11088293,-0.051520955,0.115807004,-0.10748635,-0.05804373}, {0.06612669,0.013211442,-0.07180254,0.11683312,0.01991453,-0.08548524,0.18609253,0.06672272,0.14438406,0.04558516,-0.019390488,-0.046111513,-0.08786081,0.03486068,0.09140095,-0.123656295,-0.14528105,0.16357662,-0.023436632,0.019043498,0.027133876,0.08937765,0.008782105,0.0018563984,0.049433775,0.05362992,0.022310873,-0.028981816,0.045283332,-0.12929544,0.04329561,-0.020192126,-0.12972565,-0.030969031,0.019123185,-0.025860127,0.08672389,0.05275946,0.03281153,0.03362269,0.048862275,0.039185368,0.025469184,0.088633575,0.0013555512,-1.9203813e-05,-0.043621644,0.022077383,-0.0129512,0.094551295,0.00743864,-0.10741627,-0.03533407,0.021841358,-0.10534707,0.049458068,-0.009140959,0.018903298,-0.03460406,0.015983958,-0.08159074,0.01958772,-0.12864171,0.10367757,-0.02137676,-0.08092954,-0.053292572,0.09133035,-0.01288014,0.03572131,-0.014679572,0.028141946,0.045753747,0.07386373,-0.029309584,-0.06389017,-0.037969925,0.10788465,-0.04287298,0.11018705,0.0030173152,0.075930715,0.039311133,-0.036777094,-0.00901345,-0.060871422,0.09684969,-0.1543669,-0.052302066,0.08061016,-0.088927105,-0.034061704,0.04977371,-0.058769684,0.021914735,0.11157284,0.052553598,-0.07595804,0.037758637,0.04898499,-0.036198143,-0.053457193,-0.17509748,0.043657348,0.13348508,-0.022680009,-0.04116529,-0.012720534,-0.05510324,0.1363468,0.004696449,-0.0002803548,-0.027441682,-0.048741795,-0.040898122,0.07063507,0.019865818,-0.017396929,-0.26935554,0.052424114,-0.022622855,-0.13578886,0.05931271,-0.02899931,0.098656915,0.030140584,0.036214214,0.04939016}, {-0.026745776,-0.042770464,0.014698321,-0.012824542,0.008425659,-0.037316456,0.03633652,0.08613078,0.06701886,0.01856039,-0.04986414,-0.08140411,0.15229589,0.10756372,0.1142661,0.06725502,-0.0009409753,0.008538264,0.05622234,-0.020674394,-0.013204927,0.020017374,0.079159185,-0.07536475,0.04994244,0.01437863,-0.009740727,-0.028650405,0.0072504547,-0.066357024,-0.015211422,-0.01497346,0.09344714,0.0376919,0.018955966,0.03150863,-0.01371059,0.048502486,0.088727035,-0.10268659,0.007005944,0.10573283,-0.06872789,-0.019788107,-0.01710939,-0.11449099,0.0076691024,-0.049593758,0.012147153,-0.021092845,-0.010634457,0.14447595,0.1043728,0.13190892,-0.09708022,-0.09421254,0.12041228,-0.0435245,-0.10618898,0.03332858,0.13566548,0.094690524,0.07127431,0.030739442,0.05917178,-0.012462429,0.18660837,-0.020141492,0.022449663,0.09153007,0.084714234,0.03778665,0.013032904,-0.09228193,0.08141326,0.023051543,0.07990534,-0.0127804885,0.06428224,0.083023824,-0.004125462,0.030522337,-0.13587229,0.08315041,-0.07434219,0.15785895,-0.08200884,0.003723502,-0.07643427,-0.04885395,0.16292527,0.026369862,-0.10473633,-0.09348801,-0.0479447,-0.031690147,-0.024304962,0.06101022,0.079826355,1.9784784e-05,0.17047009,0.0035679918,0.0096185915,-0.15585917,0.12977695,0.19284198,-0.038734652,0.08116845,0.0012349833,-0.09026312,0.06752497,0.04643566,0.04625817,-0.028680408,-0.007936336,0.056271777,0.091479816,-0.10257787,0.060108133,0.03907332,0.039618794,0.056253582,0.030790552,-0.0072202063,-0.06951387,0.12425063,-0.03879665,-0.01418888}, {0.0044734497,-0.025511239,-0.053789865,0.010212359,-0.17812593,-0.11727325,-0.056114685,0.15024263,0.08135692,-0.032292254,-0.16853511,-0.035651527,0.014238823,-0.034427635,-0.012399666,-0.0031121229,-0.13460627,-0.018652262,-0.0023013484,0.070154436,-0.13267453,0.06069654,-0.073015586,-0.057648737,0.0009505659,-0.08687095,-0.04712668,0.013510347,-0.051443994,-0.14772204,-0.098442286,-0.060409766,-0.20271565,0.029881569,0.0011149303,0.010575356,-0.074818835,0.09269116,0.012197001,-0.12809207,-0.0788623,0.005836279,-0.17802723,-0.08725133,-0.0726101,0.028064534,-0.098412044,0.03716893,-0.09104187,-0.049157955,-0.0706262,-0.0474104,-0.08701276,-0.17978688,0.054171715,-0.03011671,-0.116863534,-0.059287943,0.052401986,-0.18252401,-0.099664174,-0.085630365,-0.13516328,-0.005096175,-0.0977632,-0.051603846,0.017767224,-0.01233977,-0.07676646,-0.06228927,-0.19087648,-0.09968015,0.09689808,-0.11854247,0.04424867,-0.09183288,-0.119647995,-0.03298514,-0.1704326,0.06159998,-0.2000426,-0.040729918,-0.107990235,-0.07478747,0.06589687,0.04382171,-0.02860675,-0.02647468,0.10787138,0.023465062,-0.06474626,-0.059800673,0.07526871,-0.1351258,0.029930295,-0.03581204,-0.01943822,-0.19617857,0.05739738,-0.017040225,-0.12710734,-0.12014844,-0.061691795,-0.0829234,-0.09175407,-0.15465347,-0.17830458,-0.12541696,-0.12572005,-0.07728863,-0.015361965,-0.017295495,0.12317247,-0.043710925,0.07158309,0.060831953,-0.07097904,-0.18117835,0.11552866,-0.18374321,-0.16395064,-0.14245006,-0.16498289,-0.1060267,-0.12565023,-0.09566592,-0.014592871,-0.10059105}, {-0.020826086,-0.12779948,-0.04355977,-0.087600246,-0.009416611,-0.06179375,0.02586016,0.014297896,-0.02803416,0.06402213,-0.09846716,-0.0060617523,-0.00737219,0.114915095,0.014731765,-0.04529901,-0.0028526445,-0.07085674,-0.034185357,-0.09683214,0.016422136,-0.012151114,-0.067987815,-0.039188407,-0.012396524,-0.055549864,-0.029733205,-0.14541827,-0.025461085,0.016897168,-0.15666656,0.025739854,0.0069030635,-0.16577072,-0.03722674,-0.05257652,-0.06916199,-0.15223484,-0.03228014,-0.1772316,-0.10012317,-0.11234039,0.053801235,-0.09990516,-0.05384256,-0.1280789,-0.098754175,-0.04831754,-0.14822567,-0.0069548287,-0.012522606,-0.004245245,0.07514772,0.07337772,0.059900284,-0.035821073,0.026457695,-0.07812411,-0.067662366,0.07099335,0.050922822,-0.052764002,-0.0077266023,-0.07428696,-0.060509298,-0.05880133,0.073639564,-0.05227478,0.013548313,-0.06054559,0.07251623,-0.2452918,-0.06100834,-0.05489638,-0.07061124,-0.029362313,-0.016241826,-0.13219476,-0.12108513,-0.001547232,-0.01177277,0.059764273,-0.04591819,0.08670695,0.028282663,0.05065095,-0.1733922,0.0028342204,-0.06951065,-0.09668354,0.03547077,0.05843522,-0.08134329,-0.0013511061,-0.01669552,0.040588174,-0.056543402,-0.042170066,0.024999082,-0.13430631,-0.0005078123,0.049827028,0.039678294,-0.023019679,0.0035216033,0.028061757,0.01743939,0.07225772,-0.085294716,-0.09442549,-0.025031377,0.07084524,-0.075235814,-0.12480828,-0.15882632,-0.011109315,-0.041505843,0.08422774,0.220163,-0.23519394,-0.0222181,-0.043160975,0.09492521,-0.019416453,-0.029269475,-0.04529772,-0.019204298,0.010992486}, {-0.006741923,0.0031146589,0.02441345,0.04566277,0.017544752,-0.07846027,-0.1187916,0.06950057,0.078434825,-0.06229104,-0.047055706,-0.076724775,0.009472723,-0.03877327,0.018837992,0.011338702,-0.041071076,0.21987653,-0.12522946,-0.10302879,0.063454986,0.0031395252,-0.061735403,-0.03518741,0.007145713,0.0021278516,-0.014296564,-0.10655543,-0.1545788,0.01523759,-0.07572128,-0.04250364,0.01993034,-0.13712524,-0.16657342,-0.060737357,-0.1434697,-0.12184567,-0.24384515,0.05305847,-0.17333147,0.029682118,-0.06327964,-0.05938432,-0.056471966,-0.055635896,0.05258609,0.02944739,-0.079441294,0.023755064,-0.0025629136,-0.052091062,-0.06759807,-0.083012864,0.007967703,0.022643924,-0.02028033,-0.015408415,-0.11343567,-0.03470217,-0.09242969,0.0749993,0.023353662,0.07413405,0.18090166,-0.018619657,-0.02824545,-0.009903175,-0.15755773,0.011017757,0.06747743,-0.076329425,-0.13392158,0.03850787,-0.06296195,-0.07209329,0.10306386,0.039237227,-0.033190124,-0.046660352,-0.030204987,0.08557043,0.008956294,0.023487,-0.12569171,0.060789462,-0.103826135,0.061668012,0.042808928,-0.07278451,0.0006100491,0.047050606,0.13533886,-0.075782314,0.0971618,0.038136978,-0.06417372,-0.016799137,0.015626388,-0.08444147,-0.06920595,-0.12633085,-0.06530252,0.0045707156,-0.050019827,-0.119822934,-0.032569107,-0.16128425,0.028704561,-0.06518259,-0.12219487,-0.059281487,0.06538864,0.11681092,0.11804455,-0.018691747,-0.008513505,-0.12132032,-0.06359283,-0.028901536,-0.11302305,0.016452055,-0.02137867,0.024259517,-0.076668575,-0.011665215,-0.13385573,-0.0045659314}, {0.030142216,-0.014299929,-0.029771019,-0.07653822,-0.00086320646,0.0953836,0.10514691,-0.047328584,-0.08010914,0.02425645,-0.037144613,0.029723221,-0.041314516,-0.074250326,-0.025876809,0.025526412,0.008700824,0.015629752,0.17547596,-0.17368537,0.062965095,-0.062830016,-0.041844398,-0.11106633,0.04531522,0.0029259706,-0.11406889,-0.017986644,-0.036907595,0.066560395,0.053487025,0.00024444997,-0.025555538,-0.070233114,0.10703095,0.02264046,0.06566175,-0.12945186,0.069602884,-0.06682951,0.015332939,-0.056020048,-0.08705509,-0.079608634,0.002879288,-0.028732723,0.02433984,-0.08784742,0.03087576,-0.06291841,-0.1905823,-0.08677779,0.0070607094,0.053622294,-0.036838457,-0.22676417,0.108490944,0.08136256,-0.074470595,0.03956537,-0.015210769,0.04627185,0.0837166,-0.063794516,-0.05663461,0.05044915,0.065218695,-0.08303611,0.012712198,0.07227643,-0.045891277,-0.06574851,0.13351266,0.07430526,-0.06703224,-0.047819052,0.040431835,-0.107462205,-0.013751651,0.03565453,-0.015399095,0.04992228,0.021379009,0.010295324,0.096243545,-0.10196176,0.068787925,-0.011294698,-0.09272386,0.061300885,0.08255497,0.06278011,-0.058659162,0.07167773,0.004361865,-0.022515712,-0.020826077,0.036495555,0.08181076,0.015891358,0.043798003,0.15654735,0.038588896,0.08437202,-0.0883212,0.053956844,0.02613092,0.03978042,-0.016105471,0.020849083,-0.0122362925,-0.00045395465,0.026817529,-0.010097525,0.042801745,0.03393029,-0.047990434,0.05634282,0.05503552,-0.07865023,-0.057083964,-0.0022820341,0.09475373,0.069534875,-0.05671082,-0.063477226,-0.12325739,-0.0544384}, {-0.08044454,-0.11461565,0.017611101,-0.024813058,-0.023043416,-0.0025490464,-0.02582034,-0.10121093,0.025519814,-0.048276093,0.06383821,-0.071805276,0.0022599536,0.015873127,-0.03387125,0.1961302,-0.032413878,-0.04090849,-0.062444065,-0.008887789,-0.06944296,0.029473996,0.06044979,-0.067066826,-0.056865785,-0.03922315,0.19185705,0.03011888,0.0016696344,0.066623434,0.034166545,-0.0021436196,0.04067455,-0.0818787,0.08122144,0.07913774,0.08461452,0.057176862,0.028841874,-0.0009927243,0.059859887,-0.018578896,-0.0072311335,-0.080970906,0.08264383,0.046720687,-0.06947601,0.06451906,-0.041979447,-0.019180423,0.045262735,0.02036408,-0.025213836,0.004377784,0.08991198,0.024803795,0.026310246,-0.08697446,0.018331941,0.036699083,0.04342763,0.01993106,0.043153215,0.07413851,-0.01393793,0.05728956,-0.09373304,-0.06074039,-0.08767057,0.050347466,-0.031413827,0.056195166,-0.026757382,-0.039820436,0.052808035,0.086103044,-0.015985455,0.06302988,-0.034210023,-0.1308558,0.052313093,0.08858752,-0.030704625,-0.04065926,-0.074556835,-0.001496041,0.09532073,-0.016221317,0.10300006,-0.08754181,0.057311676,0.113674544,0.0059782155,0.023342,-0.08964863,-0.012556678,0.049750187,-0.05700215,0.056248933,-0.03060749,-0.002352829,-0.0029344212,-0.037694197,-0.007616534,0.016092412,-0.07235512,0.01626086,-0.040467765,0.06287698,-0.017128186,0.06703081,-0.020389577,0.14472145,-0.041442342,0.11939803,0.026381996,0.036783036,-0.023845404,-0.024480216,0.13655607,0.10136487,0.07490675,-0.054827657,0.07453518,-0.08302508,-0.13818873,0.0067198128,0.024506025}, {-0.05336575,0.020746386,0.08885677,0.008479491,0.028971832,0.009224569,-0.001175758,-0.098817855,-0.13704027,-0.011596625,0.093598776,-0.018634228,-0.047395263,-0.014734536,-0.2856623,0.09182991,0.07301312,0.046610676,0.02313442,0.051261093,0.14138667,0.06456686,0.08789582,0.123027794,0.08888452,0.009191879,-0.040980972,-0.02976376,-0.19385885,0.11377202,0.03233911,-0.09379312,-0.14896199,0.10376881,-0.10814345,0.073045686,0.05379971,-0.05667683,0.027022336,0.0494034,0.09009862,-0.105055556,-0.059337396,0.02355786,-0.13384959,-0.0156138465,0.11973747,-0.04333247,0.13566455,-0.025336836,-0.017126018,-0.028946117,-0.11415437,0.033437554,-0.008903435,0.030254759,-0.019205712,0.049813844,0.0024820291,0.004496364,-0.053508345,-0.0010931126,-0.06631719,-0.05816446,0.105668746,-0.08071462,-0.12129125,-0.009789772,0.10327178,-0.0653833,-0.028779933,-0.003026443,0.010988431,0.05517589,-0.12730284,0.019103372,0.01582789,0.0040361113,0.23088947,-0.009054569,0.015938865,0.03016817,0.0048481966,-0.04720027,0.029202433,-0.1820554,-0.048335433,-0.01664853,-0.056030676,0.084485814,0.0715035,0.0106893545,0.02484828,-0.00016896822,-0.12022422,0.088482894,-0.051834155,0.08410464,0.17448187,0.002514793,0.06458975,0.09465417,0.19775228,0.12195329,-0.115978345,0.043946758,-0.04811297,0.0032121225,0.07006728,-0.016967986,-0.005773271,-0.004909288,-0.017477393,0.027780512,0.045877453,-0.0116301775,0.038892165,0.03137159,-0.06976589,0.029788041,0.0077906754,0.093928106,-0.10504476,0.031441398,-0.101331025,0.06688155,-0.055474516,-0.005799287}, {0.06147634,-0.17235616,0.015362263,0.061475176,0.034699664,0.054292336,0.09700742,0.07818423,0.085184224,0.07071177,0.085540645,0.082327746,-0.07795327,0.011380626,-0.08561726,-0.05413575,0.029695455,0.069659844,0.06255581,-0.0010163999,0.022410149,-0.055464283,-0.03186386,0.068465844,0.18580148,0.08394531,-0.040951367,-0.039661966,0.0228748,0.006342585,0.15101272,0.044265445,-0.009939049,0.044119284,0.11055687,0.045292616,0.02996063,-0.058372997,0.12566546,-0.024857676,0.06925319,-0.058115996,0.15439141,0.12018666,-0.0031124074,-0.0129326265,-0.028096508,0.05076921,0.1158284,0.03449083,-0.14039823,-0.10108885,0.09734925,0.05379044,-0.021983476,0.023426939,0.07345409,-0.026697746,0.092713945,0.10981639,0.03255592,-0.06890153,0.02365701,0.0884346,0.17234045,-0.04125609,0.21320976,0.11002236,0.07371654,0.08314474,-0.031955946,-0.06793489,0.063751824,0.009167901,-0.023120716,0.048955105,0.03076047,0.0063669216,0.040305223,-0.016944608,0.05325774,0.0732491,0.09498199,0.09290705,0.043195575,0.1514027,0.11387345,0.02771759,-0.0054262383,0.1937389,0.048311777,-0.015512876,0.07945607,0.044826742,0.10999286,-0.08499375,-0.052410692,0.02666024,0.0694089,-0.008179679,0.08921872,0.13315012,-0.012010602,-0.048413686,0.05717688,0.08422851,0.0076352656,0.039001543,0.018445434,0.075017706,0.050350618,0.05449917,-0.060337838,0.089792244,0.06537229,0.030263498,0.017002821,0.055812236,0.009623144,0.087847486,-0.062339295,-0.034117755,0.108329445,-0.087489225,0.015103566,0.14917724,0.1190238,-0.0029847217}, {-0.038162094,0.04333395,-0.005633638,-0.025420122,0.039077546,-0.006468875,-0.050096806,-0.014919013,-0.04762377,0.04107094,-0.15394095,0.054340377,-0.1902962,0.006000147,-0.07424334,-0.038599294,0.017008243,-0.04537355,0.008749715,0.046084285,-0.029092662,-0.05597236,-0.04897314,-0.13324551,-0.019107401,-0.015912492,0.0067628575,0.13202663,-0.04428666,-0.033622302,0.08003001,0.074176535,0.096031584,0.039773792,-0.030705934,0.042216156,0.028827323,-0.07469924,0.040677514,0.0806973,-0.04543432,0.014677549,-0.0066740224,0.16586748,-0.09376623,-0.009995928,-0.022482138,-0.06556573,0.01620917,0.12557694,-0.039677713,-0.07825833,0.00020707122,0.014003876,-0.053024344,0.048437715,-0.053015646,0.036056146,-0.0050432007,0.05927683,-0.05294912,0.004730943,0.057071067,-0.028570384,0.018785002,-0.035526052,0.08024055,0.09761197,0.101676546,0.08231041,0.055849545,0.09270724,0.14508425,0.07699114,-0.048892334,0.0077594863,0.04827099,-0.03732647,0.0633114,0.038914155,0.071080446,0.06752023,0.01773286,-0.029946575,-0.007954697,-0.016702814,0.04729692,-0.04199388,0.04091885,-0.021663906,0.20985702,0.0042242734,0.034043796,-0.08883064,0.027809601,0.07480618,-0.047511052,0.068647765,-0.13830832,-0.19731966,0.11090415,0.006191464,0.1121291,-0.060147043,0.056034192,-0.007904985,-0.06024954,-0.106743105,0.07900108,0.018264098,0.056456953,-0.071806066,0.053314593,0.077179596,0.008534421,-0.030731423,0.06782435,0.038799047,-0.08573957,0.05644477,-0.047717318,0.12788498,0.007566783,0.028193256,-0.05208885,0.16084354,0.07369129,0.036995754}, {0.02507206,-0.03583375,0.027728215,-0.018267928,0.008266623,-0.08051856,-0.042336192,0.02394014,-0.07065589,0.033217005,-0.0546738,0.059936132,-0.08636465,-0.09893774,-0.077640936,0.14155726,0.006954733,0.07668338,0.009244773,-0.003464779,-0.0059385994,0.017464867,-0.07587782,0.025982257,0.013515591,-0.03897329,-0.017681655,-0.011197447,-0.085817374,0.02648027,-0.03422533,0.18892893,-0.03959813,-0.122524016,-0.036633387,0.044017382,-0.09184404,-0.14758244,-0.05703712,0.035349585,0.026243316,-0.017471874,-0.021107454,0.013074568,-0.03709001,-0.032700542,-0.043080386,0.012357154,-0.120653644,0.035513848,-0.07019487,0.06758172,0.012358923,-0.10690012,-0.06627498,0.056514576,0.06366542,0.047191523,-0.11597203,-0.027850632,0.036944654,-0.014209969,0.039489,-0.013717786,-0.03616265,-0.026628774,-0.008228047,-0.00060555874,-0.0032414515,-0.026774403,0.027191184,-0.024406523,-0.0389714,0.15979007,-0.09506086,-0.010284319,0.035696063,-0.045875914,0.0025199994,-0.09846419,0.09270351,0.036593787,-0.015127527,0.040185776,-0.12577175,-0.035813715,-0.051145714,0.017040787,-0.043949556,-0.06928235,-0.028257078,-0.049290627,-0.08037043,-0.06689674,-0.029463867,0.02136598,-0.041273504,-0.03624402,-0.092481256,-0.061950374,0.017409105,0.050813105,0.04590863,-0.045459896,-0.050869353,-0.02532709,0.03434725,0.1264104,0.008144771,-0.021641761,0.014929488,-0.12233355,-0.07804329,0.03293829,0.089081645,-0.044424623,-0.025328701,-0.004631091,0.051644515,0.045208137,-0.031840082,0.06815478,0.015479075,0.015965167,0.010372475,-0.04514369,-0.030596068,0.004089567}, {0.041930005,-0.08998961,0.019528337,-0.079536885,0.037796397,0.0057619126,-0.004646896,0.014338432,0.03480496,-0.06895218,-0.0471751,0.105889,0.05738583,0.10076127,-0.0004596757,-0.07024654,-0.033918485,-0.16727223,0.009359378,-0.008338428,0.07773856,0.005045741,-0.004231805,0.10827815,0.13854405,-0.10887054,0.051098235,0.07723239,0.1669006,-0.03614084,0.020037604,0.03824323,0.064264126,0.0654029,0.17307822,0.024476025,-0.08066526,-0.036301497,0.054166887,0.03184256,-0.091492675,-0.038338855,0.025830913,0.0092258565,-0.05557814,-0.027246628,0.005135988,-0.0242966,-0.015953219,0.027308336,0.016520116,0.05581482,-0.12866864,-0.14469932,-0.020787524,0.09045971,-0.03579483,-0.04826729,-0.0131138945,0.002007589,0.10716069,0.059080634,0.06915111,-0.053663388,-0.110629745,0.07369576,-0.06561703,-0.09337824,-0.13902587,-0.010242536,-0.050742675,-0.04659392,-0.04169349,-0.026225513,0.1475998,0.08165933,-0.040268444,0.0043590907,-0.06830472,-0.03731104,-0.07001822,-0.18515077,-0.018239148,0.04309937,-0.041398834,-0.081912145,0.09137192,0.104249485,0.06868145,0.00027980722,0.04410953,0.05343887,-0.036880963,0.08074161,0.059584133,-0.06412896,-0.00646405,0.029698918,-0.030925777,-0.07322234,-0.10762396,0.13585778,