#pragma once
#define W_SOFTMAX_KERNEL {{-0.40053475,-0.3449364,-0.24003531,-0.33887956,-0.39869732,-0.28927067,-0.023114277,0.06849734,0.07957745,-0.056194857}, {-0.24969384,0.151496,0.11355193,-0.33956823,0.11659997,0.11302263,-0.099918894,-0.29956436,-0.2945811,0.012584651}, {-0.80319047,0.20391724,0.055000093,-0.15118168,-0.11188292,-0.08262556,-0.2649371,-0.21976227,-0.3739422,-0.36551282}, {-0.3589982,0.13504378,-0.17969126,-0.4973308,-0.37278885,-0.32891202,0.13416663,-0.30887264,-0.11041375,-0.5077472}, {-0.22527081,-0.0017732829,0.17922911,0.00623141,-0.33726928,-0.18494304,0.097771585,-0.3210726,0.06612222,0.024954058}, {-0.44662505,-0.10267468,-0.490397,-0.19589794,-0.09722777,0.14768401,-0.3492175,-0.14841987,0.12248722,0.13181059}, {-0.21609592,0.025148407,0.14735435,-0.04692348,-0.43647516,-0.0065876665,-0.42923814,0.11771869,-0.030280683,-0.30881518}, {-0.15500918,-0.421599,0.10074109,0.022950398,-0.16117598,-0.43283957,-0.29108438,0.0658157,-0.020913247,-0.21761684}, {0.09740679,-0.5572296,-0.3555347,-0.24522024,0.09888343,-0.18367225,-0.083680935,-0.35405058,-0.17882052,0.077381566}, {-0.1396848,0.056457154,-0.055559363,-0.75976664,0.27073675,-0.2932905,0.12915134,-0.2612125,-0.076489694,-0.22152127}, {-0.11549189,-0.2736885,-0.14169239,-0.261358,-0.26309732,0.10182116,-0.38953677,0.04698232,-0.24718703,0.10356492}, {-0.5977648,0.07007076,-0.09826573,0.006496398,-0.69924706,-0.25553867,-0.38606253,0.032469288,-0.24960972,-0.34918892}, {-0.0056065526,-0.0936314,-0.16902874,-0.0008412177,-0.17541324,-0.3209142,-0.56344974,0.2394246,-0.3158308,-0.121405385}, {-0.04630915,-0.33328217,-0.20258032,-0.32676154,-0.29824793,0.1016635,0.1749965,-0.3470828,-0.27539247,-0.31188303}, {-0.31052396,0.09392335,-0.61770356,-0.4897093,0.09656515,0.16855058,0.03281918,-0.0756252,-0.2637661,-0.34206268}, {-0.40856004,0.058587544,-0.26605788,-0.3140576,-0.30246794,-0.11663295,0.22694172,-0.27044788,-0.44580555,-0.6059112}, {-0.7184011,0.11060317,-0.5846731,-0.18704325,-0.095818676,0.048504427,-0.28410673,-0.33859345,-0.3029354,-0.1523947}, {-0.13043393,-0.18195784,-0.437861,0.20802192,0.107781865,-0.071286626,0.114684194,-0.22258848,-0.20560312,-0.05444343}, {-0.2150418,-0.16542701,0.092199355,-0.35510373,-0.054073878,-0.028574022,0.17836888,-0.37873587,0.14368914,-0.42269975}, {0.0075248023,-0.5564132,-0.11868428,-0.009482785,-0.42818934,0.110007256,-0.18889211,-0.4922268,0.08717031,0.022540187}, {-0.55954325,-0.42497724,-0.31298175,-0.11877682,0.061076872,-0.30716842,-0.3311469,-0.024494275,-0.26168236,0.18293615}, {-0.3317597,-0.40292335,-0.638919,-0.22924717,-0.084440015,0.12981167,-0.20712635,-0.2764444,0.0014965977,-0.014381357}, {-0.42316544,-0.263322,-0.5465048,0.17930469,-0.21749881,-0.21361314,-0.58391744,-0.34462994,-0.11880776,-0.08067345}, {-0.32978767,0.10758119,-0.53133464,-0.4482136,0.0269647,-0.006634033,-0.15907697,-0.1199016,-0.19544926,0.18722433}, {-0.566127,0.028715976,0.07797185,-0.24924712,-0.12651598,-0.4177562,-0.6244067,0.25669265,0.049388375,0.0027974506}, {-0.024594832,-0.36497635,-0.32286674,-0.4205626,0.118979424,-0.17162101,0.08304287,-0.28402263,-0.32599542,-0.015575206}, {-0.044047978,-0.31413576,-0.19660671,-0.4054356,-0.16920288,-0.24416713,0.192528,-0.64392674,-0.32454488,-0.40578023}, {0.13183841,-0.2614864,-0.26857305,-0.38745025,-0.01593452,-0.17687006,-0.29423675,0.10197591,0.065525845,0.04076427}, {-0.2681024,-0.48727965,0.13172007,0.0105389375,0.07413705,0.13121647,-0.1370848,-0.123532884,-0.16593385,-0.27226093}, {0.088517725,0.11278574,-0.3094574,-0.2977377,-0.2699916,-0.17073923,-0.019491183,-0.20822111,0.088915244,-0.33545798}, {0.12614751,-0.3547028,0.14336738,-0.221265,-0.114935,-0.3023091,0.066170864,-0.09534604,-0.32664078,-0.112541005}, {0.057305086,0.040059157,0.091409795,0.16021167,-0.46486443,-0.4766356,-0.46434015,0.19315556,0.1729658,-0.12973085}, {-0.22539307,-0.11379212,-0.24585521,-0.3154399,0.118264824,-0.06836926,-0.55547655,0.18088044,-0.39854324,0.22595593}, {-0.44862452,-0.0008093284,-0.43785483,-0.13120334,-0.048422206,0.10690999,-0.1785733,-0.24411748,0.01985754,-0.031987067}, {0.051508334,0.1286208,0.09186713,-0.16424829,-0.06041073,0.12059566,-0.34623474,-0.21822973,-0.3505859,-0.45471326}, {-0.44777694,0.07415288,0.112556204,0.19740093,-0.45483625,-0.2676827,-0.48341638,-0.14429769,-0.021525,-0.27354473}, {-0.002906902,-0.2805882,0.040095814,-0.1289831,0.13448828,0.05253247,0.073261976,-0.45993412,0.19764341,-0.17171589}, {0.24522197,-0.59636515,-0.17993027,-0.2978394,-0.0651489,-0.3707045,-0.3627948,-0.24023888,-0.23585406,-0.4607835}, {-0.20788017,-0.5232524,-0.11562418,-0.3253244,-0.1340724,-0.047124524,0.051321745,-0.11938174,0.011419324,0.21069302}, {-0.4884523,0.115295604,-0.35143626,-0.2510374,-0.20008053,-0.05077743,-0.13413957,-0.3310236,-0.07755265,-0.32210368}, {-0.035881918,-0.28801668,-0.21071778,-0.19838074,0.18204957,-0.33558488,-0.23229896,-0.22202258,-0.21751612,0.13281718}, {-0.0658052,-0.34198657,-0.44778484,-0.09131469,0.047082014,-0.2724483,-0.63814044,0.06606258,0.071478136,-0.0011109975}, {-0.2943108,-0.34392264,-0.1488819,-0.17320088,-0.3637254,0.1815153,0.15212274,-0.46419892,0.19195382,-0.35286474}, {-0.30504864,-0.39612547,-0.8374577,-0.4162215,0.19889951,0.110427275,-0.22362207,0.052466925,-0.386823,-0.07164566}, {-0.107612215,-0.16554286,-0.29032773,0.13950178,-0.3964114,-0.24327943,-0.035810515,-0.37999067,-0.035826392,-0.39706132}, {-0.62346643,-0.0847543,0.018669657,0.078309804,-0.16084217,-0.44396,-0.6104239,0.08993862,-0.38051817,0.0835324}, {-0.11033197,-0.41634607,-0.14203277,-0.14228137,-0.14286105,-0.27585047,0.085705906,-0.49305782,0.13176009,-0.28301707}, {-0.32986063,-0.36301768,0.1267358,0.12844257,-0.21982956,-0.18226676,0.0068583945,-0.1482089,-0.22832027,0.19159074}, {0.19828512,-0.392182,0.16896045,0.047466427,-0.16742663,-0.1932747,-0.027703837,-0.3381226,0.018101318,-0.40631473}, {-0.29152933,-0.3641999,-0.27621418,-0.23964784,-0.25075704,-0.44659334,-0.763999,-0.11793862,-0.13383895,0.029425668}, {-0.32964727,-0.016142739,-0.009840051,-0.2223235,-0.40419766,-0.61450356,-0.015780242,0.12356359,-0.08986041,-0.07444633}, {-0.17513187,0.18618052,-0.274244,0.05498038,-0.66378814,0.069429986,-0.12368157,-0.5071966,0.05991961,-0.24404511}, {0.04237064,-0.32486862,0.08585584,0.024384165,-0.16133857,-0.39501324,-0.16003565,-0.11568821,0.18408166,-0.07634528}, {-0.62853414,0.0034263683,-0.37137076,-0.07298214,0.17173082,-0.3660369,0.07903566,0.05322336,-0.52289313,0.11032169}, {-0.1027182,-0.1953139,-0.34571797,0.22826463,-0.19891849,0.050610818,-0.44301268,-0.20670007,0.15073605,-0.042222716}, {-0.08610917,-0.4045535,-0.46218863,-0.20897959,-0.14197838,0.15974423,0.21385747,-0.5504627,-0.34180674,-0.2852318}, {-0.17504683,-0.19401473,-0.4663859,-0.006707098,0.13769804,0.0052079926,-0.0047724196,-0.11478281,-0.14153206,-0.041444536}, {0.12510951,-0.009191606,-0.18738507,0.17345124,-0.32090762,-0.32174087,-0.018825363,-0.2935786,0.044851735,-0.3637285}, {-0.58356786,0.1331009,-0.058676302,-0.2759362,0.111060694,-0.13960305,-0.24715064,-0.051988836,0.18424201,-0.30191728}, {0.07060523,-0.39525977,-0.040396232,0.12167934,0.004375199,-0.054396942,-0.41092494,-0.096919075,-0.16446102,-0.050011236}, {-0.33516017,0.064089485,-0.17757216,0.22110124,-0.44676018,-0.3312534,-0.43614477,0.119514644,-0.098640725,-0.28315017}, {-0.43588105,0.09241186,0.037526295,-0.49416253,0.15966319,-0.4517365,-0.17479016,0.024777792,-0.34672517,0.19928996}, {-0.716675,0.19220579,-0.42754853,-0.2546606,-0.33760914,-0.29930687,-0.66844285,0.2900052,-0.23113921,-0.20358697}, {0.03713326,-0.37979218,0.04886439,-0.3138808,0.2654514,-0.2856655,0.08646503,-0.2699957,-0.3048206,0.14485528}, {-0.42613435,-0.04055703,-0.15967736,0.07391679,-0.12902948,0.23852642,-0.47186863,0.07177155,-0.22300789,0.10655522}, {0.112551905,-0.12014371,0.067586824,0.012982835,-0.24805698,-0.29188222,-0.43284056,-0.18424185,-0.10583591,-0.44997585}, {-0.119849466,-0.45327243,0.1491159,-0.14222057,0.026655924,-0.49118936,-0.069522165,0.15153885,-0.412472,0.056573305}, {0.17729285,-0.026756244,-0.27925342,-0.30719873,-0.49071333,-0.035577998,-0.085317254,0.15096578,-0.10090849,-0.33420634}, {-0.05088729,-0.15334126,0.051249973,-0.114104494,0.12458986,0.08267634,-0.07461288,-0.14080893,-0.01400619,-0.14870963}, {-0.3042753,-0.420975,-0.35623968,0.21252297,-0.311425,0.1640249,-0.3633444,-0.2739803,-0.1342954,0.17202741}, {-0.25395828,-0.32636812,0.078915514,-0.5381961,0.2357576,-0.111680254,-0.27567944,-0.16150858,-0.31925368,-0.070740305}, {-0.6399152,-0.02305882,-0.24393877,-0.38065338,0.044625208,-0.3822851,-0.37338266,0.08968617,-0.10220226,0.03373313}, {0.018221855,0.13146855,0.13758749,-0.2624774,-0.19923437,-0.40833548,-0.25398767,-0.047150977,0.032880552,-0.1909224}, {0.02193978,-0.22485949,-0.35198554,-0.36130384,0.16942365,-0.47723198,0.073712565,0.08332461,0.123107806,-0.16885436}, {-0.36198372,-0.3695718,-0.28286153,-0.2465519,-0.14865892,-0.06916898,-0.90040666,0.12587318,-0.33392584,-0.0068763583}, {-0.18170944,-0.10540683,-0.46058625,0.21816047,-0.39989692,0.16051157,-0.7318467,0.24340071,-0.19004717,-0.30242467}, {0.0348145,-0.30416727,-0.07776347,0.050940964,-0.49322656,0.19134238,-0.2931037,-0.26690075,-0.35051486,-0.078108944}, {-0.7235652,0.14653924,-0.45996034,-0.2540368,0.051710766,-0.14678568,-0.145502,0.09467966,0.0487568,0.080937736}, {0.19397739,-0.5583526,0.032115865,-0.2991805,-0.42715418,0.20702384,-0.10357319,-0.13312186,-0.2519353,-0.10805691}, {0.27917194,0.17557146,-0.3702086,-0.2924716,-0.59310967,0.057984572,-0.14893164,-0.2677484,0.12719366,-0.61893547}, {-0.3746463,0.05798339,0.09441396,-0.22199853,-0.056357253,-0.27735236,0.06651894,0.054057285,0.08675413,-0.027019225}, {-0.53207314,0.13732839,-0.015131961,-0.4502126,-0.09574732,-0.40303665,0.011370821,-0.1849968,-0.08285984,-0.4678585}, {-0.034099143,-0.22348058,0.23587838,-0.303493,-0.1148302,0.08530363,0.14384528,-0.4871386,-0.18519576,-0.15683553}, {-0.24964625,0.07790427,0.17023377,-0.15391603,0.05955156,-0.48118785,-0.32116908,0.23734199,-0.51542085,-0.18189307}, {-0.2563856,-0.35925564,0.17207755,-0.1253578,-0.44301185,-0.17844974,-0.39088193,0.107092254,-0.02250433,-0.0947842}, {-0.13858803,-0.44044086,-0.10691659,-0.1148094,-0.27479252,0.13731003,-0.21847323,-0.1354986,0.08872662,0.14612873}, {0.048857775,0.14800143,-0.31283182,-0.22804292,-0.10625941,0.048694976,0.112670615,-0.56362873,-0.10138975,-0.046970878}, {0.08873302,-0.30766514,0.117174365,-0.1048688,0.18065841,-0.1542276,0.061352573,-0.36100143,-0.015303627,0.18848574}, {-0.25437343,0.047499713,0.16917677,0.055779703,-0.3881052,0.150929,-0.25091806,0.11751984,-0.19742377,0.007689954}, {-0.24100634,-0.46480614,-0.13735504,-0.20022699,-0.25105053,-0.33018363,-0.5456479,0.24018845,-0.01667966,0.14107479}, {0.29698035,-1.1626439,-0.35900527,-0.4684473,-0.31884068,-0.14763187,-0.25071752,0.09212076,-0.116456114,0.100480705}, {-0.19728528,-0.3810466,-0.42276523,-0.20824751,-0.12584549,0.1686164,0.12727155,-0.251764,0.075325064,-0.09429913}, {0.20652649,-0.18954006,-0.07205874,-0.008724968,-0.31208292,-0.11811703,-0.20094877,-0.48040062,-0.17998411,-0.30881947}, {0.0071389196,-0.40996385,-0.34221134,-0.023463631,-0.5115121,0.030831553,-0.23176499,-0.30770975,0.082144685,-0.32072946}, {-0.23760855,-0.13739304,-0.30995822,0.10970158,-0.4224559,0.20074122,0.014415872,-0.21703464,0.13556848,-0.0014610031}, {-0.4008981,0.15542363,-0.3295542,-0.4039954,0.15418755,0.07264657,0.07517021,-0.39778626,0.07816712,0.008099623}, {-0.48031566,0.028068464,-0.17338127,0.057223503,-0.2926013,-0.21753879,-0.5923532,-0.11753664,-0.021807723,-0.015297053}, {-0.6829154,0.14643738,-0.40876633,0.19668902,-0.45021358,0.047413252,-0.85635614,0.09081384,-0.23205312,-0.31514564}, {-0.2422764,-0.31556535,-0.026487846,-0.40006533,0.10402667,-0.2640092,-0.5408811,0.16498528,0.056763425,0.090256445}, {-0.13894325,-0.28234303,-0.55880225,-0.3693933,-0.15090092,0.16844311,-0.17061962,-0.3173932,0.026466092,-0.07378531}, {0.026107797,0.00072689867,-0.023808854,-0.2067014,-0.2694563,0.208479,-0.51117516,0.14131062,-0.36166248,-0.31872422}, {-0.22945227,-0.043165922,-0.4166083,-0.05146758,-0.17810783,-0.04788757,0.14768851,-0.65475035,-0.07450308,-0.21960242}, {0.25286633,-0.910469,-0.42671376,0.07497022,-0.47610006,-0.22255266,-0.35064822,-0.2110704,-0.20621568,-0.11670209}, {0.20642702,0.108765736,0.056593623,-0.28482473,0.09186687,-0.34544542,-0.305304,0.15678027,-0.011650459,0.0060966294}, {-0.242247,-0.010876735,-0.38117117,-0.018351931,-0.056810465,-0.09215537,-0.19877177,-0.27109298,0.044235166,-0.018377874}, {-0.042084835,-0.26010966,-0.5164107,-0.08723051,0.07352828,-0.32608876,-0.270237,-0.12814724,0.14458069,-0.22570999}, {-0.27361625,0.054723244,-0.09788834,0.18829021,-0.678317,0.016424777,-0.3958401,0.043025956,-0.27519205,-0.341822}, {-0.050399177,-0.28020042,0.061103668,-0.1487199,-0.29945296,-0.05551323,0.15421855,-0.48125958,-0.26596436,-0.50131315}, {0.18318945,-0.3880622,-0.020167496,-0.38975492,0.2786488,-0.4098026,-0.031872496,0.17728706,-0.23194551,-0.11953173}, {-0.42865503,-0.10508489,-0.31553093,-0.23035982,0.04785442,0.1037292,-0.19388922,-0.01643981,-0.2152695,0.17206095}, {-0.1766446,0.19224,0.010887068,-0.058080174,-0.40973017,-0.30398574,0.109264344,-0.200525,0.112175964,-0.5451822}, {-0.14612448,0.16039446,0.072425656,-0.12064665,-0.32047838,0.114600666,0.16481364,-0.31271985,0.03635865,-0.30220628}, {-0.27719346,-0.52507097,-0.49867505,-0.23750891,-0.3788361,0.23016065,-0.37020084,0.01858045,-0.41788092,-0.3192786}, {0.022189135,-0.3534361,0.07368816,-0.28026545,0.07879854,-0.26391283,-0.55665725,0.16662948,-0.09244732,0.103220195}, {-0.4107541,0.11746671,0.09240021,0.17727947,-0.021267598,-0.37540874,-0.23505598,-0.18373373,-0.03775023,0.15560776}, {-0.31341898,-0.44808885,-0.43179202,0.08307338,-0.47013277,-0.035081085,-1.2171539,0.15939544,-0.26861322,-0.0086281495}, {0.06280939,-0.2635505,-0.3376824,-0.5414978,0.0070229643,-0.20807981,0.23654747,-1.0213766,-0.32180047,-0.35326645}, {-0.08233755,-0.62785846,-0.28257006,-0.33541214,-0.35511458,-0.2963574,-0.28394625,-0.25094593,-0.067809746,0.16210505}, {0.18857726,-0.57127595,-0.21333078,-0.3647276,-0.31930727,-0.08124103,0.19416243,-0.03435313,0.004187816,-0.36596155}, {-0.04893917,-0.42760602,0.072009586,0.22922143,-0.12668908,-0.1227261,-0.57695657,0.1927999,-0.41866294,0.0198841}, {0.22098887,-0.8443575,-0.29284084,-0.35740024,0.22334355,-0.23113038,-0.22241001,0.1609444,-0.61484945,-0.21798402}, {-0.32329145,-0.01953091,-0.34785646,0.09223531,-0.30208963,-0.064127006,-0.25505203,-0.15917896,0.06750256,-0.37642872}, {-0.0704266,-0.6568663,-0.3118597,0.18104719,0.065920494,0.042852066,-0.35923523,-0.14322053,-0.52065605,0.16178642}, {0.16613798,0.02103295,-0.31935313,-0.45880497,-0.35726878,-0.030510627,0.050935093,-0.44972667,0.13358742,-0.38925412}, {-0.40503982,0.121671386,-0.39798588,-0.37434056,-0.1794297,-0.09960118,-0.4375895,0.15608734,-0.421129,-0.18808454}, {-0.011735233,-0.5774546,0.0049417126,-0.22827072,-0.095417775,-0.2844201,0.081480816,-0.48526016,0.21145968,0.12843667}, {-0.27673864,-0.38180628,-0.31758323,0.08192744,-0.45506397,0.2469967,-0.3106608,-0.36414412,-0.0024280155,-0.28483072}, {0.09368454,-0.5101792,-0.25253442,-0.4952246,0.08730142,-0.22172825,0.12780337,-0.35568637,-0.3730246,-0.00724871}}
#define W_SOFTMAX_KERNEL_WIDTH 128
#define W_SOFTMAX_KERNEL_HEIGHT 10