# 1 "src/rnn.cpp"
# 1 "src/rnn.cpp" 1
# 1 "<built-in>" 1
# 1 "<built-in>" 3
# 152 "<built-in>" 3
# 1 "<command line>" 1







# 1 "D:/Xilinx/Vivado/2018.3/common/technology/autopilot\\etc/autopilot_ssdm_op.h" 1
# 157 "D:/Xilinx/Vivado/2018.3/common/technology/autopilot\\etc/autopilot_ssdm_op.h"
extern "C" {






    void _ssdm_op_IfRead(...) __attribute__ ((nothrow));
    void _ssdm_op_IfWrite(...) __attribute__ ((nothrow));
    unsigned int __attribute__ ((bitwidth(1))) _ssdm_op_IfNbRead(...) __attribute__ ((nothrow));
    unsigned int __attribute__ ((bitwidth(1))) _ssdm_op_IfNbWrite(...) __attribute__ ((nothrow));
    unsigned int __attribute__ ((bitwidth(1))) _ssdm_op_IfCanRead(...) __attribute__ ((nothrow));
    unsigned int __attribute__ ((bitwidth(1))) _ssdm_op_IfCanWrite(...) __attribute__ ((nothrow));


    void _ssdm_StreamRead(...) __attribute__ ((nothrow));
    void _ssdm_StreamWrite(...) __attribute__ ((nothrow));
    unsigned int __attribute__ ((bitwidth(1))) _ssdm_StreamNbRead(...) __attribute__ ((nothrow));
    unsigned int __attribute__ ((bitwidth(1))) _ssdm_StreamNbWrite(...) __attribute__ ((nothrow));
    unsigned int __attribute__ ((bitwidth(1))) _ssdm_StreamCanRead(...) __attribute__ ((nothrow));
    unsigned int __attribute__ ((bitwidth(1))) _ssdm_StreamCanWrite(...) __attribute__ ((nothrow));
    unsigned _ssdm_StreamSize(...) __attribute__ ((nothrow));




    void _ssdm_op_MemShiftRead(...) __attribute__ ((nothrow));

    void _ssdm_op_Wait(...) __attribute__ ((nothrow));
    void _ssdm_op_Poll(...) __attribute__ ((nothrow));

    void _ssdm_op_Return(...) __attribute__ ((nothrow));


    void _ssdm_op_SpecSynModule(...) __attribute__ ((nothrow));
    void _ssdm_op_SpecTopModule(...) __attribute__ ((nothrow));
    void _ssdm_op_SpecProcessDecl(...) __attribute__ ((nothrow));
    void _ssdm_op_SpecProcessDef(...) __attribute__ ((nothrow));
    void _ssdm_op_SpecPort(...) __attribute__ ((nothrow));
    void _ssdm_op_SpecConnection(...) __attribute__ ((nothrow));
    void _ssdm_op_SpecChannel(...) __attribute__ ((nothrow));
    void _ssdm_op_SpecSensitive(...) __attribute__ ((nothrow));
    void _ssdm_op_SpecModuleInst(...) __attribute__ ((nothrow));
    void _ssdm_op_SpecPortMap(...) __attribute__ ((nothrow));

    void _ssdm_op_SpecReset(...) __attribute__ ((nothrow));

    void _ssdm_op_SpecPlatform(...) __attribute__ ((nothrow));
    void _ssdm_op_SpecClockDomain(...) __attribute__ ((nothrow));
    void _ssdm_op_SpecPowerDomain(...) __attribute__ ((nothrow));

    int _ssdm_op_SpecRegionBegin(...) __attribute__ ((nothrow));
    int _ssdm_op_SpecRegionEnd(...) __attribute__ ((nothrow));

    void _ssdm_op_SpecLoopName(...) __attribute__ ((nothrow));

    void _ssdm_op_SpecLoopTripCount(...) __attribute__ ((nothrow));

    int _ssdm_op_SpecStateBegin(...) __attribute__ ((nothrow));
    int _ssdm_op_SpecStateEnd(...) __attribute__ ((nothrow));

    void _ssdm_op_SpecInterface(...) __attribute__ ((nothrow));

    void _ssdm_op_SpecPipeline(...) __attribute__ ((nothrow));
    void _ssdm_op_SpecDataflowPipeline(...) __attribute__ ((nothrow));


    void _ssdm_op_SpecLatency(...) __attribute__ ((nothrow));
    void _ssdm_op_SpecParallel(...) __attribute__ ((nothrow));
    void _ssdm_op_SpecProtocol(...) __attribute__ ((nothrow));
    void _ssdm_op_SpecOccurrence(...) __attribute__ ((nothrow));

    void _ssdm_op_SpecResource(...) __attribute__ ((nothrow));
    void _ssdm_op_SpecResourceLimit(...) __attribute__ ((nothrow));
    void _ssdm_op_SpecCHCore(...) __attribute__ ((nothrow));
    void _ssdm_op_SpecFUCore(...) __attribute__ ((nothrow));
    void _ssdm_op_SpecIFCore(...) __attribute__ ((nothrow));
    void _ssdm_op_SpecIPCore(...) __attribute__ ((nothrow));
    void _ssdm_op_SpecKeepValue(...) __attribute__ ((nothrow));
    void _ssdm_op_SpecMemCore(...) __attribute__ ((nothrow));

    void _ssdm_op_SpecExt(...) __attribute__ ((nothrow));




    void _ssdm_SpecArrayDimSize(...) __attribute__ ((nothrow));

    void _ssdm_RegionBegin(...) __attribute__ ((nothrow));
    void _ssdm_RegionEnd(...) __attribute__ ((nothrow));

    void _ssdm_Unroll(...) __attribute__ ((nothrow));
    void _ssdm_UnrollRegion(...) __attribute__ ((nothrow));

    void _ssdm_InlineAll(...) __attribute__ ((nothrow));
    void _ssdm_InlineLoop(...) __attribute__ ((nothrow));
    void _ssdm_Inline(...) __attribute__ ((nothrow));
    void _ssdm_InlineSelf(...) __attribute__ ((nothrow));
    void _ssdm_InlineRegion(...) __attribute__ ((nothrow));

    void _ssdm_SpecArrayMap(...) __attribute__ ((nothrow));
    void _ssdm_SpecArrayPartition(...) __attribute__ ((nothrow));
    void _ssdm_SpecArrayReshape(...) __attribute__ ((nothrow));

    void _ssdm_SpecStream(...) __attribute__ ((nothrow));

    void _ssdm_SpecExpr(...) __attribute__ ((nothrow));
    void _ssdm_SpecExprBalance(...) __attribute__ ((nothrow));

    void _ssdm_SpecDependence(...) __attribute__ ((nothrow));

    void _ssdm_SpecLoopMerge(...) __attribute__ ((nothrow));
    void _ssdm_SpecLoopFlatten(...) __attribute__ ((nothrow));
    void _ssdm_SpecLoopRewind(...) __attribute__ ((nothrow));

    void _ssdm_SpecFuncInstantiation(...) __attribute__ ((nothrow));
    void _ssdm_SpecFuncBuffer(...) __attribute__ ((nothrow));
    void _ssdm_SpecFuncExtract(...) __attribute__ ((nothrow));
    void _ssdm_SpecConstant(...) __attribute__ ((nothrow));

    void _ssdm_DataPack(...) __attribute__ ((nothrow));
    void _ssdm_SpecDataPack(...) __attribute__ ((nothrow));

    void _ssdm_op_SpecBitsMap(...) __attribute__ ((nothrow));
    void _ssdm_op_SpecLicense(...) __attribute__ ((nothrow));

    void __xilinx_ip_top(...) __attribute__ ((nothrow));


}
# 9 "<command line>" 2
# 1 "<built-in>" 2
# 1 "src/rnn.cpp" 2

# 1 "src/../weight/dense_bias.h" 1
# 3 "src/rnn.cpp" 2
# 1 "src/../weight/dense_kernel.h" 1
# 4 "src/rnn.cpp" 2

# 1 "src/../weight/lstm_kernel_o.h" 1
# 6 "src/rnn.cpp" 2
# 1 "src/../weight/lstm_kernel_c.h" 1
# 7 "src/rnn.cpp" 2
# 1 "src/../weight/lstm_kernel_f.h" 1
# 8 "src/rnn.cpp" 2
# 1 "src/../weight/lstm_kernel_i.h" 1
# 9 "src/rnn.cpp" 2
# 1 "src/../weight/lstm_bias_c.h" 1
# 10 "src/rnn.cpp" 2
# 1 "src/../weight/lstm_bias_f.h" 1
# 11 "src/rnn.cpp" 2
# 1 "src/../weight/lstm_bias_i.h" 1
# 12 "src/rnn.cpp" 2
# 1 "src/../weight/lstm_bias_o.h" 1
# 13 "src/rnn.cpp" 2
# 1 "src/../weight/lstm_recurrent_kernel_c.h" 1
# 14 "src/rnn.cpp" 2
# 1 "src/../weight/lstm_recurrent_kernel_f.h" 1
# 15 "src/rnn.cpp" 2
# 1 "src/../weight/lstm_recurrent_kernel_i.h" 1
# 16 "src/rnn.cpp" 2
# 1 "src/../weight/lstm_recurrent_kernel_o.h" 1
# 17 "src/rnn.cpp" 2
# 1 "src/../weight/softmax_bias.h" 1
# 18 "src/rnn.cpp" 2
# 1 "src/../weight/softmax_kernel.h" 1
# 19 "src/rnn.cpp" 2
# 34 "src/rnn.cpp"
typedef float data_t;
# 43 "src/rnn.cpp"
data_t c[128] = {0};
data_t h[128] = {0};
data_t lstm_bias_c[128] = {-0.02717033,-0.032783072,0.03171772,0.012575462,0.028305707,0.006947504,0.0042212354,-0.016410014,-0.0041181673,-0.013273541,-0.028694399,0.012552982,0.03615086,0.006971119,0.029105252,0.03037834,-0.027570639,-0.0063648922,0.018068785,0.00839253,0.010922485,-0.016254012,0.022038087,0.009526038,-0.00054502697,0.017576985,0.00461716,-0.010098754,0.02991594,-0.015083384,0.028242195,-0.012585256,0.002476731,0.0084846495,-0.017125938,-0.0063413726,0.019500632,-0.046208538,-0.039270625,0.02618315,-0.011781203,-0.013499089,-0.0029911753,-0.012342808,-0.010423361,0.014185525,-0.022936933,-0.016363831,0.014084982,0.007311566,-0.0021086847,0.005099185,-0.0006315037,0.04307641,-0.024662359,0.024456054,0.0009496576,-0.010427678,-0.013281588,-0.018495318,-0.015930627,-0.005185623,-0.046265848,-0.02513592,0.018914446,0.005536027,-0.008535456,-0.02743916,0.013865703,-0.009219091,0.0067702895,-0.012537395,-0.031863924,-0.01339259,-0.0058612344,-0.00619886,-0.005544606,-0.015487152,-0.010840736,-0.040530942,0.010256384,-0.022433463,0.022366859,0.011943838,0.008947333,0.008064958,-0.015182992,-0.03172924,0.012956582,0.02193977,0.028102923,0.0072287805,0.010865355,0.03563223,-0.0061032637,0.025455888,0.0072461814,-0.020811617,-0.0072447397,0.0050448235,0.062379006,0.014467463,-0.027652422,-0.017424937,-0.048815172,-0.018452628,-0.0027255202,-0.020285591,0.03364666,-0.017544774,-0.017811293,0.027325723,0.018174335,-0.013142015,0.04471987,0.014830179,-0.041210186,0.056072064,-0.037018992,0.013016787,0.036209103,0.0106848115,0.016546337,0.017505659,-0.0004947304,0.006980845,-0.012329079,0.032098647};
data_t lstm_bias_f[128] = {0.98087597,0.9627911,1.0301802,1.017358,0.96838516,1.0346785,1.0297117,1.0373282,1.0426761,1.0607429,0.99582845,1.0242721,0.9847813,1.0249586,1.0186827,0.94946086,0.9624555,1.0577123,1.0134381,1.0393624,0.99340874,1.0270847,1.0087698,0.98834187,0.99857146,1.0149504,1.0030338,1.0146482,1.0140948,0.9584779,0.974881,1.0656471,1.0007077,1.0135372,0.98653924,1.0180123,0.99586564,1.0076423,1.0308237,0.9796667,1.0118139,0.96415406,1.0428436,0.95598286,1.0405681,1.0059215,0.91623265,1.0030662,1.0344748,0.99063367,1.0114524,0.9735782,1.0182757,0.99450684,1.0073272,1.0014045,1.0413278,0.9880036,1.014987,1.0129594,1.0030296,0.99539614,1.0075058,1.0808288,0.97601557,0.96543175,1.052571,1.0828074,1.0115377,1.0023645,0.96497774,1.0184697,1.0141245,1.0161449,1.032879,1.017029,0.98385805,0.9265805,1.0175028,1.0392486,0.9920053,0.97630894,0.93405426,1.0069579,1.0186048,1.0853058,1.0572045,0.9893944,0.9832957,1.0439245,1.0054625,0.9488853,1.0466508,1.033189,1.0566612,0.9742223,1.0400473,1.0066344,1.0001668,0.9983602,1.002736,1.0159417,1.0010738,0.9155299,1.0450207,0.99271876,0.94039077,1.0391468,1.0228219,0.9660713,1.0308294,0.9531558,1.0128399,0.97730464,0.9750673,0.9595853,1.0103977,0.97977245,0.98422045,1.0230817,1.0034374,0.9894636,1.0321118,0.965214,0.9933154,1.0188079,1.0447613,0.9468022};
data_t lstm_bias_i[128] = {0.010451591,-0.05248501,-0.02338536,-0.021854512,-0.044115875,-0.040526737,-0.001865753,0.006815944,-0.024282815,-0.0797399,0.04988988,-0.061766483,-0.012123015,0.099359505,-0.055200394,-0.020636192,-0.030111883,-0.06893042,-0.037405685,-0.004784893,-0.0394973,-0.0405338,-0.06333535,-0.03125508,0.01870033,0.07301198,-0.054938912,-0.04214503,-0.02136055,-0.058268957,0.008890309,-0.0028953576,-0.03729083,-0.02099115,0.021443691,0.049634907,-0.056705706,0.05828784,0.0055197743,-0.04674588,0.05347022,-0.004645097,-0.0084871845,-0.047390185,-0.053950857,0.014429605,0.023237787,-0.014022553,-0.08221361,0.023800438,-0.01021675,-0.013434406,-0.0052551455,-0.03554134,-0.03904618,-0.02557242,-0.004902778,-0.06415222,-0.02549052,-0.06945773,0.0033492448,-0.012362332,-0.033745714,-0.028922006,-0.02464312,-0.04469072,-0.08253995,-0.0045569045,-0.021125704,0.009856013,0.060802884,0.038781878,-0.023207743,0.0073933415,-0.067999735,-0.06882019,-0.079491705,0.040995426,-0.080916904,-0.027888276,0.00046632616,-0.0148746995,0.009417954,-0.0020045154,-0.12561767,-0.03948383,-0.017324284,0.023284752,-0.05435021,-0.08018213,-0.021537952,-0.005812052,0.009671516,0.026946088,-0.117440596,-0.064823866,0.007403219,-0.012398099,0.020982504,-0.015095439,-0.004041736,-0.054634526,-0.014099329,-0.042040523,0.00022589776,-0.014233118,-0.06120404,-0.045189314,-0.027978403,0.003348523,-0.013677242,-0.0055859517,-0.04525805,-0.054375574,-0.043262187,-0.0038960439,-0.017301194,-0.007055753,-0.034568053,0.0010977876,-0.026250793,-0.038001213,-0.044647116,-0.050536275,0.026140204,-0.018616494,-0.02646536,-0.016884454};
data_t lstm_bias_o[128] = {0.024053045,-0.0032457067,0.025758702,-0.0025796785,0.014935503,-0.0055844574,0.022111632,0.09018447,0.06119503,0.0832423,0.16645736,0.035366595,0.099205606,0.11868089,-0.029267052,0.039944302,0.09495282,0.006075433,-0.020705584,0.013614826,0.047597636,0.030615674,0.052391775,0.09506981,0.16754001,0.07747821,0.018106049,0.06660266,-0.016445436,-0.038298853,0.047391664,0.025884794,0.0034352841,0.0644133,0.003378105,0.07273563,-0.018073943,0.020634972,0.07420379,-0.006234328,0.061526217,0.0032510236,0.12260824,0.0103806155,-0.03299833,0.01624036,0.00097383047,-0.0042194175,0.040949997,0.052144848,0.03606018,0.16617887,0.049249247,0.020824581,0.011150198,0.05992136,0.041774973,0.055258885,0.03638165,0.002312092,0.09756133,-0.018560095,0.03703329,0.03121595,0.025608959,-0.026208801,0.03085277,0.0056022517,0.05042871,0.029116146,0.11051849,-0.008609524,0.11715718,0.056024436,-0.013149821,-0.018327188,0.041452166,0.10795059,0.023635915,0.102123484,0.13668102,0.0011415333,0.118365884,0.05352162,-0.015243758,0.01448531,-0.044021122,0.037981782,-0.004710495,0.04221814,0.05217707,0.066814475,0.034976315,0.01845311,-0.06939091,-0.045932688,0.00058218715,0.07283172,0.02063445,-0.002839791,0.013319851,-0.005683732,0.07122427,-0.04063212,0.07838922,0.072652236,0.062019408,-0.014204523,0.065996654,0.050321758,0.17476526,0.08355095,0.09366275,-0.005058559,-0.02021177,0.027927142,0.069680825,0.10438052,0.030350782,0.01342652,-0.0036114582,0.12809403,0.082885645,0.10280393,0.033130467,0.026690032,-0.05292889,0.04882649};

data_t lstm_kernel_c[28][128] = {{0.02347741,0.007999433,0.06801372,0.019487461,-0.054876775,-0.053321287,-0.00693334,-0.07859355,-0.07510464,0.041072834,0.08540076,0.04825799,-0.13674562,0.09771414,-0.078241155,0.018616762,0.0216462,-0.065559514,-0.01797511,-0.00042106723,0.02082836,-0.07355612,0.010993763,-0.06908956,-0.049548954,0.0006898461,0.025027027,0.09187067,-0.1326152,-0.013786614,0.049516916,0.029632075,-0.10190395,0.0278895,0.041266743,-0.009641934,-0.04445339,0.0055990685,0.007733936,-0.03926402,-0.06263229,0.0824446,-0.087416224,0.08715444,-0.06250945,0.04722264,0.10376197,-0.08276255,0.05689197,-0.03758111,0.0091759,0.05733819,-0.08953587,-0.019075269,-0.041538768,-0.052965738,0.04012123,0.11134045,0.0699059,0.071837015,-0.0075231073,0.09239451,-0.0072804736,0.02677995,-0.027267419,-0.025126101,-0.09417928,0.09152691,-0.035109915,0.060800053,0.0013903035,0.05214689,-0.036165267,-0.057622533,0.07288682,0.05588417,0.055523224,-0.063234486,-0.0021425476,0.116029635,-0.069852315,0.12271982,-0.099608,-0.027908623,0.0571556,0.049731348,0.010249335,-0.0512369,0.005179084,-0.007395129,-0.008581111,-0.067568004,-0.09258911,0.0077004465,-0.054681893,0.01540744,0.0609354,-0.046442006,-0.04877814,-0.026165327,-0.055828027,0.039748687,0.016089894,0.0588937,0.046601538,-0.081640296,-0.026055865,-0.015424866,-0.09924288,-0.0033596037,-0.005284619,0.06485192,0.075420484,-0.07518756,-0.071067356,-0.027958974,0.029052684,-0.1257355,-0.060042754,0.07113649,-0.06444784,0.079503864,-0.012485249,-0.10668379,-0.06751848,0.039874543,-0.0030846035,0.06693053}, {0.0022511734,-4.8754737e-06,0.010768546,-0.011343047,0.018839948,-0.08803864,-0.037488926,-0.011550384,-0.022562193,-0.03828208,0.007013111,-0.0103089865,-0.113665685,-0.042195115,-0.023010332,-0.12531254,-0.004560161,-0.08296004,-0.099642105,0.05006287,0.030185876,0.086681366,-0.11657577,0.0033862577,0.083553836,-0.08641824,-0.08835436,-0.034981363,0.062622376,-0.018629203,-0.112964794,-0.053465612,-0.08114081,-0.016645141,0.07716963,0.023936631,0.034368116,-0.043969627,0.01035918,0.07586273,-0.07228855,-0.038666807,-0.082070075,-0.0675402,-0.037413765,0.0827578,0.05980214,-0.004750844,0.08897162,-0.03616481,-0.031166997,-0.07995073,-0.02974163,0.054270037,-0.032319102,-0.0868917,-0.041661438,0.10078312,0.024444586,0.07949767,0.114093326,-0.0732398,0.06955358,0.089576654,0.0720703,-0.0014333397,-0.040950596,0.04114566,0.07895383,-0.027416874,0.023591908,-0.041504093,0.012960564,-0.035690345,0.1036844,0.025690526,0.0168064,0.049587913,-0.09275658,0.13291395,-0.09633986,0.040015027,-0.07518442,-0.10322076,-0.048732333,0.022145376,0.12010896,0.13125819,-0.032593273,0.035663743,0.037623867,0.032847535,0.08963548,0.00013890013,0.047241867,0.022615531,0.084496,0.09475785,0.036820788,-0.109673746,0.006888096,-0.06961666,-0.01740138,0.052087802,-0.037618622,0.10026558,0.0074596684,-0.028384952,-0.12235076,0.059557367,0.054779638,0.06368068,0.024680514,0.022913229,-0.030563595,0.015926216,0.10210664,-0.07421277,0.11176224,-0.060416978,-0.11476062,-0.0792918,-0.04103919,0.036776125,0.035925563,-0.076546066,0.115850426,0.060640723}, {0.10001114,0.06119467,-0.111535706,-0.116062015,-0.10962697,-0.0037512141,-0.004805684,0.0024935189,-0.019925214,0.031633336,-0.068474986,0.014622944,0.05620345,-0.09445185,-0.026702577,-0.1019594,0.09119939,-0.08686693,-0.07957948,0.0018901795,0.021371052,0.08542614,-0.11612437,0.03520999,0.09993156,0.040236384,0.048994757,-0.011900152,-0.11262175,-0.024198039,-0.068760216,0.0728228,-0.006070598,-0.040048607,0.019884638,0.013157062,0.014744218,-0.004687708,0.112136,-0.106580645,0.010607882,-0.056933068,-0.024950016,0.087216,0.01649397,0.0025974344,0.06667684,-0.054960784,-0.11255707,-0.048734955,-0.012097755,-0.064446785,0.068457104,0.03721184,0.09363939,-0.042477615,-0.036112625,-0.013908524,0.070234194,-0.02246264,0.11127116,0.108572826,0.042750783,0.027761105,0.032795064,0.047040492,0.010353693,0.1291143,-0.061208855,-0.072860606,0.06977043,0.10120966,-0.003429146,-0.023001125,-0.089788355,-0.061530136,-0.00060108607,0.10736628,0.106174104,0.06661461,0.011914775,-0.040254116,-0.046177752,0.05363972,-0.08769811,0.032971166,0.09856881,-0.04127921,0.034181904,-0.11214779,0.05011939,-0.013992746,-0.10740985,0.06452001,-0.09902862,0.036941014,0.007202463,0.038187336,-0.010516381,-0.010020216,-0.012401732,-0.06941383,0.08111726,0.039407145,0.11320083,0.017367493,0.0037155831,-0.009933991,-0.031665422,0.04962271,-0.02834701,-0.0711546,0.06476607,0.030302975,-0.060201827,0.073854215,0.044917937,-0.017649142,-0.061199315,-0.029229509,-0.016387973,0.016029071,0.029915793,-0.12060188,-0.09144063,-0.021879653,-0.07061208,0.042316083}, {0.050948206,0.1009842,-0.09694371,-0.029676206,0.062873006,0.02838064,-0.08023893,-0.0269738,-0.08984946,0.058816344,-0.032190405,-0.07073214,-0.12933825,0.0494376,-0.063526906,0.030946653,0.09120577,-0.09768848,-0.0944302,0.0776489,0.05618183,-0.08081385,-0.08800947,0.0047325986,-0.022564655,-0.023381459,-0.0035328763,0.016158586,0.0429192,0.0048370343,-0.009514225,-0.07166179,0.08212523,0.020245861,0.020169757,-0.0586169,-0.039526,0.03001495,0.07695286,0.049972605,-0.028210467,-0.054560255,-0.052505087,0.055023074,0.03717896,0.029209742,0.019268578,-0.08202947,0.028142836,-0.06942435,0.027255991,-0.024240207,-0.0904625,0.039363213,-0.04901005,-0.08829823,0.040518295,-0.06424499,0.047368694,-0.09137059,0.03887718,-0.06734938,0.020793952,-0.034047768,-0.0011252156,-0.034068175,0.06296132,-0.044821437,-0.036911607,0.07904425,-0.06601665,0.021980999,0.004486139,0.06708072,-0.04964055,0.0019306564,0.061457545,-0.02130345,-0.040820807,0.06061056,-0.0439025,0.06406104,-0.03646183,0.01370789,-0.019787507,-0.016091831,0.08172004,0.08653834,0.017637124,0.038392164,-0.05717333,0.0010324533,-0.009765828,0.0033030356,-0.062396847,0.047409385,0.021001827,-0.07463607,-0.057915993,0.025439437,0.029685177,-0.11559755,-0.017708294,-0.03092915,-0.0036532423,-0.007414744,-0.017087553,-0.018930735,-0.108804025,0.04340861,0.09198999,-0.028922215,-0.025747117,-0.031047916,-0.11399758,0.05972189,0.1332401,-0.12018023,-0.023958392,-0.072113365,0.07432563,-0.078945294,0.005339579,-0.10507927,0.0011369303,0.031083046,-0.06515171,-0.08186473}, {-0.019808078,0.09740119,-0.080961466,0.055902965,0.046280656,0.002510019,-0.027931903,-0.0476726,0.067002125,0.082716115,0.11796147,0.0065556467,-0.035216313,0.027327586,-0.021862186,-0.08405207,0.013281702,-0.049235824,-0.03320511,-0.07136174,-0.073215686,0.08935733,0.058395248,0.051668786,0.0053334236,-0.13453513,0.07438496,0.053765927,0.012537989,0.06474346,0.017189087,-0.03592238,-0.03615329,0.0065190336,-0.019811822,-0.03230333,0.08648654,-0.042168852,-0.036718883,0.018598685,0.044999518,0.05351203,0.09323053,-0.08488367,0.065303825,-0.007969697,-0.0293849,0.06316893,-0.11616488,-0.10306091,0.048355382,-0.08957054,0.069962956,-0.10910813,0.016622964,0.071566075,-0.09541121,-0.08075332,0.0722659,-0.06742926,-0.00682114,-0.029538209,0.09096403,-0.03951607,-0.11553459,0.03913594,0.08730231,-0.048691966,-0.029705556,0.055393834,-0.09280547,-0.004406757,0.11060982,0.013925539,-0.016091099,0.06118299,-0.012230465,-0.08547507,-0.07266944,-0.01184711,-0.058776382,-0.06368839,-0.023031631,0.07004975,0.08424483,-0.11321458,0.015187201,-0.034686588,-0.0029818458,0.01338756,-0.063587695,-0.0063603073,-0.033896487,0.03255786,-0.09041917,0.01367599,-0.01638959,0.06295879,-0.04803437,0.01808293,-0.06220877,-0.108629495,0.00092037854,-0.046762027,0.022022635,0.017646471,0.045403946,-0.050719004,-0.039834287,0.018137446,-0.023316529,-0.08416354,0.008805693,0.1167119,0.07912171,-0.026512267,0.100006826,0.002043515,0.074310556,-0.0028289326,-0.100826986,0.033615522,0.04467627,0.002653797,-0.04299339,-0.06681802,-0.058518615,-0.06981683}, {0.074696265,0.0056819394,-0.10442054,-0.0841246,-0.06419945,-0.005511366,-0.059786517,0.00823812,-0.0652577,0.044543527,0.081135705,0.053075984,-0.027825853,0.027808802,-0.010036209,0.010719043,-0.111289024,0.00828572,0.035109874,-0.09246383,-0.107915774,0.032919835,0.055572372,0.010859139,0.007333348,0.027919332,0.09454515,-0.0024952388,-0.079927966,0.06654989,0.035124857,-0.11141514,0.09032856,0.030655207,-0.031062935,-0.0775106,0.131666,0.08997768,-0.13363948,0.06537682,0.18587755,-0.053175636,-0.037185322,0.101800166,0.0949314,-0.112738386,-0.024064597,-0.0015138227,0.090893716,-0.08920407,-0.03493233,-0.019388976,0.13026634,-0.10296353,0.12141237,-0.084948376,0.07942532,0.043651946,-0.09799659,-0.008000243,-0.027405271,0.09739663,-0.04905133,0.0065308027,0.059153132,0.049380668,-0.0303404,0.121378034,0.05937978,0.018734464,0.06550124,0.013824427,-0.057956617,-0.028634354,0.047484294,-0.10076179,-0.043923523,0.0858799,0.09071426,-0.055171557,-0.063018404,-0.036132343,0.08091917,-0.03540967,-0.015996587,-0.15842572,0.032947056,0.09003904,0.010387231,-0.03112699,-0.041299243,-0.004852347,-0.048587076,0.0019177337,-0.0066392487,-0.09731187,0.059198413,0.08207457,-0.008930329,-0.04047035,0.010239975,0.07541188,-0.08530909,0.059567656,-0.1044733,0.06689476,0.11306299,0.024431102,0.093762405,-0.053475823,-0.11446538,0.007907682,-0.04518644,-0.011220751,-0.0048325006,0.023131063,0.01644731,0.05508928,0.041136943,0.048070494,0.108520396,0.01312521,-0.05300335,0.060469806,-0.098063946,0.018265175,-0.08348676,0.04507089}, {-0.06598141,-0.011202267,-0.06976132,0.017785456,-0.082115635,-0.0521041,0.03298406,-0.013126031,0.007097533,0.049223144,-0.0038655992,0.12050351,0.09542145,0.10118665,0.08044453,-0.098407,-0.10112316,0.019742448,0.094549745,-0.11139083,0.01077391,0.016060341,-0.025257487,0.09330775,-0.106159315,-0.041316792,-0.04529036,-0.084524564,0.026070768,0.0053740353,0.08473933,0.07346752,0.06930392,-0.11141162,-0.06987993,0.052571468,0.061524276,0.027966172,-0.09242431,0.029451732,0.1562726,0.12191426,0.037759643,0.038916226,0.06159825,0.053720675,-0.015690994,0.06922451,0.061997034,-0.080451414,0.004510312,-0.044682506,0.08261952,0.07231781,-0.04070341,0.004171286,0.029324034,0.08121955,-0.06030097,-0.058699396,-0.15912022,0.14123243,0.007493444,0.0019390758,-0.020545226,0.03434905,-0.10126026,-0.001129537,-0.100359485,0.012440489,0.08440775,-0.011185235,0.055904314,0.075471036,0.04359669,0.011305368,-0.12053338,0.09562165,-0.05255127,-0.09185503,-0.06486224,-0.001045683,-0.030040585,-0.09392296,0.04680835,-0.13672636,-0.02857649,-0.042963903,-0.092759974,-0.07361844,0.057112467,0.090732776,0.036448758,-0.012475817,0.08593012,-0.011448635,-0.018658176,0.06172835,0.117271595,-0.005170633,0.08931692,0.09654284,0.11782082,-0.07179137,-0.17384784,-0.108125694,-0.036270797,-0.05323565,-0.06490438,-0.12140715,-0.12653014,0.015278503,-0.06629325,-0.019448744,-0.01830624,-0.053951103,-0.070825115,0.08969074,0.07911947,-0.0024730524,0.040813748,0.10817197,-0.00059850985,-0.004991779,0.040299807,0.025039034,-0.07651654,-0.071462475}, {-0.049384397,0.038798604,-0.015091689,-0.046263218,0.01289391,-0.048886966,-0.020641472,0.051794328,-0.021622267,-0.08058345,0.032886043,0.05849456,0.07682029,0.083785065,0.09616511,0.108921595,-0.124381945,0.08584957,0.05436703,-0.04534923,-0.085140385,-0.06589133,0.08269342,0.09724132,-0.09032487,-0.12002595,0.048543587,-0.06282353,0.05044856,-0.07122523,-0.017848223,0.008368782,-0.10417228,-0.045993507,-0.100346945,0.07729106,0.1573537,-0.054941233,-0.19301866,-0.10371708,0.071116365,-0.01325974,0.05660929,-0.011627565,-0.06709193,-0.11546904,-0.11607483,0.03670587,-0.10825054,-0.081543416,-0.06413245,-0.06922346,0.14209725,0.10291213,0.13198662,0.072908334,0.07893631,0.069225945,-0.04047451,-0.080011636,-0.10019376,0.13167067,0.11068808,-0.013371216,-0.013062955,0.070668705,-0.006910596,0.036174968,-0.045677252,0.009677246,0.05002177,-0.1352665,-0.07673845,-0.029669393,-0.013980708,0.036216196,-0.08895006,0.0658375,0.12311081,-0.049968082,0.049838323,0.14815824,0.053345304,-0.0001255261,0.00013135542,-0.049863167,0.082995005,0.048482284,0.08816903,0.12119657,0.09706571,-0.042298526,-0.0104506835,0.059162535,0.118086696,-0.004766694,-0.10757659,-0.054596256,0.083393976,0.104237616,-0.009669034,0.0016199402,0.009303575,0.07978009,-0.15524998,-0.051566284,0.045835894,0.066623814,0.046370976,-0.12625672,0.036128737,0.09103526,0.092775226,0.08187868,0.042121947,0.08409559,-0.04162567,-0.03195493,-0.012562393,-0.08406245,0.06017841,0.095606364,0.023243181,0.10005926,-0.023825455,-0.049573302,0.012755713,-0.067385525}, {-0.070456326,0.001532528,0.06909823,-0.085807726,0.07463507,-0.009843129,-0.041131485,0.111714914,-0.006492614,-0.043035462,-0.03858634,-0.006767631,0.110742405,-0.042814124,0.16728859,0.11832174,0.039077424,-0.09728361,-0.028706437,-0.08515379,-0.046617478,-0.1456888,0.040006265,-0.04251719,-0.05796401,-0.04125009,0.15664038,0.0654133,-0.05514442,0.039974157,0.07038545,-0.060222078,-0.095002756,0.072364725,-0.100608915,0.00607203,0.10714144,0.04410502,-0.09175788,0.039861992,0.10705812,-0.06609194,0.06487681,0.12349682,-0.046300154,-0.06962626,-0.06339529,0.046097763,-0.06631376,-0.048580933,0.08910812,-0.048770357,0.16494377,0.09312703,0.08083995,-0.010625308,-0.027801579,-0.0806628,-0.07347676,-0.03918948,-0.07790158,0.0103997765,0.118975,0.0063102194,-0.006858178,-0.0004882873,0.03304921,0.016783798,0.011971703,-0.049289014,-0.037097108,0.054665826,0.01482498,0.002200599,-0.08612916,-0.118427254,0.043942977,-0.057874862,0.012942514,-0.17983851,0.0046424204,-0.018603303,-0.030612271,-0.14103813,-0.0084760655,-0.103072755,-0.048011348,-0.018397832,0.01482515,0.123063006,0.04268007,0.039141633,0.06916299,0.15946715,-0.015169593,-0.15699612,-0.016298959,0.04943387,0.0100342985,0.06558757,0.030979844,-0.110087894,0.020004654,-0.089395516,-0.17496502,-0.013412797,0.12606473,0.0021904972,0.12095779,-0.040195532,0.016068704,0.08745026,-0.034895882,0.11944592,-0.055768557,0.04701535,-0.12683459,0.17161761,0.08193302,0.10143965,0.13199593,0.084254175,-0.11752844,-0.019349772,-0.09613204,0.091730826,0.11532099,-0.084694386}, {0.05569994,-0.08014694,-0.09189653,0.02995569,0.07093003,0.12368147,0.016723815,-0.07466115,-0.08518705,0.111868136,-0.18068133,0.06671846,-0.020937612,0.1264227,0.12913504,0.012967272,-0.0790484,0.012458481,0.0011240044,0.081338696,-0.0376137,-0.026112989,0.0018683873,-0.032751832,-0.08170932,-0.06391281,0.13226618,-0.08601819,0.101127505,0.1256629,0.10932491,-0.18185888,-0.11974676,-0.017195608,-0.046961404,0.07761604,0.14714833,-0.038179427,-0.20526093,-0.06102314,0.15273786,-0.06133885,-0.038253225,-0.024576016,0.0661039,0.008121772,-0.033064347,0.08184955,-0.020365058,-0.079158075,0.020752626,-0.027247142,0.17624745,0.050208632,0.075248346,-0.09549259,0.13813324,-0.04254851,0.097649254,0.09385108,-0.115330234,0.10644984,-0.009883138,0.06551988,0.007111775,-0.07781912,0.07416662,0.14822088,0.12340062,-0.06085802,-0.022252105,-0.11141092,0.14431557,-0.0054859193,0.09218446,-0.08449693,0.15010236,0.1023209,0.09895785,-0.12072937,0.120347135,0.07270287,0.08488032,-0.09710726,-0.0091189025,-0.026913028,0.0038580617,0.044472374,0.0021859424,-0.042534713,0.08246973,0.06048497,0.084490374,-0.015221805,-0.08202346,-0.15639341,0.049196173,-0.12193281,0.07975399,0.077086404,0.012837,-0.04574676,-0.047286414,-0.17370313,-0.22410469,0.008213341,0.16438097,0.0024643955,0.20532893,-0.112239406,-0.104613625,0.023080526,-0.009236731,0.016288292,0.11806831,0.053687863,-0.03774948,0.18832542,0.0655166,0.13886328,-0.06608498,0.053486645,0.062115557,0.12193992,0.009970147,0.019450745,-0.034559853,-0.18372753}, {0.04239028,0.07328727,-0.07338846,0.07731228,0.19036996,0.12614357,0.07222312,-0.026378062,0.062020984,-0.015893497,-0.13258496,0.12708001,0.020324297,0.05983272,0.06954362,-0.005797017,-0.15784943,0.11724579,0.046500202,0.067891486,0.04613931,0.061879903,0.055016987,-0.0780854,0.007132452,0.04195279,0.05644853,-0.06312871,0.20224862,-0.086900026,-0.09777258,-0.1381553,-0.0769009,-0.120196134,-0.042161856,0.06476522,0.05474336,0.0024004127,-0.23525411,0.13626167,0.03549116,-0.037320405,0.05785415,-0.025166992,-0.056592144,0.0016537381,-0.074432015,-0.014416688,0.008245358,0.06309402,-0.07206038,-0.07798845,0.077777795,0.022778396,0.024021707,0.030612558,0.06928528,-0.112331904,-0.010773487,-0.033338632,-0.053534478,-0.024953572,0.11031126,-0.08011768,0.10219733,0.06267105,-0.084561594,0.012823114,0.07033788,-0.020129398,0.09834054,0.03979482,-0.007859414,0.06476901,-0.025270417,-0.00083961757,0.12625475,0.114975564,0.09442136,-0.14853905,0.034725014,0.10263967,0.121333435,0.021372268,-0.15947537,-0.0024946958,-0.10987633,-0.005653137,0.06289772,0.101808086,0.048548948,0.068534054,0.0052766996,0.10398961,-0.05170246,-0.08842125,0.09799611,-0.05418967,-0.05921931,-0.022434501,0.09284234,0.0013942256,-0.06258535,-0.06993688,-0.17117071,-0.17835234,0.20969766,-0.09762993,0.12198204,-0.014430256,-0.16563898,0.116315395,0.09758515,0.13355927,0.10097647,-0.08886457,0.013810513,0.15459548,-0.030899854,0.10175077,-0.00068157155,-0.08032828,0.08927477,0.11527062,0.10499817,0.019579582,-0.043020267,0.013184082}, {0.04347071,0.08674279,-0.10633053,-0.04971985,0.059862316,0.15186028,0.12514265,-0.038158268,0.10471753,-0.10726749,-0.2105961,0.1434378,-0.011008048,0.04088633,-0.06302849,0.0996847,-0.16063589,-0.015690712,-0.08890242,-0.0050003547,0.04705602,-0.08601175,0.0951004,-0.1061496,0.13526946,-0.020828232,0.13028812,-0.05442129,0.18756448,-0.12764527,-0.109742515,-0.059482265,0.1189934,-0.09143344,-0.112175405,0.021356996,-0.013500744,-0.027013613,-0.009876392,0.122803986,0.0045096967,-0.10146295,0.10817034,0.16718045,-0.059212398,-0.09913094,-0.070244804,-0.020240847,0.07693394,-0.09334918,0.064222194,-0.124174096,-0.019552588,0.0024576308,0.014152742,0.03028954,0.15207034,-0.038670108,0.09615793,-0.081403464,0.04936155,0.040490612,0.0838892,0.010853887,0.038999498,0.052614603,0.05414073,0.10801806,0.054100398,0.04643959,0.1570327,-0.033055723,-0.12909256,0.18892798,0.120422415,0.077764384,0.15035187,0.0823888,0.19441208,-0.22405045,0.09401533,0.010515211,0.11837871,-0.03264802,-0.09854776,0.02964051,-0.12271258,-0.07899541,0.099726774,0.21653232,-0.116558224,0.16316147,-0.00070967845,0.08139813,0.0092334645,-0.09103095,-0.031855512,-0.09244664,0.00026109535,-0.007590558,-0.10338939,-0.102450036,0.025778009,-0.15695007,-0.0499046,-0.16613567,0.08331173,-0.12765582,0.18061438,0.13293405,-0.14388579,0.16993858,0.0970965,0.099506065,-0.12652332,0.0706352,-0.18280631,0.17805342,-0.04049661,0.025282584,-0.07741005,-0.20780267,0.006186565,0.22054467,0.039204307,0.13682,-0.031189946,0.06013449}, {-0.08444993,0.09107454,0.04532917,0.030929904,-0.014051949,0.040333748,-3.801653e-05,-0.19810192,0.07868049,0.07166768,-0.098792456,0.20800152,0.017412437,-0.099357516,-0.0065982854,0.12010195,-0.15184729,-0.04821776,-0.02663747,-0.022768477,0.045133274,-0.0023799355,0.1229662,-0.02720794,0.1877851,0.1204208,0.018912967,-0.11136103,-0.0545946,0.06368907,-0.079159394,-0.065689765,0.019317681,-0.043163277,0.068595305,0.17436059,-0.032881532,-0.07420196,-0.044626564,0.011576146,-0.1467608,-0.0016089266,0.099197514,0.09725459,-0.03222207,0.08363662,0.02643483,-0.023846652,0.06943786,0.013944064,0.06232658,-0.029305933,-0.09756212,-0.0823687,0.056766983,0.05673308,-0.09066003,0.06382931,-0.09177585,-0.09217313,-0.037018776,-0.040017273,0.037363093,0.05799381,-0.09493098,-0.05059216,-0.030574588,-0.019249214,0.17551948,0.15669982,0.024286129,0.0096031455,-0.16114643,0.14872058,0.0827193,0.20380197,0.20085792,0.059942342,0.062281273,-0.2740816,0.017567048,-0.09608031,0.1549617,-0.11851782,0.020087529,-0.020441758,-0.08943015,-0.1302269,-0.017415244,0.1524592,0.010257064,0.21287851,-0.06622587,-0.101735815,0.1517937,0.10643046,-0.023666048,-0.07164009,0.008446498,0.03308435,-0.043528225,-0.028284628,0.08937389,-0.11461866,-0.048521183,0.0742721,0.013820524,-0.055571117,0.23044544,-0.029836219,-0.08184362,0.17020771,-0.012308654,0.24027811,-0.066059805,-0.06542737,-0.15439117,-0.03517687,-0.018471893,0.22326446,-0.011287198,-0.15410581,0.14410031,0.22625554,0.24570218,0.12718737,0.16742478,0.15892242}, {-0.11075195,0.114569366,-0.097137645,0.06266363,-0.19373487,-0.058379773,0.07235604,-0.10649926,0.03814842,-0.055084895,-0.081434324,0.073626846,0.07455941,-0.089238994,-0.15629388,0.23753855,-0.1756794,0.07572538,-0.08384506,-0.10012201,0.062296323,-0.104057014,0.18163665,-0.079073116,0.22595075,0.1282661,0.10303353,-0.07676404,-0.08858897,0.10953367,-0.1412494,-0.049876772,-0.07328152,0.046080388,0.04182639,0.030087797,0.06141599,-0.06451968,-0.0006579649,-0.14653148,-0.12942037,0.003337285,0.18183608,-0.050921135,-0.010366071,-0.015594623,-0.16664776,-0.053623192,0.08873139,0.014852767,0.025597291,-0.112278074,-0.16660295,0.08561949,0.024135616,0.21164125,-0.20563632,0.17417179,0.006115943,-0.019738644,-0.08451899,-0.17821987,0.18225342,0.056674656,0.06622592,-0.21130103,0.013352997,-0.0272468,0.20354402,0.111615814,0.1793088,0.13516897,-0.1607394,0.01855006,-0.049862906,-0.018701753,-0.020888818,0.1334989,-0.08816412,-0.07526855,0.074461594,-0.17740224,-0.064190656,-0.08966307,0.057212178,0.06382056,-0.07258447,0.12734066,-0.08128024,0.12377892,0.11370967,0.05742597,0.06418393,-0.19478276,0.088019624,-0.017312592,-0.03484537,-0.08132137,-0.14136635,-0.028918315,-0.08614221,0.119220935,0.22339372,0.08634016,0.03389243,0.11165578,0.04478098,-0.002324676,0.095591746,-0.11474643,-0.17147018,0.10097514,0.027891114,0.18147378,-0.10040166,-0.10258511,-0.20851274,-0.09815588,0.0042622616,0.07766872,-0.11355761,-0.11062863,0.11636354,0.24330272,0.17996429,0.07573023,0.110114455,0.3151712}, {-0.16657826,0.07901113,-0.09957099,0.049345233,-0.15702881,-0.09560549,0.090619124,-0.054443613,-0.08575668,0.040086057,0.0084289145,-0.014917225,-0.04391832,-0.1194608,-0.01823925,0.12657623,0.039744172,-0.0034576948,0.06308913,0.1488584,0.008575439,-0.1682377,0.17118132,0.087374955,0.04227122,0.19681615,-0.063144684,-0.13897258,-0.0010212383,0.05661875,0.11277762,-0.015332541,-0.037574306,-0.016967436,0.23849991,-0.123737685,-0.12987414,-0.15664817,-0.024986973,-0.15759262,0.01905368,0.09217728,0.16634673,-0.15366659,0.1363024,0.004733092,-0.010368194,0.00848145,0.16735192,0.01746189,-0.088313214,-0.09754466,-0.0238511,0.0750778,-0.09131989,0.11253774,0.04532317,0.13069023,-0.11491934,0.018243328,-0.20667964,-0.11394757,0.12816998,0.059160754,0.016068054,-0.22323519,0.21207468,-0.078746445,0.14203931,-0.097162805,0.1232754,0.17681472,-0.19006939,-0.069175415,-0.14476034,-0.11734131,0.0019274901,0.05771493,-0.22290432,-0.032762837,-0.07810109,-0.19021632,0.042314507,-0.10612055,-0.08455776,0.0338707,0.018120917,0.22757187,0.018765911,-0.14308675,0.12718646,0.011058728,0.1534253,-0.074204184,-0.013679083,0.047599178,-0.0021156475,0.08772301,-0.11649932,0.057250433,-0.1654838,0.24545301,0.19174618,0.11096861,0.06048705,0.23000945,0.013314192,0.16107433,0.026184982,-0.16180897,-0.07324429,-0.07502633,0.1590244,0.03195711,-0.078081414,-0.1972923,-0.037940495,-0.11719741,-0.08528992,-0.04561685,-0.2038751,-0.01712919,-0.103168055,0.084317,0.1302247,-0.023489267,-0.049529064,0.2220588}, {-0.1497228,-0.07509168,0.03245521,-0.0044405134,-0.09371769,0.066988274,0.0031410605,-0.14119089,0.083293214,-0.16906705,-0.027563937,-0.050704826,0.09255504,-0.060349874,-0.06976232,-0.15309577,0.070266455,0.025301242,0.1382387,0.13045959,0.027866488,-0.2185565,0.1930802,-0.060507406,0.04840695,0.06427045,-0.064479016,-0.20159325,0.09182145,-0.10683972,0.10426398,-0.18958326,-0.13442847,0.12827697,0.09932178,-0.17801294,-0.118179485,-0.12637106,0.09230486,-0.03294892,-0.06965396,0.12117978,0.22976129,-0.11766198,0.013650125,-0.019487936,-0.14593704,-0.13308777,0.035237357,0.03999614,0.070325375,-0.04869293,-0.10578206,0.1127401,-0.026741281,-0.09258607,0.11795027,0.015489288,-0.06557316,-0.061132886,-0.16725716,0.13382737,-0.047133006,0.122627266,0.1043764,-0.073823825,0.20080024,-0.080298185,0.045040097,-0.18609941,-0.0047840215,0.057359137,-0.12079639,0.03463585,-0.06657399,0.060448844,-0.028181793,0.11791021,-0.039595507,-0.09421071,0.013882773,-0.05123092,0.1238949,0.0200106,0.04642713,0.026227638,-0.043412175,0.14851378,-0.06827381,-0.10493064,0.042002372,0.09776356,0.14139752,0.12772283,-0.067278065,-0.07899446,0.118410915,0.09477177,0.045679554,0.14280184,-0.117055975,0.18965136,-0.02084102,-0.08821608,0.018851954,0.14927027,0.050250646,0.19002968,-0.03839687,-0.17256089,-0.1041584,-0.08618262,0.22276841,-0.16569477,-0.056274127,-0.1337771,0.05310936,-0.07784343,-0.07181261,-0.083002016,-0.11060865,-0.015094453,-0.13891296,0.053811785,-0.16689281,-0.03270289,-0.15354152,0.10598056}, {-0.11346959,-0.016349494,0.1290728,-0.0039092973,-0.09496712,0.110746905,-0.05251067,-0.08522896,0.07670732,0.016864061,0.06442254,-0.13103947,-0.09820217,0.008367427,-0.11761525,-0.077707626,0.038483933,-0.054015566,0.043915592,-0.09536041,-0.109921165,-0.18425603,0.007971227,-0.09623338,-0.017504169,0.028031783,-0.10903491,-0.18441565,0.030115295,0.017455507,0.03440576,-0.20357805,-0.07771097,0.0030064527,0.2022032,0.0579936,-0.10660162,-0.08775988,0.02707704,0.030557932,0.0772961,0.10777791,0.00044490374,-0.023964625,0.12815922,-0.07246816,-0.13220784,-0.17601044,0.07320318,0.18665066,0.10911297,-0.028148966,-0.09981071,0.11325797,-0.06297748,-0.104477204,0.11915251,0.11265683,-0.082937665,-0.04043879,0.056723323,0.1365048,-0.031476934,0.15130267,0.049156975,-0.04525112,0.06605254,0.0002463554,-0.23663239,-0.13116108,0.016628992,0.106754854,-0.014561174,0.06313419,-0.11986903,0.106500216,-0.12971288,-0.027003378,-0.14707187,0.038187675,-0.11595053,0.15276358,0.042564552,-0.13196416,0.09154849,-0.023678763,-0.11741681,-0.09865241,0.014585324,-0.05924189,0.07547811,0.07572752,0.022722708,0.15100439,-0.13131271,-0.07377563,0.109152816,-0.15731893,0.037169244,0.17266083,-0.024200825,0.15939042,-0.114536926,-0.015213508,0.019079154,0.12659797,-0.07564716,0.16959704,-0.057280812,0.002609413,0.0182203,0.121787734,0.21445812,-0.02536824,0.060727675,-0.095044866,0.07020794,0.07560416,0.016845336,0.09652623,-0.02764907,-0.054820057,-0.18731295,0.10521459,-0.014509974,0.14060129,-0.13198094,-0.07569064}, {-0.081699,-0.120290205,0.20438577,0.06557671,-0.05747155,0.093709216,-0.13214576,0.0027423715,0.11146056,0.00438318,-0.0014400287,-0.025465542,-0.032654814,0.06475724,-0.11199039,-0.119271725,0.11504085,-0.018936906,-0.027250636,-0.14259662,-0.15404421,-0.0745004,-0.0462912,-0.14724776,0.060047623,0.028535726,0.06637677,-0.20935549,-0.086170554,-0.059510253,0.14824799,-0.09097395,0.1056415,0.1465138,0.04136946,-0.0894956,-0.13612537,-0.1806321,-0.010966028,-0.07190257,0.0038484286,0.010307796,0.0120326225,-0.06463566,0.12085889,-0.10072509,-0.11624786,-0.10396626,-0.057375368,0.1412207,-0.051709622,-0.051511373,-0.14983861,0.02798906,0.070955135,0.09880092,0.16646296,-0.04430504,0.0009593648,0.038530346,-0.043831635,0.04855913,0.13872623,0.08685385,-0.08675767,0.09535139,-0.17550601,0.09506325,-0.05567211,-0.038097583,-0.0032477132,-0.099344954,-0.11763065,0.13045357,-0.009805172,0.08762144,-0.11337537,0.067763075,-0.092533424,0.07469338,0.15464915,0.02998137,0.121783584,0.05939696,-0.016837765,-0.07188648,-0.022359893,-0.0868287,0.0077875415,-0.024765654,-0.06375773,0.06545582,0.03419485,0.074635886,-0.1003562,-0.08748752,0.08929565,-0.16528329,0.039688915,0.0867248,-0.034063824,0.0841152,-0.16705328,-0.009709243,-0.0044024955,0.01110293,-0.06233124,0.011839626,-0.064516686,0.09622348,-0.028722048,0.09927264,0.25889868,-0.0921508,0.103355564,-0.046507422,-0.08085615,-0.027868673,0.007893648,-0.03884225,0.09712134,0.019677117,-0.010489432,0.044518575,-0.13762438,0.15939376,-0.026560942,0.049796864}, {-0.02761902,-0.036211528,0.19267687,-0.08747687,-0.05335772,0.069380924,-0.08207927,0.07664365,0.05784222,0.12043829,0.053591087,-0.045445357,0.014684356,-0.08092404,-0.082298584,-0.07037931,-0.032911945,0.031735495,0.03621524,-0.08495192,-0.12438337,-0.03466945,0.097371876,0.015577316,0.032526694,-0.030688386,-0.07659783,0.041078217,-0.03215151,-0.036216944,-0.015256219,-0.13964468,0.13727012,0.02367219,-0.017498625,-0.11576076,-0.01674439,0.012259283,0.05236668,0.055090066,-0.10543456,0.07838118,-0.040071215,-0.04884308,-0.022638736,-0.027726099,-0.079949185,-0.070627585,-0.019218368,0.16047911,-0.07763581,-0.0009373347,0.015851501,-0.062556684,-0.022780178,0.036378246,0.0033267774,0.053769216,-0.08392538,0.07843055,0.049252816,0.031006666,0.08058088,-0.08058868,-0.014951338,0.004832505,-0.05703164,0.06800119,-0.13203359,-0.061682276,-0.11774789,-0.09688188,-0.10570742,0.046347175,-0.11041143,-0.015831964,-0.1337263,-0.06082479,-0.10599086,0.016801663,0.08684907,0.047555357,-0.09030687,0.13488232,0.11207437,0.041925874,-0.12961914,-0.086766526,0.102881715,0.006451702,0.070250146,-0.057252117,-0.10240859,0.026574599,-0.077062406,-0.09919635,-0.018873066,-0.09750184,-0.03585371,0.11864324,0.034432177,0.044297554,-0.1481354,0.037484787,0.033532757,0.078412555,-0.14375336,0.030364444,0.03491095,0.034269564,-0.0063532605,0.08760149,0.1588772,-0.07859852,0.13720831,-0.087632075,-0.063895345,0.0091865705,-0.015029888,0.11554699,0.08992915,-0.044312045,-0.00086164556,0.1467129,0.07221551,0.08607008,0.052762378,0.06637958}, {-0.010350957,-0.07157163,0.13451354,-0.020909486,0.0043175183,-0.07706045,-0.030912176,-0.042621832,0.08053367,0.043125357,-0.02385654,-0.037032943,0.076455966,-0.02169409,0.047257103,-0.093443,0.047855943,-0.053861097,0.08361512,0.05134359,-0.111914754,0.052199595,-0.019464867,0.05049654,-0.037016824,0.08524987,2.7961156e-05,-0.04034648,0.09573998,0.058151565,0.043815345,0.017816704,0.15330814,0.024572004,0.012910136,-0.122003004,-0.03881814,0.023638178,0.048240412,0.043262556,0.023284484,0.08911154,-0.05595229,-0.043044142,-0.031697392,-0.048613816,-0.11499493,-0.06190028,-0.03679314,0.15855853,-0.081177935,0.007833293,-0.14230391,-0.048388243,-0.07326291,0.16465984,-0.024021842,-0.0029200793,-0.039871745,0.031214407,0.069328696,-0.07618011,0.016019698,0.10125018,0.0049015963,0.028124498,-0.10555376,0.04142579,-0.06203719,-0.12333967,-0.10946692,-0.05192003,-0.14144251,-0.010264763,0.059576776,-0.09792997,-0.04472798,0.014489133,-0.118248306,0.013455174,0.04102682,-0.089485504,0.009635922,0.13761489,0.11428395,0.031800784,0.055818167,-0.15885851,-0.039327852,0.0062953415,0.0031750216,-0.025446393,-0.034624886,-0.04088026,-0.12554377,-0.099086404,-0.086101,-0.11835494,-0.010000433,0.10204849,-0.117748305,-0.021797117,0.060179688,-0.16005617,-0.032296825,-0.010510623,-0.11710581,-0.030349825,-0.027472936,-0.05160775,-0.030808536,-0.06327523,0.06377315,0.0702777,0.031712454,-0.10309704,-0.10304959,0.080618866,-0.057048205,0.053509135,0.075610176,-0.048139777,0.055498,0.041568115,0.051172324,-0.05157865,-0.0052312645,0.028633801}, {-0.06701315,-0.14451537,0.083277896,-0.10473812,-0.08922778,-0.022865638,0.061311115,0.004066748,-0.008961614,0.048869338,-0.12966697,0.062260374,0.08818087,-0.018782271,0.025561754,-0.052879617,0.1261746,0.018148541,0.07641231,-0.09122155,0.0020549214,0.009492906,0.07057674,0.081640996,0.05693152,-0.07831159,-0.05685232,0.08646155,-0.05691808,-0.08323732,0.06116014,-0.06618202,0.10831006,0.085037515,-0.0684975,-0.10158229,-0.035801783,-0.037473414,0.030462923,-0.046965547,-0.018171867,-0.026412895,0.074490294,-0.14320484,-0.0049092444,-0.05781972,0.022088781,-0.022593748,-0.11689553,0.15446399,-0.10584207,0.0790277,-0.02250573,0.018499147,-0.039428856,0.14917867,0.025956875,-0.05401235,-0.01515791,0.13434581,0.07735111,0.0011614808,-0.04061759,-0.041105725,-0.04258146,-0.030889694,-0.015986858,-0.0154248085,-0.108720124,-0.07469038,-0.12353999,0.040813103,-0.12952687,0.09400563,0.0724387,-0.14051777,0.0063097673,-0.116394915,0.0062175165,-0.039780516,0.14419745,-0.0781397,-0.030035619,0.110668704,0.028615644,-0.01221308,-0.023319237,-0.14465845,0.050281264,0.034030378,0.024683211,-0.080434114,-0.086351775,-0.019736923,0.031827137,-0.05941409,-0.07526653,-0.061035093,-0.08777597,0.080071546,0.07379297,0.0032641243,-0.058932647,-0.14183553,0.022587387,0.061528135,-0.028752318,0.114180505,0.10469223,0.0392178,-0.121939264,0.041795447,-0.0046400316,0.009056234,0.101711914,-0.12622647,-0.11833428,0.04930453,0.045615938,0.039485663,0.08092948,0.02414765,0.079288006,0.0916727,0.09435062,0.029932981,-0.08934891,-0.0062353536}, {0.012831968,-0.11917407,0.122374594,-0.002759931,0.03685214,-0.023844894,-0.045944314,-0.060417444,0.05655209,-0.09977134,-0.04335409,-0.07356534,0.13426617,0.077537365,0.02389658,0.08148885,0.115658574,0.013690649,0.11016073,0.07171093,-0.09661153,-0.016305143,-0.04282833,-0.057494864,0.071900085,0.13290973,-0.01861268,0.11726876,0.07410033,0.03800409,-0.054868206,0.06786481,0.10466598,0.04516026,-0.0732161,-0.108323485,0.025111478,-0.020879323,-0.0019304825,-0.06971645,0.0025297673,0.08382308,-0.029595919,-0.14932862,-0.037861273,0.035535064,0.061982635,0.067314364,-0.09354258,0.13341333,-0.123544544,0.09542917,-0.06242024,0.05560207,-0.08730509,0.07136399,-0.08657604,-0.046671066,-0.09947511,-0.027806962,-0.14043315,0.011197201,-0.060714293,-0.04867245,0.034083806,-0.11037178,-0.09487363,-0.06581494,-0.002874023,-0.017736062,-0.093971536,-0.112276845,0.0575259,0.027836692,-0.03497713,0.024809929,0.07315073,-0.09649877,-0.05657493,-0.01455704,-0.013917691,-0.051349625,-0.032857575,0.13973936,-0.061177216,0.08349699,-0.0351654,0.05629448,0.07468888,-0.10243114,-0.042008474,0.052566625,-0.020063575,-0.1058111,0.110405944,-0.005445374,-0.06903491,-0.122253574,-0.12478137,-0.042115204,0.07203312,0.11734231,-0.050557375,0.04801259,-0.05970586,0.027302805,-0.11958816,0.023993507,0.06688801,-0.015937462,-0.08203973,-0.13311844,-0.015811052,-0.010883785,-0.019464761,-0.10680092,-0.0827824,0.08765157,-0.041701343,0.052784376,0.07296868,-0.010899565,-0.11319277,-0.028826743,0.14757498,0.08021679,-0.011790176,0.048635647}, {-0.0453703,-0.017677782,0.04340687,0.07916923,-0.05332648,-0.009558959,-0.032477275,-0.07102588,0.09455629,-0.027449425,0.08144146,0.0147248255,-0.007379847,-0.08707216,-0.09426372,0.024738252,-0.07206595,0.06512829,0.03313842,0.068527274,0.051953897,-0.07366421,-0.057776295,-0.038073186,0.0211656,0.05741815,0.017492218,6.141759e-05,-0.081086285,0.016474385,-0.041958924,0.027125768,0.0109943515,-0.10208859,0.0146028055,0.038194396,0.0597239,-0.010644604,0.027492069,0.10080608,-0.12146926,0.14813253,-0.047750514,0.020141477,0.057116434,0.09717201,-0.0269215,-0.07297082,-0.0458307,0.11485813,-0.10547281,-0.02875451,-0.0056014094,-0.013562542,-0.040319014,0.12590638,-0.06401384,-0.083119765,-0.09457411,0.10073537,-0.09019286,-0.065319546,-0.035626046,-0.02413004,0.08250804,0.053046223,-0.1094546,-0.029346887,-0.11114886,0.11025492,-0.06967417,-0.09770619,-0.11850933,0.06317424,0.117366254,-0.043861717,-0.10453247,-0.06048654,0.09051062,-0.05705555,0.11853431,-0.095799595,0.0085363155,0.10489942,0.0011909304,-0.0053375266,-0.047917224,-0.069085,-0.05427014,-0.123530656,0.07632106,-0.12553886,0.08735934,0.050662342,-0.04415343,0.018200658,-0.077822104,-0.124991976,-0.049842495,-0.037912056,0.04598287,0.02367339,-0.03523812,-0.07075851,-0.043756805,0.11706831,-0.07825939,-0.035241175,-0.07027387,0.08137612,-0.0017817698,-0.14000313,0.00079088,-0.024509655,-0.089733854,-0.11222934,0.0048359605,0.087354265,-0.075910024,-0.00020147965,0.059528418,0.11280525,-0.04112099,-0.038762946,-0.028777596,-0.03792494,0.048292488,-0.00877042}, {0.09198181,-0.11220851,-0.00906164,0.041500926,0.013296851,0.06504663,-0.08062162,-0.08396916,0.030796165,-0.11846968,-0.031913184,-0.076957926,0.063939005,0.028793657,0.08802019,-0.111426674,-0.053494465,0.023972383,0.07133087,0.13961786,0.09303721,0.040284704,-0.10576017,0.025103545,0.10529847,0.06636945,-0.08367586,-0.008095664,0.021797052,-0.083899334,-0.026781667,0.024146065,-0.07690304,0.007516716,0.055032898,0.06512887,-0.10664447,0.04058141,0.036015823,-0.010321825,-0.010618835,0.0024982165,0.071086,-0.10553178,-0.07766609,0.086748905,-0.010690536,-0.045470864,-0.118069574,0.08064169,0.03415959,0.03466983,-0.02877131,0.045117997,-0.1073566,0.04310119,-0.098256975,-0.068900585,-0.00407877,-0.008015796,-0.049408726,-0.05225004,-0.14382605,-0.072459854,-0.052965406,0.013693343,-0.09476995,-0.060817,-0.08149755,-0.05691855,0.0156131,-0.06652702,0.093180016,0.093144186,-0.051540326,-0.05491444,0.013646202,0.049124304,-0.060777776,0.012854522,-0.09089726,-0.053855386,-0.08888568,0.013489335,0.057999205,-0.082184434,0.098869555,0.0035861994,0.09343646,-0.11307667,0.0059009986,0.057874832,0.06313224,-0.010789726,0.06998679,-0.09654051,0.030389007,0.010180943,-0.088149816,-0.07588445,-0.024590103,0.054135308,0.14382893,-0.068833716,-0.039581105,0.028979259,-0.05958973,0.023639256,0.055237066,0.094916925,0.06881977,-0.058719892,-0.031920135,-0.053951755,0.066488355,0.031424653,-0.009485292,0.050742194,0.12652297,0.05446228,0.0017528157,-0.045804765,0.063711576,-0.05237167,0.018292453,0.03452748,0.09549214,0.06770428}, {-0.05167823,-0.010226015,-0.08281108,0.067534745,0.024299603,-0.021863122,0.0122508705,-0.009688237,-0.008774301,-0.017663782,-0.02639616,-0.09424054,-0.124880984,-0.00062293326,0.06065425,-0.032428723,-0.062662244,-0.015336103,0.10128353,0.015895426,0.09073482,0.108143315,0.00072753825,0.09573459,-0.08672536,0.06415112,0.05927428,0.09555891,-0.0063562803,-0.083980866,-0.004883558,-0.061543915,-0.09522677,-0.12661065,0.0051943357,0.13414691,-0.07226263,0.09006044,0.066032514,0.077607,0.024169844,-0.058306698,-0.038306627,0.08081423,-0.057624027,0.00874256,0.11786594,-0.051304236,0.077980496,0.10156363,0.0093036285,0.05884635,0.01996412,-0.03140475,-0.0458862,0.09636522,-0.005649616,0.057338085,0.0064440924,-0.04630089,0.056117553,-0.0898787,-0.08389227,-0.044097222,0.05207468,-0.047032464,-0.024831945,0.02013241,0.012955128,0.024607092,-0.11909249,-0.092284836,-0.011310827,0.06473721,-0.0792015,0.044701535,0.04122423,-0.023504432,0.03275427,-0.048039325,0.022359647,-0.0036944575,0.055033647,-0.02695777,0.00054716266,-0.025947459,0.10203452,0.041474644,-0.010724678,-0.019098086,0.092396446,-0.057128504,0.07942665,0.005210912,0.07622805,0.013661641,-0.035164498,0.10014031,0.08293575,-0.018037979,0.059482668,-0.054248586,-0.017798956,0.11700118,-0.06113904,-0.068938315,0.081541725,-0.008537375,0.07063915,0.078509085,0.007787809,-0.057313096,-0.091928765,-0.05762095,0.049515262,0.04072317,-0.02071612,0.05263903,-0.014565698,-0.031219548,0.06700579,-0.04017879,0.0719379,-0.119272344,-0.022189626,-0.1152171,-0.045138728,0.07538873}, {-0.06412317,0.10481597,0.009866724,0.06963754,-0.088785626,-0.09753043,0.01328645,-0.06264191,0.023847274,-0.07927894,0.053738747,-0.100525185,0.030089231,-0.0628203,-0.124661304,0.07172596,-0.07777901,0.07004245,-0.11351262,0.043245085,0.053635478,0.0766293,-0.025571315,-0.019095333,0.016360745,0.07692334,-0.09834315,-0.020485459,0.07305799,-0.023153527,-0.07971805,-0.031200781,0.026619775,0.017960249,-0.06185596,0.080072135,-0.114163674,0.021005332,0.070254155,-0.079773724,-0.02283085,-0.08224559,-0.013627335,0.07482013,-0.021397408,0.03710222,0.09739546,-0.05354808,-0.09967412,-0.0035015189,-0.0042770756,0.03117705,0.0061836136,-0.07752445,0.044968322,0.066866964,0.08608097,-0.061759166,0.09540961,0.04579485,0.109883554,-0.0691062,-0.081766956,-0.044901572,-0.070464924,0.017228741,0.015827471,0.07013296,-0.0043826303,0.07116335,-0.059868265,0.10852506,-0.025166918,0.11468183,-0.042878978,0.041372623,-0.049093317,0.019978309,-0.07511172,-0.0713649,0.08240639,-0.041217323,0.028085621,-0.069217324,0.09025315,0.06490528,-0.041422166,0.010337967,-0.03861194,-0.0028688838,-0.042317014,0.09537046,0.06277465,-0.10254695,0.09186586,-0.026072863,-0.064049155,0.020311171,0.031266015,-0.012939227,-0.038031224,0.005400518,0.11871305,0.04238885,0.12754641,-0.073184244,0.106308565,0.015375141,0.0027384288,0.023668775,-0.05430682,0.014339007,-0.09690304,-0.07475821,-0.015859239,0.047024436,0.06366941,-0.08655978,0.004886229,-0.04108463,-0.1136376,-0.08256079,0.028517744,-0.055349607,0.029437985,-0.04288735,-0.054933894,0.021625374}, {0.06719444,-0.026928391,-0.09445271,-0.02107854,-0.023080597,0.09206314,-0.10399605,0.10073783,0.013027398,0.012013819,0.05969331,0.015175199,0.026088582,-0.050732426,0.07367427,0.06353057,-0.030653317,0.021957329,0.054159824,-0.042725805,-0.08941857,-0.012665821,-0.021860221,0.057834163,0.07984576,-0.024559245,0.073632814,-0.08291638,-0.020467818,-0.045926172,0.06966289,-0.050054807,-0.042625092,0.039425313,0.05907255,0.03126684,0.040575128,0.14384645,-0.024355417,0.065020606,-0.09239207,-0.021869998,-0.0036711683,-0.08710521,-0.0679521,0.050321233,0.064716965,-0.024307778,-0.07495781,0.0021698372,0.079762846,0.042560667,-0.0028560178,0.016677149,-0.027088972,-0.092796564,-0.040263638,0.06345247,0.06845432,-0.059338875,0.11843127,-0.06435956,-0.00018010056,-0.0044223694,-0.0584911,0.07971931,-0.040189955,-0.003095249,0.01882879,0.013636211,-0.037118476,0.089529805,0.0069913543,-0.008457135,-0.05400613,-0.049359333,0.010893858,0.111791514,0.07227313,0.07314817,-0.10226749,0.06320201,0.012471474,-0.05005462,-0.030024627,-0.0013684198,0.09150349,-0.0554256,-0.038506024,0.007940752,-0.12870577,-0.07927576,-0.029440397,0.012538678,-0.0005868039,0.028996889,-0.092901826,0.021315094,-0.06514258,-0.016415225,-0.06996297,-0.03426284,-0.05292579,-0.009190901,0.13331786,-0.066287406,-0.08610568,-0.051272027,0.064092755,-0.086216964,0.10411727,0.068818614,-0.017366253,0.026022013,0.018441875,0.037766453,0.13271202,-0.09525259,-0.0009356013,-0.005927479,-0.02012998,0.052745007,-0.11523904,-0.07253078,0.080095224,-0.049315948,-0.026136527,0.037449002}, {0.0965647,0.049803894,-0.03997978,0.04279935,-0.008185419,-0.0060442924,-0.03510885,-0.031592257,0.03542467,-0.00065658207,-0.020569317,-0.10969362,0.052241713,0.08347029,0.030499445,0.04310089,0.11114999,-0.09711414,-0.10624684,-0.027196784,-0.05054647,0.07427355,-0.048236184,0.06232916,-0.018145923,0.0070688464,-0.10699153,0.10626008,-0.018112307,0.11616594,-0.043020926,0.0026524584,0.09150123,0.040441226,0.049991284,-0.032109942,0.031285178,0.05858698,0.08657743,-0.09352382,-0.050168652,-0.02928197,0.003811847,0.098940246,0.096038684,0.03691001,-0.04767059,-0.040507805,-0.0037192544,-0.072470576,0.06771539,0.0060638627,0.06245051,-0.074720845,-0.06268015,-0.09553745,-0.06805454,0.10762817,-0.017161855,-0.0065300274,0.06991265,-0.09308864,0.1343324,0.12974374,-0.10427675,-0.010213821,0.0628003,0.007743501,-0.020325074,-0.05009795,-0.038797855,0.1045967,0.11633653,0.050922044,-0.040441025,-0.028124278,0.09992321,-0.053860806,0.059325106,0.02994277,0.055954605,0.00039559207,0.0814408,0.0075499476,-0.063105926,0.041641094,-0.04614482,0.0908795,0.08974838,-0.021809608,0.012357644,0.050497126,0.06335969,-0.0030072802,-0.09708569,-0.11509389,-0.048165362,0.012910264,0.06722719,0.019473314,-0.028628815,-0.018080374,-0.06174321,0.10569742,0.07930519,0.09327949,-0.046074722,-0.009739027,-0.06246315,-0.03940274,-0.08120448,0.034744553,-0.12243155,-0.066360794,-0.14186238,0.016944438,0.092077546,-0.050789203,-0.05456794,-0.06153641,-0.066922165,0.050456483,0.07916062,0.013519571,-0.09183416,-0.0068258094,-0.07219716,-0.062472194}};
data_t lstm_kernel_f[28][128] = {{-0.06838929,0.013190071,0.045685153,0.03668925,0.116659775,-0.07925661,0.012404258,-0.021610474,-0.040552337,-0.14933273,0.010300742,-0.12120929,-0.058743,0.07487381,-0.010825344,0.086405925,0.023793295,-0.068285175,0.020920705,0.03197596,0.07304394,-0.038448036,-0.02653737,-0.041588414,-0.09359154,-0.07335688,0.05020657,-0.10823593,0.051238958,0.114568196,0.10729433,-0.006989197,0.017585784,0.004242992,-0.079329565,0.062968515,0.10481884,-0.03278596,-0.0834895,0.020012317,-0.10846392,0.03534341,-0.06060978,-0.053669367,-0.13915804,0.030598963,0.13001402,0.092855446,-0.13126266,0.027333723,0.05358393,-0.034010727,-0.056559093,-0.06549011,-0.014987407,0.08593262,0.010141472,0.07143327,0.036036458,0.03514812,-0.025609862,0.1069357,-0.095056474,-0.07625882,0.07726854,0.012528042,-0.08342837,-0.011061333,0.05722485,0.037781544,-0.012999346,0.07448908,-0.0050852527,-0.07116474,-0.09940643,-0.1213115,-0.053751796,0.14463377,0.07910896,0.045678202,-0.046669554,0.06345352,0.029846527,-0.08526975,-0.008484258,-0.12034925,-0.06981776,-0.016110836,0.07115835,0.018275455,-0.049693517,0.0040680007,-0.0128372265,-0.004971952,-0.019510353,0.04430746,-0.12872036,-0.053406503,-0.057302464,0.08513033,0.041180063,0.079116344,-0.017478827,0.07021863,-0.013118514,-0.06364741,0.11809671,0.03232473,-0.12622644,0.04572882,0.0021156918,0.008125766,-0.029456228,0.040350053,-0.020497119,0.14243565,-0.09470064,0.08709874,0.048923634,-0.01972893,0.044010963,0.1122529,-0.04337512,0.071800776,0.11162024,-0.07116403,0.04347449,0.081308894}, {0.068837576,0.03269569,0.028671205,0.08791148,0.039315697,0.038688462,0.011139548,-0.11100821,-0.046981204,-0.16290465,-0.022359729,-0.035395905,0.06399182,-0.08842596,-0.06310149,0.112545304,0.022297848,-0.069806494,-0.027238932,0.028619945,-0.059146356,-0.05488764,0.057970677,0.027525455,-0.029752858,0.055064127,0.055676777,-0.021615634,-0.01796128,0.012361555,-0.045562636,-0.06949926,0.08367117,-0.07434192,0.039779056,-0.08885909,0.0017098661,-0.09024717,0.03640244,-0.053809196,0.035135295,-0.034544777,-0.025259444,0.04323733,-0.04924041,0.08841042,0.105035074,0.099381424,-0.0008774644,-0.049493812,0.02438126,0.05005984,0.03915361,-0.022629425,-0.0069011217,0.0011908704,-0.07013399,0.083392896,0.0128962435,0.040749736,-0.107946746,0.07860753,0.035911176,-0.035313483,0.014472172,-0.06525112,0.018925136,-0.06402607,0.055085808,-0.022904534,0.05856994,0.081840165,0.088020556,0.07131039,0.037545323,0.017401868,0.026720522,0.03673806,0.041139096,-0.12640019,-0.0074805114,-0.043243233,-0.038827427,0.043983694,-0.11119254,-0.020531865,-0.020643707,0.09674309,-0.05489568,0.03576753,0.070713945,0.0066745756,-0.017507058,-0.033392146,-0.13201174,0.12301995,-0.09186532,0.09247861,-0.0022836297,0.016794628,0.03947551,-0.01925609,0.057708398,0.096586145,-0.08859455,0.074055694,0.071678504,-0.016706536,-0.06334304,-0.021318518,0.020985488,-0.049982235,0.091450155,0.055602614,-0.020185163,0.033703767,-0.04958322,0.03043197,0.04812845,-0.087462306,-0.033385236,-0.015433587,-0.026477195,0.06875521,0.029272635,-0.07173664,-0.103215404,-0.048168134}, {0.085653536,0.12156597,-0.04587723,-0.032999426,0.053672574,-0.122936234,-0.08103447,-0.14204952,-0.056922346,-0.01257195,-0.10014882,0.07107645,0.086334765,-0.1098539,-0.022914622,0.11810085,0.02932238,-0.09671012,-0.080598384,0.027472977,0.04290938,-0.13538067,0.057648584,-0.05965243,0.09907286,-0.042987138,0.014921961,0.052446734,0.007058703,0.0063440953,-0.039761562,-0.15412079,-0.070739724,0.01590615,-0.007611667,0.061636385,0.07188212,-0.083814904,-0.11465564,0.11226643,-0.00077466574,0.014460335,-0.0672843,-0.040843282,-0.040493425,-0.010730052,-0.010259898,-0.041921012,0.028133895,0.05858563,-0.06655981,0.07394232,0.0015945225,-0.052507523,0.020299567,0.0948508,-0.105287746,0.044878505,0.018505506,-0.08374283,0.014261156,0.06202592,0.009910629,0.017710706,0.09106802,-0.0329308,-0.07858595,-0.17090935,0.008466398,-0.07085392,-0.038812738,0.041795556,-0.040330812,0.012999605,0.049418643,-0.073514305,0.007882714,0.005510632,-0.1186385,0.033736926,0.026950594,-0.06427216,0.015738897,-0.10051381,-0.03021062,-0.12959336,-0.06886821,0.11351505,0.03860034,-0.06324265,0.07767495,-0.048297346,-0.08485877,-0.041344814,-0.12419913,-0.025743254,-0.034405768,-0.053088125,0.024341468,-0.019145537,0.08240911,-0.07453024,-0.096586645,-0.0044923974,0.01770194,0.008812934,0.12439312,-0.027080974,-0.08946858,0.099997066,-0.114829816,-0.03126414,0.010622341,0.11894124,0.021815075,0.07399639,-0.0068154377,0.09211647,-0.013701283,-0.07048529,-0.06525393,0.037400924,0.06655823,0.029549284,0.057734992,-0.04450992,-0.14238654,0.12624262}, {-0.05414518,0.025978917,-0.016971512,-0.009927903,0.03513357,-0.031260155,-0.0008851278,0.061966516,-0.054370716,-0.12249152,-0.044094514,-0.054941088,0.0067857765,0.013035442,-0.038678434,-0.029712802,0.1168877,-0.045486845,0.034966208,-0.016322028,-0.07050369,0.0577512,0.078435734,0.098188095,-0.03918494,0.039174434,-0.02440264,-0.076774605,-0.07652263,-0.03213718,0.03273943,-0.12047079,-0.0608185,-0.030826356,-0.088726915,0.066597834,0.06635121,0.10861919,-0.016554944,0.12499458,-0.06177069,0.08681786,-0.09092009,0.015202312,-0.123071276,0.06864967,-0.0048531983,0.004098994,-0.12398082,0.10132568,-0.019569626,0.12068525,-6.222888e-05,-0.066298634,-0.04997146,0.05666595,-0.07871501,-0.0029961907,0.091414295,0.011631907,-0.020076133,0.09715545,0.015503208,-0.17168863,-0.06162149,-0.037077587,-0.15398821,-0.11250785,-0.086708836,-0.08626261,-0.028983954,0.023000415,-0.030101566,-0.11775372,-0.13277881,0.004664741,0.12147829,0.025086278,0.080881394,0.056197472,0.075538315,0.06602582,0.16041042,0.101822786,0.03636107,-0.1478942,-0.07306804,0.10330896,-0.045298766,-0.12359359,-0.009278972,-0.02268797,0.020272478,-0.007835723,0.00029261532,0.10608883,-0.13601814,-0.02323194,0.0162874,0.06112926,0.08975459,0.001152277,-0.054908577,0.107814945,0.008330427,0.09236446,0.11614304,-0.13569507,0.042349808,0.098037034,-0.13570268,0.1149551,-0.0149392085,0.046920303,0.0071363444,0.06850205,0.09319536,0.023231274,-0.014491375,0.037638113,0.083280325,-0.07751776,-0.088067986,-0.04273498,0.11256487,-0.11173338,0.012539969,0.04534453}, {-0.00580096,0.0054951725,0.039593633,0.0010003331,-0.07198832,-0.107373394,0.0568305,-0.073348254,-0.011837283,-0.041657686,0.076129586,-0.1258918,0.1209625,-0.103657424,-0.11600148,0.052018397,-0.067912936,-0.08301472,-0.040445518,-0.025228966,0.03790621,-0.1443655,0.030166728,-0.055048946,-0.052237928,0.09571983,0.028954526,-0.081764035,-0.13688877,-0.043142065,-0.08201189,-0.07021398,-0.027873304,0.0016184864,-0.06762354,-0.08326331,-0.02400596,0.04215966,0.007829113,0.10626552,0.021456027,0.019996475,-0.0939414,0.02961647,-0.03491394,0.0014113846,0.15764496,-0.072780296,-0.04763278,-0.06582943,-0.025843909,-0.08522255,0.03650793,-0.021832535,-0.075921945,0.02550617,-0.11438194,0.048758242,-0.0049483264,0.08837794,-0.06254279,-0.007166451,-0.029763933,0.009192414,0.13201897,0.08516782,-0.064888865,-0.10448772,-0.10936837,-0.05928668,0.043480575,-0.012540271,-0.07435706,0.04421624,-0.031645518,-0.114862174,-0.057727676,-0.00078723126,0.0191415,0.050735164,0.003056719,0.006115252,0.011605169,0.06777578,-0.07491178,-0.108042374,0.06617046,-0.09155755,0.007981233,-0.10252657,-0.072075464,0.06910454,0.0447235,-0.083635926,-0.15649065,0.029379226,0.017965604,0.06802875,0.087991826,-0.051611155,0.034159724,0.06183907,0.020974083,0.1714015,-0.045527555,-0.02061351,-0.006888771,0.0012559363,-0.12983571,0.010551714,-0.009517961,-0.010852123,-0.03971765,-0.032964,0.10620022,0.026425371,-0.041534163,0.071894094,0.10306732,-0.0071735047,0.07210399,-0.029925134,-0.13197282,0.071357764,0.04588302,0.055797067,0.05822951,-0.041366577}, {0.013390454,0.010394839,-0.017880233,-0.039722487,0.11188234,0.011054032,-0.061261132,0.06982344,-0.01787939,-0.04902053,0.16814516,-0.15860908,0.12677181,0.09706804,-0.12977535,0.068970166,-0.020149257,0.041715983,0.07401363,-0.03038329,-0.014791909,-0.04339064,-0.11806392,-0.0037854922,0.12395156,0.06991105,0.0880094,0.07352282,-0.13023257,0.04679209,0.029325882,-0.0036891794,-0.050596338,0.063496985,0.08956656,0.009329402,0.0008684978,0.021283884,0.03611732,0.08425972,-0.035118327,0.12750979,0.04590342,0.0035866755,-0.05613388,-0.02476415,0.07470019,0.118783444,-0.022154296,0.00843231,0.06662837,-0.08832188,-0.13288184,-0.027424319,-0.01820353,-0.008840732,0.013392632,0.023073519,-0.037308544,-0.07015396,0.14837264,0.012073176,-0.04539815,-0.11879158,0.027970247,0.086783886,0.017521475,-0.13984388,-0.088119335,-0.097211845,-0.008436161,0.06693863,-0.05003757,-0.054554593,-0.046444308,-0.074963,-0.0011064792,0.0340389,-0.08735214,0.050936595,0.0316393,-0.063904434,0.10893711,0.10052255,-0.06808352,0.0348155,-0.059204463,0.037156682,-0.050695915,0.0022834896,0.03451335,-0.0026927388,-0.090543464,-0.020998904,-0.097718306,0.12996872,0.0014192857,0.042136423,0.05420725,0.050326623,0.09178717,-0.059877124,-0.05875317,0.017518444,-0.081661455,0.010059682,0.081556424,-0.15824841,-0.014850712,0.074491404,-0.03819387,0.05963602,0.04323506,-0.086769044,-0.04830775,0.025839599,0.06173015,-0.037773967,-0.06940638,-0.069354795,-0.07519006,0.068127014,-0.10231039,0.05099812,-0.07949341,0.067092195,-0.07866107,0.043120734}, {0.006498692,-0.06437908,0.071997136,-0.03203446,-0.052903287,0.0054543526,-0.07466787,0.12188883,-0.095392466,-0.13559224,0.1170818,-0.19917135,0.09415957,0.1020339,0.031858824,0.12919515,0.03262357,0.046051864,0.08131241,-0.0019280971,-0.008812116,-0.021709949,0.05386349,-0.058300357,0.09752238,0.07031374,0.14890045,-0.10944311,-0.05632171,0.10400711,0.0006738568,-0.08487462,-0.06319946,0.07484726,0.016301583,0.13612197,-0.051381502,0.14893039,-0.047673482,0.09582162,-0.07669354,0.045277845,0.059134405,-0.054402776,-0.06431586,0.05045662,0.027431285,0.016698489,-0.10918734,0.085701086,0.062773734,0.040020686,0.07765306,0.068661936,-0.09047626,-0.025584228,0.07255127,0.047418382,-0.07411508,-0.05091985,-0.01900387,0.055246964,-0.048057962,-0.021620395,-0.0065821786,0.118994564,0.06709566,-0.06117716,0.074434966,0.018435583,-0.019132093,-0.0020566613,-0.013261351,-0.08002184,0.019963533,-0.09434129,0.046275817,0.0011437568,0.04571542,-0.0008433852,0.0301318,-0.03834329,0.0036702384,-0.042447295,0.07444283,-0.020186512,-0.043808717,-0.009251546,-0.06626236,-0.110417224,0.049911596,-0.03931746,-0.018186636,-0.03025444,0.005470548,0.07361144,0.0671995,0.01549976,0.10879331,0.081181526,0.11115237,-0.009456965,-0.091139585,-0.005746241,0.09578178,0.04811247,0.009238297,-0.044920787,-0.12180965,-0.09306235,-0.09154709,-0.04246257,0.020993251,-0.07877668,0.0466473,0.043780196,0.08715089,-0.10866905,0.053255603,0.0001844815,-0.021021238,-0.042101618,-0.11544598,-0.041826747,-0.10729121,-0.019447818,0.10251353,0.12192054}, {-0.034448814,-0.022591861,0.013861302,-0.053600915,-0.030303894,-0.113085054,-0.0671725,0.08626054,-0.094059445,-0.09917897,0.14182362,-0.1348139,-0.02402005,0.20879076,-0.043182824,-0.007613513,-0.016256338,0.057667263,-0.06148869,-0.05767117,0.03128561,0.09674165,0.032860626,-0.07064,-0.028656067,0.10607627,0.15007555,0.023935791,-0.123684004,0.0024978088,0.050908245,-0.0613569,0.030503903,-0.059321288,-0.0572495,0.03459393,-0.03025329,0.07721893,0.033640463,-0.025772449,0.005042297,0.13726771,0.088591196,0.093721405,0.054000758,0.09122255,-0.0027906075,0.06979902,-0.02295667,-0.055420104,-0.096986875,1.0523974e-05,-0.02102085,0.06195451,-0.060195465,0.16704373,-0.038707025,-0.03888246,-0.12104397,-0.09566192,-0.004924974,-0.008830809,0.048295498,-0.0027113308,0.096012205,0.06527726,-0.050090544,-0.047752824,0.1201796,0.11705155,-0.10208386,-0.049543235,-0.1335074,-0.011601685,0.029462667,-0.0017710843,0.026920246,0.06194771,0.0351436,-0.045125093,0.10981777,0.07086827,-0.08337409,-0.02266228,-0.107508,-0.00093779695,0.044939563,-0.014283089,-0.03831682,-0.093167804,-0.124803625,-0.062155448,-0.08000862,-0.05386882,-0.10171754,0.0839268,0.020097118,0.046543613,0.0770994,0.041465566,-0.063397355,0.04753829,-0.018274933,0.067090094,0.124765866,-0.088822484,0.116403215,-0.13214909,0.12550408,-0.081458636,0.007714577,-0.0325763,-0.08137209,0.046125405,0.06467853,0.103575,0.046913203,-0.118281305,0.05421643,0.061391987,-0.10212765,-0.106154166,0.030382043,-0.015407134,0.045721456,0.063038014,-0.0731108,-0.0036837524}, {-0.040279415,0.011777485,-0.022349939,-0.047925092,-0.04044878,-0.03322899,0.050520916,0.0772917,0.05025486,-0.13718548,0.1285034,-0.14208728,0.15593915,0.1921598,0.16015983,-0.039352104,-0.011082329,-0.08540633,0.03958773,0.037042238,0.10484029,0.107916415,-0.08672116,0.014703174,0.121619515,0.1385558,0.04567339,0.0705249,-0.108819954,-0.06125402,0.06430703,-0.00034261885,-0.072216704,0.018949647,0.033066638,0.11000035,0.05718876,0.02205873,0.18619968,-0.10690414,0.09579038,-0.049172625,0.13341367,0.09213297,-0.1271429,0.030849544,0.036466815,0.09824571,-0.1916984,0.09515588,-0.04127268,-0.05446905,0.15850013,0.003529746,0.07177789,0.09449021,0.06798569,-0.09099089,-0.16481787,0.0015415935,-0.007921547,0.026905065,-0.07835191,0.038969588,0.07789733,-0.023223916,0.063130535,0.034183964,0.16634569,-0.028165363,0.095841214,0.06000643,-0.061358817,-0.08903775,-0.026291719,-0.027550457,0.17535217,-0.032545432,0.11329188,0.028400274,-0.025142116,0.10320654,0.089929536,0.05729156,-0.07901284,-0.026269298,-0.084062,-0.025663346,0.074415006,0.009014903,-0.12667874,-0.1484922,-0.13058546,0.04323022,-0.07280878,0.091496944,0.08176416,-0.07376703,-0.063115515,-0.045158118,-0.079882376,0.047884572,0.035160474,-0.048474014,0.02755552,-0.056066614,0.22699392,-0.07114041,0.030947383,0.06162436,0.124808386,-0.122299455,-0.112475835,-0.09160918,-0.09292187,-0.03885135,-0.100802496,-0.044938236,0.005852,0.14986522,-0.07558854,-0.047515176,0.0071146316,-0.07804459,-0.11796969,0.06709731,0.10972235,-0.0034082448}, {-0.05486112,0.015821438,-0.032695312,-0.07335937,0.02512408,-0.09980893,-0.089302845,0.21640018,-0.080239594,-0.15006448,0.13456959,-0.035022307,0.041990068,0.18579935,0.09691049,0.0629608,0.030435445,-0.010374075,0.009808678,-0.06748472,0.060420297,0.02868975,0.022099273,-0.07955287,-0.049528774,0.08198271,0.07464315,0.02626038,-0.025049048,-0.094437376,-0.109597825,-0.1009305,0.06896454,-0.016682439,0.058674667,-0.040670875,-0.07838076,0.011404495,0.20854756,-0.12241928,0.2987524,-0.081620775,0.04023756,-0.032915015,0.09980385,0.11842157,-0.08040842,0.05406103,-0.20225304,-0.017329937,-0.04459246,-0.08980828,0.038394645,0.06580739,-0.0022305916,0.07530352,0.0050147977,-0.13585538,-0.101849996,0.040874127,0.14061666,0.06813521,-0.08379204,-0.06298627,0.12692969,-0.05812883,0.01997696,0.03374092,0.095336944,0.1021045,0.09986609,0.08609457,-0.088931456,0.004967781,-0.08749696,0.008204691,0.16532966,-0.037833564,0.12596239,-0.11258252,-0.030509118,0.1545001,0.10290663,-0.07820931,-0.094474465,0.027492907,-0.05349349,-0.023198418,0.117058605,-0.015156721,-0.12935236,0.006013418,-0.10319953,0.013394811,0.030478349,0.08887249,-0.07764853,0.09776441,0.11697317,0.04693476,0.06029015,0.049226087,0.12178952,0.09526215,-0.10334347,0.15018679,0.04160082,-0.08782403,0.15750359,0.07201694,-0.0010946831,-0.12414842,-0.07074337,0.03995683,0.007310305,0.10533255,0.011057646,0.06580568,-0.073328935,0.1537346,-4.4003536e-05,0.05068269,-0.027596252,-0.09438707,-0.020451551,0.029172376,-0.019825287,-0.031662248}, {-0.12452527,0.060530867,-0.06930261,-0.027427737,0.23204911,-0.0040548686,-0.022421733,0.1706622,0.04458578,0.10855722,-0.07007814,0.0874633,-0.09213634,0.07468716,-0.08288364,-0.0009962502,0.10131159,-0.018113758,-0.085968725,0.040398248,0.06501979,-0.0068973415,-0.14650138,-0.029517604,-0.14275639,-0.06149703,-0.07488549,-0.01417689,0.26684085,-0.08264522,-0.17539634,0.042548195,0.08596138,0.075275615,-0.11610091,-0.029511796,0.030967329,0.12833199,0.13452223,-0.10828261,0.12976317,-0.029836737,-0.11756991,-0.008824697,-0.023547497,0.13122864,0.009025678,-0.04592244,-0.1900051,-0.042617768,-0.13375825,-0.029928586,-0.020013029,0.060291678,0.024200186,-0.021003563,0.03965428,-0.1482245,-0.15816367,-0.1504664,0.1672948,0.10375496,-0.08748036,-0.0561298,0.19160725,0.083776705,0.0044374485,0.09608321,0.029055158,0.062991954,-0.048628885,-0.033568326,-0.27581763,0.10940719,-0.09207425,-0.122106604,0.09235495,-0.14636946,0.0842611,-0.07744476,-0.059518144,0.051086854,0.018480476,-0.06643188,0.04048981,-0.10663829,-0.1459529,0.13722755,0.16286321,-0.004448008,-0.019689467,-0.13522255,-0.062275313,-0.006326958,-0.10180688,-0.019775828,-0.0199783,0.14925186,0.076823734,0.034264084,-0.13532972,0.066860564,0.26187387,0.07372836,-0.16833231,0.03719369,0.025919642,-0.046409085,0.075503096,-0.009226012,0.14017287,-0.0793372,-0.034287695,0.11655844,0.052330684,-0.0895363,-0.014474764,0.18298317,-0.0112677105,0.093259156,-0.0063553173,0.13692066,0.0018082757,-0.13313732,-0.032658596,0.18424618,0.08714238,0.04828125}, {-0.142848,0.0030422288,-0.09007949,-0.078075506,0.17162451,0.06789232,-0.12910256,0.100789174,-0.10020388,0.052862752,-0.2160625,0.13729192,-0.029975817,-0.036026448,0.018125333,0.1358296,0.1882479,-0.0359401,0.15046866,0.06610254,-0.04965435,0.004464396,-0.21788505,0.06415676,-0.21085879,-0.09166366,-0.035363697,0.13933143,0.014261579,0.029707393,-0.07027013,0.03671976,0.08991506,-0.19841821,-0.0678812,0.1256732,-0.0052626766,0.061446834,0.13042462,-0.10471349,0.0062463265,-0.09105466,-0.09233617,0.0844677,-0.08535208,0.07869851,-0.035130586,0.1173859,-0.21316715,-0.07281156,-0.07427055,-0.1405569,-0.052600045,-0.03934834,-0.011552332,0.018153436,-0.084612645,-0.117290504,-0.1930404,-0.098844066,0.07109116,0.08316989,-0.015344288,0.062482182,0.06308228,0.050588515,-0.12777208,-0.06477069,0.08396162,0.25903684,-0.117261074,0.11676188,-0.26397878,0.21503668,0.04101146,-0.2067305,-0.028372908,-0.02884646,0.11976952,-0.008920305,-0.035593707,-0.0058731143,-0.055816576,0.09669897,-0.022210792,0.03298332,-0.07211807,0.042991288,-0.06143867,0.1743928,0.021466788,-0.056479216,-0.16758716,-0.04814047,-0.062134497,-0.038049575,0.04365367,0.1496394,0.09134191,0.036235902,-0.08312824,0.0759705,0.17695478,-0.0029783552,-0.2043334,0.013909003,-0.13650279,0.059264768,0.16102552,-0.016326167,0.08621673,-0.15346761,-0.05863283,0.19321029,-0.0477895,-0.065333545,-0.07050138,0.16318512,0.017497195,0.10925896,-0.0071005207,0.11763896,-0.06418048,-0.16979727,-0.18582484,0.05843788,0.03612686,0.03985043}, {-0.16700873,0.13700567,-0.15242873,-0.044794627,0.023767466,0.040649567,-0.14676356,0.1307631,0.012362714,-0.026261132,-0.27672637,0.17045088,-0.13790318,-0.23853265,0.08790401,0.11005084,0.06524568,0.010464783,-0.018412836,0.05907248,-0.043395065,-0.11296649,-0.17621979,0.07882893,-0.010323986,-0.20757557,-0.098050535,0.05952048,-0.0013202666,-0.016931843,0.013032324,-0.13839915,-0.07197494,-0.25263566,-0.004928715,0.07634124,-0.13282327,-0.06367249,0.031084215,-0.14588925,-0.043308992,-0.05438037,-0.18663728,-0.03130338,-0.07999722,-0.014018885,-0.07612532,0.0820645,-0.22476035,-0.04557431,-0.16897254,-0.10958435,-0.17095628,-0.09488559,0.10130457,-0.034995507,0.02378779,-0.03141145,-0.119485185,0.04258342,-0.17477058,0.12004995,0.041193273,-0.050427053,0.10729708,-0.020122001,-0.0671432,-0.07103605,0.025787665,0.14332697,-0.018687854,0.11233186,-0.26167437,0.22130868,-0.022235895,-0.22872457,-0.122336335,-0.045467865,0.030068573,-0.23120952,-0.16397385,0.019871619,-0.17241746,-0.06344882,-0.079406075,-0.005625592,0.031316936,0.060071252,-0.1722159,0.18395735,0.0040931995,-0.10137888,0.08909629,-0.09016217,-0.059222374,-0.05712429,-0.0045455834,0.07278448,-0.0021067164,0.100626625,-0.1882436,0.03804768,0.07550453,-0.06354602,-0.045723617,0.06371943,-0.055304326,-0.09364119,0.08946222,-0.055066776,-0.01755721,-0.15057822,-0.09523198,0.14914498,0.09266738,-0.17505711,0.115124986,0.09191969,0.024778714,0.08822781,-0.0005271545,-0.010300348,0.042069804,-0.10456483,0.020682834,0.064491935,-0.14168788,0.09156209}, {-0.22546943,0.005879596,-0.100558214,-0.13140738,0.12184176,0.11743786,-0.06910149,-0.11011859,-0.14876573,0.03723785,-0.081931956,0.11948146,-0.08801734,-0.07382197,0.0049933987,-0.03791372,0.15302695,0.017808145,-0.17552708,0.025586916,-0.06825468,-0.014628359,-0.25778893,-0.007679032,-0.013864163,-0.119352214,0.089922145,-0.05303849,0.009439628,0.084950946,0.079746656,0.05521269,-0.12100754,-0.17749093,-0.013780013,0.08783811,-0.00014846626,-0.0394161,0.11575647,-0.10935771,0.061415024,-0.018588863,-0.15161966,0.0877456,0.084598854,-0.10663677,0.008492228,0.08354277,-0.12398804,-0.022988457,-0.01918029,-0.17076603,-0.08162877,0.049449228,0.027812699,-0.043511696,0.010087073,0.046669688,-0.26542675,-0.07804485,-0.15440415,0.07190378,-0.045499988,-0.01580365,0.0034255064,0.17275693,-0.12734388,-0.025102219,-0.06175288,-0.060875386,-0.16669069,0.089850426,0.0064695105,0.047397833,0.05442292,-0.09596593,-0.17384697,0.004416181,-0.12074778,-0.1796818,-0.04367329,-0.0843789,-0.21242535,-0.049521636,-0.010506491,-0.008814158,-0.11596545,0.07893285,-0.13978603,-0.09235454,0.0933186,-0.14571251,0.08590394,0.1382987,0.062237512,-0.031217104,-0.031481806,0.02458329,0.15462968,0.07070545,-0.15799023,-0.11291372,0.058777705,-0.06802066,0.079274066,0.027669564,-0.10948247,-0.06197541,-0.03231191,0.1320866,-0.07015777,0.060797002,-0.18056981,-0.012272171,0.05447335,-0.18018174,0.18795744,0.1235876,-0.017643664,-0.12918082,-0.06843538,0.031782635,0.23733306,-0.14251414,0.030560493,0.09473855,-0.16175357,-0.009734299}, {-0.101910144,0.036565028,0.009576528,-0.18703431,0.1265363,0.1388391,-0.05578723,-0.008118792,-0.08150124,-0.04032653,-0.043396544,0.12017854,-0.19402298,-0.1176578,0.039360892,0.021742342,0.08395373,0.08548916,-0.17405707,-0.07060604,0.13388297,0.060227744,-0.25214255,-0.032965496,0.042843312,0.0070968405,-0.027157983,-0.20214325,0.13643983,0.06237545,-0.008677753,0.0058946298,-0.064679205,-0.13700916,0.040693738,-0.10991599,0.072153784,-0.018553345,0.035779327,0.11792921,0.04407987,-0.13073276,-0.03993202,0.096210144,0.061250824,-0.11726385,0.028651666,0.20660438,-0.26119834,-0.024474142,-0.10094046,-0.106871895,0.016132796,-0.1022706,-0.06944384,-0.11596654,-0.045081843,-0.09292954,-0.0551509,-0.055570487,-0.27873966,-0.030839264,-0.010613416,-0.072462246,-0.108133845,-0.041536346,-0.181595,0.01941741,0.016425248,-0.23678643,-0.16175687,0.061988596,0.029279511,-0.112121865,0.008183963,-0.09374636,-0.17368974,-0.16993737,0.04221721,-0.06273181,-0.13158755,0.03819256,-0.14633481,-0.053765453,0.013460791,-0.08380463,-0.02550726,0.16996703,-0.1329355,0.01027743,0.0869612,0.01571432,0.18114421,0.07388164,-0.07355282,-0.0051846304,0.054389548,-0.0020413545,0.029452827,-0.04995624,0.024470521,-0.15444742,-0.008679988,-0.12487789,0.06533436,-0.034367494,0.02882283,0.04831657,0.1206941,0.053180713,-0.12950768,0.17978151,-0.1988236,-0.10395334,0.12900192,-0.12688701,0.16472472,0.0046748146,-0.08624775,-0.0536861,-0.053205796,-0.19023575,0.15724075,-0.008590007,0.062632196,-0.05139581,-0.09583358,0.11018774}, {-0.14827555,-0.17032318,-0.037442368,0.013956688,0.10522797,0.11276568,-0.07914538,-0.14162274,-0.15966496,0.1305106,-0.18178906,-0.044675224,-0.13275118,-0.15228695,-0.1289853,-0.14791684,-0.047684103,0.19369242,-0.027296642,-0.0026941586,0.09442907,-0.011921736,-0.14300938,0.06324059,0.0021625296,0.089297846,0.11485286,-0.20915122,0.07530066,0.06578049,0.03989567,0.04762904,-0.19090173,-0.1687726,0.008306346,-0.0110706575,0.0014179449,-0.06114882,-0.04260349,0.012785509,0.08565269,-0.09406234,0.058353387,-0.02196522,-0.11755558,-0.20164439,0.05403392,0.21385883,-0.14050618,0.020543426,0.045485593,-0.1730549,-0.07559651,-0.053427868,-0.112078674,-0.13475674,0.16863626,-0.08508749,-0.21257152,-0.0526407,-0.26223817,0.005285297,0.025157193,-0.10784222,0.028882623,0.042815216,-0.1047872,-0.06517506,-0.057103556,-0.22501679,-0.15298916,-0.17243047,0.022409504,-0.0631561,0.14955154,0.05002306,-0.18218745,-0.23556614,0.08092863,0.053421214,0.05096306,0.11268932,-0.17104529,0.062446844,-0.11494131,-0.06302407,-0.012337377,-0.00646422,0.016332645,0.00024681518,-0.07562038,-0.16107455,0.16169815,0.11116452,0.04028801,-0.15113425,-0.01851422,-0.017482044,0.2192959,-0.04686974,0.07469377,0.02550886,-0.0050107525,-0.08440201,-0.07275001,-0.1086612,0.078707434,-0.0073605212,-0.04737615,0.006414112,-0.1371065,0.06062457,-0.26590082,-0.07476372,0.09390328,0.06118621,-0.01498791,-0.039983314,-0.038176302,0.0672618,-0.1174705,-0.18886195,0.23329729,-0.1284044,0.16980948,0.083400555,-0.024952313,0.054815326}, {0.014221413,-0.2152777,-0.07376201,-0.1825805,0.11221579,-0.052908886,0.072084144,-0.15937495,-0.11198694,-0.035981454,-0.07051524,-0.11808438,-0.15557277,0.021477742,-0.14445777,-0.14721416,-0.0024203302,0.08340829,-0.06973775,0.099511944,0.09841289,-0.041409094,0.04337314,-0.10551061,0.022817766,0.2137624,0.03911128,-0.22633506,-0.018320128,-0.078665674,-0.09813751,0.004294795,0.06744478,0.013499518,0.018584471,0.10065592,-0.038379997,-0.11419062,-0.074241474,0.13342059,0.033258483,-0.034702636,-0.0809529,-0.052259754,-0.071969636,-0.27411866,-0.07546936,0.21529628,0.007707562,-0.06197915,0.020228649,-0.21419053,-0.156144,0.015647177,-0.07226056,0.008242127,0.13221939,-0.14736632,-0.11339967,-0.07026723,-0.22269987,0.0400254,-0.089141764,0.06051188,0.021020588,-0.16054374,0.078950256,-0.1506001,0.09724897,-0.12682933,-0.24873297,-0.09223749,0.0284972,-0.13396327,-0.096430756,0.01612086,-0.047872424,-0.1378162,-0.002960871,0.121257365,-0.0132492585,0.23056085,0.017663399,-0.047183488,-0.0009455157,-0.029582398,-0.021271298,-0.06954422,-0.03345353,-0.081297494,0.09795096,-0.0673601,0.14158027,0.08582797,0.061414957,0.0025877608,-0.1215473,-0.070172675,0.20038919,-0.12093212,-0.048969083,-0.012638088,-0.02142723,-0.014109416,0.029534357,-0.023962807,-0.01884811,0.100794844,-0.05051273,-0.13061935,-0.11722971,-0.12190378,-0.2757184,-0.0104391,-0.03302418,0.05484188,-0.18418197,0.019067608,-0.06220145,0.05148109,-0.099360935,-0.09763993,0.13350245,-0.112389214,0.10760252,0.13859074,0.15039557,0.111832514}, {0.011024648,-0.15097934,-0.1085787,-0.05850964,0.083733685,0.01930286,0.033069327,0.10461333,-0.1425646,0.052745447,-0.017179037,-0.11027507,0.001447313,0.008418762,-0.12867935,-0.02454448,-0.070802614,-0.0160537,-0.14312348,0.0899353,0.08985082,-0.11393667,0.0798133,0.073159814,0.023941647,0.15602921,-0.004388236,-0.19331205,0.027758162,0.027661474,-0.11541214,-0.06646386,0.11979394,0.06842688,0.049327202,-0.025020525,-0.12171376,-0.14170758,-0.10496076,-0.079585284,0.022555126,-0.0894651,0.016984224,0.049355894,-0.19006748,-0.17611195,-0.11270188,0.13403961,-0.04311057,0.16655606,0.061081044,-0.10477695,-0.17565575,0.033220347,-0.03188094,-0.02460468,0.032201957,-0.15242994,-0.026790984,0.038303524,-0.13449438,0.00530822,0.0063295714,-0.0996384,0.062376477,-0.014608209,-0.0042968513,0.06659178,0.0575226,-0.13912855,-0.1412472,-0.013498571,-0.03848816,-0.14321749,-0.12108713,-0.049201522,-0.061819073,-0.26346993,0.048086736,-0.08856357,-0.037511844,0.0837144,-0.14690463,-0.14872622,-0.05077262,-0.047880124,-0.15472281,-0.08348852,-0.11845817,-0.013850819,-0.06897865,-0.25927535,0.088728875,-0.03912608,-0.06664924,0.11221415,-0.14112222,0.032049775,0.20662239,-0.20813915,0.025752971,-0.07912559,0.015685067,0.029736625,0.051239815,-0.1617301,-0.20101249,-0.076155566,0.0018140142,-0.013216538,-0.05614127,0.03417046,-0.14706536,-0.026462365,0.086535424,0.15121849,-0.28787142,-0.0020140207,-0.11476053,0.014206231,-0.059120465,-0.06795217,-0.07988666,-0.20485313,0.023841575,0.10855612,-0.04981689,-0.050438553}, {-0.12712206,-0.0071713408,-0.012604641,-0.0069347518,-0.017742999,-0.0744248,0.11115545,0.03765996,-0.16620466,-0.06629586,-0.087459624,-0.03662617,-0.059442155,0.047818698,-0.0550357,-0.038499758,-0.01856633,0.061863642,-0.1623263,-0.00056234375,0.11089892,0.022390215,-0.025946427,-0.03727527,-0.05695985,0.1300739,-0.01688844,0.010347382,-0.06518748,-0.13312544,-0.15486735,-0.10240238,0.06756006,0.12409131,0.006236589,-0.03368756,-0.018105755,-0.08252418,0.030094448,-0.016037412,-0.014847679,-0.13621597,-0.09938904,-0.048395026,-0.19341394,-0.03494227,-0.18045688,0.024871657,0.004255268,0.12379282,0.10757502,-0.08857424,-0.036094468,0.068481475,-0.09458156,-0.022139693,-0.049904216,-0.093612514,-0.034525067,-0.13936539,-0.052527383,0.008153625,0.039884813,0.0051357313,-0.03382552,-0.02210223,0.044006184,0.046422437,-0.03091584,-0.10989079,-0.12714477,-0.092260666,-0.06428059,0.05356049,-0.12778853,-0.078028075,-0.11629878,-0.24294193,0.021561647,0.0017020392,0.03837165,0.01794388,-0.07660542,-0.12698391,-0.06505025,0.08971508,-0.0006678028,0.013319317,0.032080624,0.019484732,0.0018641392,-0.20059672,0.00525672,-0.14216675,-0.119507276,0.16790247,-0.1264422,0.03448041,0.1318937,-0.1359956,0.045978855,-0.028788328,-0.08588685,0.10360146,-0.10624459,-0.113123626,-0.06976484,-0.11446853,0.10205342,-0.074347444,-0.043783877,-0.081094876,0.0042776577,0.11035561,0.056484956,-0.04396216,-0.17635852,-0.08933905,-0.09633387,-0.03386596,-0.0007194831,-0.016368983,-0.040793307,-0.09256163,0.04396393,0.043475207,0.044381022,-0.07096432}, {-0.11446614,0.11498531,0.0077200956,0.0050443686,0.0007879545,-0.09500991,-0.010859655,0.13294815,-0.1384752,0.016519928,0.0019999968,-0.06016604,0.07286463,-0.003905393,-0.1140835,0.042873368,-0.023314487,-0.082830936,-0.07507569,0.006324848,-0.041784402,0.008040151,0.044578023,0.079921275,0.08278108,0.12458503,0.07095919,-0.006305968,-0.08010904,-0.121937305,-0.018788459,0.04113658,0.11621626,0.07672614,0.023185143,-0.074817345,0.03812307,-0.08319849,0.041744094,-0.0081896,0.07258423,-0.033733603,0.029646127,0.050467025,-0.045219123,0.047862105,-0.036966298,0.074180186,0.05276259,0.11419017,0.051079128,-0.03350865,0.08130946,0.0060468432,0.018035455,0.08818269,-0.1412012,-0.105218396,-0.022300584,-0.05339841,-0.07851913,0.0071020196,-0.051610496,-0.12059043,0.112432696,-0.05822896,0.031903025,0.049294088,0.05507091,0.05308327,-0.11659277,-0.092860006,0.071157955,0.026110735,-0.094010584,-0.042439144,-0.053517044,-0.1377059,-0.036725644,-0.044701252,-0.13693905,-0.015820473,-0.11254047,0.04164693,-0.08782766,-0.018627679,-0.04214239,0.14683188,-0.028922793,-0.0738355,-0.104554854,-0.16895646,0.0056487033,-0.07879323,-0.08928201,0.19298911,-0.07887976,0.015428756,0.10200015,-0.06687824,-0.0843659,0.059782024,-0.05809864,0.024157595,0.0077354824,0.032918844,0.07268175,-0.0678891,0.06330084,-0.12006207,-0.010667174,-0.030264894,0.07208255,-0.033475243,-0.058762528,0.0018403513,-0.03379826,-0.043620475,0.004887878,-0.047006506,-0.008018538,0.06876628,-0.10287598,-0.051223684,0.09889488,0.12968719,-0.16566415,0.1250647}, {-0.005893351,0.119997844,-0.12305513,-0.07502694,-0.06597031,-0.12459988,0.024058329,0.06339792,-0.004601771,0.07032921,-0.10315577,-0.09274765,0.006730413,0.030784082,0.060694695,0.0035663336,0.08664855,-0.09123887,0.02428501,0.07056984,-0.12538186,0.09678004,0.01784315,-0.061624896,-0.12196047,0.07085106,-0.061256357,0.12917046,-0.047921505,-0.0617661,-0.097977586,-0.113615714,0.15065445,-0.008660615,0.14662406,0.07330979,-0.04019624,0.040154077,-0.009859796,0.02823741,0.10813408,0.0067316256,-0.12482245,-0.071882404,-0.0747559,-0.071193546,-0.019310944,-0.05765055,-0.056516934,-0.040450506,-0.046435032,0.034933973,0.07196743,0.02331031,-0.11271829,-0.0028176724,-0.13909616,-0.15390703,-0.07855955,-0.11839131,-0.095313765,0.10217952,0.024908066,0.02967461,-0.004223529,0.1158971,-0.053607002,-0.07801765,0.060230363,0.1467532,-0.07424971,-0.082394935,-0.09455672,-0.036553472,0.009599453,0.0071951714,0.020455254,-0.11689076,-0.15559033,-0.028919278,-0.061504677,0.17659433,-0.019421672,-0.038709454,-0.102490634,-0.0027126863,-0.022327079,-0.058313638,0.019450413,-0.07083141,-0.049479272,-0.0025208786,-0.11642809,-0.06753088,-0.1737317,0.17834368,-0.048602052,0.056004845,0.053766456,0.101213746,-0.0046232548,-0.14322206,-0.082684875,0.007859158,-0.021625385,-0.10389984,0.13559788,-0.019302083,0.10832323,-0.10421924,-0.0151662445,-0.036501355,0.09131675,0.0015656002,0.020398047,0.047202565,-0.15137872,-0.051679,0.010817366,0.10210716,0.05562786,0.0110813975,-0.018312167,-0.12269488,0.09227906,-0.020458255,-0.028191779,0.06966986}, {-0.03771628,0.0805545,0.07065939,-0.031664133,0.0740718,-0.15062734,-0.053137135,-0.033781707,0.02122255,-0.06647529,-0.049728632,0.0052767983,0.1515268,0.0106144305,0.11100529,0.00012748409,0.112621844,0.016600573,0.04712983,-0.06291404,-0.13694336,0.101227514,-0.090981536,0.0799854,-0.06881125,0.15502462,0.07652025,0.025994672,-0.019750655,0.06901604,0.040763874,-0.024948083,-0.04179736,-0.035616346,0.13729534,-0.020641465,-0.042544287,0.07582459,-0.0432569,0.07967589,0.0631646,0.20438024,0.106286,-0.09401448,0.043578845,0.11002681,-0.112028904,0.058414385,0.040851086,0.10510334,0.05800935,0.008367828,-0.038587004,0.08239057,0.028432427,0.0891056,-0.07572185,-0.14211927,-0.008389744,0.02699635,0.010451939,0.09385027,-0.10054665,0.0053604986,0.090280026,0.07327594,-0.17049254,-0.07898526,-0.09751706,-0.04657266,0.03377258,-0.07425743,-0.06899231,0.0067548873,-0.06834269,0.081302024,0.083162464,-0.0039647217,-0.09059123,-0.039290607,-0.03148614,0.13538851,0.09177761,0.033120923,-0.0061115786,0.07165211,0.065449335,-0.038812935,-0.018606197,0.017550258,0.009193701,0.077828944,-0.079788856,-0.010502835,-0.110429674,-0.02046591,-0.057761442,-0.10117163,0.0883036,0.0066597746,0.053088203,0.0007457989,-0.10699146,-0.0008422424,-0.13038822,0.026077405,0.06805083,-0.027845666,-0.04351353,-0.03995077,-0.08783228,0.06343786,0.01258571,0.03049661,-0.049425244,-0.014420308,-0.059010062,-0.005948627,-0.03355366,-0.092225224,0.00538053,0.08133116,-0.06331281,0.0009948304,-0.0620103,0.04250883,-0.1528453,-0.057974525}, {0.039588645,0.07668854,-0.051162194,0.03947276,-0.048598807,0.021511732,-0.022619754,0.026893698,-0.0013562499,-0.024353903,0.101671584,0.014243173,0.0809797,-0.06557574,0.09590049,0.06170803,0.11561009,0.05650536,-0.020764282,-0.043076985,-0.042175014,0.021560755,-0.057830717,-0.031328946,-0.07922895,0.05446258,0.100238375,-0.0071085556,-0.038331583,-0.049006555,-0.016597388,-0.08561839,0.10087966,0.029102465,-0.025473261,0.08464121,0.11031154,-0.028966922,-0.09281772,-0.04430065,0.03323621,0.04557946,0.10329626,-0.043477368,-0.0373636,0.019447748,0.018883785,-0.007372308,0.0022899695,0.10121259,0.011145284,-0.024671474,0.021239737,-0.00885158,0.05657332,0.15768887,-0.032553315,-0.1082582,-0.018257162,0.08349307,0.1052308,-0.037025627,-0.040635083,0.050903194,-0.059970398,0.029691355,-0.14477704,-0.06240741,-0.1378171,0.02107094,0.041116897,0.015884558,-0.092128865,-0.013023343,-0.054571114,0.024652278,0.13558139,0.019237045,-0.13679805,-0.17104998,-0.065053485,0.057726335,0.104276925,0.034055132,-0.035304047,0.018595321,-0.11106247,0.0364473,-0.0030212125,-0.11497598,-0.0012387186,0.010832572,-0.07919491,0.08128193,-0.13326,-0.026832715,-0.004703229,0.059949502,0.020857321,0.093651995,0.08274862,-0.057114348,0.06548005,-0.014591549,-0.02406328,-0.1042441,0.024006702,0.0067892848,-0.07835423,-0.07368275,-0.10174405,0.0011212454,-0.06547531,0.13688758,-0.029166155,0.06295833,-0.007914389,0.05265399,-0.09015976,-0.05548421,0.0526407,-0.011657824,-0.08500097,0.050173767,0.041077547,0.047431264,-0.09650762,-0.07665549}, {0.048014604,-0.051647283,-0.13190092,-0.04478442,-0.070873365,-0.06517081,0.068023935,0.07167604,-0.14309546,-0.007828389,0.08135289,-0.034686543,0.03607616,-0.0083774235,0.032227043,0.15792282,0.05222958,-0.10798265,0.00631912,-0.14313412,0.001621984,0.09101024,-0.06787838,-0.034661822,0.08871979,0.017627576,0.021514371,0.040523414,0.08927435,0.0673634,-0.037041493,-0.019015323,-0.13429055,-0.0014270953,0.11140744,0.11388805,-0.0127115445,-0.06374329,0.02585438,0.11679229,-0.041483294,0.015454925,0.0046950937,0.00641792,-0.035483,0.10463898,-0.037217043,-0.048638187,-0.121320784,0.12829375,0.11272882,0.07549164,-0.03811307,0.05718831,0.10906142,0.11603992,-0.090078756,0.07092905,-0.018587613,0.054848425,0.031273324,0.083733454,0.10565506,-0.06513277,0.016686449,-0.024300346,-0.08544124,-0.108636394,-0.03871367,-0.035421096,0.11127524,-0.002080488,-0.051565085,-0.09761579,0.06591583,-0.018061364,0.008036709,-0.019620301,-0.07634009,-0.12785263,-0.014797672,0.067764595,-0.02483913,-0.020420933,-0.051277727,0.035854235,0.04943768,-0.09706761,0.07158691,-0.116583675,-0.06857717,0.056755617,0.021685926,0.08128153,-0.06495438,0.048635304,-0.10547426,-0.097606994,0.1230223,0.14417,-0.040206928,-0.034510244,-0.08261007,0.0132749025,-0.06496959,-0.031137923,-0.023404764,-0.13341945,-0.022518864,0.013588395,0.015960515,0.044361215,0.016648289,0.10648662,0.093436815,0.014191379,-0.10207614,0.09753465,-0.016223283,0.0049770325,0.010372706,0.087928,-0.023216963,-0.069072686,0.109494165,-0.058930606,-0.0794385,0.040829103}, {0.11240689,0.052723847,0.0086541865,0.043295756,-0.05968759,-0.052646875,0.03736971,-0.034741685,-0.04967038,0.037022926,0.073616646,-0.06912516,-0.03285174,-0.057164304,0.08983937,0.029822247,-0.050641116,-0.13702302,0.07490024,-0.13558806,0.019095736,-0.052565545,-0.10181739,0.014439781,0.018292999,0.026607066,-0.022007769,-0.122899085,-0.018157734,0.0028745579,0.031154916,0.02782583,-0.018658174,-0.07206134,0.061181247,0.046457928,0.015480873,0.094331615,-0.017815286,-0.04286724,-0.029401524,-0.02702357,-0.0015665276,0.060262196,-0.12308924,0.06070308,-0.026091564,0.0798065,-0.13818146,-0.004950039,-0.0022343667,-0.07201458,-0.12562796,0.11040068,0.057729226,0.04658047,-0.13368963,0.028310018,0.10272885,-0.1148727,0.0025418948,0.067798,0.036339078,-0.100551836,-0.06483213,0.12883072,-0.07214069,-0.117068,-0.14032523,0.0076357536,0.1217012,-0.110974185,0.046453875,-0.11660471,0.047461677,0.08891986,0.06666847,0.072280444,0.08122306,0.033062726,0.062292203,0.11755135,0.10496804,-0.061893508,0.003803098,-0.15886395,-0.06835128,-0.089751475,0.08931438,-0.0033348561,0.06873283,0.16716348,0.031200778,0.07039359,0.037925992,0.10646066,-0.07315606,-0.08918281,-0.034425486,0.018106539,-0.097778775,0.061519988,0.039016828,0.04789288,-0.033737347,-0.07890107,0.097633705,-0.096627615,-0.09173758,-0.06180548,-0.11142379,-0.050512794,-0.021611188,0.0037959241,0.061208133,-0.0089455005,-0.11305436,-0.025827633,0.068516135,-0.042544775,-0.0923133,0.09051184,-0.023114648,0.07340476,-0.0064555174,-0.056835666,-0.11947304,-0.01940813}, {0.09525835,0.10003362,-0.051861744,-0.12187078,0.11336333,-0.04057467,-0.050839227,0.06288628,-0.110818796,0.004729863,0.08681804,-0.09560594,-0.037281495,0.051364206,-0.10125282,0.0075899544,0.113497674,0.020880692,0.0032821293,0.0051659686,-0.06421391,-0.13163395,0.09505554,0.023011317,-0.08396985,-0.08086001,0.036090784,-0.056432534,-0.07695694,-0.045276836,0.0054928414,-0.0880852,0.088335894,0.03327427,0.11492427,-0.059497047,0.069699734,0.046111032,-0.119847775,0.0052960794,-0.008547946,-0.033927917,-0.023979124,-0.066444695,-0.08513865,0.100537606,0.108036645,-0.07402876,0.023938796,-0.03027682,-0.060715154,0.09217579,-0.09465927,0.10666917,0.03849265,0.09975304,-0.07321162,0.052858323,0.08840081,0.051779136,-0.04671467,0.08987187,0.096319966,-0.022272334,0.008586363,0.12529115,-0.033639006,0.008038223,-0.046612784,-0.100201055,0.04420246,0.053442862,-0.040292624,-0.045668915,-0.023937447,0.053979564,0.049641393,-0.012749566,-0.005376835,0.055821035,-0.021084024,0.13320583,-0.03576853,0.075490244,-0.06760777,-0.060192477,-0.13115942,0.08046266,0.061595798,-0.06827534,-0.017133245,0.014011792,0.01435842,-0.02174823,-0.029152354,0.10337725,-0.09000329,0.042983755,0.036772236,0.06146132,0.036483765,-0.08068522,-0.06512184,0.11368918,-0.12131285,0.109154984,0.15059727,-0.08092208,-0.06353108,0.09120859,-0.12432171,0.14105886,-0.026220135,-0.038552,-0.013832681,0.08211743,0.065349475,0.036598805,-0.08556651,-0.025372457,0.03764047,0.05921456,-0.12126685,0.09668741,-0.02453613,0.06732218,-0.08399892,0.057859294}, {-0.07301122,0.018413182,0.011625877,0.06460739,0.10275923,0.06716566,-0.08059303,-0.062955625,-0.13497952,-0.124599054,0.078723304,0.041038323,-0.03382255,0.0063650813,0.04651363,-0.0426395,0.0012849252,-0.09492317,0.031314295,0.020563489,-0.03775691,-0.09665188,-0.012911605,0.0011736155,0.0030335286,-0.02229631,0.07102615,0.03260755,0.060626533,0.031624343,-0.03751953,-0.10846408,-0.0596682,0.06956514,-0.022170248,-0.11392468,-0.06569167,-0.06916266,-0.027408484,0.07632899,0.08792308,0.06295119,-0.053115338,0.1276815,-0.0141063705,-0.051235784,0.18325776,0.03128043,-0.024608938,-0.07462321,-0.07470423,0.0010152094,-0.10487423,-0.08531292,-0.07106278,0.035552934,0.012000464,0.008808358,-0.03475756,0.06829858,-0.058322158,0.03680535,-0.048059803,-0.047850173,0.049051795,-0.07194458,-0.096110135,0.005518487,-0.04084965,0.044663943,0.09961485,-0.0940613,0.053191144,-0.030634964,-0.09080369,0.0683444,0.07721929,-0.014399143,0.06282674,0.021691069,-0.08735954,-0.044951748,0.013216792,0.0035092004,-0.029234532,-0.12081674,-0.14167495,-0.028399616,-0.015686408,-0.1070301,0.07978337,-0.022052882,-0.14567779,-0.037029855,0.010967808,0.11388628,-0.09373238,-0.04930498,0.0766729,-0.082502395,-0.10277173,0.056407567,-0.030264707,0.058499,-0.055012938,0.079773635,-0.005776046,-0.12444293,-0.022975583,-0.06021551,0.018279027,0.09939568,-0.000905225,0.11306812,-0.043208946,-0.05626764,-0.0894495,0.05573966,0.102573395,-0.02736498,-0.10686107,-0.03703922,-0.1114157,-0.058405355,0.065027736,-0.10865359,-0.11150066,0.022442797}, {-0.0016304867,0.10907707,-0.00895204,0.035370264,0.023954283,-0.06124201,0.044404894,-0.036373615,-0.13578987,-0.15664686,-0.049950756,0.02392092,0.02568801,0.058331735,-0.11681036,-0.023650207,-0.04848245,-0.12997474,-0.115866624,0.018885296,0.020989962,-0.12862547,-0.026830161,-0.06453549,-0.03661749,-0.020169655,0.028109152,0.056267597,0.016827034,0.054415897,0.03171762,0.010105067,-0.06510371,0.06978937,0.10531955,0.06520102,-0.04880138,0.02878949,-0.03992227,0.04578508,-0.10372934,0.14072277,-0.023086436,0.12911296,-0.047952875,0.06599869,0.115902446,-0.060908202,-0.081141755,0.106163815,-0.10735026,0.10714375,-0.0037698678,0.08765291,0.060121566,-0.104392946,-0.06212977,0.0052584447,-0.01633215,-0.10250743,0.06377719,0.05269343,0.06774085,-0.07719142,0.11513975,0.0012807412,-0.09428359,-0.10462414,-0.100355394,0.0936398,-0.032818396,0.035079677,-0.08108437,0.040095646,0.04678011,0.02770755,0.05182302,0.10974394,-0.0636001,0.057570744,0.012404021,0.030758161,0.11454989,0.012186417,-0.046622206,-0.055206113,-0.13561323,-0.000870285,-0.08124611,-0.06960209,-0.025487,0.07709531,-0.14357808,-0.040976886,-0.06146265,0.123310246,0.05788541,0.065603696,0.020604104,-0.08870759,0.084976986,-0.0029109959,0.053166524,0.056612033,-0.07701279,0.014217804,0.07894821,0.014191958,0.05969882,0.07359924,-0.055427603,0.11801152,0.024040729,-0.0651476,-0.06531019,0.0045045875,0.06905926,0.12012545,-0.053096846,-0.08867109,-0.06361223,0.055139393,0.009148851,-0.07104304,-0.081761464,-0.044402156,0.028504815,0.04106192}};
